0 1 0.33333333331549286 
1 0 0.33333333331549286 
1 84 -0.5833333333354087 
1 959 -0.1666666666799932 
2 3 -0.3333333333826183 
2 4 -0.2142857143002519 
3 2 -0.3333333333826183 
3 60 -0.5993589743993339 
3 72 -0.35606060621288727 
3 76 -6.945688468817934e-11 
3 79 -0.27083333365221707 
3 115 -0.5000000000606057 
3 119 -0.5000000000606057 
3 401 -0.33333333340661175 
3 657 -1.9835688647162897e-11 
3 658 -1.9835688647162897e-11 
3 659 0.08333333332413406 
3 660 -0.33333333354703454 
4 2 -0.2142857143002519 
4 28 -0.35714285715102667 
4 117 -0.3571428571510269 
4 435 -0.6071428571464845 
4 660 -0.21428571461347823 
4 975 0.03571428457938719 
4 976 0.03571428457938708 
5 6 -4.816769205717719e-11 
5 7 0.249999999966397 
6 5 -4.816769205717719e-11 
6 7 -0.2500000003209992 
6 277 0.12499999998532463 
6 278 0.12499999998532452 
6 279 0.12499999998532452 
6 280 -0.43750000003346234 
6 281 0.1249999999853244 
6 282 0.12499999998532463 
7 5 0.249999999966397 
7 6 -0.2500000003209992 
7 52 -0.5000000000148281 
7 1011 0.24999999997759337 
8 9 0.19999999999175533 
9 8 0.19999999999175533 
9 46 -0.7117647059129566 
9 232 -0.48750000016065953 
9 329 -0.3000000000100629 
9 1105 -0.10000000000487619 
10 11 0.06249999998906497 
11 10 0.06249999998906497 
11 38 -0.7121710527455505 
11 114 -0.7946428571439808 
11 139 -0.4062500000029874 
11 211 -0.7471590909480677 
11 423 -0.4375000000049982 
11 479 0.06249999999065303 
11 520 -0.8465909090944421 
11 698 -0.7395833333880162 
11 821 0.06249999999065303 
11 834 -0.34375000002171485 
11 994 0.06249999999065314 
11 995 0.062499999990653254 
11 996 0.06249999999065303 
11 997 0.06249999999065292 
11 998 0.062499999990653254 
12 13 -0.6333333333364837 
12 14 -0.3000000000100629 
12 15 -0.6000000000038344 
12 16 -0.3000000000100629 
12 17 -0.7230769230784286 
13 12 -0.6333333333364837 
13 344 -0.6666666666694114 
13 497 0.16666666664825036 
13 677 -0.33333333334233695 
13 678 0.1666666666482508 
13 679 0.16666666664825058 
14 12 -0.3000000000100629 
14 732 0.49999999996157996 
15 12 -0.6000000000038344 
15 218 -0.5500000000301757 
15 663 -0.5000000003443872 
15 723 0.19999999997925055 
15 1005 0.19999999997925044 
16 12 -0.3000000000100629 
16 927 -1.6896040122560407e-11 
17 12 -0.7230769230784286 
17 39 -0.4935897436779353 
17 40 -0.5307692308067458 
17 41 -0.48076923083383716 
17 52 -0.6201923077362634 
17 161 -0.6730769230793046 
17 502 -0.7230769230788294 
17 795 0.07692307691495315 
17 820 -0.2403846158556524 
17 923 0.07692307691495337 
17 1015 -0.31730769246755797 
17 1038 0.07692307691495326 
17 1113 0.07692307691495315 
18 19 0.4999999997258183 
19 18 0.4999999997258183 
19 249 -0.2500000000086171 
20 21 -0.4166666666699128 
20 22 -1.6896040122560407e-11 
21 20 -0.4166666666699128 
21 46 -0.8284313725574364 
21 88 -0.7500000000023339 
21 534 0.0833333333241344 
21 592 0.08333333332413417 
21 593 -0.5833333333367088 
21 594 0.0833333333241344 
21 595 0.08333333332413406 
21 596 0.08333333332413417 
21 597 -0.583333333336709 
21 598 -0.4166666666724308 
21 599 0.0833333333241344 
22 20 -1.6896040122560407e-11 
22 627 -1.6896040122560407e-11 
23 24 0.41666666662901175 
23 25 -0.466666666672265 
23 26 -0.2500000000814979 
24 23 0.41666666662901175 
24 26 -4.816769205717719e-11 
25 23 -0.466666666672265 
25 469 0.24999999993888966 
25 470 0.26666666653894655 
25 777 -0.03333333337354305 
25 941 0.19999999997925044 
26 23 -0.2500000000814979 
26 24 -4.816769205717719e-11 
26 77 -0.3125000003433276 
26 229 -0.5446428576069211 
26 699 -0.25000000032936454 
26 729 0.1249999999853243 
26 807 -0.6750000000027012 
26 1060 0.12499999998532463 
27 28 0.49999999996157996 
28 4 -0.35714285715102667 
28 27 0.49999999996157996 
29 30 0.19999999999175533 
30 29 0.19999999999175533 
30 144 -0.550000000004718 
30 571 -0.32500000003264473 
30 572 -0.2000000002242286 
30 573 0.26666666653894655 
31 32 0.06249999998906497 
32 31 0.06249999998906497 
32 73 -0.4375000000049978 
32 148 -0.41875000005046137 
32 151 -0.45000000037399235 
32 163 -0.3500000008624997 
32 165 -0.18750000013759527 
32 166 -0.09375000000953237 
32 236 -0.3125000000180196 
32 393 -0.09375000000953215 
32 394 -0.41250000011956 
32 557 -0.3854166667553116 
32 760 -0.3437500000147191 
32 761 0.062499999990653254 
32 762 -0.09375000000953215 
32 763 0.06249999999065292 
32 764 0.062499999990653254 
33 34 0.12499999998815581 
34 33 0.12499999998815581 
34 72 -0.5227272735832169 
34 133 -0.6282894736910625 
34 178 -0.7840909091366344 
34 345 -0.4375000002124829 
34 429 -0.37500000000749534 
34 576 -0.37500000000749556 
34 577 -0.37500000000749556 
35 36 0.2619047617899213 
35 37 -0.21428571431284027 
35 38 -0.2556390978299117 
35 39 -0.3690476191528391 
35 40 -0.2642857143062596 
35 41 -0.1714285717226216 
35 42 -0.32467532524601483 
36 35 0.2619047617899213 
36 38 -0.2894736842414729 
36 42 -0.18181818183607823 
37 35 -0.21428571431284027 
37 40 -0.37500000022208724 
37 549 0.24999999997633615 
37 563 -0.4500000009753795 
38 11 -0.7121710527455505 
38 35 -0.2556390978299117 
38 36 -0.2894736842414729 
38 39 -0.3552631580102412 
38 40 -0.4894736848731178 
38 41 -0.3842105268011531 
38 200 -0.6447368422367692 
38 211 -0.61483253609753 
38 302 -0.49342105266241143 
38 506 0.05263157892664905 
38 532 0.052631578926648936 
38 544 0.052631578926648936 
38 571 -0.559210527073972 
38 602 -0.43421052637609425 
38 645 -0.3771929826629514 
38 681 -0.5300751883095942 
38 833 0.05263157892664927 
38 834 -0.3684210526489864 
38 835 -0.5368421053745438 
39 17 -0.4935897436779353 
39 35 -0.3690476191528391 
39 38 -0.3552631580102412 
39 72 -0.5719696974227562 
39 203 -0.3611111111920562 
39 355 -0.2840909091977246 
39 401 -0.3750000002010512 
39 602 -0.2708333333666997 
39 854 -0.5833333333684241 
39 887 -0.3333333335470343 
39 888 -0.25000000002638956 
39 889 0.0833333333241344 
40 17 -0.5307692308067458 
40 35 -0.2642857143062596 
40 37 -0.37500000022208724 
40 38 -0.4894736848731178 
40 200 -0.6750000001978986 
40 242 0.09999999998832121 
40 849 0.09999999998832099 
40 905 -0.5166666666754463 
40 984 0.09999999998832121 
40 1045 0.09999999998832132 
41 17 -0.48076923083383716 
41 35 -0.1714285717226216 
41 38 -0.3842105268011531 
41 42 -0.34545454583440804 
41 199 -0.4142857145645118 
41 646 -0.42500000004269145 
41 703 -0.6416666675670908 
41 820 -0.10000000006576126 
41 949 -2.0580204207476527e-11 
41 950 -0.15000000076186115 
42 35 -0.32467532524601483 
42 36 -0.18181818183607823 
42 41 -0.34545454583440804 
42 222 -0.6616161616519578 
42 290 -0.5303030309302632 
42 369 -0.6136363644480869 
42 413 -0.7636363637013674 
42 514 -0.40909090909697854 
42 583 -0.6590909096726254 
42 841 -0.40909090909697854 
42 950 -0.39772727273699915 
43 44 0.19999999999175533 
44 43 0.19999999999175533 
44 131 -0.6000000001042076 
44 551 -0.3000000000100629 
44 713 -0.3000000000100629 
44 1024 -0.10000000000487597 
45 46 -0.38235294128643127 
45 47 0.2666666666198647 
45 48 0.49999999973567477 
46 9 -0.7117647059129566 
46 21 -0.8284313725574364 
46 45 -0.38235294128643127 
46 47 -0.5235294119395968 
46 57 -0.57843137255378 
46 128 -0.44117647059311427 
46 340 0.058823529398017715 
46 356 -0.6911764705901684 
46 535 -0.6078431372574924 
46 536 0.05882352939801816 
46 537 0.05882352939801816 
46 538 -0.38235294118371144 
46 539 -0.44117647059311427 
46 540 -0.13235294155494648 
46 541 0.05882352939801805 
46 542 -0.7983193277321514 
46 543 -0.7323529412019787 
47 45 0.2666666666198647 
47 46 -0.5235294119395968 
47 48 0.2499999999388901 
47 703 -0.6333333334257996 
47 1043 -0.3000000000100631 
48 45 0.49999999973567477 
48 47 0.2499999999388901 
49 50 0.09999999998787024 
50 49 0.09999999998787024 
50 139 -0.3500000000183938 
50 192 -0.5909090909359063 
50 622 -0.4500000002664706 
50 696 -0.4500000000381963 
50 703 -0.6416666667183608 
50 706 -0.05000000056114362 
50 957 0.09999999998832099 
50 1029 0.09999999998832121 
50 1096 0.09999999998832132 
51 52 0.04166666662356733 
52 7 -0.5000000000148281 
52 17 -0.6201923077362634 
52 51 0.04166666662356733 
52 203 -0.46527777787506563 
52 280 -0.6250000000849902 
52 353 -0.4166666666718444 
52 355 -0.571969697119366 
52 363 -0.45833333333795534 
52 411 0.04166666662356744 
52 436 -0.7083333335710664 
52 505 0.04166666662356733 
52 516 0.04166666662356755 
52 565 -0.5416666666960617 
52 571 -0.5625000002481328 
52 602 -0.5208333333484338 
52 718 -0.7083333333347506 
52 902 -0.6250000000019342 
52 967 -0.4583333333379551 
52 991 0.04166666662356755 
52 1011 -0.16666666667080454 
52 1012 -0.45833333333795556 
52 1013 0.04166666662356744 
52 1014 0.04166666662356722 
52 1015 -0.43750000013577206 
53 54 0.19999999999175533 
54 53 0.19999999999175533 
54 235 0.19999999997925055 
54 809 -0.3000000000100629 
54 810 0.19999999997925055 
54 811 0.19999999997925044 
55 56 -0.1666666666779204 
55 57 -0.1666666666799932 
56 55 -0.1666666666779204 
56 189 -0.500000000004698 
56 254 -0.1666666666799932 
57 46 -0.57843137255378 
57 55 -0.1666666666799932 
57 89 -7.008615909853688e-12 
58 59 0.07692307691137545 
59 58 0.07692307691137545 
59 72 -0.7482517483272626 
59 86 -0.38461538490143354 
59 92 -0.6730769230793046 
59 211 -0.6328671330935889 
59 251 -0.3461538462659297 
59 390 -0.4230769230824445 
59 430 -0.42307692308244427 
59 626 -0.5897435897467722 
59 734 -0.6846153846163896 
59 824 0.07692307691495293 
59 825 0.07692307691495326 
59 826 -0.3846153849014331 
60 3 -0.5993589743993339 
60 61 -0.7846153846576605 
60 62 0.03846153841039923 
60 63 0.03846153841039923 
60 64 -0.46153846154316636 
60 65 0.03846153841039901 
60 66 -0.4615384615431668 
60 67 -0.17307692308125522 
60 68 -0.5897435897471743 
60 69 0.03846153841039901 
60 70 -0.4615384615431666 
60 71 -0.4615384615431668 
60 72 -0.6451048951568505 
60 73 -0.4615384615431668 
60 74 -0.4615384615431666 
60 75 -0.1538461538563216 
60 76 -0.19871794874153403 
60 77 -0.44230769231037614 
60 78 -0.4615384615431666 
60 79 -0.6153846155906888 
60 80 0.038461538410398566 
60 81 0.03846153841039923 
60 82 -0.615384615469357 
60 83 -0.8173076923132443 
60 84 -0.7596153846183302 
60 85 0.03846153841039901 
61 60 -0.7846153846576605 
61 222 -0.5388888889786385 
61 223 -0.5500000000161553 
61 224 -0.3750000001491547 
61 225 -0.4000000000064694 
61 226 -0.40000000000646896 
61 227 -0.3500000003138486 
61 228 -0.6000000000211378 
61 229 -0.5857142865542642 
61 230 0.09999999998832132 
62 60 0.03846153841039923 
63 60 0.03846153841039923 
64 60 -0.46153846154316636 
64 318 -1.6896040122560407e-11 
65 60 0.03846153841039901 
66 60 -0.4615384615431668 
66 718 -0.25000000001145284 
67 60 -0.17307692308125522 
67 84 -0.08333333376811725 
68 60 -0.5897435897471743 
68 778 0.3333333333055045 
68 779 -0.20000000003541807 
69 60 0.03846153841039901 
70 60 -0.4615384615431666 
70 343 -1.6896040122560407e-11 
71 60 -0.4615384615431668 
71 741 0.49999999996157996 
72 3 -0.35606060621288727 
72 34 -0.5227272735832169 
72 39 -0.5719696974227562 
72 59 -0.7482517483272626 
72 60 -0.6451048951568505 
72 75 -0.022727272745274973 
72 345 -0.5772727277273453 
72 396 -0.1818181818776896 
72 401 -0.13636363729822643 
72 657 0.022727272704225365 
72 1033 0.09090909089870935 
73 32 -0.4375000000049978 
73 60 -0.4615384615431668 
74 60 -0.4615384615431666 
74 200 -0.4500000000046549 
75 60 -0.1538461538563216 
75 72 -0.022727272745274973 
76 3 -6.945688468817934e-11 
76 60 -0.19871794874153403 
76 79 0.10416666663475138 
77 26 -0.3125000003433276 
77 60 -0.44230769231037614 
78 60 -0.4615384615431666 
78 162 0.49999999996157996 
79 3 -0.27083333365221707 
79 60 -0.6153846155906888 
79 76 0.10416666663475138 
79 287 -0.37500000000749556 
79 437 -0.6250000008549343 
79 643 -0.5982142857289718 
79 658 0.12499999996082511 
79 854 -0.47916666694644294 
80 60 0.038461538410398566 
81 60 0.03846153841039923 
82 60 -0.615384615469357 
82 285 -6.175726596779896e-11 
82 520 -0.5227272727383749 
82 779 -0.025000000108350573 
83 60 -0.8173076923132443 
83 232 -0.5625000002716889 
83 272 -0.37500000000749556 
83 398 -0.5772058829545164 
83 640 -0.3875000004815632 
83 791 0.1249999999853244 
83 793 -0.6250000000033309 
83 1105 -0.2500000000198557 
84 1 -0.5833333333354087 
84 60 -0.7596153846183302 
84 67 -0.08333333376811725 
84 520 -0.6098484849806503 
84 522 -0.0833333337681168 
84 922 0.08333333332413417 
84 1004 0.0833333333241344 
84 1022 -0.5833333333367086 
84 1056 0.08333333332413417 
84 1100 0.08333333332413417 
84 1104 0.08333333332413406 
84 1114 0.0833333333241344 
85 60 0.03846153841039901 
86 59 -0.38461538490143354 
86 87 -0.20000000000842366 
87 86 -0.20000000000842366 
87 681 -0.5857142858288891 
87 736 0.19999999997925055 
87 737 0.19999999997925055 
87 738 0.19999999997925044 
88 21 -0.7500000000023339 
88 89 -0.31250000034332714 
88 90 0.12499999998532463 
88 91 0.12499999998532452 
88 92 -0.6250000000033309 
88 93 -0.37500000000749534 
88 94 -0.6250000000033307 
88 95 -0.7083333333356194 
89 57 -7.008615909853688e-12 
89 88 -0.31250000034332714 
90 88 0.12499999998532463 
91 88 0.12499999998532452 
92 59 -0.6730769230793046 
92 88 -0.6250000000033309 
92 252 -0.2500000000114526 
92 1052 0.24999999997633604 
93 88 -0.37500000000749534 
93 351 -0.3571428571478479 
94 88 -0.6250000000033307 
94 410 0.24999999997633615 
94 545 -0.2500000000114524 
94 793 -0.5000000000056277 
95 88 -0.7083333333356194 
95 228 -0.5833333338871682 
95 400 -0.4375000000389977 
95 413 -0.683333333438825 
95 610 -0.4166666673137722 
95 937 -0.5000000000053608 
96 97 0.16666666665647933 
96 98 0.24999999997507738 
97 96 0.16666666665647933 
97 98 0.24999999994430366 
97 99 0.11111111106195126 
97 100 -0.638888888891969 
97 101 0.16666666654714712 
97 102 0.11111111106195115 
97 103 0.11111111109800775 
97 104 -0.5555555555596876 
97 105 -0.7083333333383783 
98 96 0.24999999997507738 
98 97 0.24999999994430366 
98 99 0.24999999941942908 
98 101 0.2499999993080697 
98 102 0.24999999941942908 
98 105 -0.6250000000530958 
99 97 0.11111111106195126 
99 98 0.24999999941942908 
99 102 0.6666666664807098 
100 97 -0.638888888891969 
100 179 -6.175748801240388e-11 
100 181 0.24999999997759303 
100 907 0.24999999997633604 
101 97 0.16666666654714712 
101 98 0.2499999993080697 
102 97 0.11111111106195115 
102 98 0.24999999941942908 
102 99 0.6666666664807098 
103 97 0.11111111109800775 
104 97 -0.5555555555596876 
104 948 0.3333333333055045 
104 1002 -0.41666666667351837 
105 97 -0.7083333333383783 
105 98 -0.6250000000530958 
105 129 -0.7375000000016141 
105 183 -0.6041666666693843 
105 375 -0.5267857145835233 
105 378 -0.14583333334857107 
105 379 -0.14583333334857107 
105 419 -0.7062500000275724 
105 528 0.06249999999065303 
105 747 -0.4375000000049982 
105 980 0.062499999990653254 
105 1027 -0.4062500000029874 
105 1085 0.062499999990653254 
105 1098 -0.4375000000049982 
105 1115 0.06249999999065292 
105 1117 0.062499999990653254 
106 107 0.055555555545317103 
107 106 0.055555555545317103 
107 138 -0.4444444444492277 
107 195 0.05555555553809888 
107 275 -0.36111111112979843 
107 413 -0.7166666667386692 
107 453 0.0555555555380991 
107 468 -0.3333333333833983 
107 682 0.05555555553809888 
107 683 -0.4444444444492277 
107 684 -0.4444444444492277 
107 685 0.05555555553809921 
107 686 0.05555555553809888 
107 687 0.055555555538098655 
107 688 0.05555555553809899 
107 689 0.0555555555380991 
107 690 0.05555555553809921 
107 691 -0.4444444444492275 
107 692 0.0555555555380991 
108 109 0.49999999972581843 
109 108 0.49999999972581843 
109 937 -0.1666666666799932 
110 111 -0.1875000000987379 
110 112 0.49999999995457634 
111 110 -0.1875000000987379 
111 209 -0.4107142862431954 
111 210 -0.2500000005767147 
111 265 -0.5833333333390818 
111 362 -0.5625000003753968 
111 449 -0.3750000000553435 
111 451 -9.347236318291152e-10 
111 1090 0.12499999998532463 
112 110 0.49999999995457634 
112 209 -0.14285714301661234 
113 114 -0.1984126985712602 
113 115 -0.11111111114030514 
113 116 -0.7777777777791979 
113 117 -0.38888888889270357 
113 118 0.083333333302131 
113 119 -0.11111111114030492 
113 120 0.11111111109800775 
113 121 0.11111111109800775 
113 122 0.11111111109800764 
114 11 -0.7946428571439808 
114 113 -0.1984126985712602 
114 115 -1.0362799507390719e-10 
114 118 0.17857142847963137 
114 119 -1.0362821711851211e-10 
114 207 0.14285714284071527 
114 208 0.14285714284071527 
115 3 -0.5000000000606057 
115 113 -0.11111111114030514 
115 114 -1.0362799507390719e-10 
116 113 -0.7777777777791979 
116 241 0.11111111109800764 
116 368 -0.5555555555596876 
116 454 -0.38888888889582685 
116 535 -0.5555555555586054 
116 608 -0.38888888889582685 
116 804 0.11111111109800775 
116 844 0.11111111109800775 
116 845 0.11111111109800764 
117 4 -0.3571428571510269 
117 113 -0.38888888889270357 
118 113 0.083333333302131 
118 114 0.17857142847963137 
119 3 -0.5000000000606057 
119 113 -0.11111111114030492 
119 114 -1.0362821711851211e-10 
120 113 0.11111111109800775 
121 113 0.11111111109800775 
122 113 0.11111111109800764 
123 124 0.16666666665872043 
124 123 0.16666666665872043 
124 499 -0.5000000003295679 
124 542 -0.6904761904786865 
124 662 -0.1666666669088006 
124 803 0.1666666666482508 
124 1032 0.16666666664825058 
125 126 0.24999999997190692 
125 127 -0.06250000065276984 
126 125 0.24999999997190692 
126 292 -0.4850000003189292 
126 341 -0.25000000008510437 
126 345 -0.10000000087837413 
127 125 -0.06250000065276984 
127 158 -0.5227272728317001 
127 267 -0.675000000052848 
127 292 -0.6950000000767267 
127 341 -0.5000000000392346 
127 717 0.1249999999853243 
127 753 -0.6750000000027012 
127 832 0.12499999998532463 
128 46 -0.44117647059311427 
128 129 -0.3000000000069756 
129 105 -0.7375000000016141 
129 128 -0.3000000000069756 
129 447 0.14999999842844036 
129 448 0.14999999842844036 
129 964 0.19999999997925044 
130 131 0.09999999998832143 
131 44 -0.6000000001042076 
131 130 0.09999999998832143 
131 174 -0.6125000000091967 
131 178 -0.8318181818197359 
131 417 -0.7071428573314988 
131 485 -0.4000000000064694 
131 619 -0.5666666666705105 
131 817 -0.4250000000426917 
131 892 -0.3000000002832446 
131 893 0.09999999998832132 
132 133 -0.1381578949457838 
132 134 -5.112221757030966e-11 
132 135 0.33333333328319403 
132 136 0.07499999993883455 
133 34 -0.6282894736910625 
133 132 -0.1381578949457838 
133 134 -0.44078947373759303 
133 135 -0.23684210541130302 
133 136 -0.23157894748311958 
133 158 -0.43301435441659897 
133 211 -0.6830143544860354 
133 232 -0.6019736842220262 
133 267 -0.747368421107689 
133 292 -0.64842105272208 
133 293 -0.5657894737046838 
133 345 -0.38684210563763055 
133 370 -0.5877192982499266 
133 496 0.05263157892664905 
133 543 -0.7184210526496702 
133 569 0.05263157892664916 
133 666 -0.7210526315945147 
133 750 0.05263157892664938 
133 751 -0.42982456159652127 
134 132 -5.112221757030966e-11 
134 133 -0.44078947373759303 
134 786 -0.45000000001769536 
134 870 0.24999999997633604 
135 132 0.33333333328319403 
135 133 -0.23684210541130302 
135 307 -0.16666666697394517 
136 132 0.07499999993883455 
136 133 -0.23157894748311958 
136 158 -0.4272727273394077 
136 307 -0.3142857151063976 
136 965 -0.36666666668347636 
137 138 0.49999999996157996 
138 107 -0.4444444444492277 
138 137 0.49999999996157996 
139 11 -0.4062500000029874 
139 50 -0.3500000000183938 
140 141 0.1111111110989933 
141 140 0.1111111110989933 
141 172 0.11111111109800764 
141 238 -0.5555555555596878 
141 348 -0.6666666667958376 
141 413 -0.7888888888901893 
141 670 0.11111111109800753 
141 671 -0.3333333336602715 
141 672 -0.38888888889582685 
141 673 0.11111111109800764 
142 143 0.33333333331549286 
143 142 0.33333333331549286 
143 372 -0.1666666666799932 
143 926 -0.1666666666799932 
144 30 -0.550000000004718 
144 145 0.24999999997633615 
144 146 -0.2500000000114526 
144 147 -0.5500000000046015 
145 144 0.24999999997633615 
146 144 -0.2500000000114526 
146 331 -0.2500000000086171 
147 144 -0.5500000000046015 
147 526 -0.6000000000038337 
147 614 -0.6333333333364839 
147 785 -0.3000000000100629 
147 1109 0.19999999997925044 
148 32 -0.41875000005046137 
148 149 -0.1818181821060092 
148 150 -0.14285714326601617 
148 151 0.2999999999680799 
148 152 0.06666666384283804 
149 148 -0.1818181821060092 
149 150 -0.11688311691717379 
149 151 -0.1818181822906597 
149 552 0.09090909089870924 
149 553 0.09090909089870947 
149 554 0.06818181815267166 
149 555 0.09090909089870935 
149 556 -0.7090909090930717 
149 557 -0.34848484874815755 
149 558 0.06818181815267177 
149 559 0.09090909089870935 
150 148 -0.14285714326601617 
150 149 -0.11688311691717379 
150 151 -0.14285714326601617 
150 391 -0.3571428571510269 
150 554 0.21428571419811981 
150 558 0.21428571419811981 
150 958 -0.3571428571510269 
151 32 -0.45000000037399235 
151 148 0.2999999999680799 
151 149 -0.1818181822906597 
151 150 -0.14285714326601617 
151 924 -0.2000000000618758 
152 148 0.06666666384283804 
152 165 0.16666666661203633 
152 557 0.3333333327562733 
153 154 -0.2916666666710548 
153 155 -0.33333333334233695 
153 156 0.16666666664825058 
153 157 0.1666666666482508 
153 158 -0.5303030309628844 
153 159 -0.33333333334233695 
154 153 -0.2916666666710548 
154 158 -0.18181818227441693 
154 186 0.24999999997633604 
154 232 -0.31250000001335265 
155 153 -0.33333333334233695 
155 332 -1.6896040122560407e-11 
156 153 0.16666666664825058 
157 153 0.1666666666482508 
158 127 -0.5227272728317001 
158 133 -0.43301435441659897 
158 136 -0.4272727273394077 
158 153 -0.5303030309628844 
158 154 -0.18181818227441693 
158 232 -0.4431818181911984 
158 345 -0.48636363637705293 
158 710 -0.40909090909697854 
158 781 -0.4090909090969783 
158 1003 0.09090909089870924 
158 1006 0.09090909089870935 
159 153 -0.33333333334233695 
159 404 -0.3000000000069756 
160 161 0.24999999997633615 
161 17 -0.6730769230793046 
161 160 0.24999999997633615 
161 322 -0.41666666667373553 
161 747 -0.2500000000114524 
162 78 0.49999999996157996 
163 32 -0.3500000008624997 
163 164 0.049999999956932495 
163 165 -0.03333333337354327 
163 166 0.24999999993888944 
163 167 0.19999999997925044 
164 163 0.049999999956932495 
164 236 0.4999999999545762 
165 32 -0.18750000013759527 
165 152 0.16666666661203633 
165 163 -0.03333333337354327 
166 32 -0.09375000000953237 
166 163 0.24999999993888944 
167 163 0.19999999997925044 
168 169 0.19999999999175533 
169 168 0.19999999999175533 
169 219 -0.10000000004718324 
169 264 -0.25384615386404663 
169 446 -0.28333333376470016 
169 452 -0.26666666668264405 
170 171 0.4999999997258183 
171 170 0.4999999997258183 
171 196 -0.3888888888927031 
172 141 0.11111111109800764 
173 174 0.12499999998532452 
174 131 -0.6125000000091967 
174 173 0.12499999998532452 
174 566 0.12499999998532463 
174 648 -0.6250000000033309 
174 754 0.12499999998532452 
174 817 -0.37500000005534373 
174 945 -0.5416666666711376 
174 1069 0.12499999998532463 
175 176 0.3333333333055045 
175 177 -0.1666666666799932 
175 178 -0.6212121212142092 
176 175 0.3333333333055045 
177 175 -0.1666666666799932 
177 472 -0.3000000000069756 
178 34 -0.7840909091366344 
178 131 -0.8318181818197359 
178 175 -0.6212121212142092 
178 289 -0.43181818182081355 
178 317 0.04545454542286986 
178 322 -0.6212121212142092 
178 355 -0.7500000002718386 
178 422 -0.5863636364028242 
178 435 -0.6363636363896799 
178 509 -0.4545454545500578 
178 542 -0.811688311690171 
178 591 0.045454545422869974 
178 605 0.045454545422869974 
178 635 0.04545454542287031 
178 683 -0.454545454550058 
178 722 -0.7090909091450768 
178 783 -0.38636363637806914 
178 837 -0.3863636363694689 
178 947 0.045454545422870085 
178 962 -0.6818181818240721 
178 970 0.04545454542287031 
178 971 0.045454545422870085 
179 100 -6.175748801240388e-11 
179 180 0.3333333333055045 
179 181 0.4166666666290122 
180 179 0.3333333333055045 
181 100 0.24999999997759303 
181 179 0.4166666666290122 
182 183 0.33333333330550463 
183 105 -0.6041666666693843 
183 182 0.33333333330550463 
183 793 -0.41666666667373553 
184 185 0.09999999998787024 
185 184 0.09999999998787024 
185 219 -0.45000000011887864 
185 244 -0.5642857143081907 
185 259 -0.7333333335499033 
185 260 0.09999999998832099 
185 261 0.09999999998832099 
185 262 -0.05000000056114384 
185 263 0.09999999998832132 
185 264 -0.46923076942256814 
185 265 -0.7333333333350551 
186 154 0.24999999997633604 
187 188 0.33333333331549286 
188 187 0.33333333331549286 
188 386 -0.5238095238135425 
188 1053 0.33333333330550463 
189 56 -0.500000000004698 
189 190 -0.06250000015029977 
189 191 -0.3500000000682675 
189 192 -0.5681818182192684 
189 193 -0.37500000003695955 
189 194 0.24999999982600873 
190 189 -0.06250000015029977 
190 191 -0.412500000711699 
190 192 -0.5738636368354173 
190 194 0.12499999996082556 
190 293 -0.625000000002758 
190 294 0.1249999999853243 
190 295 -0.6250000000033307 
190 296 -0.3125000001544338 
191 189 -0.3500000000682675 
191 190 -0.412500000711699 
191 319 -0.3000000000100629 
191 320 0.19999999997925055 
191 321 0.19999999997925044 
192 50 -0.5909090909359063 
192 189 -0.5681818182192684 
192 190 -0.5738636368354173 
192 224 -0.27272727280345554 
192 284 -0.39545454571380323 
192 296 -0.056818181921022504 
192 324 -0.3295454549021213 
192 326 -0.3246753250132488 
192 386 -0.5811688314229801 
192 398 -0.5173796792920606 
192 562 -0.5409090918922774 
192 585 -0.439393939435623 
192 589 -0.37121212133227677 
192 612 -0.09090909092677224 
192 613 -0.09545454669830056 
192 622 0.0075757575348058825 
192 623 -0.06818181820254399 
192 624 -0.05681818184170595 
192 642 -0.318181818207929 
192 696 -0.2651515156368298 
192 734 -0.6181818182266343 
192 828 -0.17424242429151704 
193 189 -0.37500000003695955 
193 386 -0.4107142862234969 
193 420 -0.5833333333371751 
193 742 -0.2500000000114524 
194 189 0.24999999982600873 
194 190 0.12499999996082556 
195 107 0.05555555553809888 
196 171 -0.3888888888927031 
196 197 0.11111111109800753 
196 198 0.11111111109800753 
196 199 -0.6904761905552363 
196 200 -0.7333333333496983 
196 201 0.11111111109800775 
196 202 0.11111111109800775 
196 203 -0.6666666666949004 
196 204 0.11111111109800764 
197 196 0.11111111109800753 
198 196 0.11111111109800753 
199 41 -0.4142857145645118 
199 196 -0.6904761905552363 
199 483 0.14285714284071516 
199 643 -0.5714285725436248 
199 644 -0.28571428607883287 
199 645 -0.28571428573125557 
199 646 -0.33928571435219634 
200 38 -0.6447368422367692 
200 40 -0.6750000001978986 
200 74 -0.4500000000046549 
200 196 -0.7333333333496983 
200 273 -0.4500000000046551 
200 368 -0.5666666666737219 
200 395 0.04999999997623217 
200 581 -0.4500000000046547 
200 601 -0.12500000001063283 
200 602 -0.42500000007611627 
200 722 -0.5500000000636522 
200 769 0.04999999997623217 
200 827 0.049999999976231946 
200 958 -0.4500000000046549 
200 977 0.04999999997623217 
200 999 0.04999999997623217 
200 1015 -0.4500000004126916 
200 1040 0.04999999997623206 
200 1041 0.04999999997623217 
200 1042 0.04999999997623217 
201 196 0.11111111109800775 
202 196 0.11111111109800775 
203 39 -0.3611111111920562 
203 52 -0.46527777787506563 
203 196 -0.6666666666949004 
203 560 -0.3888888889610884 
203 563 -0.4222222222432426 
203 571 -0.2986111114207468 
203 602 -0.12500000025673907 
203 721 -0.22222222224359567 
203 1079 -0.055555555696017445 
204 196 0.11111111109800764 
205 206 0.1249999999881557 
206 205 0.1249999999881557 
206 436 -0.7083333333354498 
206 488 0.12499999998532452 
206 577 -0.37500000000433653 
206 665 -0.37500000000749556 
206 816 -0.3750000000074958 
206 867 -0.37500000000749556 
206 1082 0.12499999998532463 
207 114 0.14285714284071527 
208 114 0.14285714284071527 
209 111 -0.4107142862431954 
209 112 -0.14285714301661234 
209 210 -0.33928571435219657 
209 211 -0.8116883116901705 
209 212 0.14285714284071538 
209 213 0.14285714284071527 
209 214 0.14285714284071527 
210 111 -0.2500000005767147 
210 209 -0.33928571435219657 
210 255 0.24999999997633615 
210 256 -0.2500000001593039 
211 11 -0.7471590909480677 
211 38 -0.61483253609753 
211 59 -0.6328671330935889 
211 133 -0.6830143544860354 
211 209 -0.8116883116901705 
211 218 -0.6969696970023413 
211 248 -0.5909090916510182 
211 250 -0.1363636363741958 
211 251 -0.19696969698283562 
211 292 -0.6436363642166794 
211 396 -0.3181818182004108 
211 398 -0.8208556150276507 
211 417 -0.6980519480757805 
211 420 -0.5909090917204569 
211 499 -0.7752525252597138 
211 681 -0.5324675330716138 
211 703 -0.5265151523413063 
211 836 0.04545454542286986 
211 837 -0.38636363636946913 
211 838 0.045454545422870085 
211 839 0.04545454542287031 
211 840 0.045454545422870085 
212 209 0.14285714284071538 
213 209 0.14285714284071527 
214 209 0.14285714284071527 
215 216 0.24999999998872124 
216 215 0.24999999998872124 
216 770 0.24999999997633615 
216 1009 0.24999999997633615 
216 1017 -0.416666666673736 
217 218 -0.33333333334233695 
217 219 -0.3000000000100629 
218 15 -0.5500000000301757 
218 211 -0.6969696970023413 
218 217 -0.33333333334233695 
218 414 -0.5625000000098197 
218 477 0.1666666666482508 
218 478 0.16666666664825058 
219 169 -0.10000000004718324 
219 185 -0.45000000011887864 
219 217 -0.3000000000100629 
219 409 0.19999999997925055 
219 452 -0.32222222276332024 
220 221 0.14285714284626716 
221 220 0.14285714284626716 
221 311 0.14285714284071538 
221 356 -0.6071428571461053 
221 357 0.03571428457938719 
221 358 0.03571428457938708 
221 359 0.14285714284071527 
221 360 0.14285714284071527 
222 42 -0.6616161616519578 
222 61 -0.5388888889786385 
222 397 -0.38888888889582685 
222 398 -0.6013071900489768 
222 399 -0.2916666667892289 
222 400 -0.7013888891226143 
222 401 -0.5277777779002433 
222 402 -0.38888888889582685 
222 403 -0.38888888889582707 
223 61 -0.5500000000161553 
223 341 -0.6750000000023495 
223 696 -0.4500000005318987 
223 734 -0.20000000112782157 
223 774 0.19999999997925044 
224 61 -0.3750000001491547 
224 192 -0.27272727280345554 
224 326 0.035714284568840404 
224 398 -0.11764705886621152 
225 61 -0.4000000000064694 
225 269 -0.2500000000086171 
226 61 -0.40000000000646896 
226 940 0.49999999996157996 
227 61 -0.3500000003138486 
227 771 0.24999999996658773 
228 61 -0.6000000000211378 
228 95 -0.5833333338871682 
228 640 -0.5500000000018033 
228 693 -0.3333333333423367 
228 751 -0.5000000000053608 
228 927 -0.33333333333916926 
229 26 -0.5446428576069211 
229 61 -0.5857142865542642 
229 700 -4.246163420873472e-10 
229 734 -0.5142857147055939 
229 874 -0.35714285715102667 
229 920 0.10714285711115912 
229 921 0.09523809515610715 
230 61 0.09999999998832132 
231 232 0.1249999999853243 
232 9 -0.48750000016065953 
232 83 -0.5625000002716889 
232 133 -0.6019736842220262 
232 154 -0.31250000001335265 
232 158 -0.4431818181911984 
232 231 0.1249999999853243 
232 585 -0.6458333335521407 
232 586 0.12499999998532463 
233 234 0.33333333331549264 
234 233 0.33333333331549264 
234 375 -0.5238095238143972 
234 818 -0.1666666666799932 
235 54 0.19999999997925055 
236 32 -0.3125000000180196 
236 164 0.4999999999545762 
237 238 0.1666666666566503 
237 239 0.49999999973567455 
237 240 0.6666666664290727 
238 141 -0.5555555555596878 
238 237 0.1666666666566503 
238 240 0.1666666666566502 
239 237 0.49999999973567455 
239 240 0.49999999988341703 
240 237 0.6666666664290727 
240 238 0.1666666666566502 
240 239 0.49999999988341703 
241 116 0.11111111109800764 
242 40 0.09999999998832121 
243 244 -0.3571428571510269 
243 245 0.49999999996157996 
244 185 -0.5642857143081907 
244 243 -0.3571428571510269 
244 442 -0.40178571435843224 
244 443 0.14285714284071538 
244 444 0.14285714284071527 
244 445 -0.21428571447978673 
244 446 -0.4642857143329373 
245 243 0.49999999996157996 
246 247 0.33333333330550463 
246 248 -0.5416666666711374 
246 249 -0.41666666667373575 
247 246 0.33333333330550463 
248 211 -0.5909090916510182 
248 246 -0.5416666666711374 
248 284 -0.4875000001071812 
248 472 -0.6750000000023495 
248 593 -0.41666666670971897 
248 681 -0.5357142859922568 
248 859 -0.35416666675508246 
248 874 -0.37500000000749534 
249 19 -0.2500000000086171 
249 246 -0.41666666667373575 
249 788 -0.2500000000114526 
249 897 -0.416666666673736 
250 211 -0.1363636363741958 
250 251 0.49999999973567455 
251 59 -0.3461538462659297 
251 211 -0.19696969698283562 
251 250 0.49999999973567455 
252 92 -0.2500000000114526 
252 253 -0.16666666667792018 
253 252 -0.16666666667792018 
253 345 -0.5666666666705102 
253 649 -0.46666666667226453 
254 56 -0.1666666666799932 
254 640 -0.3000000000069756 
255 210 0.24999999997633615 
256 210 -0.2500000001593039 
256 362 -0.32500000038708077 
256 490 0.24999999997759326 
256 1081 0.24999999997633604 
257 258 0.49999999972581843 
258 257 0.49999999972581843 
258 817 -0.2500000000114526 
259 185 -0.7333333335499033 
259 352 0.11111111109800764 
259 457 0.11111111109800764 
259 458 0.11111111109800786 
259 459 0.11111111109800753 
259 460 0.11111111109800753 
259 461 0.11111111109800775 
259 462 -0.3472222223471588 
259 463 -0.27777777780141366 
260 185 0.09999999998832099 
261 185 0.09999999998832099 
262 185 -0.05000000056114384 
262 264 -0.09615384656147596 
263 185 0.09999999998832132 
264 169 -0.25384615386404663 
264 185 -0.46923076942256814 
264 262 -0.09615384656147596 
264 442 -0.6586538462144604 
264 446 -0.3974358974625456 
264 452 -0.5683760696723397 
264 651 -0.589743589746772 
264 805 0.07692307691495315 
264 873 0.07692307691495304 
264 918 0.07692307691495337 
264 929 -0.42307692308244427 
264 945 -0.5897435897467722 
264 1070 0.07692307691495315 
265 111 -0.5833333333390818 
265 185 -0.7333333333350551 
265 491 -0.16666666702793997 
265 1000 -0.500000000005361 
265 1092 0.1666666666482508 
265 1099 0.16666666664825058 
266 267 0.09999999998832143 
267 127 -0.675000000052848 
267 133 -0.747368421107689 
267 266 0.09999999998832143 
267 286 0.09999999998832121 
267 308 -0.6000000000255521 
267 386 -0.707142857331498 
267 456 0.09999999998832099 
267 752 0.09999999998832099 
267 978 -0.4000000000064694 
267 979 0.09999999998832132 
268 269 0.24999999997633615 
269 225 -0.2500000000086171 
269 268 0.24999999997633615 
269 570 -0.25000000001145284 
269 842 -0.41666666667373575 
270 271 0.24999999998872124 
271 270 0.24999999998872124 
271 402 -0.2500000000086169 
271 571 -0.3750000007274137 
271 572 -0.3333333333862172 
272 83 -0.37500000000749556 
272 273 -1.6895818077955482e-11 
273 200 -0.4500000000046551 
273 272 -1.6895818077955482e-11 
274 275 -0.1666666666799932 
274 276 -0.1666666666779204 
275 107 -0.36111111112979843 
275 274 -0.1666666666799932 
275 468 0.041666666639623706 
276 274 -0.1666666666779204 
276 1078 0.3333333333055045 
276 1086 0.33333333330550463 
277 6 0.12499999998532463 
278 6 0.12499999998532452 
279 6 0.12499999998532452 
280 6 -0.43750000003346234 
280 52 -0.6250000000849902 
280 905 -0.29166666669269303 
280 906 0.24999999997633604 
281 6 0.1249999999853244 
282 6 0.12499999998532463 
283 284 -0.3000000000100629 
283 285 -0.1666666666799932 
284 192 -0.39545454571380323 
284 248 -0.4875000001071812 
284 283 -0.3000000000100629 
284 585 -0.11666666692188388 
284 828 -1.7319035094942592e-11 
285 82 -6.175726596779896e-11 
285 283 -0.1666666666799932 
285 779 -0.10000000004096998 
286 267 0.09999999998832121 
287 79 -0.37500000000749556 
287 288 -1.6896040122560407e-11 
288 287 -1.6896040122560407e-11 
288 882 0.49999999996157996 
289 178 -0.43181818182081355 
289 290 -7.008615909853688e-12 
290 42 -0.5303030309302632 
290 289 -7.008615909853688e-12 
290 436 -0.3333333333718844 
291 292 0.039999999952545884 
292 126 -0.4850000003189292 
292 127 -0.6950000000767267 
292 133 -0.64842105272208 
292 211 -0.6436363642166794 
292 291 0.039999999952545884 
292 310 -0.7100000000013602 
292 345 -0.6200000000517352 
292 420 -0.6300000002112944 
292 464 -0.6266666666685317 
292 500 0.03999999995254577 
292 517 0.039999999952545884 
292 614 -0.7933333333350632 
292 677 -0.460000000001201 
292 703 -0.7150000002763579 
292 735 -0.4400000000024282 
292 857 0.039999999952545884 
292 858 0.03999999995254566 
292 859 -0.3200000000564609 
292 860 0.03999999995254577 
292 861 0.03999999995254577 
292 862 -0.5450000000083117 
292 863 0.03999999995254566 
292 864 -0.7400000000089135 
292 865 0.03999999995254577 
292 866 -0.4600000000046558 
293 133 -0.5657894737046838 
293 190 -0.625000000002758 
293 715 -0.2500000000114526 
293 716 -6.147971021164267e-12 
294 190 0.1249999999853243 
295 190 -0.6250000000033307 
295 504 -0.5500000000046015 
295 1062 0.24999999997633615 
295 1080 0.24999999997633604 
296 190 -0.3125000001544338 
296 192 -0.056818181921022504 
296 585 -0.20833333342344296 
296 622 -1.4915180202024203e-11 
297 298 0.19999999999175533 
298 297 0.19999999999175533 
298 427 -0.3000000000100629 
298 433 -0.3000000000100629 
298 672 -0.3000000000069756 
298 911 -0.3000000000100631 
299 300 0.4999999997258183 
300 299 0.4999999997258183 
300 489 -1.6895818077955482e-11 
301 302 0.24999999997633615 
302 38 -0.49342105266241143 
302 301 0.24999999997633615 
302 339 -0.41666666667373553 
302 681 -0.2857142857233428 
303 304 0.49999999996157984 
303 305 -1.6895818077955482e-11 
304 303 0.49999999996157984 
305 303 -1.6895818077955482e-11 
305 420 -0.33333333334233695 
306 307 -0.35714285715102667 
306 308 -0.2500000000114524 
307 135 -0.16666666697394517 
307 136 -0.3142857151063976 
307 306 -0.35714285715102667 
307 751 -0.21428571479954606 
307 786 -0.31428571430897345 
307 884 0.03571428457938708 
307 913 0.14285714284071527 
308 267 -0.6000000000255521 
308 306 -0.2500000000114524 
308 642 -0.2916666672160928 
308 698 -0.5833333333373458 
309 310 0.24999999997633615 
310 292 -0.7100000000013602 
310 309 0.24999999997633615 
310 801 0.24999999997633615 
310 802 0.24999999997633604 
311 221 0.14285714284071538 
312 313 0.24999999997633604 
312 314 0.24999999997633615 
312 315 0.24999999997633615 
312 316 -0.2500000000114524 
313 312 0.24999999997633604 
314 312 0.24999999997633615 
315 312 0.24999999997633615 
316 312 -0.2500000000114524 
316 703 -0.4166666666724308 
317 178 0.04545454542286986 
318 64 -1.6896040122560407e-11 
318 432 -1.6896040122560407e-11 
319 191 -0.3000000000100629 
319 542 -0.3571428571510269 
320 191 0.19999999997925055 
321 191 0.19999999997925044 
322 161 -0.41666666667373553 
322 178 -0.6212121212142092 
322 323 0.33333333330550463 
323 322 0.33333333330550463 
324 192 -0.3295454549021213 
324 325 -0.2500000000114524 
324 326 0.0357142850461869 
324 327 -0.20833333335352733 
325 324 -0.2500000000114524 
325 507 0.49999999996157996 
326 192 -0.3246753250132488 
326 224 0.035714284568840404 
326 324 0.0357142850461869 
326 327 -0.2678571429810601 
326 398 -0.3487394958119854 
326 1063 0.14285714284071527 
326 1064 0.14285714284071527 
327 324 -0.20833333335352733 
327 326 -0.2678571429810601 
327 365 0.08333333332413417 
327 369 -0.5000000011123262 
327 398 -0.4803921568768441 
327 399 -0.37500000012152546 
327 589 -0.25000000045132187 
327 696 -0.41666666751104153 
327 711 0.08333333332413406 
327 722 -0.40833333337631816 
327 830 -0.4083333333459487 
327 1015 -0.5000000000167255 
328 329 0.49999999996157996 
329 9 -0.3000000000100629 
329 328 0.49999999996157996 
330 331 0.24999999997633615 
331 146 -0.2500000000086171 
331 330 0.24999999997633615 
331 425 0.24999999997633615 
331 808 0.24999999997633604 
332 155 -1.6896040122560407e-11 
332 333 -0.1666666666779204 
333 332 -0.1666666666779204 
333 648 -0.416666666673736 
333 787 0.33333333330550463 
334 335 -8.797185202524815e-11 
334 336 0.3333333333055045 
334 337 -8.797162998064323e-11 
335 334 -8.797185202524815e-11 
335 373 0.166666666658163 
335 374 -0.1666666666799932 
336 334 0.3333333333055045 
337 334 -8.797162998064323e-11 
337 373 0.16666666665816277 
337 780 0.33333333330550463 
338 339 0.3333333333055045 
339 302 -0.41666666667373553 
339 338 0.3333333333055045 
339 618 -0.3333333333420525 
340 46 0.058823529398017715 
341 126 -0.25000000008510437 
341 127 -0.5000000000392346 
341 223 -0.6750000000023495 
341 342 -0.5833333333894921 
341 343 -0.37500000000433653 
341 344 -0.4375000001557505 
341 345 -0.4250000000184655 
341 346 0.12499999998532463 
342 341 -0.5833333333894921 
342 344 -0.1944444451613787 
342 347 -6.280020947713183e-11 
342 349 0.027777777754290245 
342 441 -0.16666666670496277 
342 1018 -0.16666666670496344 
342 1071 0.11111111109800775 
342 1072 0.11111111109800775 
342 1073 0.11111111109800764 
343 70 -1.6896040122560407e-11 
343 341 -0.37500000000433653 
344 13 -0.6666666666694114 
344 341 -0.4375000001557505 
344 342 -0.1944444451613787 
344 347 -0.20833333335375004 
344 440 -2.878719485011061e-10 
344 666 -0.550000000283311 
345 34 -0.4375000002124829 
345 72 -0.5772727277273453 
345 126 -0.10000000087837413 
345 133 -0.38684210563763055 
345 158 -0.48636363637705293 
345 253 -0.5666666666705102 
345 292 -0.6200000000517352 
345 341 -0.4250000000184655 
345 716 -0.15000000012269643 
345 798 -0.5666666666705105 
346 341 0.12499999998532463 
347 342 -6.280020947713183e-11 
347 344 -0.20833333335375004 
347 348 -0.4166666667540295 
347 349 0.37499999987253774 
348 141 -0.6666666667958376 
348 347 -0.4166666667540295 
348 355 -0.6515151516681708 
348 475 -0.250000000393076 
348 887 -0.16666666668277408 
348 1018 -0.16666666702793997 
349 342 0.027777777754290245 
349 347 0.37499999987253774 
350 351 0.14285714284071538 
351 93 -0.3571428571478479 
351 350 0.14285714284071538 
351 547 -0.3571428571510269 
351 556 -0.6571428571458007 
351 712 0.14285714284071527 
351 713 -0.35714285714784766 
351 714 0.14285714284071527 
352 259 0.11111111109800764 
353 52 -0.4166666666718444 
353 354 0.33333333330550463 
353 355 -0.31818181819993185 
354 353 0.33333333330550463 
355 39 -0.2840909091977246 
355 52 -0.571969697119366 
355 178 -0.7500000002718386 
355 348 -0.6515151516681708 
355 353 -0.31818181819993185 
355 369 -0.5303030306794863 
355 645 -0.30303030328628777 
355 703 -0.7007575762373766 
355 820 -0.11363636435769076 
355 830 -0.1909090910279847 
355 1079 -0.09090909126748103 
356 46 -0.6911764705901684 
356 221 -0.6071428571461053 
356 428 0.24999999997633604 
356 429 -0.2500000000086171 
357 221 0.03571428457938719 
357 358 0.7499999999319464 
358 221 0.03571428457938708 
358 357 0.7499999999319464 
359 221 0.14285714284071527 
360 221 0.14285714284071527 
361 362 0.09999999998832143 
362 111 -0.5625000003753968 
362 256 -0.32500000038708077 
362 361 0.09999999998832143 
362 489 -0.4000000000064692 
362 490 -0.05000000056114362 
362 491 -0.3000000002832448 
362 492 -0.40000000000646896 
362 493 0.09999999998832099 
362 494 -0.5666666666705102 
362 495 0.09999999998832132 
363 52 -0.45833333333795534 
363 364 -0.35714285714784766 
364 363 -0.35714285714784766 
364 628 0.14285714284071527 
364 647 0.14285714284071538 
364 728 0.14285714284071516 
364 772 0.14285714284071538 
364 1035 0.14285714284071527 
364 1076 0.14285714284071527 
365 327 0.08333333332413417 
366 367 0.24999999998872147 
367 366 0.24999999998872147 
367 400 -0.6250000000033309 
367 725 -0.41666666667373553 
367 831 0.24999999997633604 
368 116 -0.5555555555596876 
368 200 -0.5666666666737219 
368 369 -0.4166666666805299 
369 42 -0.6136363644480869 
369 327 -0.5000000011123262 
369 355 -0.5303030306794863 
369 368 -0.4166666666805299 
369 812 0.1666666666482508 
369 813 0.16666666664825058 
370 133 -0.5877192982499266 
370 371 -7.008615909853688e-12 
370 372 -0.1666666666799932 
371 370 -7.008615909853688e-12 
371 864 -0.20000000000489448 
372 143 -0.1666666666799932 
372 370 -0.1666666666799932 
373 335 0.166666666658163 
373 337 0.16666666665816277 
374 335 -0.1666666666799932 
374 621 -1.6895818077955482e-11 
375 105 -0.5267857145835233 
375 234 -0.5238095238143972 
375 376 -0.6071428571464845 
375 377 0.14285714284071516 
375 378 0.09523809516400894 
375 379 0.09523809516400883 
375 380 0.14285714284071527 
376 375 -0.6071428571464845 
376 543 -0.6500000000028674 
376 545 -0.2500000000086171 
376 546 -0.2500000000114524 
377 375 0.14285714284071516 
378 105 -0.14583333334857107 
378 375 0.09523809516400894 
378 379 0.6666666664807098 
379 105 -0.14583333334857107 
379 375 0.09523809516400883 
379 378 0.6666666664807098 
380 375 0.14285714284071527 
381 382 0.33333333331549264 
382 381 0.33333333331549264 
382 651 -0.3333333333420525 
382 652 -0.1666666666799932 
383 384 0.19999999997925055 
383 385 -0.5500000000047176 
383 386 -0.6571428571458007 
383 387 0.19999999997925055 
383 388 0.19999999997925044 
384 383 0.19999999997925055 
385 383 -0.5500000000047176 
385 749 -0.5000000000056277 
385 758 0.24999999997759315 
385 759 -6.175659983398418e-11 
386 188 -0.5238095238135425 
386 192 -0.5811688314229801 
386 193 -0.4107142862234969 
386 267 -0.707142857331498 
386 383 -0.6571428571458007 
386 828 -0.21428571447978673 
386 829 0.14285714284071527 
387 383 0.19999999997925055 
388 383 0.19999999997925044 
389 390 0.49999999996157996 
390 59 -0.4230769230824445 
390 389 0.49999999996157996 
391 150 -0.3571428571510269 
391 392 0.49999999996157996 
392 391 0.49999999996157996 
393 32 -0.09375000000953215 
393 394 0.24999999963798514 
394 32 -0.41250000011956 
394 393 0.24999999963798514 
394 755 0.19999999997925055 
394 762 0.24999999993888966 
394 1030 -0.3000000000100631 
395 200 0.04999999997623217 
396 72 -0.1818181818776896 
396 211 -0.3181818182004108 
397 222 -0.38888888889582685 
397 570 -1.6896040122560407e-11 
398 83 -0.5772058829545164 
398 192 -0.5173796792920606 
398 211 -0.8208556150276507 
398 222 -0.6013071900489768 
398 224 -0.11764705886621152 
398 326 -0.3487394958119854 
398 327 -0.4803921568768441 
398 399 -0.2941176471744513 
398 419 -0.6529411765428699 
398 515 0.05882352939801816 
398 624 -0.36029411818183443 
398 636 0.05882352939801816 
398 637 0.05882352939801827 
398 638 -0.44117647059311427 
398 639 -0.41176470588527936 
398 640 -0.5235294120183938 
398 641 -0.41176470588527914 
399 222 -0.2916666667892289 
399 327 -0.37500000012152546 
399 398 -0.2941176471744513 
399 771 -0.12500000000562794 
400 95 -0.4375000000389977 
400 222 -0.7013888891226143 
400 367 -0.6250000000033309 
400 610 -0.5000000002667853 
400 886 0.12499999998532452 
400 928 0.1249999999853243 
400 929 -0.37500000000749556 
400 930 0.12499999998532463 
401 3 -0.33333333340661175 
401 39 -0.3750000002010512 
401 72 -0.13636363729822643 
401 222 -0.5277777779002433 
402 222 -0.38888888889582685 
402 271 -0.2500000000086169 
403 222 -0.38888888889582707 
403 910 -0.1666666666779204 
404 159 -0.3000000000069756 
404 405 -0.03333333337354327 
404 406 -0.20000000000489426 
404 407 -0.10000000015938726 
404 408 -0.033333333373543494 
405 404 -0.03333333337354327 
405 407 -0.14285714287040374 
405 581 -0.16666666667792018 
406 404 -0.20000000000489426 
406 606 0.24999999996658773 
407 404 -0.10000000015938726 
407 405 -0.14285714287040374 
407 408 -0.1428571430057699 
407 744 -0.2857142860788331 
407 902 -0.5238095238135427 
407 925 0.14285714284071527 
407 956 -0.3571428571510269 
408 404 -0.033333333373543494 
408 407 -0.1428571430057699 
408 895 0.33333333330550463 
409 219 0.19999999997925055 
410 94 0.24999999997633615 
411 52 0.04166666662356744 
412 413 -0.5666666666705098 
412 414 -0.5416666666711374 
412 415 0.33333333330550463 
413 42 -0.7636363637013674 
413 95 -0.683333333438825 
413 107 -0.7166666667386692 
413 141 -0.7888888888901893 
413 412 -0.5666666666705098 
413 464 -0.5666666666705102 
413 465 0.09999999998832099 
413 466 0.09999999998832099 
413 467 0.09999999998832121 
413 468 -0.4250000000032337 
414 218 -0.5625000000098197 
414 412 -0.5416666666711374 
414 574 -0.37500000000749556 
414 604 -0.7321428571448398 
414 703 -0.39583333462790593 
414 704 0.041666666601883895 
414 705 0.04166666660188345 
414 1049 -0.37500000000749534 
415 412 0.33333333330550463 
416 417 0.14285714284071538 
417 131 -0.7071428573314988 
417 211 -0.6980519480757805 
417 416 0.14285714284071538 
417 835 -0.2714285716738676 
417 841 -0.35714285714784744 
417 842 -0.21428571431587384 
417 843 0.14285714284071527 
418 419 -0.45000000008074137 
418 420 -0.5000000000438267 
418 421 0.24999999997633604 
418 422 -0.550000000004718 
419 105 -0.7062500000275724 
419 398 -0.6529411765428699 
419 418 -0.45000000008074137 
419 511 -0.46666666667263 
419 600 -0.45000000008074137 
420 193 -0.5833333333371751 
420 211 -0.5909090917204569 
420 292 -0.6300000002112944 
420 305 -0.33333333334233695 
420 418 -0.5000000000438267 
420 611 0.16666666664825058 
421 418 0.24999999997633604 
422 178 -0.5863636364028242 
422 418 -0.550000000004718 
422 643 -0.5857142858288895 
422 649 -0.6000000000038335 
422 783 -0.10000000004096998 
423 11 -0.4375000000049982 
423 424 -1.6896040122560407e-11 
424 423 -1.6896040122560407e-11 
424 943 0.49999999996157996 
425 331 0.24999999997633615 
426 427 0.49999999996157996 
427 298 -0.3000000000100629 
427 426 0.49999999996157996 
428 356 0.24999999997633604 
429 34 -0.37500000000749534 
429 356 -0.2500000000086171 
430 59 -0.42307692308244427 
430 431 0.49999999996157996 
431 430 0.49999999996157996 
432 318 -1.6896040122560407e-11 
432 898 -0.2500000000086169 
433 298 -0.3000000000100629 
433 434 0.49999999996157996 
434 433 0.49999999996157996 
435 4 -0.6071428571464845 
435 178 -0.6363636363896799 
435 436 -0.3333333338717086 
435 437 -0.5000000005074092 
436 52 -0.7083333335710664 
436 206 -0.7083333333354498 
436 290 -0.3333333333718844 
436 435 -0.3333333338717086 
436 643 -0.40476190478144414 
436 854 -0.41666666674342645 
437 79 -0.6250000008549343 
437 435 -0.5000000005074092 
437 883 -0.3333333333423367 
437 905 -0.5000000000046985 
437 1043 -0.33333333333916926 
437 1058 0.16666666664825058 
438 439 0.4999999997258183 
439 438 0.4999999997258183 
439 942 -1.6895818077955482e-11 
440 344 -2.878719485011061e-10 
440 441 0.4999999999545762 
441 342 -0.16666666670496277 
441 440 0.4999999999545762 
442 244 -0.40178571435843224 
442 264 -0.6586538462144604 
442 445 0.04166666659667273 
442 630 0.12499999998532452 
442 631 0.06249999997298272 
442 632 0.1249999999853243 
442 633 0.1249999999853244 
442 634 0.12499999998532463 
443 244 0.14285714284071538 
444 244 0.14285714284071527 
445 244 -0.21428571447978673 
445 442 0.04166666659667273 
445 631 0.49999999973567455 
446 169 -0.28333333376470016 
446 244 -0.4642857143329373 
446 264 -0.3974358974625456 
446 518 0.08333333198622528 
446 519 -0.16666666670099595 
446 1067 0.16666666664825058 
447 129 0.14999999842844036 
447 448 0.7499999999319464 
448 129 0.14999999842844036 
448 447 0.7499999999319464 
449 111 -0.3750000000553435 
449 450 0.24999999997633615 
449 451 0.24999999997759326 
449 452 -0.6388888888912463 
450 449 0.24999999997633615 
451 111 -9.347236318291152e-10 
451 449 0.24999999997759326 
452 169 -0.26666666668264405 
452 219 -0.32222222276332024 
452 264 -0.5683760696723397 
452 449 -0.6388888888912463 
452 462 -0.5277777782331974 
452 578 0.11111111109800753 
452 745 0.11111111109800775 
452 773 0.11111111109800775 
452 885 0.11111111109800764 
453 107 0.0555555555380991 
454 116 -0.38888888889582685 
454 455 -1.6896040122560407e-11 
455 454 -1.6896040122560407e-11 
455 1088 0.49999999996157996 
456 267 0.09999999998832099 
457 259 0.11111111109800764 
458 259 0.11111111109800786 
459 259 0.11111111109800753 
460 259 0.11111111109800753 
461 259 0.11111111109800775 
462 259 -0.3472222223471588 
462 452 -0.5277777782331974 
462 463 -6.175682187858911e-11 
462 1084 0.24999999997633604 
463 259 -0.27777777780141366 
463 462 -6.175682187858911e-11 
463 542 -0.5238095238143974 
464 292 -0.6266666666685317 
464 413 -0.5666666666705102 
464 790 0.33333333330550463 
465 413 0.09999999998832099 
466 413 0.09999999998832099 
467 413 0.09999999998832121 
468 107 -0.3333333333833983 
468 275 0.041666666639623706 
468 413 -0.4250000000032337 
468 1083 0.24999999997633604 
469 25 0.24999999993888966 
469 470 0.49999999988341703 
470 25 0.26666666653894655 
470 469 0.49999999988341703 
470 777 0.16666666652998674 
471 472 0.19999999997925055 
472 177 -0.3000000000069756 
472 248 -0.6750000000023495 
472 471 0.19999999997925055 
472 891 0.19999999997925055 
472 917 -0.3000000000100631 
473 474 0.09999999998787024 
474 473 0.09999999998787024 
474 582 -0.3000000000208012 
474 583 -0.5000000000325888 
474 852 -0.4000000000064692 
474 854 -0.683333333361305 
474 875 0.09999999998832121 
474 876 0.09999999998832099 
474 877 -0.4000000000064694 
474 878 -0.40000000000646896 
474 879 0.09999999998832132 
475 348 -0.250000000393076 
475 476 -1.2504175472827228e-10 
476 475 -1.2504175472827228e-10 
476 671 -1.2504175472827228e-10 
476 912 0.33333333330550463 
477 218 0.1666666666482508 
478 218 0.16666666664825058 
479 11 0.06249999999065303 
480 481 0.03571428567234247 
480 482 0.7499999999319464 
481 480 0.03571428567234247 
481 482 0.03571428457938719 
481 914 -0.2142857143158734 
481 915 0.03571428457938719 
481 934 0.14285714284071538 
481 935 0.14285714284071527 
481 936 0.14285714284071527 
482 480 0.7499999999319464 
482 481 0.03571428457938719 
483 199 0.14285714284071516 
484 485 0.49999999996157996 
485 131 -0.4000000000064694 
485 484 0.49999999996157996 
486 487 0.24999999998872147 
487 486 0.24999999998872147 
487 643 -0.6071428571464847 
487 871 0.24999999997759315 
487 872 0.24999999997759337 
488 206 0.12499999998532452 
489 300 -1.6895818077955482e-11 
489 362 -0.4000000000064692 
490 256 0.24999999997759326 
490 362 -0.05000000056114362 
491 265 -0.16666666702793997 
491 362 -0.3000000002832448 
492 362 -0.40000000000646896 
492 814 -1.6896040122560407e-11 
493 362 0.09999999998832099 
494 362 -0.5666666666705102 
494 730 0.3333333333055045 
494 939 0.33333333330550463 
495 362 0.09999999998832132 
496 133 0.05263157892664905 
497 13 0.16666666664825036 
498 499 0.11111111109800786 
499 124 -0.5000000003295679 
499 211 -0.7752525252597138 
499 498 0.11111111109800786 
499 662 0.05555555542251622 
499 663 -0.16666666788182227 
499 823 -0.22222222228181732 
499 898 -0.6388888888919688 
499 931 -0.5833333333618744 
499 965 -0.5000000000106846 
500 292 0.03999999995254577 
501 502 0.19999999997925055 
502 17 -0.7230769230788294 
502 501 0.19999999997925055 
502 746 0.19999999997925055 
502 916 0.19999999997925055 
502 1023 0.19999999997925044 
503 504 0.19999999997925055 
504 295 -0.5500000000046015 
504 503 0.19999999997925055 
504 520 -0.5181818182529376 
504 521 0.14999999842844036 
504 580 -0.46666666667263046 
505 52 0.04166666662356733 
506 38 0.05263157892664905 
507 325 0.49999999996157996 
508 509 -0.33333333333916904 
508 510 0.16666666664825058 
508 511 -0.5000000000046978 
508 512 0.1666666666482508 
508 513 0.16666666664825058 
508 514 -0.33333333333916926 
509 178 -0.4545454545500578 
509 508 -0.33333333333916904 
510 508 0.16666666664825058 
511 419 -0.46666666667263 
511 508 -0.5000000000046978 
511 855 0.33333333330550463 
512 508 0.1666666666482508 
513 508 0.16666666664825058 
514 42 -0.40909090909697854 
514 508 -0.33333333333916926 
515 398 0.05882352939801816 
516 52 0.04166666662356755 
517 292 0.039999999952545884 
518 446 0.08333333198622528 
518 519 0.41666666659884133 
519 446 -0.16666666670099595 
519 518 0.41666666659884133 
519 1059 0.33333333330550463 
520 11 -0.8465909090944421 
520 82 -0.5227272727383749 
520 84 -0.6098484849806503 
520 504 -0.5181818182529376 
520 521 -0.06818181866077344 
520 522 -0.06818181866077344 
520 523 0.09090909089870935 
520 524 -0.6590909090935944 
520 525 0.09090909089870958 
520 526 -0.7090909090930717 
520 527 -0.5757575757611699 
521 504 0.14999999842844036 
521 520 -0.06818181866077344 
522 84 -0.0833333337681168 
522 520 -0.06818181866077344 
523 520 0.09090909089870935 
524 520 -0.6590909090935944 
524 543 -0.6500000000028674 
524 656 0.24999999997633615 
524 987 0.24999999997633604 
525 520 0.09090909089870958 
526 147 -0.6000000000038337 
526 520 -0.7090909090930717 
526 914 -0.46666666667263 
526 1093 -0.3000000000100629 
526 1094 0.19999999997925044 
527 520 -0.5757575757611699 
527 890 0.3333333333055045 
527 1091 0.33333333330550463 
528 105 0.06249999999065303 
529 530 -1.6895818077955482e-11 
529 531 0.49999999996157996 
530 529 -1.6895818077955482e-11 
530 533 -0.1666666666779204 
531 529 0.49999999996157996 
532 38 0.052631578926648936 
533 530 -0.1666666666779204 
533 603 -7.008615909853688e-12 
533 904 -7.008615909853688e-12 
534 21 0.0833333333241344 
535 46 -0.6078431372574924 
535 116 -0.5555555555586054 
535 655 0.33333333330550463 
536 46 0.05882352939801816 
537 46 0.05882352939801816 
538 46 -0.38235294118371144 
538 540 0.41666666662901175 
538 568 -0.1666666666799932 
539 46 -0.44117647059311427 
539 1068 0.49999999996157996 
540 46 -0.13235294155494648 
540 538 0.41666666662901175 
541 46 0.05882352939801805 
542 46 -0.7983193277321514 
542 124 -0.6904761904786865 
542 178 -0.811688311690171 
542 319 -0.3571428571510269 
542 463 -0.5238095238143974 
542 661 0.14285714284071527 
542 942 -0.3571428571510269 
543 46 -0.7323529412019787 
543 133 -0.7184210526496702 
543 376 -0.6500000000028674 
543 524 -0.6500000000028674 
543 703 -0.600000000153686 
543 931 -0.5500000001869205 
543 988 0.09999999998832099 
543 1077 0.09999999998832099 
543 1095 0.09999999998832121 
543 1112 0.09999999998832132 
544 38 0.052631578926648936 
545 94 -0.2500000000114524 
545 376 -0.2500000000086171 
546 376 -0.2500000000114524 
546 707 -1.6896040122560407e-11 
547 351 -0.3571428571510269 
547 548 0.49999999996157996 
548 547 0.49999999996157996 
549 37 0.24999999997633615 
550 551 0.49999999996157996 
551 44 -0.3000000000100629 
551 550 0.49999999996157996 
552 149 0.09090909089870924 
553 149 0.09090909089870947 
554 149 0.06818181815267166 
554 150 0.21428571419811981 
555 149 0.09090909089870935 
556 149 -0.7090909090930717 
556 351 -0.6571428571458007 
556 898 -0.550000000004718 
556 1039 0.19999999997925055 
556 1044 0.19999999997925044 
557 32 -0.3854166667553116 
557 149 -0.34848484874815755 
557 152 0.3333333327562733 
558 149 0.06818181815267177 
558 150 0.21428571419811981 
559 149 0.09090909089870935 
560 203 -0.3888888889610884 
560 561 -0.16666666670099617 
560 562 -0.3666666667090397 
560 563 -0.3666666667090399 
560 564 -0.4166666673137722 
560 565 0.08333333326015269 
561 560 -0.16666666670099617 
561 564 -0.1666666667296426 
561 629 0.33333333330550463 
562 192 -0.5409090918922774 
562 560 -0.3666666667090397 
562 565 -0.10000000006063958 
562 613 -0.3000000000947518 
562 753 -0.6000000000038337 
563 37 -0.4500000009753795 
563 203 -0.4222222222432426 
563 560 -0.3666666667090399 
563 756 0.19999999997925055 
563 757 0.19999999997925044 
564 560 -0.4166666673137722 
564 561 -0.1666666667296426 
564 731 0.16666666664825058 
564 835 -0.6333333333364832 
564 946 0.1666666666482508 
564 1007 0.16666666664825058 
565 52 -0.5416666666960617 
565 560 0.08333333326015269 
565 562 -0.10000000006063958 
566 174 0.12499999998532463 
567 568 0.49999999996157996 
568 538 -0.1666666666799932 
568 567 0.49999999996157996 
569 133 0.05263157892664916 
570 269 -0.25000000001145284 
570 397 -1.6896040122560407e-11 
571 30 -0.32500000003264473 
571 38 -0.559210527073972 
571 52 -0.5625000002481328 
571 203 -0.2986111114207468 
571 271 -0.3750000007274137 
571 573 -0.12500000005443113 
571 820 -0.18750000023047209 
571 830 -0.22500000064645853 
572 30 -0.2000000002242286 
572 271 -0.3333333333862172 
572 573 -1.1313416869995763e-10 
572 931 -0.5833333333373456 
572 973 0.1666666666482508 
572 974 0.16666666664825058 
573 30 0.26666666653894655 
573 571 -0.12500000005443113 
573 572 -1.1313416869995763e-10 
574 414 -0.37500000000749556 
574 575 -1.6896040122560407e-11 
575 574 -1.6896040122560407e-11 
575 1101 0.49999999996157996 
576 34 -0.37500000000749556 
576 933 -1.6896040122560407e-11 
577 34 -0.37500000000749556 
577 206 -0.37500000000433653 
578 452 0.11111111109800753 
579 580 0.3333333333055045 
580 504 -0.46666666667263046 
580 579 0.3333333333055045 
580 951 0.33333333330550463 
581 200 -0.4500000000046547 
581 405 -0.16666666667792018 
582 474 -0.3000000000208012 
582 583 -0.1666666667009964 
582 584 -0.1666666666799932 
583 42 -0.6590909096726254 
583 474 -0.5000000000325888 
583 582 -0.1666666667009964 
583 643 -0.5238095240987315 
583 733 0.1666666666482508 
583 869 -0.33333333334233695 
584 582 -0.1666666666799932 
584 899 -1.6896040122560407e-11 
585 192 -0.439393939435623 
585 232 -0.6458333335521407 
585 284 -0.11666666692188388 
585 296 -0.20833333342344296 
585 593 -0.2500000000439022 
585 775 -0.33333333334233695 
586 232 0.12499999998532463 
587 588 0.49999999972581843 
588 587 0.49999999972581843 
588 937 -0.1666666666799932 
589 192 -0.37121212133227677 
589 327 -0.25000000045132187 
589 590 -0.1666666666799932 
590 589 -0.1666666666799932 
590 1002 -0.2500000000114524 
591 178 0.045454545422869974 
592 21 0.08333333332413417 
593 21 -0.5833333333367088 
593 248 -0.41666666670971897 
593 585 -0.2500000000439022 
594 21 0.0833333333241344 
595 21 0.08333333332413406 
596 21 0.08333333332413417 
597 21 -0.583333333336709 
597 718 -0.41666666667351837 
597 981 0.33333333330550463 
598 21 -0.4166666666724308 
598 1098 -1.6896040122560407e-11 
599 21 0.0833333333241344 
600 419 -0.45000000008074137 
600 1019 -0.2500000000114524 
600 1026 -0.5000000000056277 
600 1046 -0.12500000000562794 
601 200 -0.12500000001063283 
601 602 0.06249999997298339 
602 38 -0.43421052637609425 
602 39 -0.2708333333666997 
602 52 -0.5208333333484338 
602 200 -0.42500000007611627 
602 203 -0.12500000025673907 
602 601 0.06249999997298339 
602 830 -0.08750000021392568 
602 1065 0.12499999998532463 
603 533 -7.008615909853688e-12 
603 604 -0.2857142860788331 
604 414 -0.7321428571448398 
604 603 -0.2857142860788331 
604 653 -0.3571428571510269 
604 903 -0.2857142860788331 
604 952 0.14285714284071538 
604 953 0.14285714284071527 
604 954 0.14285714284071527 
605 178 0.045454545422869974 
606 406 0.24999999996658773 
606 744 0.24999999996658784 
607 608 0.49999999996157996 
608 116 -0.38888888889582685 
608 607 0.49999999996157996 
609 610 0.16666666664825036 
610 95 -0.4166666673137722 
610 400 -0.5000000002667853 
610 609 0.16666666664825036 
610 674 -0.5000000000053608 
610 765 0.1666666666482508 
610 1074 0.16666666664825058 
611 420 0.16666666664825058 
612 192 -0.09090909092677224 
612 613 0.29999999997593063 
613 192 -0.09545454669830056 
613 562 -0.3000000000947518 
613 612 0.29999999997593063 
613 622 -0.05000000095379642 
613 642 -0.03333333347213241 
614 147 -0.6333333333364839 
614 292 -0.7933333333350632 
614 615 -0.08333333350772043 
614 616 0.16666666662786378 
614 617 -2.199049831119737e-10 
614 618 -0.5000000000053608 
615 614 -0.08333333350772043 
615 617 0.04166666663962326 
615 792 0.33333333330550463 
616 614 0.16666666662786378 
616 617 0.3749999999096886 
617 614 -2.199049831119737e-10 
617 615 0.04166666663962326 
617 616 0.3749999999096886 
617 768 0.24999999997633604 
618 339 -0.3333333333420525 
618 614 -0.5000000000053608 
618 1055 0.33333333330550463 
619 131 -0.5666666666705105 
619 620 0.3333333333055045 
619 621 -0.1666666666799932 
620 619 0.3333333333055045 
621 374 -1.6895818077955482e-11 
621 619 -0.1666666666799932 
622 50 -0.4500000002664706 
622 192 0.0075757575348058825 
622 296 -1.4915180202024203e-11 
622 613 -0.05000000095379642 
622 623 0.24999999930806993 
622 624 0.08333333281936117 
623 192 -0.06818181820254399 
623 622 0.24999999930806993 
624 192 -0.05681818184170595 
624 398 -0.36029411818183443 
624 622 0.08333333281936117 
624 696 0.04166666663687035 
625 626 0.3333333333055045 
626 59 -0.5897435897467722 
626 625 0.3333333333055045 
626 650 -0.1666666666799932 
627 22 -1.6896040122560407e-11 
627 1107 0.49999999996157996 
628 364 0.14285714284071527 
629 561 0.33333333330550463 
630 442 0.12499999998532452 
631 442 0.06249999997298272 
631 445 0.49999999973567455 
632 442 0.1249999999853243 
633 442 0.1249999999853244 
634 442 0.12499999998532463 
635 178 0.04545454542287031 
636 398 0.05882352939801816 
637 398 0.05882352939801827 
638 398 -0.44117647059311427 
638 1057 0.49999999996157996 
639 398 -0.41176470588527936 
639 1027 0.24999999996658784 
640 83 -0.3875000004815632 
640 228 -0.5500000000018033 
640 254 -0.3000000000069756 
640 398 -0.5235294120183938 
640 960 -0.5500000000047178 
641 398 -0.41176470588527914 
641 1046 0.24999999996658773 
642 192 -0.318181818207929 
642 308 -0.2916666672160928 
642 613 -0.03333333347213241 
643 79 -0.5982142857289718 
643 199 -0.5714285725436248 
643 422 -0.5857142858288895 
643 436 -0.40476190478144414 
643 487 -0.6071428571464847 
643 583 -0.5238095240987315 
643 701 -0.2857142860788331 
644 199 -0.28571428607883287 
644 702 0.24999999996658773 
645 38 -0.3771929826629514 
645 199 -0.28571428573125557 
645 355 -0.30303030328628777 
646 41 -0.42500000004269145 
646 199 -0.33928571435219634 
646 985 0.24999999997633615 
646 1087 0.24999999997633604 
647 364 0.14285714284071538 
648 174 -0.6250000000033309 
648 333 -0.416666666673736 
648 649 -0.5500000000046015 
648 650 -0.2500000000114524 
649 253 -0.46666666667226453 
649 422 -0.6000000000038335 
649 648 -0.5500000000046015 
649 739 0.19999999997925055 
649 740 0.19999999997925044 
650 626 -0.1666666666799932 
650 648 -0.2500000000114524 
651 264 -0.589743589746772 
651 382 -0.3333333333420525 
651 908 0.33333333330550463 
652 382 -0.1666666666799932 
652 809 -1.6896040122560407e-11 
653 604 -0.3571428571510269 
653 654 0.49999999996157996 
654 653 0.49999999996157996 
655 535 0.33333333330550463 
656 524 0.24999999997633615 
657 3 -1.9835688647162897e-11 
657 72 0.022727272704225365 
658 3 -1.9835688647162897e-11 
658 79 0.12499999996082511 
659 3 0.08333333332413406 
660 3 -0.33333333354703454 
660 4 -0.21428571461347823 
661 542 0.14285714284071527 
662 124 -0.1666666669088006 
662 499 0.05555555542251622 
662 663 -1.7319257139547517e-11 
663 15 -0.5000000003443872 
663 499 -0.16666666788182227 
663 662 -1.7319257139547517e-11 
663 823 -0.03333333337354327 
663 1008 0.19999999997925044 
664 665 0.49999999996157996 
665 206 -0.37500000000749556 
665 664 0.49999999996157996 
666 133 -0.7210526315945147 
666 344 -0.550000000283311 
666 667 -0.3000000000100629 
666 668 0.19999999997925055 
666 669 0.19999999997925044 
667 666 -0.3000000000100629 
667 753 -0.3000000000100629 
668 666 0.19999999997925055 
669 666 0.19999999997925044 
670 141 0.11111111109800753 
671 141 -0.3333333336602715 
671 476 -1.2504175472827228e-10 
672 141 -0.38888888889582685 
672 298 -0.3000000000069756 
673 141 0.11111111109800764 
674 610 -0.5000000000053608 
674 675 0.3333333333055045 
674 676 0.33333333330550463 
675 674 0.3333333333055045 
676 674 0.33333333330550463 
677 13 -0.33333333334233695 
677 292 -0.460000000001201 
678 13 0.1666666666482508 
679 13 0.16666666664825058 
680 681 0.14285714284071527 
681 38 -0.5300751883095942 
681 87 -0.5857142858288891 
681 211 -0.5324675330716138 
681 248 -0.5357142859922568 
681 302 -0.2857142857233428 
681 680 0.14285714284071527 
681 856 0.14285714284071527 
682 107 0.05555555553809888 
683 107 -0.4444444444492277 
683 178 -0.454545454550058 
684 107 -0.4444444444492277 
684 938 0.49999999996157996 
685 107 0.05555555553809921 
686 107 0.05555555553809888 
687 107 0.055555555538098655 
688 107 0.05555555553809899 
689 107 0.0555555555380991 
690 107 0.05555555553809921 
691 107 -0.4444444444492275 
691 846 0.49999999996157996 
692 107 0.0555555555380991 
693 228 -0.3333333333423367 
693 694 0.49999999996157996 
694 693 0.49999999996157996 
695 696 0.16666666664825058 
696 50 -0.4500000000381963 
696 192 -0.2651515156368298 
696 223 -0.4500000005318987 
696 327 -0.41666666751104153 
696 624 0.04166666663687035 
696 695 0.16666666664825058 
697 698 0.16666666664825036 
698 11 -0.7395833333880162 
698 308 -0.5833333333373458 
698 697 0.16666666664825036 
698 727 -0.33333333334233695 
698 826 -0.25000000039307624 
698 894 0.16666666664825058 
699 26 -0.25000000032936454 
699 700 0.24999999987545451 
700 229 -4.246163420873472e-10 
700 699 0.24999999987545451 
700 921 0.16666666665665042 
701 643 -0.2857142860788331 
701 702 0.24999999996658784 
702 644 0.24999999996658773 
702 701 0.24999999996658784 
703 41 -0.6416666675670908 
703 47 -0.6333333334257996 
703 50 -0.6416666667183608 
703 211 -0.5265151523413063 
703 292 -0.7150000002763579 
703 316 -0.4166666666724308 
703 355 -0.7007575762373766 
703 414 -0.39583333462790593 
703 543 -0.600000000153686 
703 704 -0.08333333336700544 
703 705 -0.08333333336700544 
703 706 -0.08333333376811747 
704 414 0.041666666601883895 
704 703 -0.08333333336700544 
704 705 0.6666666664807098 
705 414 0.04166666660188345 
705 703 -0.08333333336700544 
705 704 0.6666666664807098 
706 50 -0.05000000056114362 
706 703 -0.08333333376811747 
707 546 -1.6896040122560407e-11 
707 708 -0.33333333333916926 
708 707 -0.33333333333916926 
708 933 -0.33333333333916904 
708 986 0.16666666664825036 
708 1037 0.16666666664825058 
708 1050 0.1666666666482508 
708 1051 0.16666666664825058 
709 710 0.49999999996157996 
710 158 -0.40909090909697854 
710 709 0.49999999996157996 
711 327 0.08333333332413406 
712 351 0.14285714284071527 
713 44 -0.3000000000100629 
713 351 -0.35714285714784766 
714 351 0.14285714284071527 
715 293 -0.2500000000114526 
715 784 -0.2500000000086169 
716 293 -6.147971021164267e-12 
716 345 -0.15000000012269643 
717 127 0.1249999999853243 
718 52 -0.7083333333347506 
718 66 -0.25000000001145284 
718 597 -0.41666666667351837 
718 969 0.24999999997633604 
719 720 0.24999999998872147 
720 719 0.24999999998872147 
720 786 -0.5500000000047176 
720 978 -0.2500000000086171 
720 993 0.24999999997633604 
721 203 -0.22222222224359567 
721 722 -0.10000000001762155 
722 178 -0.7090909091450768 
722 200 -0.5500000000636522 
722 327 -0.40833333337631816 
722 721 -0.10000000001762155 
722 830 0.19999999980873973 
723 15 0.19999999997925055 
724 725 0.3333333333055045 
725 367 -0.41666666667373553 
725 724 0.3333333333055045 
725 1097 0.33333333330550463 
726 727 0.49999999996157996 
727 698 -0.33333333334233695 
727 726 0.49999999996157996 
728 364 0.14285714284071516 
729 26 0.1249999999853243 
730 494 0.3333333333055045 
731 564 0.16666666664825058 
732 14 0.49999999996157996 
733 583 0.1666666666482508 
734 59 -0.6846153846163896 
734 192 -0.6181818182266343 
734 223 -0.20000000112782157 
734 229 -0.5142857147055939 
734 735 -0.20000000000489448 
735 292 -0.4400000000024282 
735 734 -0.20000000000489448 
736 87 0.19999999997925055 
737 87 0.19999999997925055 
738 87 0.19999999997925044 
739 649 0.19999999997925055 
740 649 0.19999999997925044 
741 71 0.49999999996157996 
742 193 -0.2500000000114524 
742 743 -1.6896040122560407e-11 
743 742 -1.6896040122560407e-11 
743 869 -1.6895818077955482e-11 
744 407 -0.2857142860788331 
744 606 0.24999999996658784 
745 452 0.11111111109800775 
746 502 0.19999999997925055 
747 105 -0.4375000000049982 
747 161 -0.2500000000114524 
748 749 0.24999999997633615 
749 385 -0.5000000000056277 
749 748 0.24999999997633615 
749 1016 0.24999999997759326 
749 1017 -4.557789701209458e-10 
750 133 0.05263157892664938 
751 133 -0.42982456159652127 
751 228 -0.5000000000053608 
751 307 -0.21428571479954606 
752 267 0.09999999998832099 
753 127 -0.6750000000027012 
753 562 -0.6000000000038337 
753 667 -0.3000000000100629 
753 767 -0.3000000000100629 
753 1110 0.19999999997925044 
754 174 0.12499999998532452 
755 394 0.19999999997925055 
756 563 0.19999999997925055 
757 563 0.19999999997925044 
758 385 0.24999999997759315 
758 759 0.41666666659884133 
759 385 -6.175659983398418e-11 
759 758 0.41666666659884133 
759 966 0.33333333330550463 
760 32 -0.3437500000147191 
760 924 0.16666666643394157 
761 32 0.062499999990653254 
762 32 -0.09375000000953215 
762 394 0.24999999993888966 
763 32 0.06249999999065292 
764 32 0.062499999990653254 
765 610 0.1666666666482508 
766 767 0.49999999996157996 
767 753 -0.3000000000100629 
767 766 0.49999999996157996 
768 617 0.24999999997633604 
769 200 0.04999999997623217 
770 216 0.24999999997633615 
771 227 0.24999999996658773 
771 399 -0.12500000000562794 
772 364 0.14285714284071538 
773 452 0.11111111109800775 
774 223 0.19999999997925044 
775 585 -0.33333333334233695 
775 776 0.49999999996157996 
776 775 0.49999999996157996 
777 25 -0.03333333337354305 
777 470 0.16666666652998674 
777 972 0.33333333330550463 
778 68 0.3333333333055045 
779 68 -0.20000000003541807 
779 82 -0.025000000108350573 
779 285 -0.10000000004096998 
779 878 -0.3000000000100631 
779 959 -0.3000000000069756 
780 337 0.33333333330550463 
781 158 -0.4090909090969783 
781 782 -1.6896040122560407e-11 
782 781 -1.6896040122560407e-11 
782 1048 0.49999999996157996 
783 178 -0.38636363637806914 
783 422 -0.10000000004096998 
783 784 -0.2916666672160928 
784 715 -0.2500000000086169 
784 783 -0.2916666672160928 
784 950 -0.5000000000056279 
784 1054 -0.2916666666926928 
785 147 -0.3000000000100629 
785 786 -0.3000000000100629 
786 134 -0.45000000001769536 
786 307 -0.31428571430897345 
786 720 -0.5500000000047176 
786 785 -0.3000000000100629 
786 884 0.14999999842844036 
787 333 0.33333333330550463 
788 249 -0.2500000000114526 
788 789 0.49999999996157996 
789 788 0.49999999996157996 
790 464 0.33333333330550463 
791 83 0.1249999999853244 
792 615 0.33333333330550463 
793 83 -0.6250000000033309 
793 94 -0.5000000000056277 
793 183 -0.41666666667373553 
793 794 0.24999999997633604 
794 793 0.24999999997633604 
795 17 0.07692307691495315 
796 797 0.33333333331549264 
797 796 0.33333333331549264 
797 862 -0.41666666667373553 
797 989 0.33333333330550463 
798 345 -0.5666666666705105 
798 799 0.3333333333055045 
798 800 0.33333333330550463 
799 798 0.3333333333055045 
800 798 0.33333333330550463 
801 310 0.24999999997633615 
802 310 0.24999999997633604 
803 124 0.1666666666482508 
804 116 0.11111111109800775 
805 264 0.07692307691495315 
806 807 0.19999999997925055 
807 26 -0.6750000000027012 
807 806 0.19999999997925055 
807 1020 -0.3000000000100629 
807 1028 0.19999999997925055 
807 1108 0.19999999997925044 
808 331 0.24999999997633604 
809 54 -0.3000000000100629 
809 652 -1.6896040122560407e-11 
810 54 0.19999999997925055 
811 54 0.19999999997925044 
812 369 0.1666666666482508 
813 369 0.16666666664825058 
814 492 -1.6896040122560407e-11 
814 815 0.49999999996157996 
815 814 0.49999999996157996 
816 206 -0.3750000000074958 
816 817 -0.2500000000114524 
817 131 -0.4250000000426917 
817 174 -0.37500000005534373 
817 258 -0.2500000000114526 
817 816 -0.2500000000114524 
818 234 -0.1666666666799932 
818 819 0.49999999996157996 
819 818 0.49999999996157996 
820 17 -0.2403846158556524 
820 41 -0.10000000006576126 
820 355 -0.11363636435769076 
820 571 -0.18750000023047209 
821 11 0.06249999999065303 
822 823 0.33333333330550463 
823 499 -0.22222222228181732 
823 663 -0.03333333337354327 
823 822 0.33333333330550463 
824 59 0.07692307691495293 
825 59 0.07692307691495326 
826 59 -0.3846153849014331 
826 698 -0.25000000039307624 
827 200 0.049999999976231946 
828 192 -0.17424242429151704 
828 284 -1.7319035094942592e-11 
828 386 -0.21428571447978673 
829 386 0.14285714284071527 
830 327 -0.4083333333459487 
830 355 -0.1909090910279847 
830 571 -0.22500000064645853 
830 602 -0.08750000021392568 
830 722 0.19999999980873973 
831 367 0.24999999997633604 
832 127 0.12499999998532463 
833 38 0.05263157892664927 
834 11 -0.34375000002171485 
834 38 -0.3684210526489864 
834 983 0.33333333330550463 
835 38 -0.5368421053745438 
835 417 -0.2714285716738676 
835 564 -0.6333333333364832 
835 842 -0.10000000004096998 
835 888 -0.10000000000487619 
836 211 0.04545454542286986 
837 178 -0.3863636363694689 
837 211 -0.38636363636946913 
838 211 0.045454545422870085 
839 211 0.04545454542287031 
840 211 0.045454545422870085 
841 42 -0.40909090909697854 
841 417 -0.35714285714784744 
842 269 -0.41666666667373575 
842 417 -0.21428571431587384 
842 835 -0.10000000004096998 
843 417 0.14285714284071527 
844 116 0.11111111109800775 
845 116 0.11111111109800764 
846 691 0.49999999996157996 
847 848 0.49999999972581843 
848 847 0.49999999972581843 
848 926 -1.6896040122560407e-11 
849 40 0.09999999998832099 
850 851 0.49999999996157996 
850 852 -1.6896040122560407e-11 
851 850 0.49999999996157996 
852 474 -0.4000000000064692 
852 850 -1.6896040122560407e-11 
853 854 0.1666666666482508 
854 39 -0.5833333333684241 
854 79 -0.47916666694644294 
854 436 -0.41666666674342645 
854 474 -0.683333333361305 
854 853 0.1666666666482508 
854 1066 0.16666666664825058 
855 511 0.33333333330550463 
856 681 0.14285714284071527 
857 292 0.039999999952545884 
858 292 0.03999999995254566 
859 248 -0.35416666675508246 
859 292 -0.3200000000564609 
859 862 -4.557787480763409e-10 
860 292 0.03999999995254577 
861 292 0.03999999995254577 
862 292 -0.5450000000083117 
862 797 -0.41666666667373553 
862 859 -4.557787480763409e-10 
862 1089 0.24999999997633604 
863 292 0.03999999995254566 
864 292 -0.7400000000089135 
864 371 -0.20000000000489448 
864 955 0.19999999997925055 
864 1093 -0.3000000000100629 
864 1102 0.19999999997925044 
865 292 0.03999999995254577 
866 292 -0.4600000000046558 
866 1116 0.49999999996157996 
867 206 -0.37500000000749556 
867 868 0.49999999996157996 
868 867 0.49999999996157996 
869 583 -0.33333333334233695 
869 743 -1.6895818077955482e-11 
870 134 0.24999999997633604 
871 487 0.24999999997759315 
871 872 0.7499999999319464 
872 487 0.24999999997759337 
872 871 0.7499999999319464 
873 264 0.07692307691495304 
874 229 -0.35714285715102667 
874 248 -0.37500000000749534 
875 474 0.09999999998832121 
876 474 0.09999999998832099 
877 474 -0.4000000000064694 
877 1106 0.49999999996157996 
878 474 -0.40000000000646896 
878 779 -0.3000000000100631 
879 474 0.09999999998832132 
880 881 0.49999999972581843 
881 880 0.49999999972581843 
881 883 -1.6896040122560407e-11 
882 288 0.49999999996157996 
883 437 -0.3333333333423367 
883 881 -1.6896040122560407e-11 
884 307 0.03571428457938708 
884 786 0.14999999842844036 
885 452 0.11111111109800764 
886 400 0.12499999998532452 
887 39 -0.3333333335470343 
887 348 -0.16666666668277408 
888 39 -0.25000000002638956 
888 835 -0.10000000000487619 
889 39 0.0833333333241344 
890 527 0.3333333333055045 
891 472 0.19999999997925055 
892 131 -0.3000000002832446 
892 1024 0.4999999999545762 
893 131 0.09999999998832132 
894 698 0.16666666664825058 
895 408 0.33333333330550463 
896 897 0.3333333333055045 
897 249 -0.416666666673736 
897 896 0.3333333333055045 
897 992 0.33333333330550463 
898 432 -0.2500000000086169 
898 499 -0.6388888888919688 
898 556 -0.550000000004718 
898 919 0.24999999997633604 
899 584 -1.6896040122560407e-11 
899 900 0.49999999996157996 
900 899 0.49999999996157996 
901 902 0.33333333330550463 
902 52 -0.6250000000019342 
902 407 -0.5238095238135427 
902 901 0.33333333330550463 
903 604 -0.2857142860788331 
903 904 0.24999999996658784 
904 533 -7.008615909853688e-12 
904 903 0.24999999996658784 
905 40 -0.5166666666754463 
905 280 -0.29166666669269303 
905 437 -0.5000000000046985 
906 280 0.24999999997633604 
907 100 0.24999999997633604 
908 651 0.33333333330550463 
909 910 0.3333333333055045 
910 403 -0.1666666666779204 
910 909 0.3333333333055045 
910 1047 0.33333333330550463 
911 298 -0.3000000000100631 
911 990 0.49999999996157996 
912 476 0.33333333330550463 
913 307 0.14285714284071527 
914 481 -0.2142857143158734 
914 526 -0.46666666667263 
914 915 0.4166666666290113 
915 481 0.03571428457938719 
915 914 0.4166666666290113 
916 502 0.19999999997925055 
917 472 -0.3000000000100631 
917 1034 0.49999999996157996 
918 264 0.07692307691495337 
919 898 0.24999999997633604 
920 229 0.10714285711115912 
920 921 0.49999999988341703 
921 229 0.09523809515610715 
921 700 0.16666666665665042 
921 920 0.49999999988341703 
922 84 0.08333333332413417 
923 17 0.07692307691495337 
924 151 -0.2000000000618758 
924 760 0.16666666643394157 
924 1010 0.33333333330550463 
925 407 0.14285714284071527 
926 143 -0.1666666666799932 
926 848 -1.6896040122560407e-11 
927 16 -1.6896040122560407e-11 
927 228 -0.33333333333916926 
928 400 0.1249999999853243 
929 264 -0.42307692308244427 
929 400 -0.37500000000749556 
930 400 0.12499999998532463 
931 499 -0.5833333333618744 
931 543 -0.5500000001869205 
931 572 -0.5833333333373456 
931 932 0.24999999997633604 
932 931 0.24999999997633604 
933 576 -1.6896040122560407e-11 
933 708 -0.33333333333916904 
934 481 0.14285714284071538 
935 481 0.14285714284071527 
936 481 0.14285714284071527 
937 95 -0.5000000000053608 
937 109 -0.1666666666799932 
937 588 -0.1666666666799932 
938 684 0.49999999996157996 
939 494 0.33333333330550463 
940 226 0.49999999996157996 
941 25 0.19999999997925044 
942 439 -1.6895818077955482e-11 
942 542 -0.3571428571510269 
943 424 0.49999999996157996 
944 945 0.33333333330550463 
945 174 -0.5416666666711376 
945 264 -0.5897435897467722 
945 944 0.33333333330550463 
946 564 0.1666666666482508 
947 178 0.045454545422870085 
948 104 0.3333333333055045 
949 41 -2.0580204207476527e-11 
949 950 0.3749999999096886 
950 41 -0.15000000076186115 
950 42 -0.39772727273699915 
950 784 -0.5000000000056279 
950 949 0.3749999999096886 
951 580 0.33333333330550463 
952 604 0.14285714284071538 
953 604 0.14285714284071527 
954 604 0.14285714284071527 
955 864 0.19999999997925055 
956 407 -0.3571428571510269 
956 1075 0.49999999996157996 
957 50 0.09999999998832099 
958 150 -0.3571428571510269 
958 200 -0.4500000000046549 
959 1 -0.1666666666799932 
959 779 -0.3000000000069756 
960 640 -0.5500000000047178 
960 961 -6.175748801240388e-11 
960 962 -0.12500000017987967 
960 963 0.24999999997633604 
961 960 -6.175748801240388e-11 
961 962 -6.175704392319403e-11 
961 982 0.33333333330550463 
962 178 -0.6818181818240721 
962 960 -0.12500000017987967 
962 961 -6.175704392319403e-11 
962 1054 -0.29166666669269325 
963 960 0.24999999997633604 
964 129 0.19999999997925044 
965 136 -0.36666666668347636 
965 499 -0.5000000000106846 
965 1061 0.33333333330550463 
966 759 0.33333333330550463 
967 52 -0.4583333333379551 
967 968 0.49999999996157996 
968 967 0.49999999996157996 
969 718 0.24999999997633604 
970 178 0.04545454542287031 
971 178 0.045454545422870085 
972 777 0.33333333330550463 
973 572 0.1666666666482508 
974 572 0.16666666664825058 
975 4 0.03571428457938719 
975 976 0.7499999999319464 
976 4 0.03571428457938708 
976 975 0.7499999999319464 
977 200 0.04999999997623217 
978 267 -0.4000000000064694 
978 720 -0.2500000000086171 
979 267 0.09999999998832132 
980 105 0.062499999990653254 
981 597 0.33333333330550463 
982 961 0.33333333330550463 
983 834 0.33333333330550463 
984 40 0.09999999998832121 
985 646 0.24999999997633615 
986 708 0.16666666664825036 
987 524 0.24999999997633604 
988 543 0.09999999998832099 
989 797 0.33333333330550463 
990 911 0.49999999996157996 
991 52 0.04166666662356755 
992 897 0.33333333330550463 
993 720 0.24999999997633604 
994 11 0.06249999999065314 
995 11 0.062499999990653254 
996 11 0.06249999999065303 
997 11 0.06249999999065292 
998 11 0.062499999990653254 
999 200 0.04999999997623217 
1000 265 -0.500000000005361 
1000 1001 0.33333333330550463 
1000 1002 -0.41666666667373553 
1001 1000 0.33333333330550463 
1002 104 -0.41666666667351837 
1002 590 -0.2500000000114524 
1002 1000 -0.41666666667373553 
1002 1111 0.24999999997633604 
1003 158 0.09090909089870924 
1004 84 0.0833333333241344 
1005 15 0.19999999997925044 
1006 158 0.09090909089870935 
1007 564 0.16666666664825058 
1008 663 0.19999999997925044 
1009 216 0.24999999997633615 
1010 924 0.33333333330550463 
1011 7 0.24999999997759337 
1011 52 -0.16666666667080454 
1012 52 -0.45833333333795556 
1012 1049 -1.6896040122560407e-11 
1013 52 0.04166666662356744 
1014 52 0.04166666662356722 
1015 17 -0.31730769246755797 
1015 52 -0.43750000013577206 
1015 200 -0.4500000004126916 
1015 327 -0.5000000000167255 
1016 749 0.24999999997759326 
1016 1017 0.41666666662901186 
1017 216 -0.416666666673736 
1017 749 -4.557789701209458e-10 
1017 1016 0.41666666662901186 
1018 342 -0.16666666670496344 
1018 348 -0.16666666702793997 
1019 600 -0.2500000000114524 
1019 1020 -1.6895818077955482e-11 
1020 807 -0.3000000000100629 
1020 1019 -1.6895818077955482e-11 
1021 1022 0.3333333333055045 
1022 84 -0.5833333333367086 
1022 1021 0.3333333333055045 
1022 1054 -0.33333333334205273 
1023 502 0.19999999997925044 
1024 44 -0.10000000000487597 
1024 892 0.4999999999545762 
1025 1026 0.24999999997633615 
1026 600 -0.5000000000056277 
1026 1025 0.24999999997633615 
1026 1036 0.24999999997633615 
1026 1103 0.24999999997633604 
1027 105 -0.4062500000029874 
1027 639 0.24999999996658784 
1028 807 0.19999999997925055 
1029 50 0.09999999998832121 
1030 394 -0.3000000000100631 
1030 1031 0.49999999996157996 
1031 1030 0.49999999996157996 
1032 124 0.16666666664825058 
1033 72 0.09090909089870935 
1034 917 0.49999999996157996 
1035 364 0.14285714284071527 
1036 1026 0.24999999997633615 
1037 708 0.16666666664825058 
1038 17 0.07692307691495326 
1039 556 0.19999999997925055 
1040 200 0.04999999997623206 
1041 200 0.04999999997623217 
1042 200 0.04999999997623217 
1043 47 -0.3000000000100631 
1043 437 -0.33333333333916926 
1044 556 0.19999999997925044 
1045 40 0.09999999998832132 
1046 600 -0.12500000000562794 
1046 641 0.24999999996658773 
1047 910 0.33333333330550463 
1048 782 0.49999999996157996 
1049 414 -0.37500000000749534 
1049 1012 -1.6896040122560407e-11 
1050 708 0.1666666666482508 
1051 708 0.16666666664825058 
1052 92 0.24999999997633604 
1053 188 0.33333333330550463 
1054 784 -0.2916666666926928 
1054 962 -0.29166666669269325 
1054 1022 -0.33333333334205273 
1055 618 0.33333333330550463 
1056 84 0.08333333332413417 
1057 638 0.49999999996157996 
1058 437 0.16666666664825058 
1059 519 0.33333333330550463 
1060 26 0.12499999998532463 
1061 965 0.33333333330550463 
1062 295 0.24999999997633615 
1063 326 0.14285714284071527 
1064 326 0.14285714284071527 
1065 602 0.12499999998532463 
1066 854 0.16666666664825058 
1067 446 0.16666666664825058 
1068 539 0.49999999996157996 
1069 174 0.12499999998532463 
1070 264 0.07692307691495315 
1071 342 0.11111111109800775 
1072 342 0.11111111109800775 
1073 342 0.11111111109800764 
1074 610 0.16666666664825058 
1075 956 0.49999999996157996 
1076 364 0.14285714284071527 
1077 543 0.09999999998832099 
1078 276 0.3333333333055045 
1079 203 -0.055555555696017445 
1079 355 -0.09090909126748103 
1080 295 0.24999999997633604 
1081 256 0.24999999997633604 
1082 206 0.12499999998532463 
1083 468 0.24999999997633604 
1084 462 0.24999999997633604 
1085 105 0.062499999990653254 
1086 276 0.33333333330550463 
1087 646 0.24999999997633604 
1088 455 0.49999999996157996 
1089 862 0.24999999997633604 
1090 111 0.12499999998532463 
1091 527 0.33333333330550463 
1092 265 0.1666666666482508 
1093 526 -0.3000000000100629 
1093 864 -0.3000000000100629 
1094 526 0.19999999997925044 
1095 543 0.09999999998832121 
1096 50 0.09999999998832132 
1097 725 0.33333333330550463 
1098 105 -0.4375000000049982 
1098 598 -1.6896040122560407e-11 
1099 265 0.16666666664825058 
1100 84 0.08333333332413417 
1101 575 0.49999999996157996 
1102 864 0.19999999997925044 
1103 1026 0.24999999997633604 
1104 84 0.08333333332413406 
1105 9 -0.10000000000487619 
1105 83 -0.2500000000198557 
1106 877 0.49999999996157996 
1107 627 0.49999999996157996 
1108 807 0.19999999997925044 
1109 147 0.19999999997925044 
1110 753 0.19999999997925044 
1111 1002 0.24999999997633604 
1112 543 0.09999999998832132 
1113 17 0.07692307691495315 
1114 84 0.0833333333241344 
1115 105 0.06249999999065292 
1116 866 0.49999999996157996 
1117 105 0.062499999990653254 
