0 0 0.0 
0 2 0.04999999999057947 
1 1 0.0 
1 3 0.3333333333055044 
1 4 -0.16666666735404756 
1 5 0.1666666666581632 
2 0 0.04999999999057947 
2 2 0.0 
2 8 -0.7750000000289297 
2 10 -0.6636363638620866 
2 11 -0.6166666666689331 
2 13 -0.7138888889117423 
2 14 0.04999999997623217 
2 15 -0.7714285715285183 
2 16 -0.6166666666689329 
2 18 -0.7583333333676703 
2 19 -0.4500000000046549 
2 20 -0.6666666667000327 
2 23 -0.8694444445205884 
2 24 -0.500000000029764 
2 26 0.049999999976231946 
2 27 -0.7000000000216922 
2 28 0.04999999997623217 
2 30 -0.675000000006537 
2 31 -0.45000000000465445 
2 35 -0.7715517242011907 
2 36 -0.5666666666737226 
3 1 0.3333333333055044 
3 3 0.0 
4 1 -0.16666666735404756 
4 4 0.0 
4 6 -0.5000000000056279 
4 42 -0.416666666966361 
4 43 0.24999999997633604 
5 1 0.1666666666581632 
5 5 0.0 
5 42 -0.16666666668277408 
6 4 -0.5000000000056279 
6 6 0.0 
6 44 -0.7065217391321625 
6 45 -0.625000000034535 
6 47 -0.5138888889074344 
7 7 0.0 
7 50 -0.466666666672265 
7 51 -0.1666666666799932 
7 52 -0.5000000000046982 
8 2 -0.7750000000289297 
8 8 0.0 
8 53 -0.5807692308228789 
8 54 -0.7095238096112437 
8 57 -0.4000000000064692 
8 59 -0.4000000000064692 
8 60 -0.7333333333352856 
8 62 -0.5666666667411366 
8 70 -0.5681818184934853 
8 71 -0.7333333333352856 
8 75 -0.4000000000064692 
9 9 0.0 
9 76 -0.400000000003389 
9 79 -0.38888888889270357 
10 2 -0.6636363638620866 
10 10 0.0 
10 80 -0.7012987013723959 
10 81 -0.7424242427241401 
10 82 -0.40909090909697854 
10 83 -0.4090909090969783 
10 84 -0.7070707070943654 
10 85 -0.5227272727354231 
10 86 0.09090909089870935 
10 87 -0.4090909090969783 
10 88 -0.6969696973600303 
10 89 -0.6636363636846228 
11 2 -0.6166666666689331 
11 11 0.0 
11 92 -0.1666666666799932 
11 93 0.33333333330550463 
12 12 0.0 
12 35 -0.8477011495848452 
12 94 -0.7916666669371808 
12 96 -0.7142857147978683 
12 97 -0.5416666666730863 
12 98 0.08333333332413417 
12 99 -0.666666666780787 
12 101 0.0833333333241344 
12 102 -0.4166666666724306 
12 103 0.08333333332413417 
12 106 -0.6666666666691912 
12 108 -0.6071428574572246 
12 110 0.0833333333241344 
13 2 -0.7138888889117423 
13 13 0.0 
13 112 -0.22222222235412215 
13 113 -0.4222222232770936 
13 114 -0.3125000000348732 
13 115 -0.8174603174745605 
13 117 -0.6666666667958372 
13 121 -0.38888888889582685 
13 126 -0.4777777794761191 
13 127 0.11111111109800764 
14 2 0.04999999997623217 
14 14 0.0 
15 2 -0.7714285715285183 
15 15 0.0 
15 135 -0.6380952380969602 
15 136 -0.7071428571520775 
15 139 -0.6357142857814004 
15 140 -0.7476190476480404 
15 142 -0.47142857143794026 
15 143 -0.721428571431586 
15 144 -0.4714285714379405 
15 146 -0.8047619047662706 
15 147 -0.7214285714315851 
15 148 0.028571428503498364 
15 149 -0.5952380952548002 
15 152 -0.5952380952588792 
15 154 -0.8047619047662711 
15 156 -0.63809523809696 
15 157 -0.7285714286375786 
15 158 -0.6380952380969598 
15 160 -0.7571428571485654 
15 161 0.028571428503498142 
15 162 -0.707142857152077 
15 164 -0.6095238095366491 
15 166 -0.8517857143434215 
15 167 -0.8047619047662713 
15 170 -0.44285714286235756 
15 173 -0.47142857143794004 
15 174 -0.7428571428673316 
15 175 0.028571428503498475 
15 176 -0.7071428571520775 
15 178 -0.6095238095360735 
15 180 -0.6357142857568179 
15 182 -0.7142857143307921 
15 183 -0.4714285714379405 
15 184 -0.6214285715038899 
15 185 -0.7746031746128612 
15 186 0.028571428503498364 
16 2 -0.6166666666689329 
16 16 0.0 
16 188 -0.41666666667351815 
16 189 -0.1666666666799932 
17 17 0.0 
17 192 0.9999999999267714 
18 2 -0.7583333333676703 
18 18 0.0 
18 194 0.16666666664825047 
18 195 -0.5833333338871689 
18 197 0.16666666664825058 
18 199 0.1666666666482508 
18 200 -0.33333333334233695 
19 2 -0.4500000000046549 
19 19 0.0 
19 203 0.49999999996157996 
20 2 -0.6666666667000327 
20 20 0.0 
20 22 -0.4333333333384761 
20 35 -0.813793103458301 
20 85 -0.516666666837829 
20 119 -0.6261904762183803 
20 120 -0.5500000000321414 
20 124 -0.5666666666719513 
20 150 -0.36666666667193804 
20 179 -0.5500000001015879 
20 206 -0.4333333333384761 
20 207 0.06666666666038634 
20 210 -0.43333333333847657 
20 211 -0.43333333333847657 
20 212 0.06666666666038634 
20 213 -0.400000000272664 
21 21 0.0 
21 215 -1.6895818077955482e-11 
21 216 0.49999999996157996 
22 20 -0.4333333333384761 
22 22 0.0 
22 219 0.49999999996157996 
23 2 -0.8694444445205884 
23 23 0.0 
23 220 0.055555555538098766 
23 221 0.05555555553809899 
23 222 -0.6111111111135845 
23 223 0.05555555553809899 
23 224 -0.4444444444492277 
23 225 0.05555555553809888 
23 227 0.05555555553809888 
23 228 -0.7444444444459033 
23 229 0.0555555555380991 
23 230 0.05555555553809921 
23 231 -0.7666666666765622 
23 233 -0.38888888889367523 
23 235 -0.6111111111135843 
23 236 0.0555555555380991 
23 237 -0.7166666666861041 
23 238 0.0555555555380991 
23 239 -0.7182539682596936 
24 2 -0.500000000029764 
24 24 0.0 
24 35 -0.5818965517284069 
24 240 -0.5000000000056277 
24 241 0.24999999997633604 
25 25 0.0 
25 125 -0.4500000003067235 
25 242 -0.6071428575570126 
25 244 -0.593750000034843 
25 246 -0.6250000000033307 
25 247 -0.3500000000845478 
25 248 -0.2500000000077629 
25 249 -9.347236318291152e-10 
25 250 -0.37500000000749556 
26 2 0.049999999976231946 
26 26 0.0 
27 2 -0.7000000000216922 
27 27 0.0 
27 214 -0.6500000001160511 
27 253 -0.20000000000489448 
27 255 0.19999999997925055 
27 256 0.19999999997925044 
28 2 0.04999999997623217 
28 28 0.0 
29 29 0.0 
29 258 0.9999999999267714 
30 2 -0.675000000006537 
30 30 0.0 
30 198 -0.34722222223067867 
30 259 -6.175704392319403e-11 
30 262 0.24999999997633604 
31 2 -0.45000000000465445 
31 31 0.0 
31 263 -1.6896040122560407e-11 
32 32 0.0 
32 35 -0.45689655173134325 
32 265 -1.7659491646782044e-09 
33 33 0.0 
33 268 -8.797207406985308e-11 
33 270 -0.466666666672265 
33 272 0.16666666665816277 
34 34 0.0 
34 231 -0.550000000039119 
34 273 0.24999999997633615 
34 275 -0.6071428571461048 
34 276 -0.16666666669429908 
35 2 -0.7715517242011907 
35 12 -0.8477011495848452 
35 20 -0.813793103458301 
35 24 -0.5818965517284069 
35 32 -0.45689655173134325 
35 35 0.0 
35 88 -0.8132183912862789 
35 139 -0.672413793180892 
35 172 -0.4655172413848945 
35 187 0.01724137924267366 
35 279 -0.48275862074247167 
35 282 -0.4827586207424712 
35 285 -0.4741379310378815 
35 286 0.017241379242673438 
35 287 -0.47413793103788193 
35 288 0.01724137924267377 
35 290 -0.6280788180799315 
35 292 -0.439655172495526 
35 293 0.01724137924267377 
35 296 0.017241379242673105 
35 297 0.017241379242673105 
35 298 0.01724137924267377 
35 300 0.01724137924267355 
35 301 -0.456896551731343 
35 302 -0.4827586207424712 
35 306 -0.5977011494619071 
35 307 -0.48275862074247167 
35 308 -0.8140394088714356 
35 309 -0.21551724138602557 
35 311 -0.48275862074247167 
35 313 -0.46551724140367146 
35 318 -0.8137931034967614 
35 323 -0.4741379310378817 
35 324 0.017241379242672994 
35 325 0.017241379242673216 
35 327 -0.5732758620874647 
35 329 -0.4741379310378817 
35 331 -0.4568965517318708 
35 333 -0.6396551725908506 
35 334 0.017241379242673105 
35 335 -0.5560344827850752 
35 336 -0.48275862074247144 
35 337 -0.7241379310623626 
35 338 -0.6494252873716306 
35 340 -0.48275862074247144 
35 341 -0.4827586207424719 
35 343 0.017241379242673105 
35 345 0.01724137924267377 
35 347 0.01724137924267377 
35 348 -0.46551724138489425 
35 349 -0.7155172414423143 
35 350 -0.45689655173134325 
35 351 0.017241379242673327 
35 353 -0.45689655177403266 
35 354 0.01724137924267355 
35 355 -0.48275862074247144 
35 356 -0.48275862074247144 
35 358 -0.6465517242330097 
35 359 -0.8113026820226512 
36 2 -0.5666666666737226 
36 36 0.0 
36 46 -0.6140350877206735 
36 360 -0.35714285716210203 
37 37 0.0 
37 363 -0.6071428571464843 
37 366 0.14285714284071527 
37 367 0.14285714284071538 
37 368 0.14285714284071516 
37 370 -0.35714285715102667 
37 372 -0.5238095238143972 
37 373 0.14285714284071527 
38 38 0.0 
38 45 -0.7959677420872915 
38 67 -0.7782258065169381 
38 105 -0.7177419354849524 
38 320 0.032258064453098645 
38 376 -0.6870967747098935 
38 377 0.03225806445309898 
38 378 0.032258064453098756 
38 380 -0.6021505376378207 
38 381 0.032258064453098756 
38 382 -0.4677419354890231 
38 383 0.032258064453098645 
38 384 0.03225806445309898 
38 386 -0.6693548387556336 
38 388 0.032258064453098534 
38 389 0.03225806445309898 
38 390 0.032258064453098645 
38 392 0.03225806445309887 
38 393 0.032258064453098645 
38 395 0.032258064453098645 
38 398 -0.5120967742248892 
38 400 -0.4516129032290397 
38 401 -0.4677419354890231 
38 402 0.03225806445309898 
38 404 -0.4516129032290399 
38 406 -0.4677419354890229 
38 407 -0.4677419354890229 
38 409 0.032258064453098756 
38 410 -0.5860215053906621 
38 411 0.032258064453098756 
38 412 -0.46774193548902243 
38 414 0.032258064453098756 
39 39 0.0 
39 416 -0.1666666666799932 
39 417 -0.5897435897454752 
39 419 -0.1666666666799932 
40 40 0.0 
40 372 -0.3333333333420525 
40 374 0.3333333333055045 
40 421 0.33333333330550463 
41 41 0.0 
41 53 -0.7032967033154707 
41 422 -0.45238095239434495 
41 427 0.14285714284071538 
41 428 0.14285714284071516 
41 429 -0.4142857144567187 
41 434 -0.6071428571610666 
41 435 0.14285714284071527 
42 4 -0.416666666966361 
42 5 -0.16666666668277408 
42 42 0.0 
42 338 -0.5000000000053606 
42 439 -0.33333333334233695 
42 440 0.1666666666482508 
42 441 -0.6333333333365667 
43 4 0.24999999997633604 
43 43 0.0 
44 6 -0.7065217391321625 
44 44 0.0 
44 228 -0.6913043478558856 
44 417 -0.8411371239152219 
44 424 -0.45652173913503913 
44 444 -0.45652173913503913 
44 445 0.04347826083165418 
44 447 -0.4347826086982203 
44 449 -0.7065217391319121 
44 450 -0.413043478265974 
44 451 -0.6811594204027878 
44 454 0.0434782608316544 
44 459 -0.45652173913503935 
44 460 0.04347826083165418 
44 462 -0.45652173913503913 
44 463 0.04347826083165418 
44 473 0.04347826083165418 
44 476 -0.536231884091078 
44 478 -0.6014492753657463 
44 482 0.04347826083165418 
44 483 0.0434782608316544 
44 484 0.043478260831654514 
44 486 -0.413043478265974 
44 488 0.04347826083165418 
45 6 -0.625000000034535 
45 38 -0.7959677420872915 
45 45 0.0 
45 349 -0.7333333334059875 
45 489 0.04999999997623206 
45 490 -0.7821428571475959 
45 491 -0.5916666666707651 
45 493 0.049999999976231946 
45 494 -0.4500000000046547 
45 496 -0.6250000000192992 
45 498 0.04999999997623228 
45 500 -0.5916666666707646 
45 501 -0.6166666666689324 
45 503 0.04999999997623217 
45 504 0.049999999976231946 
45 505 -0.4500000000046549 
45 507 -0.7000000000016817 
45 508 0.04999999997623217 
45 509 0.04999999997623206 
45 511 -0.5916666666707648 
45 513 -0.7583333333676705 
46 36 -0.6140350877206735 
46 46 0.0 
46 79 -0.8362573099465704 
46 291 -0.34210526318161616 
46 518 0.05263157892664905 
46 519 -0.5877192982499262 
46 520 0.05263157892664905 
46 522 -0.4473684210573403 
46 523 -0.1447368421094397 
46 524 0.05263157892664905 
46 525 0.05263157892664905 
46 526 0.052631578926648936 
46 527 -0.4210526315817569 
46 529 -0.6710526315858849 
46 530 0.05263157892664905 
46 532 -0.618421052739694 
46 533 0.05263157892664916 
46 534 0.05263157892664927 
46 536 -0.6140350877216643 
46 537 -0.39473684227693395 
47 6 -0.5138888889074344 
47 47 0.0 
47 53 -0.7350427350484412 
47 67 -0.597222222300559 
47 247 -0.5777777778739013 
47 539 -0.29166666743994707 
47 540 0.11111111109800753 
47 541 -0.5222222222471922 
47 542 0.027777777754290023 
47 544 -0.3541666667877186 
48 48 0.0 
48 546 -0.25000000000861666 
48 552 -1.6896040122560407e-11 
49 49 0.0 
49 554 0.9999999999267714 
50 7 -0.466666666672265 
50 50 0.0 
50 130 -0.6333333333364832 
50 228 -0.6000000000038337 
50 556 -0.3000000000100629 
50 558 0.19999999997925044 
51 7 -0.1666666666799932 
51 51 0.0 
51 559 -1.6896040122560407e-11 
52 7 -0.5000000000046982 
52 52 0.0 
52 204 -0.3666666669449703 
52 561 0.16666666664825036 
52 562 0.16666666664825058 
52 565 -0.3333333333423367 
52 566 -0.29166666675495323 
53 8 -0.5807692308228789 
53 41 -0.7032967033154707 
53 47 -0.7350427350484412 
53 53 0.0 
53 70 -0.503496504224997 
53 79 -0.7735042735077395 
53 215 -0.4230769230824447 
53 567 -0.4923076923994323 
53 568 -0.5538461540020154 
53 571 -0.057692307705907275 
53 572 -0.42307692308244427 
53 573 0.07692307691495293 
53 574 -0.1923076924969298 
53 576 -0.5576923076982456 
54 8 -0.7095238096112437 
54 54 0.0 
54 116 -0.666666666714703 
54 179 -0.559523809975677 
54 348 -0.4047619047662736 
54 451 -0.5357142859267638 
54 476 -0.4761904762713378 
54 568 -0.6380952385149266 
54 577 -0.5476190476282312 
54 579 -0.6857142864932739 
54 580 -0.15476190476607288 
54 583 -0.4523809523855724 
54 584 -0.607142857188979 
54 585 -0.40476190476627383 
54 586 0.04761904759222646 
54 587 -0.45238095238557263 
54 588 -0.45238095238557285 
54 589 0.04761904759222624 
54 591 0.047619047592226016 
54 593 -0.6547619047726319 
54 595 0.047619047592226016 
54 596 -0.3571428571505719 
55 55 0.0 
55 599 -0.46666666667263 
55 600 -0.7000000000019204 
55 602 -0.6000000000038337 
55 605 -0.550000000004718 
55 607 -0.5500000000047178 
56 56 0.0 
57 8 -0.4000000000064692 
57 57 0.0 
57 610 0.49999999996157996 
58 58 0.0 
58 612 -0.33333333334205273 
58 613 0.3333333333055045 
58 614 0.33333333330550463 
59 8 -0.4000000000064692 
59 59 0.0 
59 615 0.49999999996157996 
60 8 -0.7333333333352856 
60 60 0.0 
60 619 0.16666666664825047 
60 624 -0.5000000000053608 
60 625 -0.5833333333373456 
60 626 -0.6333333333365669 
60 627 0.16666666664825058 
61 61 0.0 
61 96 0.04761904759222624 
62 8 -0.5666666667411366 
62 62 0.0 
62 568 -0.5666666666714608 
62 631 -0.5576923077072744 
62 632 0.16666666664825058 
62 634 -0.1666666667009966 
62 637 -0.4166666666805301 
63 63 0.0 
63 115 -0.19285714286260291 
63 639 0.41666666659884133 
64 64 0.0 
64 185 -0.5606060610037962 
64 405 -0.5303030309302637 
64 417 -0.7552447554860156 
64 567 -0.5272727272893074 
64 568 -0.6636363636469036 
64 640 -0.4090909090969781 
64 641 -0.6136363636593067 
64 643 0.09090909089870935 
64 644 -0.4090909090969783 
64 645 -0.06818181866077322 
64 646 0.09090909089870935 
65 65 0.0 
66 66 0.0 
66 247 -0.6888888889249962 
66 369 -0.8194444444462303 
66 405 -0.5833333333636714 
66 635 -0.38888888889367523 
66 648 -0.8333333333391375 
66 651 -0.6111111111135847 
66 653 0.05555555553809888 
66 655 0.05555555553809888 
66 659 0.05555555553809899 
66 662 -0.1388888892652531 
66 667 0.05555555553809921 
66 668 -0.4444444444492279 
66 670 -0.13888888926525245 
66 672 0.05555555553809899 
66 673 -0.4166666666695338 
66 675 0.05555555553809921 
66 676 0.0555555555380991 
66 677 -0.5833333333378641 
67 38 -0.7782258065169381 
67 47 -0.597222222300559 
67 67 0.0 
67 128 -0.7500000000384484 
67 214 -0.6125000000155449 
67 441 -0.6125000000757856 
67 680 -0.4791666666789265 
67 681 -0.4791666666789265 
67 682 -0.5416666666711372 
68 68 0.0 
69 69 0.0 
70 8 -0.5681818184934853 
70 53 -0.503496504224997 
70 70 0.0 
70 117 -0.6060606063937324 
70 417 -0.7167832169257089 
70 574 -0.39772727273259734 
70 690 -0.4090909090969781 
70 693 -0.6590909090935939 
70 694 0.09090909089870935 
70 697 -0.4090909090969783 
70 698 0.09090909089870924 
70 699 0.09090909089870935 
71 8 -0.7333333333352856 
71 71 0.0 
71 700 0.16666666664825047 
71 701 -0.33333333334233695 
71 704 0.16666666664825058 
71 706 0.1666666666482508 
71 707 0.16666666664825058 
72 72 0.0 
72 275 -0.5238095238143972 
72 709 0.3333333333055045 
72 710 -0.1666666666799932 
73 73 0.0 
73 715 0.49999999996157984 
73 716 0.49999999996157996 
74 74 0.0 
74 718 -0.46666666667263 
74 719 0.19999999997925055 
74 720 -0.46666666667263 
74 721 0.19999999997925055 
74 722 -0.3000000000100631 
75 8 -0.4000000000064692 
75 75 0.0 
75 724 -1.6896040122560407e-11 
76 9 -0.400000000003389 
76 76 0.0 
76 80 -0.7571428571658854 
76 133 -0.4666666666790453 
76 434 -0.7750000000014727 
76 685 -0.5666666666705098 
76 727 0.09999999998832121 
76 728 -0.650000000002867 
76 729 -0.4000000000064694 
76 730 -0.5666666666705102 
76 734 0.09999999998832132 
77 77 0.0 
77 736 0.9999999999267714 
78 78 0.0 
78 739 0.3333333333055044 
78 740 0.3333333333055045 
78 741 0.33333333330550463 
79 9 -0.38888888889270357 
79 46 -0.8362573099465704 
79 53 -0.7735042735077395 
79 79 0.0 
79 513 -0.6666666667958367 
79 743 -0.6388888888919693 
79 744 0.11111111109800753 
79 745 0.11111111109800775 
79 746 0.11111111109800775 
79 747 0.11111111109800764 
80 10 -0.7012987013723959 
80 76 -0.7571428571658854 
80 80 0.0 
80 214 -0.7571428571549728 
80 278 -0.7142857144314658 
80 359 -0.6746031748621502 
80 624 -0.5238095238198697 
80 748 -0.3571428571483217 
80 749 -0.5595238095294108 
80 751 -0.5238095238198697 
80 754 -0.3928571431361725 
80 755 0.07142857142142 
80 756 -0.642857142871675 
80 757 0.07142857142142 
80 758 -0.5952380952411065 
81 10 -0.7424242427241401 
81 81 0.0 
81 114 -0.5000000000217522 
81 244 -0.541666666745793 
81 261 0.0833333333241344 
81 760 -0.541666666799824 
81 762 -0.4166666666724306 
81 763 -0.4166666666724308 
81 765 0.08333333332413406 
81 766 -0.6607142865356272 
81 768 -0.45833333337941307 
81 769 -0.6250000000203857 
81 770 -0.583333333336709 
82 10 -0.40909090909697854 
82 82 0.0 
82 771 -0.1666666666779204 
83 10 -0.4090909090969783 
83 83 0.0 
83 773 0.49999999996157996 
84 10 -0.7070707070943654 
84 84 0.0 
84 164 -0.5000000000106848 
84 544 -0.7083333333672699 
84 548 -0.7638888888985635 
84 625 -0.6388888888919688 
84 714 -0.6388888888919688 
84 774 -0.5555555555596876 
84 778 0.11111111109800775 
84 779 -0.38888888889582707 
85 10 -0.5227272727354231 
85 20 -0.516666666837829 
85 85 0.0 
85 185 -0.4166666671197743 
85 205 0.24999999997633604 
86 10 0.09090909089870935 
86 86 0.0 
87 10 -0.4090909090969783 
87 87 0.0 
87 780 -1.6896040122560407e-11 
88 10 -0.6969696973600303 
88 35 -0.8132183912862789 
88 88 0.0 
88 260 -0.6333333334242914 
88 550 -0.5416666676688553 
88 783 -0.5892857149126538 
88 785 -0.33333333333927273 
88 787 -0.3750000002939564 
88 788 -0.3333333335470343 
88 789 -0.6666666666691912 
88 790 0.08333333332413417 
88 791 0.08333333332413406 
88 792 -0.4166666666724308 
89 10 -0.6636363636846228 
89 89 0.0 
89 122 -0.3428571429066132 
89 169 -0.4142857142958414 
89 181 0.19999999997925055 
89 795 0.19999999997925044 
90 90 0.0 
90 797 -0.5500000000046017 
90 798 -0.2500000000114524 
90 799 0.24999999997633615 
90 801 0.24999999997633604 
91 91 0.0 
92 11 -0.1666666666799932 
92 92 0.0 
92 690 -1.6895818077955482e-11 
93 11 0.33333333330550463 
93 93 0.0 
94 12 -0.7916666669371808 
94 94 0.0 
94 344 -0.66071428575072 
94 447 -0.42500000000275096 
94 511 -0.5166666666764814 
94 551 -0.7083333333491537 
94 681 -0.5666666666737223 
94 805 -0.5166666666764819 
94 808 0.04999999997623217 
94 809 0.04999999997623239 
94 815 0.04999999997623228 
94 816 0.04999999997623217 
94 819 -0.5750000000595219 
94 821 -0.5916666666707646 
94 822 -0.6166666666689324 
94 823 0.04999999997623206 
94 824 -0.575000000047289 
94 827 -0.35000000031576395 
94 828 -0.7250000000111791 
94 829 -0.6166666666689327 
94 831 0.04999999997623217 
95 95 0.0 
95 278 -0.6071428571464843 
95 832 -0.2500000000114524 
95 838 -0.2500000000114526 
95 840 0.24999999997633604 
96 12 -0.7142857147978683 
96 61 0.04761904759222624 
96 96 0.0 
96 231 -0.7071428572261429 
96 359 -0.6984126984344847 
96 376 -0.6095238105166825 
96 648 -0.6488095238836717 
96 723 -0.4523809523855724 
96 841 -0.4047619049387472 
96 843 -0.5809523810019304 
96 844 0.04761904759222613 
96 847 -0.4523809523855724 
96 848 0.047619047592225905 
96 849 -0.4523809523855724 
96 851 -0.42857142857412134 
96 853 0.04761904759222613 
96 854 0.04761904759222624 
96 855 -0.4523809523855724 
96 856 0.047619047592226016 
96 858 -0.4523809523855724 
96 860 0.047619047592226016 
96 861 0.04761904759222624 
97 12 -0.5416666666730863 
97 97 0.0 
97 725 -0.3333333333420525 
97 864 -0.41666666668456376 
98 12 0.08333333332413417 
98 98 0.0 
99 12 -0.666666666780787 
99 99 0.0 
99 359 -0.6388888889331423 
99 406 -0.3750000000074958 
99 867 -0.37500000000749556 
99 868 -0.37500000000749556 
99 869 0.1249999999853243 
99 871 0.1249999999853244 
99 873 0.12499999998532463 
100 100 0.0 
100 417 0.07692307691495315 
101 12 0.0833333333241344 
101 101 0.0 
102 12 -0.4166666666724306 
102 102 0.0 
102 874 0.49999999996157996 
103 12 0.08333333332413417 
103 103 0.0 
104 104 0.0 
104 876 -0.3000000000069756 
104 878 0.49999999996157996 
105 38 -0.7177419354849524 
105 105 0.0 
105 316 -0.2500000000114524 
105 879 0.24999999997633615 
105 880 0.24999999997633604 
106 12 -0.6666666666691912 
106 106 0.0 
106 882 -0.550000000004601 
106 884 0.24999999997633615 
106 885 0.24999999997633604 
107 107 0.0 
107 135 -0.3333333333420525 
107 886 -0.3333333333420523 
107 889 0.33333333330550463 
108 12 -0.6071428574572246 
108 108 0.0 
108 145 -0.5357142857505148 
108 231 -0.6571428571709086 
108 327 -0.3928571434255905 
108 648 -0.6071428572768873 
108 893 0.14285714284071527 
108 895 -0.3571428571510269 
109 109 0.0 
109 490 -0.6571428571458005 
109 900 0.19999999997925055 
109 901 -0.5500000000047183 
109 902 -0.550000000004718 
109 904 0.19999999997925044 
110 12 0.0833333333241344 
110 110 0.0 
111 111 0.0 
111 909 -0.16666666667792018 
111 910 0.49999999996157996 
112 13 -0.22222222235412215 
112 112 0.0 
112 113 -0.16666666726470192 
112 114 -0.14583333355648187 
112 120 -0.08333333394589681 
112 129 -0.7083333333354496 
112 191 -0.4062500001647238 
113 13 -0.4222222232770936 
113 112 -0.16666666726470192 
113 113 0.0 
113 119 -0.4642857143254371 
113 120 -0.2666666666819495 
113 182 -0.6357142865226626 
113 244 -0.41875000001817275 
113 360 -0.43571428587815175 
113 623 0.09999999998832099 
113 913 0.09999999998832121 
113 914 0.09999999998832132 
114 13 -0.3125000000348732 
114 81 -0.5000000000217522 
114 112 -0.14583333355648187 
114 114 0.0 
114 191 -0.3750000000361662 
114 244 -0.2500000018752013 
114 892 -0.2500000000077627 
114 916 -0.1458333333783779 
114 917 -0.3541666668168175 
115 13 -0.8174603174745605 
115 63 -0.19285714286260291 
115 115 0.0 
115 166 -0.8232142858531835 
115 275 -0.7285714285880074 
115 277 -0.4285714285952591 
115 465 0.028571428503498475 
115 469 -0.7071428571520775 
115 527 -0.4571428571462872 
115 564 -0.24761904763034037 
115 566 -0.5392857143161212 
115 639 -0.4142857143154739 
115 902 -0.7214285714315853 
115 918 -0.7071428571448077 
115 919 -0.47142857143794026 
115 920 -0.47142857143794004 
115 921 0.028571428503498142 
115 922 -0.4714285714379405 
115 923 0.028571428503498142 
115 924 -0.47142857143794004 
115 925 0.028571428503498142 
115 926 0.028571428503498475 
115 927 -0.4571428571462872 
115 928 0.028571428503498142 
115 931 0.028571428503498142 
115 935 -0.17857142858080732 
115 936 0.028571428503498142 
115 938 -0.47142857143794004 
115 939 0.028571428503498364 
115 941 0.02857142850349803 
115 942 -0.47142857143794004 
115 943 -0.47142857143794004 
115 944 0.028571428503498364 
115 946 -0.47142857143794026 
115 947 -0.47142857143794004 
115 948 0.028571428503498364 
116 54 -0.666666666714703 
116 116 0.0 
116 244 -0.6145833343068663 
116 603 -0.3333333333647417 
116 950 -0.33333333334233695 
116 952 -0.3333333333469426 
116 953 -0.2500000003930758 
117 13 -0.6666666667958372 
117 70 -0.6060606063937324 
117 117 0.0 
117 818 -0.5833333338871682 
117 954 -0.33333333334233695 
117 959 -0.500000000005361 
117 960 -0.4166666666805301 
118 118 0.0 
118 369 -0.5347222231558233 
118 581 -0.583333333361874 
118 674 -0.38888888889582685 
118 918 -0.6388888888912465 
118 963 -0.4444444444679263 
118 964 0.11111111109800753 
118 965 -0.27777777791704983 
118 967 0.11111111109800775 
118 968 -0.38888888889582707 
119 20 -0.6261904762183803 
119 113 -0.4642857143254371 
119 119 0.0 
119 120 -0.30952380954346204 
119 234 -0.5214285723167436 
119 244 -0.48214285739585394 
119 363 -0.48214285718107064 
119 766 -0.5357142859319293 
119 782 -0.5571428571862171 
119 797 -0.7285714285732274 
119 971 -0.559523809529411 
119 972 -0.6071428575017213 
119 973 -0.32142857144620396 
119 974 0.07142857142142 
119 976 0.07142857142142012 
120 20 -0.5500000000321414 
120 112 -0.08333333394589681 
120 113 -0.2666666666819495 
120 119 -0.30952380954346204 
120 120 0.0 
120 876 -0.550000000283311 
120 918 -0.2916666666971284 
121 13 -0.38888888889582685 
121 121 0.0 
121 981 -0.2500000000086171 
122 89 -0.3428571429066132 
122 122 0.0 
122 124 -0.45238095240282084 
122 169 -0.4285714286025979 
122 188 -0.607142857146105 
122 244 -0.7321428572996385 
122 938 -0.3571428571510269 
122 982 -0.3571428571510269 
123 123 0.0 
123 985 -0.1666666666799932 
123 986 -0.1666666666799932 
123 987 0.33333333330550463 
124 20 -0.5666666666719513 
124 122 -0.45238095240282084 
124 124 0.0 
124 988 -0.3333333333420525 
125 25 -0.4500000003067235 
125 125 0.0 
125 469 -0.22500000015029453 
125 609 -0.4076923085914683 
125 677 -0.36666666668347636 
125 990 -0.46666666667263024 
126 13 -0.4777777794761191 
126 126 0.0 
126 128 -0.7250000000198842 
126 166 -0.643750000185225 
126 594 -0.3000000000100629 
126 991 0.19999999997925044 
127 13 0.11111111109800764 
127 127 0.0 
128 67 -0.7500000000384484 
128 126 -0.7250000000198842 
128 128 0.0 
128 145 -0.6750000000065373 
128 222 -0.6166666666679812 
128 259 -0.5916666666958657 
128 318 -0.6000000000462331 
128 344 -0.6821428574071253 
128 568 -0.8000000000904817 
128 581 -0.6750000000065368 
128 609 -0.809615384630682 
128 824 -0.5833333338122988 
128 868 -0.4500000000046547 
128 917 -0.30000000004598526 
128 993 0.049999999976231946 
128 994 -0.4500000000046549 
128 999 -0.6166666666689327 
128 1000 -0.7250000000111796 
128 1001 -0.3500000000154748 
128 1003 0.04999999997623217 
128 1005 -0.6166666666689324 
129 112 -0.7083333333354496 
129 129 0.0 
129 130 -0.645833333345645 
129 1006 -0.2500000000267062 
129 1009 -0.7500000000017479 
129 1011 -0.5416666666711372 
129 1012 -0.3125000001570313 
129 1013 -0.5000000003384473 
129 1015 -0.6250000008549343 
130 50 -0.6333333333364832 
130 129 -0.645833333345645 
130 130 0.0 
130 531 0.16666666664825036 
130 1016 -0.666666666669411 
130 1017 -0.5833333333373456 
130 1018 -0.66666666667097 
131 131 0.0 
131 281 -0.5500000000046013 
131 360 -0.4642857143361443 
131 911 -0.16666666669429953 
131 1006 -0.41666666667351837 
132 132 0.0 
132 137 -0.722222222224123 
132 641 -0.5833333333371753 
132 1020 0.16666666664825036 
132 1021 0.16666666664825058 
132 1023 -0.3333333333423367 
132 1024 -0.33333333334233695 
133 76 -0.4666666666790453 
133 133 0.0 
133 278 -0.3809523809817714 
133 1025 -0.33333333334205273 
134 134 0.0 
134 784 -0.2500000000086171 
134 1027 -0.1666666666779204 
135 15 -0.6380952380969602 
135 107 -0.3333333333420525 
135 135 0.0 
135 1029 -0.1666666666799932 
136 15 -0.7071428571520775 
136 136 0.0 
136 213 -0.12500000000562794 
136 1030 -0.2500000000114526 
136 1031 0.24999999997633604 
137 132 -0.722222222224123 
137 137 0.0 
137 166 -0.7013888889258375 
137 182 -0.5793650797827039 
137 639 -0.4444444444996134 
137 1015 -0.6388888889834559 
137 1034 -0.5000000000106843 
137 1035 -0.638888888891969 
137 1037 -0.6111111111918115 
137 1038 -0.555555555559688 
138 138 0.0 
138 315 -0.4000000000033892 
138 1041 -0.1666666666779204 
139 15 -0.6357142857814004 
139 35 -0.672413793180892 
139 139 0.0 
139 1042 -0.2500000011167418 
139 1043 -0.12500000000562772 
140 15 -0.7476190476480404 
140 140 0.0 
140 318 -0.20000000002087348 
140 1037 -0.25000000029707037 
140 1045 -0.5500000002833105 
140 1046 -0.3333333337558102 
140 1047 -0.2083333333425692 
141 141 0.0 
142 15 -0.47142857143794026 
142 142 0.0 
142 1049 0.49999999996157996 
143 15 -0.721428571431586 
143 143 0.0 
143 1050 -0.2500000000114524 
143 1051 -0.41666666667373553 
143 1052 0.24999999997633604 
144 15 -0.4714285714379405 
144 144 0.0 
144 1009 -0.37500000000433653 
145 108 -0.5357142857505148 
145 128 -0.6750000000065373 
145 145 0.0 
145 1054 -0.5000000000097358 
145 1057 -0.416666666673736 
146 15 -0.8047619047662706 
146 146 0.0 
146 495 -0.46666666697236536 
146 512 -0.4166666666805301 
146 720 -0.5000000000053608 
146 785 -0.16666666667721453 
146 1061 -0.2500000003930758 
147 15 -0.7214285714315851 
147 147 0.0 
147 551 -0.5833333333371751 
147 1067 -0.5500000000046015 
147 1068 0.24999999997633604 
148 15 0.028571428503498364 
148 148 0.0 
149 15 -0.5952380952548002 
149 149 0.0 
149 198 -0.38888888897947815 
149 988 -0.33333333334205273 
150 20 -0.36666666667193804 
150 150 0.0 
150 191 -0.281250000016517 
151 151 0.0 
151 766 -0.3571428571510269 
151 1074 -1.6895818077955482e-11 
152 15 -0.5952380952588792 
152 152 0.0 
152 972 -0.3095238099897435 
152 1075 -0.333333333371884 
153 153 0.0 
154 15 -0.8047619047662711 
154 154 0.0 
154 232 -0.4166666667732355 
154 782 -0.550000000283311 
154 962 -0.5833333333373456 
154 1076 -0.3333333333423367 
154 1077 0.16666666664825058 
155 155 0.0 
155 490 -0.3571428571510269 
155 1044 -1.6895818077955482e-11 
156 15 -0.63809523809696 
156 156 0.0 
156 733 0.3333333333055045 
156 959 -0.3333333333420525 
157 15 -0.7285714286375786 
157 157 0.0 
157 163 -0.48571428740677924 
157 360 -0.35714285756240205 
157 730 -0.3809523810452953 
157 911 -0.38095238096469486 
157 1078 -0.6190476190566405 
157 1080 -0.3571428571510269 
158 15 -0.6380952380969598 
158 158 0.0 
158 1082 -0.1666666666799932 
158 1083 -0.1666666666799932 
159 159 0.0 
159 1084 -0.5000000000056275 
159 1086 -0.5000000000056277 
159 1087 0.24999999997633615 
159 1088 0.24999999997633604 
160 15 -0.7571428571485654 
160 160 0.0 
160 1071 -0.45000000008074137 
160 1090 0.19999999997925055 
160 1091 -0.3000000000100629 
160 1092 0.19999999997925044 
161 15 0.028571428503498142 
161 161 0.0 
162 15 -0.707142857152077 
162 162 0.0 
162 835 -0.6388888888912465 
162 1094 -0.12500000000562794 
162 1095 -0.2500000000114524 
163 157 -0.48571428740677924 
163 163 0.0 
163 182 -0.48571428740677947 
163 1097 -0.3000000000100629 
163 1098 -0.3000000000100629 
163 1099 0.19999999997925044 
164 15 -0.6095238095366491 
164 84 -0.5000000000106848 
164 164 0.0 
164 1101 -7.008393865248763e-12 
165 165 0.0 
166 15 -0.8517857143434215 
166 115 -0.8232142858531835 
166 126 -0.643750000185225 
166 137 -0.7013888889258375 
166 166 0.0 
166 190 -0.6041666666693843 
166 237 -0.6750000000562124 
166 587 -0.437500000004998 
166 1014 -0.3750000000050968 
166 1105 -0.4375000000049982 
166 1107 0.06249999999065303 
166 1109 0.062499999990653254 
166 1110 0.06249999999065314 
166 1111 0.062499999990653254 
166 1112 0.06249999999065303 
166 1113 -0.4375000000049982 
166 1114 -0.4375000000049982 
167 15 -0.8047619047662713 
167 167 0.0 
167 576 -0.5833333333373456 
167 901 -0.5833333333373456 
167 1115 -0.5000000000053608 
167 1116 0.1666666666482508 
167 1117 0.16666666664825058 
168 168 0.0 
168 202 -0.3333333333420523 
168 365 -0.1666666666799932 
168 750 -0.41666666667351837 
169 89 -0.4142857142958414 
169 122 -0.4285714286025979 
169 169 0.0 
169 462 -0.3571428571478479 
169 971 -0.45238095239434495 
169 1013 -0.6071428571464847 
169 1050 -0.3571428571510269 
169 1105 -0.3571428571510269 
170 15 -0.44285714286235756 
170 170 0.0 
170 358 -0.12500000001667888 
171 171 0.0 
172 35 -0.4655172413848945 
172 172 0.0 
172 1027 -1.2504175472827228e-10 
173 15 -0.47142857143794004 
173 173 0.0 
173 824 -0.33333333333916904 
174 15 -0.7428571428673316 
174 174 0.0 
174 441 -0.6000000000038337 
174 500 -0.36666666668347636 
174 647 -0.5142857142931005 
174 828 -0.5000000003443885 
175 15 0.028571428503498475 
175 175 0.0 
176 15 -0.7071428571520775 
176 176 0.0 
176 289 -0.41666666667373575 
176 550 -0.6250000000027576 
176 989 -0.29166666669269303 
177 177 0.0 
177 190 -0.3333333333420523 
177 550 -0.5416666666711374 
177 609 -0.5897435897467718 
178 15 -0.6095238095360735 
178 178 0.0 
178 315 -0.4666666666930528 
178 737 -0.1666666666799932 
179 20 -0.5500000001015879 
179 54 -0.559523809975677 
179 179 0.0 
179 185 -0.23611111155660258 
179 1042 -0.2500000011167418 
180 15 -0.6357142857568179 
180 180 0.0 
180 244 -0.6250000000283831 
180 270 -0.42500000000632987 
180 641 -0.37500000017433033 
181 89 0.19999999997925055 
181 181 0.0 
182 15 -0.7142857143307921 
182 113 -0.6357142865226626 
182 137 -0.5793650797827039 
182 163 -0.48571428740677947 
182 182 0.0 
182 195 -0.5476190478460301 
182 398 -0.5357142857505146 
182 843 -0.5142857145150166 
183 15 -0.4714285714379405 
183 183 0.0 
183 770 -0.16666666667792018 
184 15 -0.6214285715038899 
184 184 0.0 
184 360 -0.28571428710857516 
184 972 -0.3928571428958185 
184 1000 -0.5500000000046015 
185 15 -0.7746031746128612 
185 64 -0.5606060610037962 
185 85 -0.4166666671197743 
185 179 -0.23611111155660258 
185 185 0.0 
185 331 -0.2222222222435959 
185 361 -0.527777778233196 
185 579 -0.633333334294865 
185 645 -0.027777778522096508 
185 701 -0.38888888889582685 
186 15 0.028571428503498364 
186 186 0.0 
187 35 0.01724137924267366 
187 187 0.0 
188 16 -0.41666666667351815 
188 122 -0.607142857146105 
188 188 0.0 
188 474 -0.41666666667373553 
188 877 -0.5500000000046015 
189 16 -0.1666666666799932 
189 189 0.0 
189 648 -0.4166666666699126 
190 166 -0.6041666666693843 
190 177 -0.3333333333420523 
190 190 0.0 
190 513 -0.5000000000053606 
191 112 -0.4062500001647238 
191 114 -0.3750000000361662 
191 150 -0.281250000016517 
191 191 0.0 
191 231 -0.6937500000269738 
191 239 -0.5758928574185971 
191 242 -0.5446428580277487 
191 244 -0.46875000010132895 
191 363 -0.5000000000498996 
191 376 -0.6437500000394749 
191 491 -0.5729166666971539 
191 750 -0.6875000000020304 
191 760 -0.4479166670909658 
191 782 -0.4812500009728147 
191 824 -0.5000000000188407 
191 918 -0.5000000015173152 
191 1001 -0.28125000002094325 
192 17 0.9999999999267714 
192 192 0.0 
193 193 0.0 
194 18 0.16666666664825047 
194 194 0.0 
195 18 -0.5833333338871689 
195 182 -0.5476190478460301 
195 195 0.0 
195 332 -0.33333333334233695 
195 474 -0.500000000005361 
195 730 -0.4166666666805301 
195 814 -0.33333333334233695 
196 196 0.0 
197 18 0.16666666664825058 
197 197 0.0 
198 30 -0.34722222223067867 
198 149 -0.38888888897947815 
198 198 0.0 
198 259 -0.22222222226411237 
198 260 -0.6888888888913836 
198 476 -0.5000000000106843 
198 603 -0.4444444444679263 
198 647 -0.6904761904801946 
198 750 -0.6388888888919688 
198 1071 -0.583333333361874 
199 18 0.1666666666482508 
199 199 0.0 
200 18 -0.33333333334233695 
200 200 0.0 
200 601 0.49999999996157996 
201 201 0.0 
201 434 -0.3750000000074958 
201 477 -1.6896040122560407e-11 
202 168 -0.3333333333420523 
202 202 0.0 
202 270 -0.46666666667263 
202 352 -0.1666666666799932 
203 19 0.49999999996157996 
203 203 0.0 
204 52 -0.3666666669449703 
204 204 0.0 
204 371 -0.2666666667029598 
204 566 -0.12500000072267725 
204 782 -0.5000000003443879 
204 1014 -0.10000000001762155 
205 85 0.24999999997633604 
205 205 0.0 
206 20 -0.4333333333384761 
206 206 0.0 
206 575 -0.38888888889270357 
207 20 0.06666666666038634 
207 207 0.0 
208 208 0.0 
208 315 -0.3500000003138486 
208 609 -0.38461538490143377 
209 209 0.0 
210 20 -0.43333333333847657 
210 210 0.0 
210 1016 -0.33333333333916926 
211 20 -0.43333333333847657 
211 211 0.0 
211 1106 0.49999999996157996 
212 20 0.06666666666038634 
212 212 0.0 
213 20 -0.400000000272664 
213 136 -0.12500000000562794 
213 213 0.0 
214 27 -0.6500000001160511 
214 67 -0.6125000000155449 
214 80 -0.7571428571549728 
214 214 0.0 
214 376 -0.5000000002409131 
214 415 0.0999999999883211 
214 417 -0.7461538462172879 
214 490 -0.5857142864048259 
214 637 -0.5166666666754456 
214 818 -0.533333333413496 
214 862 -0.516666666675446 
215 21 -1.6895818077955482e-11 
215 53 -0.4230769230824447 
215 215 0.0 
216 21 0.49999999996157996 
216 216 0.0 
217 217 0.0 
217 550 0.1249999999853244 
218 218 0.0 
218 453 0.9999999999267714 
219 22 0.49999999996157996 
219 219 0.0 
220 23 0.055555555538098766 
220 220 0.0 
221 23 0.05555555553809899 
221 221 0.0 
222 23 -0.6111111111135845 
222 128 -0.6166666666679812 
222 222 0.0 
222 429 -0.46666666667226475 
223 23 0.05555555553809899 
223 223 0.0 
224 23 -0.4444444444492277 
224 224 0.0 
224 475 0.49999999996157996 
225 23 0.05555555553809888 
225 225 0.0 
226 226 0.0 
227 23 0.05555555553809888 
227 227 0.0 
228 23 -0.7444444444459033 
228 44 -0.6913043478558856 
228 50 -0.6000000000038337 
228 228 0.0 
228 457 -0.5500000000301757 
228 579 -0.6500000001160504 
229 23 0.0555555555380991 
229 229 0.0 
230 23 0.05555555553809921 
230 230 0.0 
231 23 -0.7666666666765622 
231 34 -0.550000000039119 
231 96 -0.7071428572261429 
231 108 -0.6571428571709086 
231 191 -0.6937500000269738 
231 231 0.0 
231 413 -0.5500000000205023 
231 441 -0.6500000000541788 
231 538 -0.6833333334388259 
231 539 -0.6000000000255521 
231 949 0.09999999998832132 
232 154 -0.4166666667732355 
232 232 0.0 
232 239 -0.21428571436047594 
232 242 -0.21428571436047616 
233 23 -0.38888888889367523 
233 233 0.0 
233 242 -0.1428571429410188 
234 119 -0.5214285723167436 
234 234 0.0 
234 239 -0.5857142858288891 
234 546 -0.3500000000202692 
234 924 -0.3000000000069756 
234 1071 -0.4500000000807418 
235 23 -0.6111111111135843 
235 235 0.0 
235 908 -0.41666666667351815 
235 990 -0.33333333334205273 
236 23 0.0555555555380991 
236 236 0.0 
237 23 -0.7166666666861041 
237 166 -0.6750000000562124 
237 237 0.0 
237 246 -0.5500000000047176 
237 371 -0.3666666666834768 
237 980 -0.5500000000047178 
238 23 0.0555555555380991 
238 238 0.0 
239 23 -0.7182539682596936 
239 191 -0.5758928574185971 
239 232 -0.21428571436047594 
239 234 -0.5857142858288891 
239 239 0.0 
239 243 -0.21428571461347845 
239 1075 -0.5476190476367093 
239 1086 -0.3571428572780613 
240 24 -0.5000000000056277 
240 240 0.0 
240 760 -0.5000000005074092 
240 1038 -0.29166666669269303 
240 1081 -0.2500000000114524 
241 24 0.24999999997633604 
241 241 0.0 
242 25 -0.6071428575570126 
242 191 -0.5446428580277487 
242 232 -0.21428571436047616 
242 233 -0.1428571429410188 
242 242 0.0 
242 743 -0.6071428571464847 
242 768 -0.38095238104529505 
242 1086 -0.3571428572780613 
243 239 -0.21428571461347845 
243 243 0.0 
243 1018 -0.277777778088931 
244 25 -0.593750000034843 
244 81 -0.541666666745793 
244 113 -0.41875000001817275 
244 114 -0.2500000018752013 
244 116 -0.6145833343068663 
244 119 -0.48214285739585394 
244 122 -0.7321428572996385 
244 180 -0.6250000000283831 
244 191 -0.46875000010132895 
244 244 0.0 
244 360 -0.5982142862456261 
244 609 -0.627403846181082 
244 673 -0.4062500000029874 
244 759 -0.4875000005223813 
244 916 -0.25000000004524825 
244 930 -0.5000000000217448 
244 975 0.062499999990653254 
245 245 0.0 
245 519 0.3333333333055045 
246 25 -0.6250000000033307 
246 237 -0.5500000000047176 
246 246 0.0 
246 337 -0.5000000000056275 
246 1097 -0.2500000000114524 
247 25 -0.3500000000845478 
247 47 -0.5777777778739013 
247 66 -0.6888888889249962 
247 247 0.0 
247 249 0.14999999842844036 
247 882 -0.40000000052127294 
248 25 -0.2500000000077629 
248 248 0.0 
248 1009 -0.3125000000127969 
249 25 -9.347236318291152e-10 
249 247 0.14999999842844036 
249 249 0.0 
250 25 -0.37500000000749556 
250 250 0.0 
250 417 -0.42307692308030087 
251 251 0.0 
251 999 0.3333333333055045 
252 252 0.0 
252 822 -0.1666666666799932 
252 1012 -0.25000000001145284 
253 27 -0.20000000000489448 
253 253 0.0 
253 306 -1.2504175472827228e-10 
254 254 0.0 
255 27 0.19999999997925055 
255 255 0.0 
256 27 0.19999999997925044 
256 256 0.0 
257 257 0.0 
258 29 0.9999999999267714 
258 258 0.0 
259 30 -6.175704392319403e-11 
259 128 -0.5916666666958657 
259 198 -0.22222222226411237 
259 259 0.0 
260 88 -0.6333333334242914 
260 198 -0.6888888888913836 
260 260 0.0 
260 457 -0.46666666670315404 
260 761 -0.6333333333364837 
260 1075 -0.4666666667031538 
261 81 0.0833333333241344 
261 261 0.0 
262 30 0.24999999997633604 
262 262 0.0 
263 31 -1.6896040122560407e-11 
263 263 0.0 
263 528 -1.6896040122560407e-11 
264 264 0.0 
264 568 -0.4000000000064694 
264 582 -0.35714285714784766 
265 32 -1.7659491646782044e-09 
265 265 0.0 
265 358 -0.32500000119919625 
265 412 -0.3000000000100629 
265 705 -0.5500000000047178 
265 1027 -0.30000000006359473 
266 266 0.0 
266 532 -0.2500000002739673 
266 537 -3.06552561113449e-11 
266 728 -0.12500000017987856 
266 930 -0.12500000017987944 
267 267 0.0 
267 705 -0.2500000000114524 
267 952 -0.1666666666799932 
268 33 -8.797207406985308e-11 
268 268 0.0 
268 828 -0.4666666666722643 
268 1054 -0.3333333333556159 
269 269 0.0 
269 783 0.07142857142142012 
270 33 -0.466666666672265 
270 180 -0.42500000000632987 
270 202 -0.46666666667263 
270 270 0.0 
270 315 -0.6500000001160506 
270 1101 -0.20000000000489426 
271 271 0.0 
271 1054 0.1666666666482508 
272 33 0.16666666665816277 
272 272 0.0 
272 1054 -0.16666666668277408 
273 34 0.24999999997633615 
273 273 0.0 
274 274 0.0 
275 34 -0.6071428571461048 
275 72 -0.5238095238143972 
275 115 -0.7285714285880074 
275 275 0.0 
275 277 -0.21428571431587362 
275 337 -0.6071428571464845 
275 494 -0.3571428571510269 
275 628 0.14285714284071527 
276 34 -0.16666666669429908 
276 276 0.0 
276 413 -0.26666666671407624 
276 442 -0.1666666666799932 
277 115 -0.4285714285952591 
277 275 -0.21428571431587362 
277 277 0.0 
277 1051 -0.1666666667280272 
278 80 -0.7142857144314658 
278 95 -0.6071428571464843 
278 133 -0.3809523809817714 
278 278 0.0 
278 283 -0.3571428571510269 
278 289 -0.5238095238143974 
278 1013 -0.6071428571464847 
278 1091 -0.3571428571510269 
279 35 -0.48275862074247167 
279 279 0.0 
279 560 0.49999999996157996 
280 280 0.0 
281 131 -0.5500000000046013 
281 281 0.0 
281 344 -0.5142857145150166 
281 501 -0.466666666672265 
281 648 -0.6333333334242912 
281 1054 -0.5500000000342828 
282 35 -0.4827586207424712 
282 282 0.0 
282 538 -0.33333333333916904 
283 278 -0.3571428571510269 
283 283 0.0 
283 631 -0.4230769230824445 
284 284 0.0 
284 612 -0.1666666666799932 
284 807 -1.6895818077955482e-11 
285 35 -0.4741379310378815 
285 285 0.0 
285 828 -0.20000000000842366 
286 35 0.017241379242673438 
286 286 0.0 
287 35 -0.47413793103788193 
287 287 0.0 
287 602 -0.20000000000842322 
288 35 0.01724137924267377 
288 288 0.0 
289 176 -0.41666666667373575 
289 278 -0.5238095238143974 
289 289 0.0 
289 711 -0.33333333334205273 
290 35 -0.6280788180799315 
290 290 0.0 
290 292 -0.14285714300577013 
290 315 -0.7571428571444054 
290 353 -0.14285714300576924 
290 693 -0.6071428571464847 
290 972 -0.6428571428656005 
290 1017 -0.5357142857505146 
291 46 -0.34210526318161616 
291 291 0.0 
291 523 0.41666666662901175 
291 783 -0.5238095238351632 
292 35 -0.439655172495526 
292 290 -0.14285714300577013 
292 292 0.0 
292 346 0.2499999991460371 
293 35 0.01724137924267377 
293 293 0.0 
294 294 0.0 
294 647 0.14285714284071527 
295 295 0.0 
296 35 0.017241379242673105 
296 296 0.0 
297 35 0.017241379242673105 
297 297 0.0 
298 35 0.01724137924267377 
298 298 0.0 
299 299 0.0 
299 352 -1.6896040122560407e-11 
299 908 -0.2500000000114524 
300 35 0.01724137924267355 
300 300 0.0 
301 35 -0.456896551731343 
301 301 0.0 
301 346 0.4999999999545762 
302 35 -0.4827586207424712 
302 302 0.0 
302 780 -1.6895818077955482e-11 
303 303 0.0 
303 685 0.33333333330550463 
304 304 0.0 
304 1086 0.24999999997633604 
305 305 0.0 
306 35 -0.5977011494619071 
306 253 -1.2504175472827228e-10 
306 306 0.0 
306 548 -0.41666666677209907 
307 35 -0.48275862074247167 
307 307 0.0 
307 680 -0.1666666666779204 
308 35 -0.8140394088714356 
308 308 0.0 
308 407 -0.35714285715102667 
308 429 -0.5857142858288891 
308 756 -0.5357142857505144 
308 774 -0.5238095238143974 
308 788 -0.21428571461347823 
308 908 -0.5357142857505148 
309 35 -0.21551724138602557 
309 309 0.0 
309 333 0.14999999997369895 
310 310 0.0 
311 35 -0.48275862074247167 
311 311 0.0 
311 767 -0.1666666666779204 
312 312 0.0 
313 35 -0.46551724140367146 
313 313 0.0 
313 349 -0.1666666667296428 
313 875 -0.1666666666799932 
314 314 0.0 
314 981 0.24999999997633615 
315 138 -0.4000000000033892 
315 178 -0.4666666666930528 
315 208 -0.3500000003138486 
315 270 -0.6500000001160506 
315 290 -0.7571428571444054 
315 315 0.0 
315 572 -0.40000000000338876 
315 579 -0.7000000011922702 
315 648 -0.816666666668558 
315 760 -0.6833333333613052 
315 892 -0.35000000001839426 
316 105 -0.2500000000114524 
316 316 0.0 
316 1023 -1.6896040122560407e-11 
317 317 0.0 
317 684 0.49999999972581843 
318 35 -0.8137931034967614 
318 128 -0.6000000000462331 
318 140 -0.20000000002087348 
318 318 0.0 
318 603 -0.4666666666860131 
318 759 -0.3000000000752072 
318 917 -0.25000000003711365 
318 963 -0.3666666667758647 
318 979 0.09999999998832099 
318 1037 -0.42222222230711703 
318 1046 -0.23333333422997504 
319 319 0.0 
319 769 -0.2500000000114524 
319 981 -0.25000000001145284 
320 38 0.032258064453098645 
320 320 0.0 
321 321 0.0 
321 441 -0.5500000000047178 
321 718 -0.41666666667351837 
321 784 -0.5000000000056277 
321 1018 -0.6388888888919688 
322 322 0.0 
323 35 -0.4741379310378817 
323 323 0.0 
323 582 -0.2857142857236181 
324 35 0.017241379242672994 
324 324 0.0 
325 35 0.017241379242673216 
325 325 0.0 
326 326 0.0 
326 333 0.19999999997925055 
327 35 -0.5732758620874647 
327 108 -0.3928571434255905 
327 327 0.0 
327 335 -0.12500000017987944 
327 1084 -0.37500000017433077 
328 328 0.0 
329 35 -0.4741379310378817 
329 329 0.0 
329 1000 -0.20000000000842366 
330 330 0.0 
331 35 -0.4568965517318708 
331 185 -0.2222222222435959 
331 331 0.0 
332 195 -0.33333333334233695 
332 332 0.0 
332 1083 -1.6895818077955482e-11 
333 35 -0.6396551725908506 
333 309 0.14999999997369895 
333 326 0.19999999997925055 
333 333 0.0 
333 457 -0.5333333334822576 
333 807 -0.3000000000100631 
334 35 0.017241379242673105 
334 334 0.0 
335 35 -0.5560344827850752 
335 327 -0.12500000017987944 
335 335 0.0 
335 548 -0.5000000000057314 
335 946 -0.2500000000114524 
336 35 -0.48275862074247144 
336 336 0.0 
336 886 -0.1666666666779204 
337 35 -0.7241379310623626 
337 246 -0.5000000000056275 
337 275 -0.6071428571464845 
337 337 0.0 
337 1045 -0.4500000009753795 
338 35 -0.6494252873716306 
338 42 -0.5000000000053606 
338 338 0.0 
338 830 -0.46666666667226475 
339 339 0.0 
340 35 -0.48275862074247144 
340 340 0.0 
340 631 -0.42307692308030154 
341 35 -0.4827586207424719 
341 341 0.0 
341 1115 -0.16666666667792018 
342 342 0.0 
343 35 0.017241379242673105 
343 343 0.0 
344 94 -0.66071428575072 
344 128 -0.6821428574071253 
344 281 -0.5142857145150166 
344 344 0.0 
344 789 -0.46428571437265087 
344 813 -0.5238095238143974 
344 1016 -0.5476190476367091 
344 1047 -0.3214285714472742 
345 35 0.01724137924267377 
345 345 0.0 
346 292 0.2499999991460371 
346 301 0.4999999999545762 
346 346 0.0 
347 35 0.01724137924267377 
347 347 0.0 
348 35 -0.46551724138489425 
348 54 -0.4047619047662736 
348 348 0.0 
349 35 -0.7155172414423143 
349 45 -0.7333333334059875 
349 313 -0.1666666667296428 
349 349 0.0 
349 380 -0.3333333333469426 
349 545 -0.3333333333423367 
349 961 -0.33333333334233695 
350 35 -0.45689655173134325 
350 350 0.0 
350 1046 -7.661651313384255e-10 
351 35 0.017241379242673327 
351 351 0.0 
352 202 -0.1666666666799932 
352 299 -1.6896040122560407e-11 
352 352 0.0 
353 35 -0.45689655177403266 
353 290 -0.14285714300576924 
353 353 0.0 
353 911 -0.3333333333420525 
354 35 0.01724137924267355 
354 354 0.0 
355 35 -0.48275862074247144 
355 355 0.0 
355 464 0.49999999996157996 
356 35 -0.48275862074247144 
356 356 0.0 
356 611 -1.6896040122560407e-11 
357 357 0.0 
357 359 -0.22222222224359545 
357 1037 -0.27777777778487955 
358 35 -0.6465517242330097 
358 170 -0.12500000001667888 
358 265 -0.32500000119919625 
358 358 0.0 
358 548 -0.500000000226485 
359 35 -0.8113026820226512 
359 80 -0.6746031748621502 
359 96 -0.6984126984344847 
359 99 -0.6388888889331423 
359 357 -0.22222222224359545 
359 359 0.0 
359 394 -0.38888888889582685 
359 550 -0.47916666680886677 
359 1011 -0.2777777778014139 
359 1067 -0.4777777778700596 
360 36 -0.35714285716210203 
360 113 -0.43571428587815175 
360 131 -0.4642857143361443 
360 157 -0.35714285756240205 
360 184 -0.28571428710857516 
360 244 -0.5982142862456261 
360 360 0.0 
360 507 -0.6071428571464843 
361 185 -0.527777778233196 
361 361 0.0 
361 363 -0.5000000000056279 
361 585 -0.1250000000166791 
361 626 -0.5500000000047176 
362 362 0.0 
362 682 0.3333333333055045 
363 37 -0.6071428571464843 
363 119 -0.48214285718107064 
363 191 -0.5000000000498996 
363 361 -0.5000000000056279 
363 363 0.0 
364 364 0.0 
365 168 -0.1666666666799932 
365 365 0.0 
365 380 -0.1666666666799932 
366 37 0.14285714284071527 
366 366 0.0 
367 37 0.14285714284071538 
367 367 0.0 
368 37 0.14285714284071516 
368 368 0.0 
369 66 -0.8194444444462303 
369 118 -0.5347222231558233 
369 369 0.0 
369 372 -0.5416666666701517 
369 555 -0.37500000000749556 
369 616 -0.1875000000581426 
369 932 -0.3125000003433276 
369 965 0.10416666647445116 
369 1059 -0.3875000000367941 
370 37 -0.35714285715102667 
370 370 0.0 
370 583 -1.6895818077955482e-11 
371 204 -0.2666666667029598 
371 237 -0.3666666666834768 
371 371 0.0 
371 760 -0.4166666666805303 
372 37 -0.5238095238143972 
372 40 -0.3333333333420525 
372 369 -0.5416666666701517 
372 372 0.0 
373 37 0.14285714284071527 
373 373 0.0 
374 40 0.3333333333055045 
374 374 0.0 
375 375 0.0 
376 38 -0.6870967747098935 
376 96 -0.6095238105166825 
376 191 -0.6437500000394749 
376 214 -0.5000000002409131 
376 376 0.0 
376 600 -0.6000000001042078 
377 38 0.03225806445309898 
377 377 0.0 
378 38 0.032258064453098756 
378 378 0.0 
379 379 0.0 
380 38 -0.6021505376378207 
380 349 -0.3333333333469426 
380 365 -0.1666666666799932 
380 380 0.0 
381 38 0.032258064453098756 
381 381 0.0 
382 38 -0.4677419354890231 
382 382 0.0 
382 631 -0.42307692308030087 
383 38 0.032258064453098645 
383 383 0.0 
384 38 0.03225806445309898 
384 384 0.0 
385 385 0.0 
386 38 -0.6693548387556336 
386 386 0.0 
386 398 -0.2916666667549537 
386 590 -0.33333333334233695 
386 604 0.16666666664825058 
386 642 -0.5000000000438263 
386 684 -0.33333333334233695 
387 387 0.0 
388 38 0.032258064453098534 
388 388 0.0 
389 38 0.03225806445309898 
389 389 0.0 
390 38 0.032258064453098645 
390 390 0.0 
391 391 0.0 
391 1098 0.49999999996157996 
392 38 0.03225806445309887 
392 392 0.0 
393 38 0.032258064453098645 
393 393 0.0 
394 359 -0.38888888889582685 
394 394 0.0 
394 835 -0.38888888889582685 
395 38 0.032258064453098645 
395 395 0.0 
396 396 0.0 
397 397 0.0 
397 637 -0.1666666666799932 
397 954 -1.6895818077955482e-11 
398 38 -0.5120967742248892 
398 182 -0.5357142857505146 
398 386 -0.2916666667549537 
398 398 0.0 
398 417 -0.6346153846484182 
399 399 0.0 
400 38 -0.4516129032290397 
400 400 0.0 
400 647 -0.28571428572361857 
401 38 -0.4677419354890231 
401 401 0.0 
401 743 -0.2500000000086169 
402 38 0.03225806445309898 
402 402 0.0 
403 403 0.0 
403 770 0.33333333330550463 
404 38 -0.4516129032290399 
404 404 0.0 
404 1103 -0.20000000000842322 
405 64 -0.5303030309302637 
405 66 -0.5833333333636714 
405 405 0.0 
405 835 -0.5555555555586058 
406 38 -0.4677419354890229 
406 99 -0.3750000000074958 
406 406 0.0 
407 38 -0.4677419354890229 
407 308 -0.35714285715102667 
407 407 0.0 
408 408 0.0 
408 875 0.49999999996157996 
409 38 0.032258064453098756 
409 409 0.0 
410 38 -0.5860215053906621 
410 410 0.0 
410 548 -0.5416666666931222 
410 843 -0.3000000000424672 
411 38 0.032258064453098756 
411 411 0.0 
412 38 -0.46774193548902243 
412 265 -0.3000000000100629 
412 412 0.0 
413 231 -0.5500000000205023 
413 276 -0.26666666671407624 
413 413 0.0 
413 602 -0.30000000032645024 
413 783 -0.5571428571977015 
413 1015 -0.550000000283311 
414 38 0.032258064453098756 
414 414 0.0 
415 214 0.0999999999883211 
415 415 0.0 
416 39 -0.1666666666799932 
416 416 0.0 
416 597 0.49999999996157996 
417 39 -0.5897435897454752 
417 44 -0.8411371239152219 
417 64 -0.7552447554860156 
417 70 -0.7167832169257089 
417 100 0.07692307691495315 
417 214 -0.7461538462172879 
417 250 -0.42307692308030087 
417 398 -0.6346153846484182 
417 417 0.0 
417 431 -0.4230769230824445 
417 563 -0.5897435897467718 
417 596 -0.30769230770061107 
417 674 -0.42307692308244427 
417 1075 -0.756410256411848 
418 418 0.0 
419 39 -0.1666666666799932 
419 419 0.0 
419 576 -0.2500000000086169 
420 420 0.0 
421 40 0.33333333330550463 
421 421 0.0 
422 41 -0.45238095239434495 
422 422 0.0 
422 793 -0.1666666666799932 
422 908 -0.2916666672160928 
423 423 0.0 
423 549 0.9999999999267714 
424 44 -0.45652173913503913 
424 424 0.0 
424 909 -0.16666666667792018 
425 425 0.0 
425 582 -0.3571428571510269 
425 705 -0.25000000001145284 
426 426 0.0 
427 41 0.14285714284071538 
427 427 0.0 
428 41 0.14285714284071516 
428 428 0.0 
429 41 -0.4142857144567187 
429 222 -0.46666666667226475 
429 308 -0.5857142858288891 
429 429 0.0 
429 565 -0.3000000000100629 
429 575 -0.5333333333727295 
430 430 0.0 
431 417 -0.4230769230824445 
431 431 0.0 
431 781 -1.6895818077955482e-11 
432 432 0.0 
433 433 0.0 
434 41 -0.6071428571610666 
434 76 -0.7750000000014727 
434 201 -0.3750000000074958 
434 434 0.0 
434 575 -0.5347222234080116 
434 909 -0.5416666666711374 
434 972 -0.6071428571898236 
434 1035 -0.5000000000453451 
434 1103 -0.5500000001424514 
435 41 0.14285714284071527 
435 435 0.0 
436 436 0.0 
437 437 0.0 
437 581 -0.41666666667373553 
437 588 -0.1666666666779204 
437 977 0.33333333330550463 
438 438 0.0 
438 538 0.16666666664825058 
439 42 -0.33333333334233695 
439 439 0.0 
439 649 0.49999999996157996 
440 42 0.1666666666482508 
440 440 0.0 
441 42 -0.6333333333365667 
441 67 -0.6125000000757856 
441 174 -0.6000000000038337 
441 231 -0.6500000000541788 
441 321 -0.5500000000047178 
441 441 0.0 
442 276 -0.1666666666799932 
442 442 0.0 
442 593 -0.25000000001145284 
443 443 0.0 
444 44 -0.45652173913503913 
444 444 0.0 
444 648 -0.4166666666699135 
445 44 0.04347826083165418 
445 445 0.0 
446 446 0.0 
447 44 -0.4347826086982203 
447 94 -0.42500000000275096 
447 447 0.0 
448 448 0.0 
449 44 -0.7065217391319121 
449 449 0.0 
449 517 0.24999999997633615 
449 830 -0.5500000000046013 
449 1024 -0.2500000000114524 
450 44 -0.413043478265974 
450 450 0.0 
450 486 0.1666666665323031 
450 1041 -0.33333333334205273 
451 44 -0.6811594204027878 
451 54 -0.5357142859267638 
451 451 0.0 
451 580 0.08333333198622517 
451 819 -0.4666666672000932 
451 916 -0.3333333335260251 
451 1030 -0.33333333334233695 
452 452 0.0 
452 631 0.07692307691495337 
453 218 0.9999999999267714 
453 453 0.0 
454 44 0.0434782608316544 
454 454 0.0 
455 455 0.0 
456 456 0.0 
457 228 -0.5500000000301757 
457 260 -0.46666666670315404 
457 333 -0.5333333334822576 
457 457 0.0 
457 582 -0.6190476191618142 
457 766 -0.5476190476367093 
457 972 -0.33333333461868686 
458 458 0.0 
459 44 -0.45652173913503935 
459 459 0.0 
459 718 -0.1666666666779204 
460 44 0.04347826083165418 
460 460 0.0 
461 461 0.0 
462 44 -0.45652173913503913 
462 169 -0.3571428571478479 
462 462 0.0 
463 44 0.04347826083165418 
463 463 0.0 
464 355 0.49999999996157996 
464 464 0.0 
465 115 0.028571428503498475 
465 465 0.0 
466 466 0.0 
467 467 0.0 
467 1000 0.19999999997925044 
468 468 0.0 
469 115 -0.7071428571520775 
469 125 -0.22500000015029453 
469 469 0.0 
469 609 -0.4326923080887781 
469 1067 -0.5500000000046019 
470 470 0.0 
470 1080 0.49999999996157996 
471 471 0.0 
472 472 0.0 
472 600 -0.733333333335286 
472 932 -0.2500000000072342 
472 963 -0.1666666667293466 
472 1016 -0.5000000018962467 
472 1037 -0.3611111113376211 
472 1047 -0.041666667143036795 
473 44 0.04347826083165418 
473 473 0.0 
474 188 -0.41666666667373553 
474 195 -0.500000000005361 
474 474 0.0 
474 486 -0.3333333333420523 
475 224 0.49999999996157996 
475 475 0.0 
476 44 -0.536231884091078 
476 54 -0.4761904762713378 
476 198 -0.5000000000106843 
476 476 0.0 
477 201 -1.6896040122560407e-11 
477 477 0.0 
477 1104 -0.16666666667792018 
478 44 -0.6014492753657463 
478 478 0.0 
478 972 -0.30952380998974416 
478 1103 -0.26666666671407624 
479 479 0.0 
480 480 0.0 
481 481 0.0 
482 44 0.04347826083165418 
482 482 0.0 
483 44 0.0434782608316544 
483 483 0.0 
484 44 0.043478260831654514 
484 484 0.0 
485 485 0.0 
486 44 -0.413043478265974 
486 450 0.1666666665323031 
486 474 -0.3333333333420523 
486 486 0.0 
487 487 0.0 
487 507 0.24999999997633615 
488 44 0.04347826083165418 
488 488 0.0 
489 45 0.04999999997623206 
489 489 0.0 
490 45 -0.7821428571475959 
490 109 -0.6571428571458005 
490 155 -0.3571428571510269 
490 214 -0.5857142864048259 
490 490 0.0 
490 538 -0.5476190476367093 
490 625 -0.6071428571464847 
490 642 -0.5357142857505144 
491 45 -0.5916666666707651 
491 191 -0.5729166666971539 
491 491 0.0 
491 599 -0.33333333334205273 
492 492 0.0 
492 548 -0.6250000000203848 
492 766 -0.6071428571464847 
492 783 -0.6428571428716743 
492 806 0.24999999997633604 
493 45 0.049999999976231946 
493 493 0.0 
494 45 -0.4500000000046547 
494 275 -0.3571428571510269 
494 494 0.0 
495 146 -0.46666666697236536 
495 495 0.0 
495 787 -0.20000000000842366 
495 797 -0.40000000054885176 
495 956 -0.20000000006187557 
495 1057 -0.46666666667226453 
496 45 -0.6250000000192992 
496 496 0.0 
496 541 -0.4500000009753795 
496 647 -0.4821428573207296 
496 1103 -0.4500000009753795 
497 497 0.0 
497 650 -0.3000000000069758 
497 668 -1.6896040122560407e-11 
498 45 0.04999999997623228 
498 498 0.0 
499 499 0.0 
500 45 -0.5916666666707646 
500 174 -0.36666666668347636 
500 500 0.0 
500 850 -0.1666666666799932 
501 45 -0.6166666666689324 
501 281 -0.466666666672265 
501 501 0.0 
501 626 -0.46666666667226453 
502 502 0.0 
503 45 0.04999999997623217 
503 503 0.0 
504 45 0.049999999976231946 
504 504 0.0 
505 45 -0.4500000000046549 
505 505 0.0 
505 915 -0.2500000000086171 
506 506 0.0 
506 541 0.19999999997925055 
507 45 -0.7000000000016817 
507 360 -0.6071428571464843 
507 487 0.24999999997633615 
507 507 0.0 
507 1018 -0.6388888888912463 
508 45 0.04999999997623217 
508 508 0.0 
509 45 0.04999999997623206 
509 509 0.0 
510 510 0.0 
511 45 -0.5916666666707648 
511 94 -0.5166666666764814 
511 511 0.0 
511 548 -0.3750000003144014 
512 146 -0.4166666666805301 
512 512 0.0 
512 519 -0.1666666667280272 
512 783 -0.5238095238208822 
513 45 -0.7583333333676705 
513 79 -0.6666666667958367 
513 190 -0.5000000000053606 
513 513 0.0 
513 544 -0.6458333333774406 
513 618 -0.3333333333423367 
513 830 -0.6333333333365663 
514 514 0.0 
515 515 0.0 
515 1018 0.11111111109800753 
516 516 0.0 
517 449 0.24999999997633615 
517 517 0.0 
518 46 0.05263157892664905 
518 518 0.0 
519 46 -0.5877192982499262 
519 245 0.3333333333055045 
519 512 -0.1666666667280272 
519 519 0.0 
520 46 0.05263157892664905 
520 520 0.0 
521 521 0.0 
522 46 -0.4473684210573403 
522 522 0.0 
522 822 -0.16666666667792018 
523 46 -0.1447368421094397 
523 291 0.41666666662901175 
523 523 0.0 
524 46 0.05263157892664905 
524 524 0.0 
525 46 0.05263157892664905 
525 525 0.0 
526 46 0.052631578926648936 
526 526 0.0 
527 46 -0.4210526315817569 
527 115 -0.4571428571462872 
527 527 0.0 
528 263 -1.6896040122560407e-11 
528 528 0.0 
528 652 0.49999999996157996 
529 46 -0.6710526315858849 
529 529 0.0 
529 609 -0.6730769230786244 
529 753 -0.12500000000562794 
529 835 -0.6388888888912465 
530 46 0.05263157892664905 
530 530 0.0 
531 130 0.16666666664825036 
531 531 0.0 
532 46 -0.618421052739694 
532 266 -0.2500000002739673 
532 532 0.0 
532 548 -0.666666666668492 
532 927 -0.12500000000562794 
533 46 0.05263157892664916 
533 533 0.0 
534 46 0.05263157892664927 
534 534 0.0 
535 535 0.0 
536 46 -0.6140350877216643 
536 536 0.0 
536 624 -8.79714079360383e-11 
536 751 -8.79714079360383e-11 
537 46 -0.39473684227693395 
537 266 -3.06552561113449e-11 
537 537 0.0 
538 231 -0.6833333334388259 
538 282 -0.33333333333916904 
538 438 0.16666666664825058 
538 490 -0.5476190476367093 
538 538 0.0 
538 818 -0.4166666668057275 
538 947 -0.33333333333916926 
539 47 -0.29166666743994707 
539 231 -0.6000000000255521 
539 539 0.0 
539 544 -0.31250000064316374 
539 919 -0.2500000000114524 
540 47 0.11111111109800753 
540 540 0.0 
541 47 -0.5222222222471922 
541 496 -0.4500000009753795 
541 506 0.19999999997925055 
541 541 0.0 
541 882 -0.40000000052127205 
541 962 -0.550000000004718 
542 47 0.027777777754290023 
542 542 0.0 
542 544 0.062499999945879736 
543 543 0.0 
544 47 -0.3541666667877186 
544 84 -0.7083333333672699 
544 513 -0.6458333333774406 
544 539 -0.31250000064316374 
544 542 0.062499999945879736 
544 544 0.0 
544 754 -0.31250000034332737 
544 901 -0.6250000000033313 
544 1104 -0.5416666666711372 
545 349 -0.3333333333423367 
545 545 0.0 
545 1095 -1.6895818077955482e-11 
546 48 -0.25000000000861666 
546 234 -0.3500000000202692 
546 546 0.0 
546 714 -0.5000000000056275 
546 766 -0.46428571437265065 
547 547 0.0 
548 84 -0.7638888888985635 
548 306 -0.41666666677209907 
548 335 -0.5000000000057314 
548 358 -0.500000000226485 
548 410 -0.5416666666931222 
548 492 -0.6250000000203848 
548 511 -0.3750000003144014 
548 532 -0.666666666668492 
548 548 0.0 
548 651 -0.5833333333354087 
548 749 -0.5416666666931245 
548 805 -0.3750000000759943 
548 827 -0.25000000038112224 
549 423 0.9999999999267714 
549 549 0.0 
550 88 -0.5416666676688553 
550 176 -0.6250000000027576 
550 177 -0.5416666666711374 
550 217 0.1249999999853244 
550 359 -0.47916666680886677 
550 550 0.0 
550 648 -0.6875000000463194 
550 724 -0.37500000000433675 
550 783 -0.633928571448285 
551 94 -0.7083333333491537 
551 147 -0.5833333333371751 
551 551 0.0 
551 763 -0.33333333333916926 
551 789 -0.33333333342347404 
551 851 -0.250000000393076 
551 862 -0.4166666666805299 
552 48 -1.6896040122560407e-11 
552 552 0.0 
552 677 -0.16666666667792018 
553 553 0.0 
554 49 0.9999999999267714 
554 554 0.0 
555 369 -0.37500000000749556 
555 555 0.0 
555 922 -1.6895818077955482e-11 
556 50 -0.3000000000100629 
556 556 0.0 
556 847 -1.6895818077955482e-11 
557 557 0.0 
558 50 0.19999999997925044 
558 558 0.0 
559 51 -1.6896040122560407e-11 
559 559 0.0 
559 625 -0.2500000000086171 
560 279 0.49999999996157996 
560 560 0.0 
561 52 0.16666666664825036 
561 561 0.0 
562 52 0.16666666664825058 
562 562 0.0 
563 417 -0.5897435897467718 
563 563 0.0 
563 842 0.33333333330550463 
563 1082 -0.16666666667792018 
564 115 -0.24761904763034037 
564 564 0.0 
564 566 -6.866507362701668e-12 
564 935 0.49999999973567455 
565 52 -0.3333333333423367 
565 429 -0.3000000000100629 
565 565 0.0 
566 52 -0.29166666675495323 
566 115 -0.5392857143161212 
566 204 -0.12500000072267725 
566 564 -6.866507362701668e-12 
566 566 0.0 
567 53 -0.4923076923994323 
567 64 -0.5272727272893074 
567 567 0.0 
567 575 -0.533333333372729 
567 605 -0.45000000008074137 
567 635 -0.10000000001762155 
568 53 -0.5538461540020154 
568 54 -0.6380952385149266 
568 62 -0.5666666666714608 
568 64 -0.6636363636469036 
568 128 -0.8000000000904817 
568 264 -0.4000000000064694 
568 568 0.0 
568 616 -0.6500000000541788 
568 642 -0.550000000039119 
568 666 0.09999999998832121 
568 960 -0.516666666675446 
569 569 0.0 
570 570 0.0 
570 835 0.11111111109800775 
571 53 -0.057692307705907275 
571 571 0.0 
571 574 0.3749999999096886 
572 53 -0.42307692308244427 
572 315 -0.40000000000338876 
572 572 0.0 
573 53 0.07692307691495293 
573 573 0.0 
574 53 -0.1923076924969298 
574 70 -0.39772727273259734 
574 571 0.3749999999096886 
574 574 0.0 
574 593 -0.3750000000524496 
575 206 -0.38888888889270357 
575 429 -0.5333333333727295 
575 434 -0.5347222234080116 
575 567 -0.533333333372729 
575 575 0.0 
575 576 -0.4583333334937332 
575 617 -0.277777778088931 
575 992 0.11111111109800764 
575 1078 -0.7222222222241221 
575 1113 -0.388888888892704 
576 53 -0.5576923076982456 
576 167 -0.5833333333373456 
576 419 -0.2500000000086169 
576 575 -0.4583333334937332 
576 576 0.0 
577 54 -0.5476190476282312 
577 577 0.0 
577 609 -0.4743589743813863 
577 1045 -0.46666666667226453 
578 578 0.0 
579 54 -0.6857142864932739 
579 185 -0.633333334294865 
579 228 -0.6500000001160504 
579 315 -0.7000000011922702 
579 579 0.0 
579 828 -0.6500000000541788 
579 942 -0.4000000000064692 
579 989 -0.516666666675446 
579 998 -0.46666666668573553 
579 1059 -0.650000000054179 
579 1062 0.09999999998832132 
580 54 -0.15476190476607288 
580 451 0.08333333198622517 
580 580 0.0 
581 118 -0.583333333361874 
581 128 -0.6750000000065368 
581 437 -0.41666666667373553 
581 581 0.0 
581 793 -0.2500000000114524 
582 264 -0.35714285714784766 
582 323 -0.2857142857236181 
582 425 -0.3571428571510269 
582 457 -0.6190476191618142 
582 582 0.0 
582 600 -0.5857142859999818 
582 771 -0.21428571435999588 
582 1029 -0.35714285714784766 
583 54 -0.4523809523855724 
583 370 -1.6895818077955482e-11 
583 583 0.0 
584 54 -0.607142857188979 
584 584 0.0 
584 642 -0.25000000027396574 
584 660 -0.2500000000114526 
584 952 -0.16666666669429864 
585 54 -0.40476190476627383 
585 361 -0.1250000000166791 
585 585 0.0 
586 54 0.04761904759222646 
586 586 0.0 
587 54 -0.45238095238557263 
587 166 -0.437500000004998 
587 587 0.0 
588 54 -0.45238095238557285 
588 437 -0.1666666666779204 
588 588 0.0 
589 54 0.04761904759222624 
589 589 0.0 
590 386 -0.33333333334233695 
590 590 0.0 
590 855 -1.6895818077955482e-11 
591 54 0.047619047592226016 
591 591 0.0 
592 592 0.0 
592 1009 0.12499999998532452 
593 54 -0.6547619047726319 
593 442 -0.25000000001145284 
593 574 -0.3750000000524496 
593 593 0.0 
593 650 -0.5500000000046015 
594 126 -0.3000000000100629 
594 594 0.0 
594 781 -1.6896040122560407e-11 
595 54 0.047619047592226016 
595 595 0.0 
596 54 -0.3571428571505719 
596 417 -0.30769230770061107 
596 596 0.0 
597 416 0.49999999996157996 
597 597 0.0 
598 598 0.0 
598 693 0.24999999997633615 
599 55 -0.46666666667263 
599 491 -0.33333333334205273 
599 599 0.0 
599 798 -0.1666666666799932 
600 55 -0.7000000000019204 
600 376 -0.6000000001042078 
600 472 -0.733333333335286 
600 582 -0.5857142859999818 
600 600 0.0 
600 771 -0.30000000002080096 
600 794 0.09999999998832121 
600 804 0.09999999998832099 
600 841 -0.3000000002832446 
600 866 -0.4000000000064694 
600 982 -0.4000000000064692 
601 200 0.49999999996157996 
601 601 0.0 
602 55 -0.6000000000038337 
602 287 -0.20000000000842322 
602 413 -0.30000000032645024 
602 602 0.0 
602 783 -0.5214285714364886 
602 797 -0.6000000000038339 
603 116 -0.3333333333647417 
603 198 -0.4444444444679263 
603 318 -0.4666666666860131 
603 603 0.0 
604 386 0.16666666664825058 
604 604 0.0 
605 55 -0.550000000004718 
605 567 -0.45000000008074137 
605 605 0.0 
605 648 -0.6250000000385185 
605 1114 -0.2500000000114524 
606 606 0.0 
607 55 -0.5500000000047178 
607 607 0.0 
607 680 -0.2916666666926928 
607 784 -0.3750000001743312 
607 862 -0.166666666726772 
608 608 0.0 
608 697 -0.2500000000086171 
608 783 -0.6428571428716743 
608 805 -0.2916666672160928 
608 846 0.24999999997633604 
609 125 -0.4076923085914683 
609 128 -0.809615384630682 
609 177 -0.5897435897467718 
609 208 -0.38461538490143377 
609 244 -0.627403846181082 
609 469 -0.4326923080887781 
609 529 -0.6730769230786244 
609 577 -0.4743589743813863 
609 609 0.0 
609 626 -0.7230769230784297 
609 930 -0.4711538461846292 
609 998 -0.5128205128321552 
609 1009 -0.7355769231939304 
609 1051 -0.5512820512880245 
610 57 0.49999999996157996 
610 610 0.0 
611 356 -1.6896040122560407e-11 
611 611 0.0 
611 660 -1.6895818077955482e-11 
612 58 -0.33333333334205273 
612 284 -0.1666666666799932 
612 612 0.0 
612 708 0.33333333330550463 
613 58 0.3333333333055045 
613 613 0.0 
614 58 0.33333333330550463 
614 614 0.0 
615 59 0.49999999996157996 
615 615 0.0 
616 369 -0.1875000000581426 
616 568 -0.6500000000541788 
616 616 0.0 
616 756 -0.2000000000200155 
616 965 -2.6280022602520603e-10 
616 1059 0.09999999990402397 
617 575 -0.277777778088931 
617 617 0.0 
617 1035 -6.147971021164267e-12 
618 513 -0.3333333333423367 
618 618 0.0 
618 651 -0.1666666666799932 
619 60 0.16666666664825047 
619 619 0.0 
620 620 0.0 
620 1009 0.1249999999853243 
621 621 0.0 
622 622 0.0 
623 113 0.09999999998832099 
623 623 0.0 
624 60 -0.5000000000053608 
624 80 -0.5238095238198697 
624 536 -8.79714079360383e-11 
624 624 0.0 
625 60 -0.5833333333373456 
625 84 -0.6388888888919688 
625 490 -0.6071428571464847 
625 559 -0.2500000000086171 
625 625 0.0 
626 60 -0.6333333333365669 
626 361 -0.5500000000047176 
626 501 -0.46666666667226453 
626 609 -0.7230769230784297 
626 626 0.0 
626 729 -0.3000000000100629 
627 60 0.16666666664825058 
627 627 0.0 
628 275 0.14285714284071527 
628 628 0.0 
629 629 0.0 
629 714 0.24999999997633615 
630 630 0.0 
631 62 -0.5576923077072744 
631 283 -0.4230769230824445 
631 340 -0.42307692308030154 
631 382 -0.42307692308030087 
631 452 0.07692307691495337 
631 631 0.0 
631 634 -0.3461538461667919 
631 797 -0.6076923077406966 
631 818 -0.7179487180212396 
631 852 0.07692307691495304 
631 866 -0.4230769230824447 
631 898 -0.5897435897467718 
631 956 -0.4743589744077896 
631 1061 -0.3461538461595306 
632 62 0.16666666664825058 
632 632 0.0 
633 633 0.0 
634 62 -0.1666666667009966 
634 631 -0.3461538461667919 
634 634 0.0 
634 903 0.33333333330550463 
635 66 -0.38888888889367523 
635 567 -0.10000000001762155 
635 635 0.0 
636 636 0.0 
637 62 -0.4166666666805301 
637 214 -0.5166666666754456 
637 397 -0.1666666666799932 
637 637 0.0 
638 638 0.0 
639 63 0.41666666659884133 
639 115 -0.4142857143154739 
639 137 -0.4444444444996134 
639 639 0.0 
640 64 -0.4090909090969781 
640 640 0.0 
640 650 -0.30000000000697513 
641 64 -0.6136363636593067 
641 132 -0.5833333333371753 
641 180 -0.37500000017433033 
641 641 0.0 
641 1022 0.24999999997633604 
642 386 -0.5000000000438263 
642 490 -0.5357142857505144 
642 568 -0.550000000039119 
642 584 -0.25000000027396574 
642 642 0.0 
643 64 0.09090909089870935 
643 643 0.0 
644 64 -0.4090909090969783 
644 644 0.0 
644 864 -0.33333333333916904 
645 64 -0.06818181866077322 
645 185 -0.027777778522096508 
645 645 0.0 
646 64 0.09090909089870935 
646 646 0.0 
647 174 -0.5142857142931005 
647 198 -0.6904761904801946 
647 294 0.14285714284071527 
647 400 -0.28571428572361857 
647 496 -0.4821428573207296 
647 647 0.0 
647 981 -0.6071428571461046 
647 1048 -0.3571428571510269 
648 66 -0.8333333333391375 
648 96 -0.6488095238836717 
648 108 -0.6071428572768873 
648 189 -0.4166666666699126 
648 281 -0.6333333334242912 
648 315 -0.816666666668558 
648 444 -0.4166666666699135 
648 550 -0.6875000000463194 
648 605 -0.6250000000385185 
648 648 0.0 
648 843 -0.4500000002923805 
648 850 -0.4166666666724306 
648 1037 -0.666666666721623 
649 439 0.49999999996157996 
649 649 0.0 
650 497 -0.3000000000069758 
650 593 -0.5500000000046015 
650 640 -0.30000000000697513 
650 650 0.0 
650 725 -0.4666666666722643 
650 882 -0.6000000000038335 
651 66 -0.6111111111135847 
651 548 -0.5833333333354087 
651 618 -0.1666666666799932 
651 651 0.0 
652 528 0.49999999996157996 
652 652 0.0 
653 66 0.05555555553809888 
653 653 0.0 
654 654 0.0 
655 66 0.05555555553809888 
655 655 0.0 
656 656 0.0 
657 657 0.0 
657 898 0.33333333330550463 
658 658 0.0 
658 705 0.24999999997633604 
659 66 0.05555555553809899 
659 659 0.0 
660 584 -0.2500000000114526 
660 611 -1.6895818077955482e-11 
660 660 0.0 
661 661 0.0 
662 66 -0.1388888892652531 
662 662 0.0 
662 670 0.7499999999319464 
663 663 0.0 
664 664 0.0 
665 665 0.0 
666 568 0.09999999998832121 
666 666 0.0 
667 66 0.05555555553809921 
667 667 0.0 
668 66 -0.4444444444492279 
668 497 -1.6896040122560407e-11 
668 668 0.0 
669 669 0.0 
670 66 -0.13888888926525245 
670 662 0.7499999999319464 
670 670 0.0 
671 671 0.0 
671 710 0.49999999996157996 
672 66 0.05555555553809899 
672 672 0.0 
673 66 -0.4166666666695338 
673 244 -0.4062500000029874 
673 673 0.0 
674 118 -0.38888888889582685 
674 417 -0.42307692308244427 
674 674 0.0 
675 66 0.05555555553809921 
675 675 0.0 
676 66 0.0555555555380991 
676 676 0.0 
677 66 -0.5833333333378641 
677 125 -0.36666666668347636 
677 552 -0.16666666667792018 
677 677 0.0 
678 678 0.0 
679 679 0.0 
680 67 -0.4791666666789265 
680 307 -0.1666666666779204 
680 607 -0.2916666666926928 
680 680 0.0 
681 67 -0.4791666666789265 
681 94 -0.5666666666737223 
681 681 0.0 
681 685 -0.3333333333420525 
682 67 -0.5416666666711372 
682 362 0.3333333333055045 
682 682 0.0 
682 1044 -0.1666666666799932 
683 683 0.0 
683 902 0.24999999997633615 
684 317 0.49999999972581843 
684 386 -0.33333333334233695 
684 684 0.0 
685 76 -0.5666666666705098 
685 303 0.33333333330550463 
685 681 -0.3333333333420525 
685 685 0.0 
686 686 0.0 
687 687 0.0 
687 830 0.19999999997925055 
688 688 0.0 
689 689 0.0 
689 849 0.49999999996157996 
690 70 -0.4090909090969781 
690 92 -1.6895818077955482e-11 
690 690 0.0 
691 691 0.0 
692 692 0.0 
693 70 -0.6590909090935939 
693 290 -0.6071428571464847 
693 598 0.24999999997633615 
693 693 0.0 
693 898 -0.41666666667373575 
694 70 0.09090909089870935 
694 694 0.0 
695 695 0.0 
696 696 0.0 
697 70 -0.4090909090969783 
697 608 -0.2500000000086171 
697 697 0.0 
698 70 0.09090909089870924 
698 698 0.0 
699 70 0.09090909089870935 
699 699 0.0 
700 71 0.16666666664825047 
700 700 0.0 
701 71 -0.33333333334233695 
701 185 -0.38888888889582685 
701 701 0.0 
702 702 0.0 
703 703 0.0 
704 71 0.16666666664825058 
704 704 0.0 
705 265 -0.5500000000047178 
705 267 -0.2500000000114524 
705 425 -0.25000000001145284 
705 658 0.24999999997633604 
705 705 0.0 
706 71 0.1666666666482508 
706 706 0.0 
707 71 0.16666666664825058 
707 707 0.0 
708 612 0.33333333330550463 
708 708 0.0 
709 72 0.3333333333055045 
709 709 0.0 
710 72 -0.1666666666799932 
710 671 0.49999999996157996 
710 710 0.0 
711 289 -0.33333333334205273 
711 711 0.0 
711 877 -0.46666666667263024 
711 1089 -0.1666666666799932 
712 712 0.0 
712 1025 0.33333333330550463 
713 713 0.0 
714 84 -0.6388888888919688 
714 546 -0.5000000000056275 
714 629 0.24999999997633615 
714 714 0.0 
714 915 -0.5000000000056279 
715 73 0.49999999996157984 
715 715 0.0 
716 73 0.49999999996157996 
716 716 0.0 
717 717 0.0 
717 1060 0.9999999999267714 
718 74 -0.46666666667263 
718 321 -0.41666666667351837 
718 459 -0.1666666666779204 
718 718 0.0 
719 74 0.19999999997925055 
719 719 0.0 
720 74 -0.46666666667263 
720 146 -0.5000000000053608 
720 720 0.0 
720 877 -0.46666666667226453 
721 74 0.19999999997925055 
721 721 0.0 
722 74 -0.3000000000100631 
722 722 0.0 
722 835 -0.3888888888927031 
723 96 -0.4523809523855724 
723 723 0.0 
723 984 -1.6896040122560407e-11 
724 75 -1.6896040122560407e-11 
724 550 -0.37500000000433675 
724 724 0.0 
725 97 -0.3333333333420525 
725 650 -0.4666666666722643 
725 725 0.0 
725 1081 -0.1666666666799932 
726 726 0.0 
727 76 0.09999999998832121 
727 727 0.0 
728 76 -0.650000000002867 
728 266 -0.12500000017987856 
728 728 0.0 
728 761 -0.5833333333371753 
728 930 -0.125000000179879 
729 76 -0.4000000000064694 
729 626 -0.3000000000100629 
729 729 0.0 
730 76 -0.5666666666705102 
730 157 -0.3809523810452953 
730 195 -0.4166666666805301 
730 730 0.0 
731 731 0.0 
732 732 0.0 
732 761 -0.3333333333423367 
732 826 -0.16666666667792018 
733 156 0.3333333333055045 
733 733 0.0 
734 76 0.09999999998832132 
734 734 0.0 
735 735 0.0 
736 77 0.9999999999267714 
736 736 0.0 
737 178 -0.1666666666799932 
737 737 0.0 
737 876 -0.3000000000100629 
738 738 0.0 
739 78 0.3333333333055044 
739 739 0.0 
740 78 0.3333333333055045 
740 740 0.0 
741 78 0.33333333330550463 
741 741 0.0 
742 742 0.0 
743 79 -0.6388888888919693 
743 242 -0.6071428571464847 
743 401 -0.2500000000086169 
743 743 0.0 
743 877 -0.5500000000046019 
744 79 0.11111111109800753 
744 744 0.0 
745 79 0.11111111109800775 
745 745 0.0 
746 79 0.11111111109800775 
746 746 0.0 
747 79 0.11111111109800764 
747 747 0.0 
748 80 -0.3571428571483217 
748 748 0.0 
748 783 -0.35714285716771843 
749 80 -0.5595238095294108 
749 548 -0.5416666666931245 
749 749 0.0 
749 969 -0.1666666666799932 
750 168 -0.41666666667351837 
750 191 -0.6875000000020304 
750 198 -0.6388888888919688 
750 750 0.0 
750 767 -0.41666666667373575 
751 80 -0.5238095238198697 
751 536 -8.79714079360383e-11 
751 751 0.0 
751 988 -0.3333333333420523 
752 752 0.0 
752 830 -0.3000000000100631 
752 833 0.49999999996157996 
753 529 -0.12500000000562794 
753 753 0.0 
753 783 -0.3928571431361725 
754 80 -0.3928571431361725 
754 544 -0.31250000034332737 
754 754 0.0 
755 80 0.07142857142142 
755 755 0.0 
756 80 -0.642857142871675 
756 308 -0.5357142857505144 
756 616 -0.2000000000200155 
756 756 0.0 
756 1059 -0.2000000000200155 
757 80 0.07142857142142 
757 757 0.0 
758 80 -0.5952380952411065 
758 758 0.0 
758 886 -0.3333333333420525 
758 956 -0.3333333333420525 
759 244 -0.4875000005223813 
759 318 -0.3000000000752072 
759 759 0.0 
759 819 -0.4000000017845182 
759 973 -0.10000000001388432 
759 1046 -0.35000000092402495 
760 81 -0.541666666799824 
760 191 -0.4479166670909658 
760 240 -0.5000000005074092 
760 315 -0.6833333333613052 
760 371 -0.4166666666805303 
760 760 0.0 
760 824 -0.4166666673137718 
761 260 -0.6333333333364837 
761 728 -0.5833333333371753 
761 732 -0.3333333333423367 
761 761 0.0 
761 915 -0.5833333333373458 
761 989 -0.5000000000046976 
761 1046 -0.6666666666694112 
762 81 -0.4166666666724306 
762 762 0.0 
762 1078 -0.33333333333916904 
763 81 -0.4166666666724308 
763 551 -0.33333333333916926 
763 763 0.0 
764 764 0.0 
765 81 0.08333333332413406 
765 765 0.0 
766 81 -0.6607142865356272 
766 119 -0.5357142859319293 
766 151 -0.3571428571510269 
766 457 -0.5476190476367093 
766 492 -0.6071428571464847 
766 546 -0.46428571437265065 
766 766 0.0 
766 953 -0.21428571429446897 
767 311 -0.1666666666779204 
767 750 -0.41666666667373575 
767 767 0.0 
767 838 -0.16666666667792018 
768 81 -0.45833333337941307 
768 242 -0.38095238104529505 
768 768 0.0 
768 1017 -0.41666666667351837 
769 81 -0.6250000000203857 
769 319 -0.2500000000114524 
769 769 0.0 
769 858 -0.25000000001145284 
769 1038 -0.29166666669269303 
770 81 -0.583333333336709 
770 183 -0.16666666667792018 
770 403 0.33333333330550463 
770 770 0.0 
771 82 -0.1666666666779204 
771 582 -0.21428571435999588 
771 600 -0.30000000002080096 
771 771 0.0 
772 772 0.0 
773 83 0.49999999996157996 
773 773 0.0 
774 84 -0.5555555555596876 
774 308 -0.5238095238143974 
774 774 0.0 
774 899 -0.1666666666799932 
775 775 0.0 
775 1045 0.19999999997925044 
776 776 0.0 
776 1015 0.1666666666482508 
777 777 0.0 
778 84 0.11111111109800775 
778 778 0.0 
779 84 -0.38888888889582707 
779 779 0.0 
779 1045 -0.3000000000069756 
780 87 -1.6896040122560407e-11 
780 302 -1.6895818077955482e-11 
780 780 0.0 
781 431 -1.6895818077955482e-11 
781 594 -1.6896040122560407e-11 
781 781 0.0 
782 119 -0.5571428571862171 
782 154 -0.550000000283311 
782 191 -0.4812500009728147 
782 204 -0.5000000003443879 
782 782 0.0 
782 864 -0.6333333333365665 
783 88 -0.5892857149126538 
783 269 0.07142857142142012 
783 291 -0.5238095238351632 
783 413 -0.5571428571977015 
783 492 -0.6428571428716743 
783 512 -0.5238095238208822 
783 550 -0.633928571448285 
783 602 -0.5214285714364886 
783 608 -0.6428571428716743 
783 748 -0.35714285716771843 
783 753 -0.3928571431361725 
783 783 0.0 
783 820 0.07142857142142012 
783 962 -0.6785714285736812 
783 1018 -0.7817460317486704 
784 134 -0.2500000000086171 
784 321 -0.5000000000056277 
784 607 -0.3750000001743312 
784 784 0.0 
784 789 -0.37500000017433055 
785 88 -0.33333333333927273 
785 146 -0.16666666667721453 
785 785 0.0 
786 786 0.0 
787 88 -0.3750000002939564 
787 495 -0.20000000000842366 
787 787 0.0 
788 88 -0.3333333335470343 
788 308 -0.21428571461347823 
788 788 0.0 
789 88 -0.6666666666691912 
789 344 -0.46428571437265087 
789 551 -0.33333333342347404 
789 784 -0.37500000017433055 
789 789 0.0 
790 88 0.08333333332413417 
790 790 0.0 
791 88 0.08333333332413406 
791 791 0.0 
792 88 -0.4166666666724308 
792 792 0.0 
792 895 -1.6895818077955482e-11 
793 422 -0.1666666666799932 
793 581 -0.2500000000114524 
793 793 0.0 
794 600 0.09999999998832121 
794 794 0.0 
795 89 0.19999999997925044 
795 795 0.0 
796 796 0.0 
796 1104 0.33333333330550463 
797 90 -0.5500000000046017 
797 119 -0.7285714285732274 
797 495 -0.40000000054885176 
797 602 -0.6000000000038339 
797 631 -0.6076923077406966 
797 797 0.0 
798 90 -0.2500000000114524 
798 599 -0.1666666666799932 
798 798 0.0 
799 90 0.24999999997633615 
799 799 0.0 
800 800 0.0 
801 90 0.24999999997633604 
801 801 0.0 
802 802 0.0 
803 803 0.0 
803 819 0.19999999997925055 
804 600 0.09999999998832099 
804 804 0.0 
805 94 -0.5166666666764819 
805 548 -0.3750000000759943 
805 608 -0.2916666672160928 
805 805 0.0 
806 492 0.24999999997633604 
806 806 0.0 
807 284 -1.6895818077955482e-11 
807 333 -0.3000000000100631 
807 807 0.0 
808 94 0.04999999997623217 
808 808 0.0 
809 94 0.04999999997623239 
809 809 0.0 
810 810 0.0 
810 961 0.49999999996157996 
811 811 0.0 
812 812 0.0 
813 344 -0.5238095238143974 
813 813 0.0 
813 835 -0.5555555555596876 
813 867 -0.16666666667792018 
814 195 -0.33333333334233695 
814 814 0.0 
814 829 -0.1666666666799932 
815 94 0.04999999997623228 
815 815 0.0 
816 94 0.04999999997623217 
816 816 0.0 
817 817 0.0 
818 117 -0.5833333338871682 
818 214 -0.533333333413496 
818 538 -0.4166666668057275 
818 631 -0.7179487180212396 
818 818 0.0 
818 1015 -0.5833333338871685 
818 1103 -0.6333333333365669 
819 94 -0.5750000000595219 
819 451 -0.4666666672000932 
819 759 -0.4000000017845182 
819 803 0.19999999997925055 
819 819 0.0 
819 824 -0.26666666672736183 
820 783 0.07142857142142012 
820 820 0.0 
821 94 -0.5916666666707646 
821 821 0.0 
821 837 0.3333333333055045 
821 864 -0.41666666668456376 
822 94 -0.6166666666689324 
822 252 -0.1666666666799932 
822 522 -0.16666666667792018 
822 822 0.0 
823 94 0.04999999997623206 
823 823 0.0 
824 94 -0.575000000047289 
824 128 -0.5833333338122988 
824 173 -0.33333333333916904 
824 191 -0.5000000000188407 
824 760 -0.4166666673137718 
824 819 -0.26666666672736183 
824 824 0.0 
825 825 0.0 
825 951 0.9999999999267714 
826 732 -0.16666666667792018 
826 826 0.0 
826 934 0.33333333330550463 
826 968 -0.1666666666779204 
827 94 -0.35000000031576395 
827 548 -0.25000000038112224 
827 827 0.0 
828 94 -0.7250000000111791 
828 174 -0.5000000003443885 
828 268 -0.4666666666722643 
828 285 -0.20000000000842366 
828 579 -0.6500000000541788 
828 828 0.0 
829 94 -0.6166666666689327 
829 814 -0.1666666666799932 
829 829 0.0 
829 962 -0.4166666666735186 
830 338 -0.46666666667226475 
830 449 -0.5500000000046013 
830 513 -0.6333333333365663 
830 687 0.19999999997925055 
830 752 -0.3000000000100631 
830 830 0.0 
831 94 0.04999999997623217 
831 831 0.0 
832 95 -0.2500000000114524 
832 832 0.0 
832 1093 -1.6896040122560407e-11 
833 752 0.49999999996157996 
833 833 0.0 
834 834 0.0 
834 835 0.11111111109800764 
835 162 -0.6388888888912465 
835 394 -0.38888888889582685 
835 405 -0.5555555555586058 
835 529 -0.6388888888912465 
835 570 0.11111111109800775 
835 722 -0.3888888888927031 
835 813 -0.5555555555596876 
835 834 0.11111111109800764 
835 835 0.0 
835 950 -0.38888888889270357 
836 836 0.0 
836 1016 0.1666666666482508 
837 821 0.3333333333055045 
837 837 0.0 
838 95 -0.2500000000114526 
838 767 -0.16666666667792018 
838 838 0.0 
839 839 0.0 
839 1009 0.1249999999853244 
840 95 0.24999999997633604 
840 840 0.0 
841 96 -0.4047619049387472 
841 600 -0.3000000002832446 
841 841 0.0 
842 563 0.33333333330550463 
842 842 0.0 
843 96 -0.5809523810019304 
843 182 -0.5142857145150166 
843 410 -0.3000000000424672 
843 648 -0.4500000002923805 
843 843 0.0 
843 1084 -0.45000000008074137 
844 96 0.04761904759222613 
844 844 0.0 
845 845 0.0 
846 608 0.24999999997633604 
846 846 0.0 
847 96 -0.4523809523855724 
847 556 -1.6895818077955482e-11 
847 847 0.0 
848 96 0.047619047592225905 
848 848 0.0 
849 96 -0.4523809523855724 
849 689 0.49999999996157996 
849 849 0.0 
850 500 -0.1666666666799932 
850 648 -0.4166666666724306 
850 850 0.0 
851 96 -0.42857142857412134 
851 551 -0.250000000393076 
851 851 0.0 
852 631 0.07692307691495304 
852 852 0.0 
853 96 0.04761904759222613 
853 853 0.0 
854 96 0.04761904759222624 
854 854 0.0 
855 96 -0.4523809523855724 
855 590 -1.6895818077955482e-11 
855 855 0.0 
856 96 0.047619047592226016 
856 856 0.0 
857 857 0.0 
858 96 -0.4523809523855724 
858 769 -0.25000000001145284 
858 858 0.0 
859 859 0.0 
860 96 0.047619047592226016 
860 860 0.0 
861 96 0.04761904759222624 
861 861 0.0 
862 214 -0.516666666675446 
862 551 -0.4166666666805299 
862 607 -0.166666666726772 
862 862 0.0 
863 863 0.0 
863 970 -1.6895818077955482e-11 
863 980 -0.2500000000114524 
864 97 -0.41666666668456376 
864 644 -0.33333333333916904 
864 782 -0.6333333333365665 
864 821 -0.41666666668456376 
864 864 0.0 
864 980 -0.5833333333373456 
864 1089 -0.33333333334233695 
865 865 0.0 
866 600 -0.4000000000064694 
866 631 -0.4230769230824447 
866 866 0.0 
867 99 -0.37500000000749556 
867 813 -0.16666666667792018 
867 867 0.0 
868 99 -0.37500000000749556 
868 128 -0.4500000000046547 
868 868 0.0 
869 99 0.1249999999853243 
869 869 0.0 
870 870 0.0 
871 99 0.1249999999853244 
871 871 0.0 
872 872 0.0 
873 99 0.12499999998532463 
873 873 0.0 
874 102 0.49999999996157996 
874 874 0.0 
875 313 -0.1666666666799932 
875 408 0.49999999996157996 
875 875 0.0 
876 104 -0.3000000000069756 
876 120 -0.550000000283311 
876 737 -0.3000000000100629 
876 876 0.0 
876 1071 -0.45000000008074115 
876 1076 -0.3000000000100629 
877 188 -0.5500000000046015 
877 711 -0.46666666667263024 
877 720 -0.46666666667226453 
877 743 -0.5500000000046019 
877 877 0.0 
877 1054 -0.6333333333365665 
878 104 0.49999999996157996 
878 878 0.0 
879 105 0.24999999997633615 
879 879 0.0 
880 105 0.24999999997633604 
880 880 0.0 
881 881 0.0 
882 106 -0.550000000004601 
882 247 -0.40000000052127294 
882 541 -0.40000000052127205 
882 650 -0.6000000000038335 
882 882 0.0 
882 1041 -0.46666666667263024 
883 883 0.0 
884 106 0.24999999997633615 
884 884 0.0 
885 106 0.24999999997633604 
885 885 0.0 
886 107 -0.3333333333420523 
886 336 -0.1666666666779204 
886 758 -0.3333333333420525 
886 886 0.0 
887 887 0.0 
888 888 0.0 
889 107 0.33333333330550463 
889 889 0.0 
890 890 0.0 
891 891 0.0 
892 114 -0.2500000000077627 
892 315 -0.35000000001839426 
892 892 0.0 
893 108 0.14285714284071527 
893 893 0.0 
894 894 0.0 
895 108 -0.3571428571510269 
895 792 -1.6895818077955482e-11 
895 895 0.0 
896 896 0.0 
897 897 0.0 
898 631 -0.5897435897467718 
898 657 0.33333333330550463 
898 693 -0.41666666667373575 
898 898 0.0 
899 774 -0.1666666666799932 
899 899 0.0 
899 960 -0.1666666666799932 
900 109 0.19999999997925055 
900 900 0.0 
901 109 -0.5500000000047183 
901 167 -0.5833333333373456 
901 544 -0.6250000000033313 
901 901 0.0 
901 994 -0.2500000000114524 
902 109 -0.550000000004718 
902 115 -0.7214285714315853 
902 683 0.24999999997633615 
902 902 0.0 
902 955 0.24999999997633604 
903 634 0.33333333330550463 
903 903 0.0 
904 109 0.19999999997925044 
904 904 0.0 
905 905 0.0 
906 906 0.0 
907 907 0.0 
908 235 -0.41666666667351815 
908 299 -0.2500000000114524 
908 308 -0.5357142857505148 
908 422 -0.2916666672160928 
908 908 0.0 
909 111 -0.16666666667792018 
909 424 -0.16666666667792018 
909 434 -0.5416666666711374 
909 909 0.0 
910 111 0.49999999996157996 
910 910 0.0 
911 131 -0.16666666669429953 
911 157 -0.38095238096469486 
911 353 -0.3333333333420525 
911 911 0.0 
912 912 0.0 
912 1067 0.19999999997925044 
913 113 0.09999999998832121 
913 913 0.0 
914 113 0.09999999998832132 
914 914 0.0 
915 505 -0.2500000000086171 
915 714 -0.5000000000056279 
915 761 -0.5833333333373458 
915 915 0.0 
915 1063 0.24999999997633604 
916 114 -0.1458333333783779 
916 244 -0.25000000004524825 
916 451 -0.3333333335260251 
916 916 0.0 
917 114 -0.3541666668168175 
917 128 -0.30000000004598526 
917 318 -0.25000000003711365 
917 917 0.0 
918 115 -0.7071428571448077 
918 118 -0.6388888888912465 
918 120 -0.2916666666971284 
918 191 -0.5000000015173152 
918 918 0.0 
919 115 -0.47142857143794026 
919 539 -0.2500000000114524 
919 919 0.0 
920 115 -0.47142857143794004 
920 920 0.0 
920 1078 -0.33333333333916926 
921 115 0.028571428503498142 
921 921 0.0 
922 115 -0.4714285714379405 
922 555 -1.6895818077955482e-11 
922 922 0.0 
923 115 0.028571428503498142 
923 923 0.0 
924 115 -0.47142857143794004 
924 234 -0.3000000000069756 
924 924 0.0 
925 115 0.028571428503498142 
925 925 0.0 
926 115 0.028571428503498475 
926 926 0.0 
927 115 -0.4571428571462872 
927 532 -0.12500000000562794 
927 927 0.0 
928 115 0.028571428503498142 
928 928 0.0 
929 929 0.0 
930 244 -0.5000000000217448 
930 266 -0.12500000017987944 
930 609 -0.4711538461846292 
930 728 -0.125000000179879 
930 930 0.0 
931 115 0.028571428503498142 
931 931 0.0 
932 369 -0.3125000003433276 
932 472 -0.2500000000072342 
932 932 0.0 
933 933 0.0 
934 826 0.33333333330550463 
934 934 0.0 
935 115 -0.17857142858080732 
935 564 0.49999999973567455 
935 935 0.0 
936 115 0.028571428503498142 
936 936 0.0 
937 937 0.0 
938 115 -0.47142857143794004 
938 122 -0.3571428571510269 
938 938 0.0 
939 115 0.028571428503498364 
939 939 0.0 
940 940 0.0 
941 115 0.02857142850349803 
941 941 0.0 
942 115 -0.47142857143794004 
942 579 -0.4000000000064692 
942 942 0.0 
943 115 -0.47142857143794004 
943 943 0.0 
943 1005 -0.16666666667792018 
944 115 0.028571428503498364 
944 944 0.0 
945 945 0.0 
946 115 -0.47142857143794026 
946 335 -0.2500000000114524 
946 946 0.0 
947 115 -0.47142857143794004 
947 538 -0.33333333333916926 
947 947 0.0 
948 115 0.028571428503498364 
948 948 0.0 
949 231 0.09999999998832132 
949 949 0.0 
950 116 -0.33333333334233695 
950 835 -0.38888888889270357 
950 950 0.0 
951 825 0.9999999999267714 
951 951 0.0 
952 116 -0.3333333333469426 
952 267 -0.1666666666799932 
952 584 -0.16666666669429864 
952 952 0.0 
953 116 -0.2500000003930758 
953 766 -0.21428571429446897 
953 953 0.0 
954 117 -0.33333333334233695 
954 397 -1.6895818077955482e-11 
954 954 0.0 
955 902 0.24999999997633604 
955 955 0.0 
956 495 -0.20000000006187557 
956 631 -0.4743589744077896 
956 758 -0.3333333333420525 
956 956 0.0 
957 957 0.0 
958 958 0.0 
959 117 -0.500000000005361 
959 156 -0.3333333333420525 
959 959 0.0 
959 1005 -0.3333333333420523 
960 117 -0.4166666666805301 
960 568 -0.516666666675446 
960 899 -0.1666666666799932 
960 960 0.0 
961 349 -0.33333333334233695 
961 810 0.49999999996157996 
961 961 0.0 
962 154 -0.5833333333373456 
962 541 -0.550000000004718 
962 783 -0.6785714285736812 
962 829 -0.4166666666735186 
962 962 0.0 
963 118 -0.4444444444679263 
963 318 -0.3666666667758647 
963 472 -0.1666666667293466 
963 963 0.0 
964 118 0.11111111109800753 
964 964 0.0 
965 118 -0.27777777791704983 
965 369 0.10416666647445116 
965 616 -2.6280022602520603e-10 
965 965 0.0 
966 966 0.0 
967 118 0.11111111109800775 
967 967 0.0 
968 118 -0.38888888889582707 
968 826 -0.1666666666779204 
968 968 0.0 
969 749 -0.1666666666799932 
969 969 0.0 
969 1093 -1.6895818077955482e-11 
970 863 -1.6895818077955482e-11 
970 970 0.0 
970 1009 -0.37500000000749556 
971 119 -0.559523809529411 
971 169 -0.45238095239434495 
971 971 0.0 
971 984 -0.1666666666799932 
972 119 -0.6071428575017213 
972 152 -0.3095238099897435 
972 184 -0.3928571428958185 
972 290 -0.6428571428656005 
972 434 -0.6071428571898236 
972 457 -0.33333333461868686 
972 478 -0.30952380998974416 
972 972 0.0 
973 119 -0.32142857144620396 
973 759 -0.10000000001388432 
973 973 0.0 
974 119 0.07142857142142 
974 974 0.0 
975 244 0.062499999990653254 
975 975 0.0 
976 119 0.07142857142142012 
976 976 0.0 
977 437 0.33333333330550463 
977 977 0.0 
978 978 0.0 
978 1059 0.19999999997925044 
979 318 0.09999999998832099 
979 979 0.0 
980 237 -0.5500000000047178 
980 863 -0.2500000000114524 
980 864 -0.5833333333373456 
980 980 0.0 
980 999 -0.41666666667351837 
981 121 -0.2500000000086171 
981 314 0.24999999997633615 
981 319 -0.25000000001145284 
981 647 -0.6071428571461046 
981 981 0.0 
982 122 -0.3571428571510269 
982 600 -0.4000000000064692 
982 982 0.0 
983 983 0.0 
984 723 -1.6896040122560407e-11 
984 971 -0.1666666666799932 
984 984 0.0 
985 123 -0.1666666666799932 
985 985 0.0 
985 1037 -0.3888888888927031 
986 123 -0.1666666666799932 
986 986 0.0 
986 1000 -0.3000000000069756 
987 123 0.33333333330550463 
987 987 0.0 
988 124 -0.3333333333420525 
988 149 -0.33333333334205273 
988 751 -0.3333333333420523 
988 988 0.0 
989 176 -0.29166666669269303 
989 579 -0.516666666675446 
989 761 -0.5000000000046976 
989 989 0.0 
990 125 -0.46666666667263024 
990 235 -0.33333333334205273 
990 990 0.0 
990 1078 -0.5000000000046976 
991 126 0.19999999997925044 
991 991 0.0 
992 575 0.11111111109800764 
992 992 0.0 
993 128 0.049999999976231946 
993 993 0.0 
994 128 -0.4500000000046549 
994 901 -0.2500000000114524 
994 994 0.0 
995 995 0.0 
996 996 0.0 
996 998 0.33333333330550463 
997 997 0.0 
998 579 -0.46666666668573553 
998 609 -0.5128205128321552 
998 996 0.33333333330550463 
998 998 0.0 
999 128 -0.6166666666689327 
999 251 0.3333333333055045 
999 980 -0.41666666667351837 
999 999 0.0 
1000 128 -0.7250000000111796 
1000 184 -0.5500000000046015 
1000 329 -0.20000000000842366 
1000 467 0.19999999997925044 
1000 986 -0.3000000000069756 
1000 1000 0.0 
1001 128 -0.3500000000154748 
1001 191 -0.28125000002094325 
1001 1001 0.0 
1002 1002 0.0 
1003 128 0.04999999997623217 
1003 1003 0.0 
1004 1004 0.0 
1005 128 -0.6166666666689324 
1005 943 -0.16666666667792018 
1005 959 -0.3333333333420523 
1005 1005 0.0 
1006 129 -0.2500000000267062 
1006 131 -0.41666666667351837 
1006 1006 0.0 
1006 1012 -4.557787480763409e-10 
1007 1007 0.0 
1008 1008 0.0 
1009 129 -0.7500000000017479 
1009 144 -0.37500000000433653 
1009 248 -0.3125000000127969 
1009 592 0.12499999998532452 
1009 609 -0.7355769231939304 
1009 620 0.1249999999853243 
1009 839 0.1249999999853244 
1009 970 -0.37500000000749556 
1009 1009 0.0 
1010 1010 0.0 
1011 129 -0.5416666666711372 
1011 359 -0.2777777778014139 
1011 1011 0.0 
1011 1067 -0.10000000006063936 
1012 129 -0.3125000001570313 
1012 252 -0.25000000001145284 
1012 1006 -4.557787480763409e-10 
1012 1012 0.0 
1012 1037 -0.5833333333911419 
1013 129 -0.5000000003384473 
1013 169 -0.6071428571464847 
1013 278 -0.6071428571464847 
1013 1013 0.0 
1013 1034 -0.29166666710926736 
1014 166 -0.3750000000050968 
1014 204 -0.10000000001762155 
1014 1014 0.0 
1015 129 -0.6250000008549343 
1015 137 -0.6388888889834559 
1015 413 -0.550000000283311 
1015 776 0.1666666666482508 
1015 818 -0.5833333338871685 
1015 1015 0.0 
1015 1025 -0.5000000000053608 
1016 130 -0.666666666669411 
1016 210 -0.33333333333916926 
1016 344 -0.5476190476367091 
1016 472 -0.5000000018962467 
1016 836 0.1666666666482508 
1016 1016 0.0 
1016 1074 -0.33333333334233695 
1017 130 -0.5833333333373456 
1017 290 -0.5357142857505146 
1017 768 -0.41666666667351837 
1017 1017 0.0 
1017 1046 -0.45833333335005033 
1018 130 -0.66666666667097 
1018 243 -0.277777778088931 
1018 321 -0.6388888888919688 
1018 507 -0.6388888888912463 
1018 515 0.11111111109800753 
1018 783 -0.7817460317486704 
1018 1018 0.0 
1018 1034 -0.5000000000106846 
1018 1075 -0.5555555556628995 
1018 1084 -0.6388888888919695 
1019 1019 0.0 
1020 132 0.16666666664825036 
1020 1020 0.0 
1021 132 0.16666666664825058 
1021 1021 0.0 
1022 641 0.24999999997633604 
1022 1022 0.0 
1023 132 -0.3333333333423367 
1023 316 -1.6896040122560407e-11 
1023 1023 0.0 
1024 132 -0.33333333334233695 
1024 449 -0.2500000000114524 
1024 1024 0.0 
1025 133 -0.33333333334205273 
1025 712 0.33333333330550463 
1025 1015 -0.5000000000053608 
1025 1025 0.0 
1026 1026 0.0 
1027 134 -0.1666666666779204 
1027 172 -1.2504175472827228e-10 
1027 265 -0.30000000006359473 
1027 1027 0.0 
1028 1028 0.0 
1029 135 -0.1666666666799932 
1029 582 -0.35714285714784766 
1029 1029 0.0 
1030 136 -0.2500000000114526 
1030 451 -0.33333333334233695 
1030 1030 0.0 
1031 136 0.24999999997633604 
1031 1031 0.0 
1032 1032 0.0 
1033 1033 0.0 
1034 137 -0.5000000000106843 
1034 1013 -0.29166666710926736 
1034 1018 -0.5000000000106846 
1034 1034 0.0 
1035 137 -0.638888888891969 
1035 434 -0.5000000000453451 
1035 617 -6.147971021164267e-12 
1035 1035 0.0 
1035 1042 -0.41666666667373575 
1036 1036 0.0 
1037 137 -0.6111111111918115 
1037 140 -0.25000000029707037 
1037 318 -0.42222222230711703 
1037 357 -0.27777777778487955 
1037 472 -0.3611111113376211 
1037 648 -0.666666666721623 
1037 985 -0.3888888888927031 
1037 1012 -0.5833333333911419 
1037 1037 0.0 
1037 1047 -0.05555555631116782 
1038 137 -0.555555555559688 
1038 240 -0.29166666669269303 
1038 769 -0.29166666669269303 
1038 1038 0.0 
1039 1039 0.0 
1040 1040 0.0 
1041 138 -0.1666666666779204 
1041 450 -0.33333333334205273 
1041 882 -0.46666666667263024 
1041 1041 0.0 
1042 139 -0.2500000011167418 
1042 179 -0.2500000011167418 
1042 1035 -0.41666666667373575 
1042 1042 0.0 
1043 139 -0.12500000000562772 
1043 1043 0.0 
1043 1078 -0.25000000000723444 
1044 155 -1.6895818077955482e-11 
1044 682 -0.1666666666799932 
1044 1044 0.0 
1045 140 -0.5500000002833105 
1045 337 -0.4500000009753795 
1045 577 -0.46666666667226453 
1045 775 0.19999999997925044 
1045 779 -0.3000000000069756 
1045 1045 0.0 
1046 140 -0.3333333337558102 
1046 318 -0.23333333422997504 
1046 350 -7.661651313384255e-10 
1046 759 -0.35000000092402495 
1046 761 -0.6666666666694112 
1046 1017 -0.45833333335005033 
1046 1046 0.0 
1047 140 -0.2083333333425692 
1047 344 -0.3214285714472742 
1047 472 -0.041666667143036795 
1047 1037 -0.05555555631116782 
1047 1047 0.0 
1048 647 -0.3571428571510269 
1048 1048 0.0 
1048 1115 -0.1666666666799932 
1049 142 0.49999999996157996 
1049 1049 0.0 
1050 143 -0.2500000000114524 
1050 169 -0.3571428571510269 
1050 1050 0.0 
1051 143 -0.41666666667373553 
1051 277 -0.1666666667280272 
1051 609 -0.5512820512880245 
1051 1051 0.0 
1052 143 0.24999999997633604 
1052 1052 0.0 
1053 1053 0.0 
1054 145 -0.5000000000097358 
1054 268 -0.3333333333556159 
1054 271 0.1666666666482508 
1054 272 -0.16666666668277408 
1054 281 -0.5500000000342828 
1054 877 -0.6333333333365665 
1054 1054 0.0 
1055 1055 0.0 
1056 1056 0.0 
1057 145 -0.416666666673736 
1057 495 -0.46666666667226453 
1057 1057 0.0 
1057 1072 0.33333333330550463 
1058 1058 0.0 
1059 369 -0.3875000000367941 
1059 579 -0.650000000054179 
1059 616 0.09999999990402397 
1059 756 -0.2000000000200155 
1059 978 0.19999999997925044 
1059 1059 0.0 
1060 717 0.9999999999267714 
1060 1060 0.0 
1061 146 -0.2500000003930758 
1061 631 -0.3461538461595306 
1061 1061 0.0 
1062 579 0.09999999998832132 
1062 1062 0.0 
1063 915 0.24999999997633604 
1063 1063 0.0 
1064 1064 0.0 
1065 1065 0.0 
1066 1066 0.0 
1067 147 -0.5500000000046015 
1067 359 -0.4777777778700596 
1067 469 -0.5500000000046019 
1067 912 0.19999999997925044 
1067 1011 -0.10000000006063936 
1067 1067 0.0 
1068 147 0.24999999997633604 
1068 1068 0.0 
1069 1069 0.0 
1070 1070 0.0 
1071 160 -0.45000000008074137 
1071 198 -0.583333333361874 
1071 234 -0.4500000000807418 
1071 876 -0.45000000008074115 
1071 1071 0.0 
1072 1057 0.33333333330550463 
1072 1072 0.0 
1073 1073 0.0 
1074 151 -1.6895818077955482e-11 
1074 1016 -0.33333333334233695 
1074 1074 0.0 
1075 152 -0.333333333371884 
1075 239 -0.5476190476367093 
1075 260 -0.4666666667031538 
1075 417 -0.756410256411848 
1075 1018 -0.5555555556628995 
1075 1075 0.0 
1075 1094 -0.250000000393076 
1076 154 -0.3333333333423367 
1076 876 -0.3000000000100629 
1076 1076 0.0 
1077 154 0.16666666664825058 
1077 1077 0.0 
1078 157 -0.6190476190566405 
1078 575 -0.7222222222241221 
1078 762 -0.33333333333916904 
1078 920 -0.33333333333916926 
1078 990 -0.5000000000046976 
1078 1043 -0.25000000000723444 
1078 1078 0.0 
1079 1079 0.0 
1080 157 -0.3571428571510269 
1080 470 0.49999999996157996 
1080 1080 0.0 
1081 240 -0.2500000000114524 
1081 725 -0.1666666666799932 
1081 1081 0.0 
1082 158 -0.1666666666799932 
1082 563 -0.16666666667792018 
1082 1082 0.0 
1083 158 -0.1666666666799932 
1083 332 -1.6895818077955482e-11 
1083 1083 0.0 
1084 159 -0.5000000000056275 
1084 327 -0.37500000017433077 
1084 843 -0.45000000008074137 
1084 1018 -0.6388888888919695 
1084 1084 0.0 
1085 1085 0.0 
1086 159 -0.5000000000056277 
