1 4 0.24999999996639688 
1 6 0.14999999997369895 
2 7 -0.595238095241978 
2 8 -0.7983193278618972 
2 9 -0.6190476190497927 
2 10 -0.6428571430582717 
2 11 -0.4523809523855724 
2 12 -0.8412698412729926 
2 14 0.047619047592225905 
2 15 -0.8047619047871089 
2 16 -0.7047619047837328 
2 17 -0.4523809523855724 
2 20 -0.6624649863674708 
2 22 -0.595238095241978 
2 23 -0.8040293040577635 
2 24 -0.6785714285775801 
2 25 -0.673160173273883 
2 27 -0.6190476190497929 
2 28 -0.4523809523855724 
2 30 -0.6547619047726325 
2 31 -0.42857142857412134 
2 34 -0.654761904771169 
2 36 -0.571428571435797 
3 38 -0.6190476190488745 
3 39 -0.3333333333420525 
3 40 -0.33333333334205273 
4 1 0.24999999996639688 
4 6 -0.1000000013480895 
4 41 -0.6071428571872757 
4 43 0.24999999997633604 
6 1 0.14999999997369895 
6 4 -0.1000000013480895 
6 44 -0.7428571428655122 
6 47 -0.5727272729355191 
6 48 -0.6125000002274443 
7 2 -0.595238095241978 
7 49 -0.3333333333420525 
7 52 -0.3666666667259637 
8 2 -0.7983193278618972 
8 53 -0.6737967916693215 
8 54 -0.7301790281673051 
8 55 -0.7156862745334407 
8 56 0.05882352939801816 
8 57 -0.5490196078516401 
8 59 -0.44117647059311427 
8 60 -0.715686274545668 
8 61 0.05882352939801827 
8 62 -0.6568627452255986 
8 64 -0.598039215711877 
8 65 0.05882352939801816 
8 66 -0.7623529412138257 
8 71 -0.7450980392652486 
8 72 -0.5784313725537795 
8 73 -0.741176470589769 
8 74 -0.7411764705897694 
9 2 -0.6190476190497927 
9 77 -0.3333333333420525 
9 78 -0.33333333334205273 
10 2 -0.6428571430582717 
10 80 -0.6488095238492231 
10 81 -0.6263736264440833 
10 83 -0.3571428571510269 
10 85 -0.21428571447629063 
10 88 -0.49404761915600637 
10 89 -0.4523809525152518 
11 2 -0.4523809523855724 
11 91 0.49999999996157996 
12 2 -0.8412698412729926 
12 94 -0.8454106280250366 
12 95 -0.7460317460335684 
12 98 0.11111111109800786 
12 100 -0.38888888889582685 
12 104 -0.6388888888919688 
12 106 -0.6388888888919688 
12 109 -0.7460317460335686 
12 111 0.11111111109800764 
13 113 -0.3916666667737472 
13 114 -0.5416666679389439 
13 115 -0.7549019607933392 
13 116 -0.6666666666691909 
13 117 -0.7738095238109775 
13 120 -0.4523809525658695 
13 121 0.0833333333241344 
13 122 -0.41666666822328424 
13 123 -0.7083333334138431 
13 124 -0.20833333336712712 
13 125 -0.4166666666724308 
13 126 -0.6333333337766247 
14 2 0.047619047592225905 
15 2 -0.8047619047871089 
15 20 -0.6521008403782977 
15 128 -0.6894736864978308 
15 135 -0.4714285714379405 
15 137 -0.6928571431218513 
15 139 -0.5238095238429301 
15 140 -0.6642857143557748 
15 141 -0.6238095238168899 
15 144 0.028571428503498364 
15 145 -0.6553571430009104 
15 147 -0.6238095238168899 
15 150 -0.5928571428912235 
15 151 -0.47142857143794004 
15 152 -0.6380952380969598 
15 154 -0.7214285714315853 
15 158 -0.63809523809696 
15 159 -0.7761904762100267 
15 160 -0.6428571428693877 
15 161 -0.6238095238168895 
15 162 -0.6380952380969602 
15 163 -0.5107142857609566 
15 165 0.028571428503498586 
15 167 -0.7714285714324314 
15 168 -0.4428571428623578 
15 170 -0.47142857143794004 
15 171 -0.4142857142958969 
15 172 -0.5238095238429303 
15 173 -0.46666666698126047 
15 174 -0.5809523809755934 
15 175 0.028571428503498142 
15 176 -0.6071428572299424 
15 177 -0.552380952434427 
15 181 0.028571428503498475 
15 182 -0.5571428572029604 
15 183 -0.47142857143794004 
16 2 -0.7047619047837328 
16 187 0.19999999997925055 
16 188 -0.5500000000047176 
16 189 -0.3000000000100629 
16 190 -0.45000000022982944 
17 2 -0.4523809523855724 
17 192 0.49999999996157996 
18 115 -0.715686274565106 
18 195 -0.5357142857621486 
18 197 0.16666666664825036 
18 199 -0.33333333334233695 
18 201 -0.5833333333373456 
18 202 -0.5500000002833105 
19 203 0.49999999972581843 
20 2 -0.6624649863674708 
20 15 -0.6521008403782977 
20 85 -0.41911764722209766 
20 129 -0.7100840336341205 
20 150 -0.5735294126033124 
20 166 -0.7073529415699995 
20 179 -0.4485294118110641 
20 185 -0.606617647116265 
20 195 -0.6680672277898609 
20 204 -0.5735294119084109 
20 205 -0.1323529415549467 
20 207 -0.32352941178207506 
20 209 0.05882352939801827 
20 210 -0.5490196078516401 
20 211 0.05882352939801805 
20 212 0.05882352939801827 
20 213 -0.4411764705931145 
21 214 -0.6590909090928796 
21 215 -0.2500000000114524 
21 216 -0.25000000001145284 
21 217 0.24999999997633604 
22 2 -0.595238095241978 
22 218 0.3333333333055045 
22 219 -7.008393865248763e-12 
23 2 -0.8040293040577635 
23 220 0.07692307691495326 
23 222 -0.557692307807194 
23 224 -0.4230769230824445 
23 226 -0.42307692308244427 
23 227 0.07692307691495337 
23 229 0.07692307691495315 
23 230 -0.42307692308244427 
23 233 -0.2692307692678453 
23 234 -0.5961538464291805 
23 235 -0.4230769230824445 
23 237 -0.6410256413349571 
23 239 -0.4423076923326834 
24 2 -0.6785714285775801 
24 180 -0.3750000001743299 
24 240 -0.5833333333371753 
24 241 0.24999999997633604 
25 2 -0.673160173273883 
25 47 -0.727272727277869 
25 54 -0.7134387358116401 
25 242 -0.5404040404745785 
25 243 -0.3484848486962302 
25 244 -0.5151515152295922 
25 246 -0.560606061080045 
25 248 -0.36363636393943666 
25 249 -0.38636363639094795 
25 251 -0.40909090909697854 
25 252 0.09090909089870935 
27 2 -0.6190476190497929 
27 254 0.3333333333055045 
27 256 0.33333333330550463 
28 2 -0.4523809523855724 
28 257 0.49999999996157996 
29 258 0.33333333331549264 
30 2 -0.6547619047726325 
30 198 -0.625000000002758 
30 259 -0.2500000000114526 
30 260 -0.42500000023647777 
31 2 -0.42857142857412134 
31 263 -0.1250000000166791 
32 35 -0.6491228070237509 
32 264 -0.41666666667351815 
32 267 0.33333333330550463 
33 268 -0.2666666666847617 
33 269 -0.3000000000100629 
33 270 -0.5500000000047183 
33 271 -0.2666666666847619 
33 272 0.19999999997925044 
34 2 -0.654761904771169 
34 273 -0.2916666666926928 
34 274 -1.3026513201452872e-10 
34 277 -0.45000000001769513 
35 32 -0.6491228070237509 
35 81 -0.8178137651907251 
35 88 -0.8223684211615903 
35 139 -0.5877192982557129 
35 140 -0.6921052634012845 
35 172 -0.5789473684330684 
35 231 -0.736842105275342 
35 279 -0.4824561404035257 
35 280 -0.4824561404035257 
35 281 -0.6271929824632521 
35 283 -0.5877192982887782 
35 284 -0.6403508772044677 
35 286 0.017543859580936072 
35 287 -0.6228070175630109 
35 289 -0.712280702095438 
35 291 -0.6973684210846864 
35 292 0.017543859580936183 
35 294 0.017543859580935517 
35 295 0.01754385958093585 
35 297 0.01754385958093596 
35 298 -0.4649122807059396 
35 299 -0.5473684210953436 
35 300 -0.4824561404035259 
35 305 0.017543859580935628 
35 306 -0.45614035088436333 
35 309 -0.4561403508849229 
35 311 0.017543859580936072 
35 312 -0.45614035088492333 
35 314 -0.48245614040352525 
35 315 -0.7923976608811216 
35 316 -0.6491228070324817 
35 317 -0.4824561404035257 
35 318 -0.6896929825687663 
35 319 0.017543859580936183 
35 321 -0.6885964912720155 
35 322 0.01754385958093596 
35 325 0.017543859580936183 
35 326 0.017543859580936183 
35 327 -0.7061403509039033 
35 331 -0.47368421052973364 
35 332 -0.4824561404035257 
35 334 -0.4473684210628892 
35 335 -0.6228070175630112 
35 336 -0.4824561404035259 
35 338 -0.6491228070324824 
35 339 0.01754385958093596 
35 341 0.01754385958093585 
35 342 0.017543859580936294 
35 344 -0.6122807018894936 
35 346 -0.4824561404035259 
35 347 0.017543859580936072 
35 348 -0.572368421131743 
35 349 -0.7982456141740599 
35 350 -0.456140350925899 
35 351 0.017543859580936072 
35 352 -0.5811403508841217 
35 354 0.017543859580936072 
36 2 -0.571428571435797 
36 46 -0.5666666666967934 
36 360 -0.5000000000216409 
37 363 -0.6750000000027012 
37 364 0.12499999998532452 
37 365 -0.6250000000033309 
37 367 0.12499999998532452 
37 368 0.12499999998532452 
37 369 -0.7083333333356199 
37 372 -0.37500000000749534 
37 373 0.12499999998532463 
38 3 -0.6190476190488745 
38 45 -0.8047619047655705 
38 359 -0.7619047619337247 
38 363 -0.704761904783733 
38 381 0.047619047592226016 
38 382 -0.4285714285741209 
38 386 -0.5208333343297622 
38 388 0.047619047592225905 
38 395 0.04761904759222624 
38 397 -0.4047619047662736 
38 398 -0.45833333350227834 
38 401 -0.4523809523855724 
38 402 0.04761904759222613 
38 403 -0.4523809523855724 
38 404 -0.38095238096465134 
38 405 -0.45238095238557285 
38 407 -0.4047619047662736 
38 409 0.047619047592226016 
38 410 -0.4523809523855724 
38 413 -0.4523809523855724 
38 415 -0.5619047621336608 
39 3 -0.3333333333420525 
39 418 -0.1666666666799932 
39 419 -0.1666666666799932 
40 3 -0.33333333334205273 
40 42 -0.41666666667351815 
40 420 0.33333333330550463 
41 4 -0.6071428571872757 
41 53 -0.7207792211835569 
41 423 0.07142857142142012 
41 424 -0.39285714313617226 
41 425 -0.595238095241106 
41 427 -0.4285714285767446 
41 428 0.07142857142142012 
41 430 0.07142857142142 
41 432 -0.42857142857674435 
41 433 -0.4285714285767446 
41 434 -0.714285714431466 
41 436 0.07142857142142012 
41 437 -0.5952380952411063 
41 438 -0.3928571431361727 
42 40 -0.41666666667351815 
42 338 -0.41666666667351837 
42 440 0.24999999997633615 
42 441 -0.2500000000114524 
43 4 0.24999999997633604 
44 6 -0.7428571428655122 
44 228 -0.7071428571520779 
44 424 -0.45714285714628744 
44 444 0.028571428503498142 
44 446 -0.47142857143794004 
44 447 -0.457142857146287 
44 448 0.028571428503498253 
44 449 -0.4714285714379405 
44 450 -0.4428571428616046 
44 451 -0.7619047619224899 
44 452 -0.47142857143794004 
44 453 0.028571428503498364 
44 455 0.028571428503498364 
44 456 0.028571428503498142 
44 457 -0.7071428571520775 
44 458 0.028571428503498142 
44 459 0.02857142850349803 
44 461 0.028571428503498142 
44 463 -0.47142857143794004 
44 464 -0.4714285714379405 
44 468 0.028571428503498475 
44 469 0.028571428503498586 
44 472 -0.6785714285912103 
44 477 -0.6238095238168899 
44 478 -0.45714285714628744 
44 479 0.028571428503498142 
44 480 0.028571428503498475 
44 481 0.028571428503498364 
44 482 0.02857142850349803 
44 483 0.028571428503498142 
44 484 0.02857142850349803 
44 485 0.028571428503498364 
44 486 -0.19285714286260291 
44 487 -0.47142857143794004 
44 488 0.028571428503498364 
45 38 -0.8047619047655705 
45 141 -0.6166666666679812 
45 290 -0.7500000001939833 
45 349 -0.7333333333634413 
45 386 -0.6375000000303679 
45 489 0.04999999997623217 
45 490 -0.6333333336513864 
45 491 -0.6166666666689329 
45 493 0.04999999997623239 
45 494 -0.4500000000046549 
45 497 -0.6166666666689327 
45 498 0.04999999997623228 
45 502 0.04999999997623217 
45 503 -0.49166666669863135 
45 506 -0.6166666666689329 
45 507 -0.6166666666689324 
45 510 0.04999999997623217 
45 512 -0.732142857192559 
45 513 -0.7000000000216915 
45 517 -0.4500000000046551 
46 36 -0.5666666666967934 
46 79 -0.7904761904773852 
46 219 -0.400000000027817 
46 518 0.06666666666038623 
46 520 -0.4333333333384761 
46 521 0.06666666666038634 
46 524 0.06666666666038634 
46 527 -0.43333333333847635 
46 528 -0.6000000000028569 
46 531 0.06666666666038656 
46 532 -0.6833333333354696 
46 533 0.06666666666038612 
46 534 0.06666666666038623 
46 535 0.06666666666038634 
46 536 -0.6000000000028571 
47 6 -0.5727272729355191 
47 25 -0.727272727277869 
47 53 -0.6363636364114211 
47 67 -0.6098484853835306 
47 166 -0.7136363638733751 
47 349 -0.4772727272885391 
47 538 -0.5681818189497656 
47 540 0.09090909089870935 
47 542 0.09090909089870958 
47 544 -0.6948051955055121 
47 545 -0.31818181819993185 
48 6 -0.6125000002274443 
48 309 -0.2500000000077627 
48 546 -0.6250000000033309 
48 547 0.12499999998532452 
48 548 -0.6625000000695391 
48 549 -0.37500000000749534 
48 550 -0.6750000002051482 
48 551 -0.5446428578348956 
49 7 -0.3333333333420525 
49 554 -0.1666666666799932 
49 555 0.33333333330550463 
50 228 -0.2500000000114524 
50 557 0.49999999996157996 
51 559 0.24999999998872147 
52 7 -0.3666666667259637 
52 204 -0.12500000072267747 
52 562 -0.3000000000100629 
52 564 -0.20000000004271223 
52 566 0.0999999998991895 
53 8 -0.6737967916693215 
53 41 -0.7207792211835569 
53 47 -0.6363636364114211 
53 79 -0.7207792209322519 
53 215 -0.4090909090969783 
53 568 -0.6643356644400669 
53 571 -0.31818181873853435 
53 572 -0.40909090909697854 
53 573 0.09090909089870958 
53 575 -0.49431818245955705 
53 576 -0.4431818182200442 
54 8 -0.7301790281673051 
54 25 -0.7134387358116401 
54 179 -0.5760869566519431 
54 216 -0.45652173913503913 
54 348 -0.6630434782717616 
54 451 -0.6195652176047979 
54 512 -0.791925465842684 
54 574 -0.6014492753657461 
54 577 -0.5362318840681215 
54 578 0.04347826083165396 
54 579 -0.7695652175005809 
54 580 -0.16304347826502452 
54 581 -0.6231884057991097 
54 582 -0.619565217484402 
54 583 -0.45652173913503913 
54 584 -0.7681159420314212 
54 585 0.04347826083165429 
54 586 -0.6014492753657463 
54 587 0.04347826083165418 
54 589 0.0434782608316544 
54 592 -0.41304347826496346 
54 593 -0.45652173913503935 
54 597 -0.6847826087013131 
55 8 -0.7156862745334407 
55 417 -0.5333333334078114 
55 598 -0.638888888891969 
55 599 -0.5555555555596878 
55 601 -0.38888888889582685 
55 603 -0.5555555555596876 
55 604 0.11111111109800775 
55 605 -0.27777777778487933 
55 606 -0.22222222225199428 
56 8 0.05882352939801816 
57 8 -0.5490196078516401 
57 609 -0.5000000000199036 
57 611 -0.1666666666799932 
58 612 -0.3333333333420523 
58 613 0.3333333333055045 
58 614 0.33333333330550463 
59 8 -0.44117647059311427 
59 615 0.49999999996157996 
60 8 -0.715686274545668 
60 80 -0.7500000000258065 
60 616 -0.7500000000107094 
60 617 -0.6666666667883425 
60 618 -0.4166666666724308 
60 620 -0.3750000002939564 
60 622 0.0833333333241344 
60 623 -0.5833333333367086 
60 625 -0.4166666666724306 
60 626 -0.6166666683046218 
60 627 0.08333333332413406 
60 629 -0.5416666666730858 
61 8 0.05882352939801827 
62 8 -0.6568627452255986 
62 568 -0.596153846486887 
62 633 0.16666666664825036 
62 634 0.16666666664825058 
62 636 -0.25000000039307624 
62 637 -0.5000000000438263 
63 115 -0.4705882352996398 
63 639 0.49999999996157996 
64 8 -0.598039215711877 
64 185 -0.597222222756419 
64 207 -0.2222222222519945 
64 417 -0.5722222222441162 
64 567 -0.5777777777797475 
64 640 0.11111111109800753 
64 641 -0.5555555555596876 
64 642 -0.6111111111136096 
64 644 0.11111111109800764 
65 8 0.05882352939801816 
66 8 -0.7623529412138257 
66 203 -0.4600000000046558 
66 369 -0.7733333333455794 
66 405 -0.46000000000465624 
66 417 -0.6400000000285841 
66 635 0.039999999952545884 
66 649 -0.6266666666685314 
66 650 -0.6266666666685314 
66 653 0.03999999995254577 
66 655 0.039999999952545884 
66 657 -0.4600000000046558 
66 658 0.03999999995254577 
66 659 -0.38000000001779655 
66 660 -0.4400000000024282 
66 661 -0.4600000000046558 
66 662 -0.17000000000419857 
66 664 0.03999999995254566 
66 670 -0.17000000000419857 
66 671 -0.4400000000024282 
66 674 -0.4000000000123256 
66 675 0.03999999995254577 
66 676 0.03999999995254566 
66 677 -0.4600000000046558 
66 678 0.03999999995254577 
66 679 0.039999999952545884 
67 47 -0.6098484853835306 
67 214 -0.5719696973685187 
67 415 -0.325000000020917 
67 441 -0.4166666666699135 
67 538 -0.41666667023720083 
67 550 -0.6750000001056606 
67 631 -0.7243589745310226 
67 680 -0.7166666666686932 
67 681 -0.0833333337681168 
67 682 -0.4250000006738892 
67 683 -0.5000000000114757 
67 685 -0.4583333333676649 
69 692 0.9999999999267714 
70 117 -0.6190476190566399 
70 417 -0.6833333334388256 
70 666 -0.5000000000053606 
70 690 0.16666666664825058 
70 696 0.1666666666482508 
70 699 0.16666666664825058 
71 8 -0.7450980392652486 
71 281 -0.6458333333456443 
71 700 -0.5000000000053608 
71 703 0.16666666664825058 
71 704 0.1666666666482508 
71 706 0.16666666664825058 
72 8 -0.5784313725537795 
72 258 -0.3333333333420525 
72 710 -7.008393865248763e-12 
73 8 -0.741176470589769 
73 711 -0.46666666667263 
73 712 0.19999999997925055 
73 713 0.19999999997925055 
73 716 0.19999999997925044 
74 8 -0.7411764705897694 
74 717 -0.3000000000100629 
74 718 -0.46666666667263 
74 719 0.19999999997925055 
74 720 -0.46666666667263046 
75 724 0.33333333331549264 
76 434 -0.6071428574525497 
76 685 -0.6250000000027576 
76 725 -0.6250000000033307 
76 726 -0.2500000003293641 
76 731 -0.37500000000749556 
76 733 0.1249999999853243 
76 734 0.1249999999853244 
76 735 0.12499999998532463 
77 9 -0.3333333333420525 
77 737 -0.1666666666799932 
77 738 0.33333333330550463 
78 9 -0.33333333334205273 
78 79 -0.5238095238135425 
78 741 0.33333333330550463 
79 46 -0.7904761904773852 
79 53 -0.7207792209322519 
79 78 -0.5238095238135425 
79 513 -0.5857142857187503 
79 744 0.14285714284071538 
79 745 0.14285714284071527 
79 746 -0.3571428571510269 
80 10 -0.6488095238492231 
80 60 -0.7500000000258065 
80 263 -0.6250000000203855 
80 278 -0.6833333333586249 
80 359 -0.541666667084377 
80 550 -0.7500000000730063 
80 624 -0.4166666666724308 
80 752 -0.7166666666686932 
80 753 -0.3750000002939564 
80 756 -0.4166666666724308 
80 757 -0.4166666666724308 
80 758 -0.625000000020385 
81 10 -0.6263736264440833 
81 35 -0.8178137651907251 
81 244 -0.5410256414178853 
81 261 0.07692307691495315 
81 759 -0.40109890118142344 
81 761 -0.5427350433657501 
81 762 -0.6346153846329843 
81 763 -0.38461538490143354 
81 764 0.07692307691495304 
81 765 0.07692307691495337 
81 766 -0.3974358975051788 
81 767 -0.5512820512880243 
81 769 -0.42307692308244427 
82 771 0.9999999999267714 
83 10 -0.3571428571510269 
83 773 0.49999999996157996 
84 94 -0.8454106280229234 
84 164 -0.38888888889582685 
84 544 -0.7460317460334625 
84 559 -0.40277777797491754 
84 774 -0.5555555555596878 
84 775 -0.33333333366027196 
84 776 -0.3333333336602715 
84 777 -0.027777778522096508 
84 778 0.11111111109800764 
85 10 -0.21428571447629063 
85 20 -0.41911764722209766 
85 205 0.24999999997759326 
85 260 -0.20000000002632867 
88 10 -0.49404761915600637 
88 35 -0.8223684211615903 
88 96 -0.7291666666799039 
88 145 -0.6250000004775347 
88 260 -0.5916666667345625 
88 629 -0.5416666666730865 
88 786 -0.5416666666730863 
88 788 0.08333333332413406 
88 789 -0.50000000001357 
88 790 0.08333333332413417 
88 791 0.08333333332413406 
88 792 -0.4166666666724308 
89 10 -0.4523809525152518 
89 122 -0.33333333524726316 
89 169 -0.5277777777895849 
89 260 -0.46666666667380863 
89 795 0.1666666666482508 
89 796 -0.33333333334233695 
90 798 0.49999999972581843 
91 11 0.49999999996157996 
94 12 -0.8454106280250366 
94 84 -0.8454106280229234 
94 191 -0.7228260871166445 
94 344 -0.6695652174309867 
94 447 -0.4130434782649637 
94 551 -0.7267080745690828 
94 761 -0.6376811595185368 
94 807 -0.4347826086982203 
94 808 0.043478260831654514 
94 811 0.04347826083165396 
94 812 0.0434782608316544 
94 813 -0.45652173913503935 
94 814 -0.5978260871983259 
94 817 0.04347826083165418 
94 818 -0.6913043478558856 
94 819 -0.6260869567889382 
94 820 -0.4130434784410306 
94 825 -0.45652173913503935 
94 826 -0.45652173913503935 
94 827 -0.36956521740822823 
94 828 -0.7130434782782444 
94 829 -0.47282608705866425 
94 831 -0.45652173913503913 
95 12 -0.7460317460335684 
95 280 -0.35714285715102667 
95 833 -0.5238095238143972 
95 836 0.14285714284071516 
95 838 -0.35714285715102667 
95 839 0.14285714284071527 
95 840 0.14285714284071527 
96 88 -0.7291666666799039 
96 221 0.062499999990653254 
96 376 -0.5729166666716747 
96 648 -0.6937500000139403 
96 841 -0.4375000000049982 
96 842 -0.6041666666693846 
96 843 -0.6607142858482744 
96 845 0.06249999999065303 
96 846 -0.4375000000049982 
96 847 0.06249999999065303 
96 848 -0.37500000015898594 
96 852 0.06249999999065314 
96 853 0.062499999990653254 
96 855 -0.5729166666716747 
96 858 -0.4375000000049982 
96 862 -0.5729166667256167 
97 863 -1.6895818077955482e-11 
97 864 -0.37500000000433653 
98 12 0.11111111109800786 
99 359 -0.5000000000053608 
99 869 0.3333333333055045 
99 872 0.33333333330550463 
100 12 -0.38888888889582685 
100 418 -1.6895818077955482e-11 
101 750 0.1249999999881557 
102 874 0.9999999999267714 
104 12 -0.6388888888919688 
104 206 -0.41666666667373575 
104 876 -0.6071428571461053 
104 878 0.24999999997633604 
105 352 -0.416666666673736 
105 879 0.3333333333055045 
105 880 0.33333333330550463 
106 12 -0.6388888888919688 
106 881 0.24999999997633615 
106 883 0.24999999997633615 
106 885 0.24999999997633604 
107 887 0.24999999997633604 
107 888 0.24999999997633615 
107 889 0.24999999997633615 
107 890 0.24999999997633604 
108 145 -0.6125000000757852 
108 231 -0.5500000002833101 
108 892 -0.46666666667263 
108 893 -0.46666666667263024 
108 894 0.19999999997925044 
109 12 -0.7460317460335686 
109 628 -0.35714285715102667 
109 899 -0.5238095238143972 
109 902 -0.6071428571464845 
109 903 0.14285714284071538 
109 907 0.14285714284071527 
109 908 -0.6071428571464841 
111 12 0.11111111109800764 
112 114 -0.2875000001944499 
112 115 -0.652941177035878 
112 129 -0.5142857144288919 
112 191 -0.3250000000465443 
112 244 -0.3666666674673289 
113 13 -0.3916666667737472 
113 120 -0.24285714355993782 
113 182 -0.5142857158269165 
113 191 -0.5000000000511651 
113 244 -0.3333333335627473 
113 249 -0.27500000247247014 
113 360 -0.37777777781454347 
113 623 -0.466666666685736 
113 912 -0.05000000056114384 
113 913 0.09999999998832132 
114 13 -0.5416666679389439 
114 112 -0.2875000001944499 
114 137 -0.6250000001010012 
114 191 -0.3875000003094118 
114 892 -0.1875000000842686 
114 915 -0.5125000000273832 
114 916 -0.5416666666711376 
114 917 -0.3750000000556033 
115 13 -0.7549019607933392 
115 18 -0.715686274565106 
115 63 -0.4705882352996398 
115 112 -0.652941177035878 
115 163 -0.6617647059060003 
115 166 -0.7926470588326833 
115 277 -0.68235294169055 
115 371 -0.6764705882791078 
115 465 0.02941176463892048 
115 564 -0.41176470591217695 
115 566 -0.578431372570432 
115 626 -0.7264705883907268 
115 642 -0.7745098039428335 
115 746 -0.47058823529964 
115 918 -0.5784313725743737 
115 920 -0.6078431372665689 
115 921 0.029411764638920368 
115 923 0.029411764638920368 
115 924 -0.6372549019622264 
115 925 0.02941176463892048 
115 926 0.029411764638920812 
115 927 0.02941176463892059 
115 928 0.029411764638920257 
115 931 0.0294117646389207 
115 932 -0.5931372549178031 
115 933 0.029411764638920257 
115 935 -0.5073529412232092 
115 936 0.029411764638920257 
115 939 0.02941176463892048 
115 940 0.0294117646389207 
115 942 -0.4558823529445677 
115 944 0.02941176463892048 
115 947 -0.5931372549263385 
115 948 0.029411764638920257 
116 13 -0.6666666666691909 
116 950 0.24999999997633615 
116 952 -0.2500000000114526 
116 953 0.24999999997633604 
117 13 -0.7738095238109775 
117 70 -0.6190476190566399 
117 818 -0.5571428571648331 
117 954 -0.2857142860788331 
117 955 -0.35714285715102667 
117 957 0.14285714284071527 
117 961 -0.5238095238143972 
118 134 -0.3750000000074958 
118 369 -0.7083333333354491 
118 581 -0.5416666666701522 
118 962 -0.6250000000033311 
118 963 -0.5416666666711374 
118 964 0.1249999999853243 
118 966 0.1249999999853244 
118 968 0.12499999998532463 
119 120 -0.39682539737786926 
119 244 -0.4111111112216401 
119 356 -0.38888888889582685 
119 586 -0.5000000000216407 
119 759 -0.3968253979186509 
119 766 -0.3333333333691022 
119 876 -0.49206349220239853 
119 972 -0.7083333333672701 
119 974 -0.33333333366027174 
120 13 -0.4523809525658695 
120 113 -0.24285714355993782 
120 119 -0.39682539737786926 
120 161 -0.4523809523943447 
120 360 -0.3412698418700342 
120 876 -0.3571428572502313 
120 980 -0.5476190476296052 
121 13 0.0833333333241344 
122 13 -0.41666666822328424 
122 89 -0.33333333524726316 
122 124 -2.0627832775232946e-10 
122 169 -0.47222222227957644 
122 188 -0.5833333333373456 
122 244 -0.43333333337652746 
123 13 -0.7083333334138431 
123 202 -0.5500000002833108 
123 372 -0.33333333334233695 
123 985 -0.33333333334233695 
123 986 -0.3333333333423367 
123 987 0.16666666664825058 
124 13 -0.20833333336712712 
124 122 -2.0627832775232946e-10 
124 244 -0.14166666675607265 
124 360 -0.1805555562989969 
125 13 -0.4166666666724308 
125 989 -0.2500000000086171 
126 13 -0.6333333337766247 
126 128 -0.6947368421327833 
126 594 -0.46666666667263 
126 919 -0.3000000000100629 
126 991 0.19999999997925044 
127 992 0.49999999972581843 
128 15 -0.6894736864978308 
128 126 -0.6947368421327833 
128 145 -0.6809210526363025 
128 166 -0.7460526324959518 
128 222 -0.6184210526440612 
128 318 -0.6907894738154579 
128 568 -0.6740890688411239 
128 616 -0.6282894736926403 
128 783 -0.7573099420702223 
128 917 -0.535087719308891 
128 993 -0.4473684210573401 
128 995 0.052631578926648936 
128 996 -0.1447368421094397 
128 997 -0.3684210526448357 
128 998 -0.36842105264987746 
128 1001 -0.3421052631662129 
128 1002 -0.44736842105734054 
128 1003 -0.6140350877216643 
128 1004 0.05263157892664916 
129 20 -0.7100840336341205 
129 112 -0.5142857144288919 
129 131 -0.21428571431251475 
129 1006 -0.10000000002931175 
129 1007 -0.35714285715102667 
129 1011 0.14285714284071527 
129 1012 0.10714285711115923 
130 195 -0.4523809523943445 
130 246 -0.388888888954269 
130 843 -0.38095238096469486 
131 129 -0.21428571431251475 
131 360 -0.45833333337336035 
131 911 -0.12500000002750022 
131 1006 -0.20000000002001528 
132 140 -0.56666666667051 
132 178 -0.1666666666799932 
132 1024 0.33333333330550463 
133 195 -0.5238095238143974 
133 1025 -0.500000000004698 
133 1026 0.33333333330550463 
134 118 -0.3750000000074958 
134 784 -0.33333333333916926 
135 15 -0.4714285714379405 
135 1029 0.49999999996157996 
136 213 -0.2500000000086171 
136 1030 0.24999999997633615 
136 1032 0.24999999997633615 
136 1033 0.24999999997633604 
137 15 -0.6928571431218513 
137 114 -0.6250000001010012 
137 182 -0.4642857143845305 
137 249 -0.42500000002970184 
137 273 -0.5166666666754458 
137 668 -0.5500000001869216 
137 1015 -0.7071428573314991 
137 1034 -0.5000000000205358 
137 1035 -0.5666666666705102 
137 1036 0.09999999998832132 
138 315 -0.5555555555596878 
138 1039 0.3333333333055045 
138 1040 0.33333333330550463 
139 15 -0.5238095238429301 
139 35 -0.5877192982557129 
139 1042 0.33333333330550463 
140 15 -0.6642857143557748 
140 35 -0.6921052634012845 
140 132 -0.56666666667051 
140 160 -0.5000000000797158 
140 270 -0.5000000000205356 
140 318 -0.22500000003952425 
140 1037 -0.2222222222621686 
140 1045 -0.650000000054179 
140 1046 -0.4777777780231154 
140 1047 -0.10000000026973899 
141 15 -0.6238095238168899 
141 45 -0.6166666666679812 
141 1048 -7.008393865248763e-12 
142 1049 0.9999999999267714 
143 1050 -0.1666666666799934 
143 1051 -0.3333333333420523 
143 1052 -0.1666666666799932 
144 15 0.028571428503498364 
145 15 -0.6553571430009104 
145 88 -0.6250000004775347 
145 108 -0.6125000000757852 
145 128 -0.6809210526363025 
145 848 -0.25000000032936387 
145 1054 -0.5833333337511382 
145 1055 0.1249999999853244 
145 1057 -0.5000000000598845 
146 720 -0.5238095238135427 
146 1059 0.14285714284071527 
146 1061 -0.3571428571510269 
146 1062 -0.3571428571510269 
146 1063 -0.3571428571510271 
146 1064 0.14285714284071527 
146 1065 0.14285714284071527 
147 15 -0.6238095238168899 
147 1006 -0.3666666667259637 
147 1068 -0.1666666666799932 
149 198 -9.347238538737201e-10 
149 1071 0.14999999997369895 
150 15 -0.5928571428912235 
150 20 -0.5735294126033124 
150 191 -0.5500000004029642 
150 760 -0.416666667313772 
150 1072 -0.2500000002877394 
150 1073 0.16666666664825058 
151 15 -0.47142857143794004 
151 1074 -1.6896040122560407e-11 
152 15 -0.6380952380969598 
152 972 -0.2500000000814977 
152 1075 -4.557789701209458e-10 
154 15 -0.7214285714315853 
154 232 0.24999999997633615 
154 1076 0.24999999997633615 
154 1077 0.24999999997633604 
156 959 0.19999999999175544 
157 360 -0.6388888888919688 
157 730 -0.416666666673736 
157 1078 -0.416666666673736 
157 1080 -0.2500000000114524 
158 15 -0.63809523809696 
158 1081 -0.41666666667351815 
158 1082 -0.1666666666799932 
159 15 -0.7761904762100267 
159 843 -0.4642857144491359 
159 1084 -0.16666666670099617 
159 1086 -0.5000000000438263 
159 1087 0.1666666666482508 
159 1089 -0.25000000039307646 
160 15 -0.6428571428693877 
160 140 -0.5000000000797158 
160 1071 -0.6000000000038344 
160 1091 0.19999999997925055 
160 1092 0.19999999997925044 
161 15 -0.6238095238168895 
161 120 -0.4523809523943447 
161 1093 -0.1666666666799932 
162 15 -0.6380952380969602 
162 835 -0.3333333333420525 
162 1095 -0.1666666666799932 
163 15 -0.5107142857609566 
163 115 -0.6617647059060003 
163 182 -0.16071428573421764 
163 1100 0.24999999997633604 
164 84 -0.38888888889582685 
164 1101 0.49999999996157996 
165 15 0.028571428503498586 
166 20 -0.7073529415699995 
166 47 -0.7136363638733751 
166 115 -0.7926470588326833 
166 128 -0.7460526324959518 
166 173 -0.4666666667071273 
166 190 -0.6000000001946417 
166 237 -0.6333333333781914 
166 472 -0.6250000000190536 
166 876 -0.7571428572454939 
166 1014 -0.5750000001127535 
166 1103 -0.6750000000065377 
166 1104 -0.5916666666707646 
166 1105 -0.375000000012762 
166 1106 0.049999999976231946 
166 1107 0.04999999997623206 
166 1108 0.04999999997623217 
166 1109 0.04999999997623217 
166 1110 0.04999999997623206 
166 1111 0.04999999997623217 
166 1114 0.04999999997623217 
167 15 -0.7714285714324314 
167 576 -0.5500000000047178 
167 1115 0.19999999997925055 
167 1116 0.19999999997925055 
167 1117 0.19999999997925044 
168 15 -0.4428571428623578 
168 750 -0.2500000000058349 
169 89 -0.5277777777895849 
169 122 -0.47222222227957644 
169 365 -0.6388888888912463 
169 432 -0.3888888888927031 
169 462 0.11111111109800753 
169 947 -0.38888888919497666 
169 1014 -0.4722222223089654 
169 1050 -0.38888888889582685 
169 1105 -0.22222222225199406 
170 15 -0.47142857143794004 
170 538 -0.41666666666991325 
171 15 -0.4142857142958969 
171 1072 0.24999999987545451 
172 15 -0.5238095238429303 
172 35 -0.5789473684330684 
172 1027 -0.16666666672802766 
173 15 -0.46666666698126047 
173 166 -0.4666666667071273 
173 1034 -0.16666666735404756 
174 15 -0.5809523809755934 
174 647 -0.33333333340950233 
174 828 -0.3000000000424672 
175 15 0.028571428503498142 
176 15 -0.6071428572299424 
176 289 -0.3500000000414476 
176 550 -0.5166666668858406 
176 989 -0.5000000000056279 
177 15 -0.552380952434427 
177 190 -0.25000000001600187 
177 550 -0.46666666669529366 
178 132 -0.1666666666799932 
178 737 -1.6896040122560407e-11 
179 20 -0.4485294118110641 
179 54 -0.5760869566519431 
179 185 -0.0625000003501146 
179 550 -0.45000000037523646 
180 24 -0.3750000001743299 
180 244 -0.5833333333591999 
180 270 -0.2500000002739664 
180 641 -0.41666666667373575 
181 15 0.028571428503498475 
182 15 -0.5571428572029604 
182 113 -0.5142857158269165 
182 137 -0.4642857143845305 
182 163 -0.16071428573421764 
182 195 -0.5000000002121154 
182 398 -0.6071428571464843 
182 500 -0.5238095238143972 
183 15 -0.47142857143794004 
183 770 -1.6896040122560407e-11 
184 760 -0.4166666666805299 
184 972 -0.47916666667892627 
184 1000 -0.3888888891329634 
185 20 -0.606617647116265 
185 64 -0.597222222756419 
185 179 -0.0625000003501146 
185 331 -0.31250000034332737 
185 582 -0.4375000000318203 
185 645 0.1249999999853243 
185 648 -0.6250000000098759 
185 701 0.12499999998532463 
187 16 0.19999999997925055 
188 16 -0.5500000000047176 
188 122 -0.5833333333373456 
188 474 0.24999999997633615 
188 877 -0.5833333333371744 
189 16 -0.3000000000100629 
189 648 -0.4000000000033892 
190 16 -0.45000000022982944 
190 166 -0.6000000001946417 
190 177 -0.25000000001600187 
190 513 -0.4500000009753795 
191 94 -0.7228260871166445 
191 112 -0.3250000000465443 
191 113 -0.5000000000511651 
191 114 -0.3875000003094118 
191 150 -0.5500000004029642 
191 239 -0.5375000000588395 
191 242 -0.558333334520543 
191 376 -0.5666666666737226 
191 377 0.04999999997623228 
191 491 -0.6166666666679801 
191 759 -0.5107142859220455 
191 760 -0.5416666670009724 
191 761 -0.4333333338531107 
191 805 -0.37500000001276157 
191 827 -0.3250000000499951 
191 863 -0.4500000000046547 
191 892 -0.37500000001629985 
191 912 -0.15000000000417102 
191 918 -0.4916666667126728 
191 1001 -0.3250000000097648 
192 17 0.49999999996157996 
193 1034 0.24999999997633615 
195 18 -0.5357142857621486 
195 20 -0.6680672277898609 
195 130 -0.4523809523943445 
195 133 -0.5238095238143974 
195 182 -0.5000000002121154 
195 814 -0.6190476190566403 
195 935 -0.4107142869712388 
197 18 0.16666666664825036 
198 30 -0.625000000002758 
198 149 -9.347238538737201e-10 
198 506 -0.5416666666711376 
198 603 -0.5416666666711374 
198 750 -0.6250000000217528 
198 806 -0.37500000000749534 
198 877 -0.5833333333578636 
198 1071 -0.45000000011375163 
199 18 -0.33333333334233695 
199 559 -0.2500000000086171 
200 601 0.49999999996157996 
201 18 -0.5833333333373456 
201 434 -0.46428571437265065 
201 544 -0.6071428571461048 
201 726 -6.147748976559342e-12 
202 18 -0.5500000002833105 
202 123 -0.5500000002833108 
202 299 -0.3000000000146632 
202 352 -0.22500000000513065 
202 522 -0.46666666667263046 
203 19 0.49999999972581843 
203 66 -0.4600000000046558 
204 20 -0.5735294119084109 
204 52 -0.12500000072267747 
204 566 0.1666666650656865 
204 1014 -0.2500000001593039 
205 20 -0.1323529415549467 
205 85 0.24999999997759326 
206 104 -0.41666666667373575 
206 575 -0.5416666666711374 
206 963 -0.3333333333420525 
207 20 -0.32352941178207506 
207 64 -0.2222222222519945 
208 609 0.08333333332413417 
209 20 0.05882352939801827 
210 20 -0.5490196078516401 
210 937 -7.008615909853688e-12 
210 1016 -0.41666666667351837 
211 20 0.05882352939801805 
212 20 0.05882352939801827 
213 20 -0.4411764705931145 
213 136 -0.2500000000086171 
214 21 -0.6590909090928796 
214 67 -0.5719696973685187 
214 308 -0.6515151518438662 
214 376 -0.43939393942072824 
214 386 -0.4943181829545231 
214 412 0.09090909089870947 
214 415 -0.2000000010573244 
214 417 -0.7136363636426011 
214 490 -0.348484848665608 
214 637 -0.5681818182109928 
214 818 -0.3454545464628884 
215 21 -0.2500000000114524 
215 53 -0.4090909090969783 
216 21 -0.25000000001145284 
216 54 -0.45652173913503913 
217 21 0.24999999997633604 
218 22 0.3333333333055045 
219 22 -7.008393865248763e-12 
219 46 -0.400000000027817 
220 23 0.07692307691495326 
221 96 0.062499999990653254 
222 23 -0.557692307807194 
222 128 -0.6184210526440612 
222 429 -0.41666666667373553 
222 1086 -0.2500000013113459 
224 23 -0.4230769230824445 
224 475 -0.1666666666779204 
226 23 -0.42307692308244427 
226 1067 -0.2500000000086171 
227 23 0.07692307691495337 
228 44 -0.7071428571520779 
228 50 -0.2500000000114524 
228 562 -0.25000000001145284 
228 579 -0.6000000000509935 
229 23 0.07692307691495315 
230 23 -0.42307692308244427 
230 785 0.49999999996157996 
231 35 -0.736842105275342 
231 108 -0.5500000002833101 
231 532 -0.5833333333373456 
231 538 -0.5416666668586954 
231 550 -0.6166666669317664 
231 949 0.16666666664825058 
232 154 0.24999999997633615 
233 23 -0.2692307692678453 
233 239 -0.1875000006053278 
233 864 -0.4791666666892127 
234 23 -0.5961538464291805 
234 239 -0.25000000122468236 
234 249 -0.3750000005196079 
234 527 -0.37500000000749556 
234 546 -0.5625000000318723 
234 761 -0.4791666668126007 
234 911 -0.4166666667066812 
234 924 -0.25000000039993653 
235 23 -0.4230769230824445 
235 908 -0.2500000000086171 
237 23 -0.6410256413349571 
237 166 -0.6333333333781914 
237 246 -0.500000000926927 
237 371 -0.1250000011027721 
237 843 -0.5476190477498757 
237 980 -0.2500000019569275 
238 980 0.1666666666482508 
239 23 -0.4423076923326834 
239 191 -0.5375000000588395 
239 233 -0.1875000006053278 
239 234 -0.25000000122468236 
239 242 -0.2430555569959736 
239 243 -0.31250000001342393 
239 616 -0.5000000000200366 
239 1046 -0.47222222225933885 
240 24 -0.5833333333371753 
240 693 -0.5000000000053613 
240 725 -0.29166666675495345 
240 760 -0.666666666669411 
240 1038 0.1666666666482508 
240 1081 -0.29166666675495323 
241 24 0.24999999997633604 
242 25 -0.5404040404745785 
242 191 -0.558333334520543 
242 239 -0.2430555569959736 
242 434 -0.7460317460335681 
242 579 -0.4777777783926347 
242 616 -0.5208333333475588 
242 932 -0.44444444446996867 
242 971 0.11111111109800775 
242 1086 -0.527777778233196 
243 25 -0.3484848486962302 
243 239 -0.31250000001342393 
243 1027 -0.1666666667811898 
244 25 -0.5151515152295922 
244 81 -0.5410256414178853 
244 112 -0.3666666674673289 
244 113 -0.3333333335627473 
244 119 -0.4111111112216401 
244 122 -0.43333333337652746 
244 124 -0.14166666675607265 
244 180 -0.5833333333591999 
244 246 -0.6333333333532156 
244 277 -0.500000000898694 
244 315 -0.5777777779026896 
244 360 -0.34444444461216506 
244 673 0.06666666666038623 
244 759 -0.3428571428870484 
244 911 -0.36666666684808535 
245 519 0.33333333331549286 
246 25 -0.560606061080045 
246 130 -0.388888888954269 
246 237 -0.500000000926927 
246 244 -0.6333333333532156 
246 274 -0.27777777778487955 
246 275 -0.633333333395794 
246 337 -0.38888888889582685 
246 1000 -0.6666666666960765 
246 1097 -0.38888888889582707 
247 882 0.33333333331549264 
248 25 -0.36363636393943666 
248 1009 -0.20000000000842366 
249 25 -0.38636363639094795 
249 113 -0.27500000247247014 
249 137 -0.42500000002970184 
249 234 -0.3750000005196079 
250 429 -0.41666666667351837 
250 501 -0.25000000001145284 
250 563 -0.5833333333371749 
250 731 -0.2500000000086171 
251 25 -0.40909090909697854 
251 999 -0.2500000000086171 
252 25 0.09090909089870935 
253 762 0.24999999997633615 
254 27 0.3333333333055045 
255 516 0.9999999999267714 
256 27 0.33333333330550463 
257 28 0.49999999996157996 
258 29 0.33333333331549264 
258 72 -0.3333333333420525 
258 1025 -0.5000000000046982 
259 30 -0.2500000000114526 
259 1007 -1.6895818077955482e-11 
260 30 -0.42500000023647777 
260 85 -0.20000000002632867 
260 88 -0.5916666667345625 
260 89 -0.46666666667380863 
260 761 -0.6333333333366036 
261 81 0.07692307691495315 
263 31 -0.1250000000166791 
263 80 -0.6250000000203855 
263 528 -0.41666666667373553 
263 962 -0.5000000000056279 
264 32 -0.41666666667351815 
264 266 -0.41666666667373575 
264 568 -0.4326923076993361 
264 616 -0.3125000006431633 
265 298 0.1666666664339419 
265 315 -0.44444444445711984 
265 358 -0.1666666666799932 
266 264 -0.41666666667373575 
266 532 -0.41666666667373553 
266 728 0.33333333330550463 
267 32 0.33333333330550463 
268 33 -0.2666666666847617 
268 828 -0.3666666667259635 
268 1054 -0.2500000000079481 
269 33 -0.3000000000100629 
269 783 -0.38888888889270357 
270 33 -0.5500000000047183 
270 140 -0.5000000000205356 
270 180 -0.2500000002739664 
270 315 -0.4166666667576422 
271 33 -0.2666666666847619 
271 661 -0.1666666666799932 
271 1054 -0.3333333333556161 
272 33 0.19999999997925044 
273 34 -0.2916666666926928 
273 137 -0.5166666666754458 
273 363 -0.46666666667226453 
274 34 -1.3026513201452872e-10 
274 246 -0.27777777778487955 
275 246 -0.633333333395794 
275 494 -0.30000000000697513 
275 609 -0.6333333333354645 
275 617 -0.5500000002833108 
275 920 -0.3666666667259637 
276 442 0.33333333331549264 
277 34 -0.45000000001769513 
277 115 -0.68235294169055 
277 244 -0.500000000898694 
277 609 -0.36666666686352056 
277 1051 -0.10000000004096954 
278 80 -0.6833333333586249 
278 283 -0.36666666697333916 
278 285 0.0999999999883211 
278 324 -0.27500000004694636 
278 334 -0.2000000001601212 
278 359 -0.4166666676921238 
278 750 -0.550000000033835 
278 776 -0.35000000031384837 
278 1013 -0.4000000000064694 
278 1045 -0.5500000010044044 
279 35 -0.4824561404035257 
279 362 -0.1666666666779204 
280 35 -0.4824561404035257 
280 95 -0.35714285715102667 
281 35 -0.6271929824632521 
281 71 -0.6458333333456443 
281 344 -0.2875000000362433 
281 348 -0.25000000052244786 
281 648 -0.6500000001433544 
281 815 0.1249999999853243 
281 1015 -0.6071428571817874 
281 1054 -0.6458333333354842 
282 538 0.08333333332413406 
283 35 -0.5877192982887782 
283 278 -0.36666666697333916 
283 631 -0.4743589743772161 
284 35 -0.6403508772044677 
284 612 -0.3333333333420525 
284 807 -7.008615909853688e-12 
285 278 0.0999999999883211 
286 35 0.017543859580936072 
287 35 -0.6228070175630109 
287 538 -0.3750000007155725 
287 682 -0.266666666714076 
289 35 -0.712280702095438 
289 176 -0.3500000000414476 
289 711 -0.10000000004096998 
289 750 -0.38750000075573277 
289 877 -0.1166666666886711 
290 45 -0.7500000001939833 
290 353 -0.37500000000749556 
290 362 -0.5416666666711374 
290 682 -0.5500000001872956 
290 693 -0.5416666666711372 
290 723 -0.6250000000033311 
290 972 -0.7500000000017479 
290 1017 -0.5416666666711372 
291 35 -0.6973684210846864 
291 523 0.24999999997633615 
291 783 -0.45833333349373384 
291 901 -0.2500000000114524 
292 35 0.017543859580936183 
294 35 0.017543859580935517 
295 35 0.01754385958093585 
297 35 0.01754385958093596 
298 35 -0.4649122807059396 
298 265 0.1666666664339419 
299 35 -0.5473684210953436 
299 202 -0.3000000000146632 
299 350 -0.03333333337354327 
299 352 0.12499999998981437 
299 908 -0.5500000000047178 
300 35 -0.4824561404035259 
300 427 -1.6895818077955482e-11 
301 346 0.49999999996157996 
303 685 0.24999999997633604 
305 35 0.017543859580935628 
306 35 -0.45614035088436333 
306 548 -0.2500000000768403 
308 214 -0.6515151518438662 
308 407 -0.2500000000072349 
308 563 -0.5833333338871676 
308 700 -0.5000000000046978 
308 756 -0.33333333333916926 
308 774 -0.500000000004698 
309 35 -0.4561403508849229 
309 48 -0.2500000000077627 
311 35 0.017543859580936072 
312 35 -0.45614035088492333 
312 1025 -0.16666666668058827 
313 875 0.24999999998872147 
314 35 -0.48245614040352525 
314 981 -0.1666666666779204 
315 35 -0.7923976608811216 
315 138 -0.5555555555596878 
315 244 -0.5777777779026896 
315 265 -0.44444444445711984 
315 270 -0.4166666667576422 
315 572 -0.38888888889582685 
315 579 -0.6388888889169164 
315 760 -0.6388888889043336 
315 782 -0.38888888889582707 
316 35 -0.6491228070324817 
316 520 -0.1666666666799932 
316 1023 0.33333333330550463 
317 35 -0.4824561404035257 
317 684 -1.6896040122560407e-11 
318 35 -0.6896929825687663 
318 128 -0.6907894738154579 
318 140 -0.22500000003952425 
318 414 0.12499999998532452 
318 759 -0.392857142879502 
318 875 -0.6250000000033311 
318 979 0.1249999999853244 
318 1037 -0.4097222222478185 
319 35 0.017543859580936183 
321 35 -0.6885964912720155 
321 718 -0.416666666673736 
321 783 -0.4027777779963102 
321 784 -0.41666666791561036 
322 35 0.01754385958093596 
324 278 -0.27500000004694636 
324 548 -0.650000000002867 
324 750 -0.3750000000553435 
324 1067 -0.25000000026779623 
325 35 0.017543859580936183 
326 35 0.017543859580936183 
327 35 -0.7061403509039033 
327 590 -0.41666666667373575 
327 631 -0.5576923077499472 
327 1084 -0.41666666667373575 
328 532 0.24999999997633604 
329 1000 0.11111111109800775 
331 35 -0.47368421052973364 
331 185 -0.31250000034332737 
332 35 -0.4824561404035257 
332 1083 0.49999999996157996 
334 35 -0.4473684210628892 
334 278 -0.2000000001601212 
335 35 -0.6228070175630112 
335 548 -0.41666666668966457 
335 946 0.33333333330550463 
336 35 -0.4824561404035259 
336 886 -1.6896040122560407e-11 
337 246 -0.38888888889582685 
337 1045 -0.3000000000100629 
338 35 -0.6491228070324824 
338 42 -0.41666666667351837 
338 361 -0.33333333334205273 
339 35 0.01754385958093596 
340 631 0.07692307691495337 
341 35 0.01754385958093585 
342 35 0.017543859580936294 
344 35 -0.6122807018894936 
344 94 -0.6695652174309867 
344 281 -0.2875000000362433 
344 500 -0.3666666666834766 
344 1047 -0.06666666768932528 
346 35 -0.4824561404035259 
346 301 0.49999999996157996 
347 35 0.017543859580936072 
348 35 -0.572368421131743 
348 54 -0.6630434782717616 
348 281 -0.25000000052244786 
348 757 -0.2500000000114524 
349 35 -0.7982456141740599 
349 45 -0.7333333333634413 
349 47 -0.4772727272885391 
349 380 0.16666666664825058 
349 545 -0.16666666670099617 
349 961 -0.5000000000053608 
350 35 -0.456140350925899 
350 299 -0.03333333337354327 
350 508 0.33333333330550463 
351 35 0.017543859580936072 
352 35 -0.5811403508841217 
352 105 -0.416666666673736 
352 202 -0.22500000000513065 
352 299 0.12499999998981437 
353 290 -0.37500000000749556 
353 1061 -1.6895818077955482e-11 
354 35 0.017543859580936072 
355 464 0.49999999996157996 
356 119 -0.38888888889582685 
356 611 -1.6896040122560407e-11 
357 359 -0.3333333333423367 
357 1037 -0.38888888889582685 
358 265 -0.1666666666799932 
358 548 -0.4000000000064694 
359 38 -0.7619047619337247 
359 80 -0.541666667084377 
359 99 -0.5000000000053608 
359 278 -0.4166666676921238 
359 357 -0.3333333333423367 
359 1067 -0.3750000000369591 
360 36 -0.5000000000216409 
360 113 -0.37777777781454347 
360 120 -0.3412698418700342 
360 124 -0.1805555562989969 
360 131 -0.45833333337336035 
360 157 -0.6388888888919688 
360 244 -0.34444444461216506 
360 507 -0.5555555555596876 
360 739 0.11111111109800764 
361 338 -0.33333333334205273 
361 363 -0.3666666666834759 
361 626 -0.36666666668347614 
362 279 -0.1666666666779204 
362 290 -0.5416666666711374 
362 475 -0.3333333333420523 
363 37 -0.6750000000027012 
363 38 -0.704761904783733 
363 273 -0.46666666667226453 
363 361 -0.3666666666834759 
363 550 -0.6333333333414366 
364 37 0.12499999998532452 
365 37 -0.6250000000033309 
365 169 -0.6388888888912463 
365 548 -0.650000000002144 
365 824 -0.5000000000056279 
367 37 0.12499999998532452 
368 37 0.12499999998532452 
369 37 -0.7083333333356199 
369 66 -0.7733333333455794 
369 118 -0.7083333333354491 
369 616 -0.4375000001529612 
369 965 0.08333333198622506 
369 1043 -0.33333333334233695 
370 583 0.49999999996157996 
371 115 -0.6764705882791078 
371 237 -0.1250000011027721 
371 374 0.24999999997633615 
371 980 -0.20833333335329596 
372 37 -0.37500000000749534 
372 123 -0.33333333334233695 
373 37 0.12499999998532463 
374 371 0.24999999997633615 
376 96 -0.5729166666716747 
376 191 -0.5666666666737226 
376 214 -0.43939393942072824 
377 191 0.04999999997623228 
380 349 0.16666666664825058 
381 38 0.047619047592226016 
382 38 -0.4285714285741209 
382 631 -0.384615384638904 
386 38 -0.5208333343297622 
386 45 -0.6375000000303679 
386 214 -0.4943181829545231 
386 398 -0.31250000038252246 
386 590 -0.3750000000556031 
386 642 -0.4375000006668064 
386 684 -0.37500000000749534 
386 954 -0.31250000034332714 
388 38 0.047619047592225905 
391 1098 0.49999999972581843 
394 835 0.33333333330550463 
395 38 0.04761904759222624 
397 38 -0.4047619047662736 
397 637 -0.1250000000166791 
398 38 -0.45833333350227834 
398 182 -0.6071428571464843 
398 386 -0.31250000038252246 
398 1103 -0.250000000883847 
400 625 -1.6896040122560407e-11 
400 647 -0.33333333334233695 
401 38 -0.4523809523855724 
401 743 -1.6896040122560407e-11 
402 38 0.04761904759222613 
403 38 -0.4523809523855724 
403 770 -1.6895818077955482e-11 
404 38 -0.38095238096465134 
404 1103 -3.065570020055475e-11 
405 38 -0.45238095238557285 
405 66 -0.46000000000465624 
407 38 -0.4047619047662736 
407 308 -0.2500000000072349 
408 875 0.24999999997633604 
409 38 0.047619047592226016 
410 38 -0.4523809523855724 
410 784 -0.33333333333916904 
412 214 0.09090909089870947 
413 38 -0.4523809523855724 
413 959 -0.3000000000069756 
414 318 0.12499999998532452 
415 38 -0.5619047621336608 
415 67 -0.325000000020917 
415 214 -0.2000000010573244 
415 568 -0.453846153859526 
415 761 -0.5888888888961468 
416 597 0.24999999997633615 
417 55 -0.5333333334078114 
417 64 -0.5722222222441162 
417 66 -0.6400000000285841 
417 70 -0.6833333334388256 
417 214 -0.7136363636426011 
417 431 0.09999999998832121 
417 596 0.09999999998832099 
417 617 -0.5500000000292284 
417 659 -0.15000000011236403 
417 674 -0.25000000004543566 
418 39 -0.1666666666799932 
418 100 -1.6895818077955482e-11 
419 39 -0.1666666666799932 
419 576 -0.2500000000086169 
420 40 0.33333333330550463 
422 793 -0.16666666667792018 
422 908 -0.2500000000114524 
423 41 0.07142857142142012 
424 41 -0.39285714313617226 
424 44 -0.45714285714628744 
425 41 -0.595238095241106 
425 582 -0.4166666666735186 
425 705 -0.33333333334205273 
427 41 -0.4285714285767446 
427 300 -1.6895818077955482e-11 
428 41 0.07142857142142012 
429 222 -0.41666666667373553 
429 250 -0.41666666667351837 
429 565 0.33333333330550463 
430 41 0.07142857142142 
431 417 0.09999999998832121 
432 41 -0.42857142857674435 
432 169 -0.3888888888927031 
433 41 -0.4285714285767446 
433 687 -1.6896040122560407e-11 
434 41 -0.714285714431466 
434 76 -0.6071428574525497 
434 201 -0.46428571437265065 
434 242 -0.7460317460335681 
434 575 -0.5982142857369124 
434 972 -0.7321428571447752 
434 1035 -0.5238095238143972 
436 41 0.07142857142142012 
437 41 -0.5952380952411063 
437 581 -0.3333333333420525 
437 588 -0.1666666666799932 
438 41 -0.3928571431361727 
438 538 -0.3750000000222471 
439 649 0.33333333330550463 
440 42 0.24999999997633615 
441 42 -0.2500000000114524 
441 67 -0.4166666666699135 
442 276 0.33333333331549264 
442 593 -0.1666666666779204 
442 1088 0.33333333330550463 
444 44 0.028571428503498142 
446 44 -0.47142857143794004 
446 1016 -0.2500000000086171 
447 44 -0.457142857146287 
447 94 -0.4130434782649637 
448 44 0.028571428503498253 
449 44 -0.4714285714379405 
449 517 -1.6895818077955482e-11 
450 44 -0.4428571428616046 
450 486 0.41666666662901175 
450 1041 0.33333333330550463 
451 44 -0.7619047619224899 
451 54 -0.6195652176047979 
451 580 0.08333333198622517 
451 819 -0.45000000063921886 
451 829 -0.37500000001850275 
451 916 -0.5000000000053608 
452 44 -0.47142857143794004 
452 631 -0.42307692308030087 
453 44 0.028571428503498364 
455 44 0.028571428503498364 
456 44 0.028571428503498142 
457 44 -0.7071428571520775 
457 582 -0.3750000001743299 
457 594 -0.41666666667373553 
457 972 -0.6250000000027576 
458 44 0.028571428503498142 
459 44 0.02857142850349803 
461 44 0.028571428503498142 
462 169 0.11111111109800753 
463 44 -0.47142857143794004 
463 705 -0.16666666667792018 
464 44 -0.4714285714379405 
464 355 0.49999999996157996 
465 115 0.02941176463892048 
467 1000 0.11111111109800775 
468 44 0.028571428503498475 
469 44 0.028571428503498586 
470 1080 0.49999999996157996 
471 781 0.49999999972581843 
472 44 -0.6785714285912103 
472 166 -0.6250000000190536 
472 600 -0.5833333333371753 
472 963 -0.416666666673736 
474 188 0.24999999997633615 
475 224 -0.1666666666779204 
475 362 -0.3333333333420523 
475 797 -0.41666666667351837 
476 725 0.24999999997633615 
477 44 -0.6238095238168899 
477 1015 -0.5238095238135425 
477 1104 -0.16666666672802855 
478 44 -0.45714285714628744 
478 1103 -0.12500000001667932 
479 44 0.028571428503498142 
480 44 0.028571428503498475 
481 44 0.028571428503498364 
482 44 0.02857142850349803 
483 44 0.028571428503498142 
484 44 0.02857142850349803 
485 44 0.028571428503498364 
486 44 -0.19285714286260291 
486 450 0.41666666662901175 
487 44 -0.47142857143794004 
487 507 -0.1666666666779204 
488 44 0.028571428503498364 
489 45 0.04999999997623217 
490 45 -0.6333333336513864 
490 214 -0.348484848665608 
490 538 -0.5000000001835714 
490 642 -0.3333333334877775 
490 752 -0.5500000002833099 
490 855 -0.25000000077257845 
491 45 -0.6166666666689329 
491 191 -0.6166666666679801 
491 599 -0.3333333333420525 
492 637 -0.416666666673736 
492 806 -0.1666666666779204 
492 814 -0.5000000000053606 
493 45 0.04999999997623239 
494 45 -0.4500000000046549 
494 275 -0.30000000000697513 
495 787 0.24999999997633615 
495 797 -0.5000000000056275 
495 930 -0.2500000000114524 
495 1057 -0.5000000000056277 
496 647 0.1666666666482508 
497 45 -0.6166666666689327 
497 575 -0.5416666666701517 
497 668 -0.41666666667351837 
498 45 0.04999999997623228 
500 182 -0.5238095238143972 
500 344 -0.3666666666834766 
500 850 -7.008615909853688e-12 
501 250 -0.25000000001145284 
501 626 -0.3000000000100631 
502 45 0.04999999997623217 
503 45 -0.49166666669863135 
503 568 -0.47435897438138674 
503 646 0.33333333330550463 
504 752 0.19999999997925055 
505 915 0.19999999997925055 
506 45 -0.6166666666689329 
506 198 -0.5416666666711376 
506 541 -0.1666666666799932 
507 45 -0.6166666666689324 
507 360 -0.5555555555596876 
507 487 -0.1666666666779204 
508 350 0.33333333330550463 
510 45 0.04999999997623217 
512 45 -0.732142857192559 
512 54 -0.791925465842684 
512 519 -0.28571428578355684 
512 682 -0.3714285715853629 
512 748 0.14285714284071538 
512 783 -0.5793650799226855 
512 893 -0.5238095238143972 
513 45 -0.7000000000216915 
513 79 -0.5857142857187503 
513 190 -0.4500000009753795 
513 544 -0.585714285718532 
513 830 -0.4500000000807418 
515 1018 0.33333333331549286 
516 255 0.9999999999267714 
517 45 -0.4500000000046551 
517 449 -1.6895818077955482e-11 
518 46 0.06666666666038623 
519 245 0.33333333331549286 
519 512 -0.28571428578355684 
519 550 -0.466666666716254 
520 46 -0.4333333333384761 
520 316 -0.1666666666799932 
521 46 0.06666666666038634 
522 202 -0.46666666667263046 
522 822 -0.1666666666799932 
522 1054 -0.5000000000053608 
523 291 0.24999999997633615 
524 46 0.06666666666038634 
527 46 -0.43333333333847635 
527 234 -0.37500000000749556 
528 46 -0.6000000000028569 
528 263 -0.41666666667373553 
528 652 0.33333333330550463 
531 46 0.06666666666038656 
532 46 -0.6833333333354696 
532 231 -0.5833333333373456 
532 266 -0.41666666667373553 
532 328 0.24999999997633604 
533 46 0.06666666666038612 
534 46 0.06666666666038623 
535 46 0.06666666666038634 
536 46 -0.6000000000028571 
536 624 -0.1666666666799932 
536 751 -0.33333333334205273 
537 548 -0.40000000000646896 
537 723 -0.2500000000114524 
538 47 -0.5681818189497656 
538 67 -0.41666667023720083 
538 170 -0.41666666666991325 
538 231 -0.5416666668586954 
538 282 0.08333333332413406 
538 287 -0.3750000007155725 
538 438 -0.3750000000222471 
538 490 -0.5000000001835714 
538 818 -0.5333333334976005 
538 844 0.08333333332413417 
538 947 -0.5000000000130262 
538 958 0.0833333333241344 
539 544 -0.35714285715102667 
539 919 -1.6895818077955482e-11 
540 47 0.09090909089870935 
541 506 -0.1666666666799932 
541 882 -0.1666666666799932 
542 47 0.09090909089870958 
544 47 -0.6948051955055121 
544 84 -0.7460317460334625 
544 201 -0.6071428571461048 
544 513 -0.585714285718532 
544 539 -0.35714285715102667 
544 754 0.14285714284071527 
544 901 -0.3571428571510269 
545 47 -0.31818181819993185 
545 349 -0.16666666670099617 
545 1095 -0.1666666666799932 
546 48 -0.6250000000033309 
546 234 -0.5625000000318723 
546 766 -0.29166666669269303 
546 786 -0.41666666667373575 
547 48 0.12499999998532452 
548 48 -0.6625000000695391 
548 306 -0.2500000000768403 
548 324 -0.650000000002867 
548 335 -0.41666666668966457 
548 358 -0.4000000000064694 
548 365 -0.650000000002144 
548 537 -0.40000000000646896 
548 749 0.09999999998832099 
548 805 -0.3000000002832448 
548 827 -0.41666666672012065 
549 48 -0.37500000000749534 
549 999 -0.2500000000086171 
550 48 -0.6750000002051482 
550 67 -0.6750000001056606 
550 80 -0.7500000000730063 
550 176 -0.5166666668858406 
550 177 -0.46666666669529366 
550 179 -0.45000000037523646 
550 231 -0.6166666669317664 
550 363 -0.6333333333414366 
550 519 -0.466666666716254 
550 609 -0.7750000000417998 
550 648 -0.7333333337477548 
550 649 -0.6000000000028571 
550 724 -0.5666666666719511 
550 783 -0.5777777778269484 
550 1096 0.06666666666038634 
551 48 -0.5446428578348956 
551 94 -0.7267080745690828 
551 763 -0.2857142860788331 
551 783 -0.46825396848167933 
551 789 -0.30952380966607973 
551 851 0.14285714284071527 
551 862 -0.30952380966607995 
552 677 0.49999999996157996 
554 49 -0.1666666666799932 
554 1067 -0.2500000000086169 
555 49 0.33333333330550463 
556 558 0.33333333330550463 
556 843 -0.5238095238143972 
556 930 -0.16666666667792018 
557 50 0.49999999996157996 
558 556 0.33333333330550463 
559 51 0.24999999998872147 
559 84 -0.40277777797491754 
559 199 -0.2500000000086171 
559 777 0.24999999997759337 
562 52 -0.3000000000100629 
562 228 -0.25000000001145284 
563 250 -0.5833333333371749 
563 308 -0.5833333338871676 
563 568 -0.7179487180212392 
563 732 -0.33333333334233695 
563 842 -0.500000000004698 
563 1082 -0.33333333333916926 
564 52 -0.20000000004271223 
564 115 -0.41176470591217695 
564 935 -4.557789701209458e-10 
565 429 0.33333333330550463 
566 52 0.0999999998991895 
566 115 -0.578431372570432 
566 204 0.1666666650656865 
567 64 -0.5777777777797475 
567 569 0.19999999997925044 
567 575 -0.5750000000202464 
567 605 -0.20000000000842366 
567 636 -0.20000000000842366 
568 53 -0.6643356644400669 
568 62 -0.596153846486887 
568 128 -0.6740890688411239 
568 264 -0.4326923076993361 
568 415 -0.453846153859526 
568 503 -0.47435897438138674 
568 563 -0.7179487180212392 
568 616 -0.45673076959754755 
568 642 -0.48717948797980504 
568 666 -0.5128205128314467 
568 682 -0.5307692308697765 
568 960 -0.5512820512880245 
568 999 -0.5576923076982454 
569 567 0.19999999997925044 
571 53 -0.31818181873853435 
571 574 0.08333333331840653 
572 53 -0.40909090909697854 
572 315 -0.38888888889582685 
573 53 0.09090909089870958 
574 54 -0.6014492753657461 
574 571 0.08333333331840653 
574 960 -0.16666666672802855 
575 53 -0.49431818245955705 
575 206 -0.5416666666711374 
575 434 -0.5982142857369124 
575 497 -0.5416666666701517 
575 567 -0.5750000000202464 
575 576 -0.37500000005534373 
575 617 -0.5833333337511379 
575 992 -0.37500000000749556 
576 53 -0.4431818182200442 
576 167 -0.5500000000047178 
576 419 -0.2500000000086169 
576 575 -0.37500000005534373 
577 54 -0.5362318840681215 
577 609 -0.41666666678694786 
577 1045 -0.46666666667226453 
578 54 0.04347826083165396 
579 54 -0.7695652175005809 
579 228 -0.6000000000509935 
579 242 -0.4777777783926347 
579 315 -0.6388888889169164 
579 942 -0.35000000031384837 
579 989 -0.6000000000255521 
579 998 -0.516666666675446 
579 1020 0.09999999998832099 
579 1027 -0.4166666667027994 
579 1062 -0.4000000000064692 
580 54 -0.16304347826502452 
580 451 0.08333333198622517 
581 54 -0.6231884057991097 
581 118 -0.5416666666701522 
581 437 -0.3333333333420525 
582 54 -0.619565217484402 
582 185 -0.4375000000318203 
582 425 -0.4166666666735186 
582 457 -0.3750000001743299 
583 54 -0.45652173913503913 
583 370 0.49999999996157996 
584 54 -0.7681159420314212 
584 600 -0.6666666666694112 
584 642 -0.4166666668057273 
584 660 -0.250000000393076 
584 666 -0.3333333333469426 
584 952 -0.33333333334233695 
585 54 0.04347826083165429 
586 54 -0.6014492753657463 
586 119 -0.5000000000216407 
586 830 -0.41666666667351837 
587 54 0.04347826083165418 
588 437 -0.1666666666799932 
588 873 0.49999999996157996 
589 54 0.0434782608316544 
590 327 -0.41666666667373575 
590 386 -0.3750000000556031 
590 855 -0.1666666667280281 
592 54 -0.41304347826496346 
592 1009 -0.10000000003076526 
593 54 -0.45652173913503935 
593 442 -0.1666666666779204 
594 126 -0.46666666667263 
594 457 -0.41666666667373553 
594 781 -0.1666666666799932 
596 417 0.09999999998832099 
597 54 -0.6847826087013131 
597 416 0.24999999997633615 
597 729 -0.12500000000562794 
597 917 -0.41666666667373575 
598 55 -0.638888888891969 
598 648 -0.6500000000021453 
598 693 -0.416666666673736 
598 1043 -0.2500000000114524 
599 55 -0.5555555555596878 
599 491 -0.3333333333420525 
599 798 -0.1666666666799932 
600 472 -0.5833333333371753 
600 584 -0.6666666666694112 
600 804 0.16666666664825058 
600 841 -0.33333333333916926 
600 866 -0.3333333333423367 
600 891 0.16666666664825058 
601 55 -0.38888888889582685 
601 200 0.49999999996157996 
603 55 -0.5555555555596876 
603 198 -0.5416666666711374 
603 967 0.33333333330550463 
604 55 0.11111111109800775 
605 55 -0.27777777778487933 
605 567 -0.20000000000842366 
606 55 -0.22222222225199428 
606 659 0.24999999987545485 
607 680 -0.3000000000100629 
607 784 -0.33333333334233695 
608 783 -0.38888888889582685 
608 846 -1.6896040122560407e-11 
609 57 -0.5000000000199036 
609 208 0.08333333332413417 
609 275 -0.6333333333354645 
609 277 -0.36666666686352056 
609 550 -0.7750000000417998 
609 577 -0.41666666678694786 
609 626 -0.433333333685467 
609 628 -0.4166666666724308 
609 729 -0.3750000002939564 
609 974 -0.3750000002939564 
609 1009 -0.6333333334242912 
609 1051 -0.3333333333488442 
611 57 -0.1666666666799932 
611 356 -1.6896040122560407e-11 
612 58 -0.3333333333420523 
612 284 -0.3333333333420525 
612 1068 -0.1666666666799932 
613 58 0.3333333333055045 
614 58 0.33333333330550463 
615 59 0.49999999996157996 
616 60 -0.7500000000107094 
616 128 -0.6282894736926403 
616 239 -0.5000000000200366 
616 242 -0.5208333333475588 
616 264 -0.3125000006431633 
616 369 -0.4375000001529612 
616 568 -0.45673076959754755 
616 965 -9.347238538737201e-10 
617 60 -0.6666666667883425 
617 275 -0.5500000002833108 
617 417 -0.5500000000292284 
617 575 -0.5833333337511379 
617 1015 -0.6190476191618144 
617 1094 -0.33333333334233695 
618 60 -0.4166666666724308 
618 651 0.49999999996157996 
620 60 -0.3750000002939564 
620 1009 -0.20000000000842344 
622 60 0.0833333333241344 
623 60 -0.5833333333367086 
623 113 -0.466666666685736 
623 668 -0.2916666672160928 
624 80 -0.4166666666724308 
624 536 -0.1666666666799932 
625 60 -0.4166666666724306 
625 400 -1.6896040122560407e-11 
626 60 -0.6166666683046218 
626 115 -0.7264705883907268 
626 361 -0.36666666668347614 
626 501 -0.3000000000100631 
626 609 -0.433333333685467 
627 60 0.08333333332413406 
628 109 -0.35714285715102667 
628 609 -0.4166666666724308 
629 60 -0.5416666666730858 
629 88 -0.5416666666730865 
629 714 -0.1666666666799932 
631 67 -0.7243589745310226 
631 283 -0.4743589743772161 
631 327 -0.5576923077499472 
631 340 0.07692307691495337 
631 382 -0.384615384638904 
631 452 -0.42307692308030087 
631 797 -0.47115384618462963 
631 866 -0.42307692308244427 
631 902 -0.5961538461873572 
631 956 -0.47115384618462963 
631 962 -0.6730769230793041 
631 1006 -0.7230769230788292 
631 1025 -0.6794871795322681 
633 62 0.16666666664825036 
634 62 0.16666666664825058 
635 66 0.039999999952545884 
636 62 -0.25000000039307624 
636 567 -0.20000000000842366 
637 62 -0.5000000000438263 
637 214 -0.5681818182109928 
637 397 -0.1250000000166791 
637 492 -0.416666666673736 
639 63 0.49999999996157996 
640 64 0.11111111109800753 
641 64 -0.5555555555596876 
641 180 -0.41666666667373575 
641 1022 0.33333333330550463 
642 64 -0.6111111111136096 
642 115 -0.7745098039428335 
642 386 -0.4375000006668064 
642 490 -0.3333333334877775 
642 568 -0.48717948797980504 
642 584 -0.4166666668057273 
644 64 0.11111111109800764 
645 185 0.1249999999853243 
646 503 0.33333333330550463 
647 174 -0.33333333340950233 
647 400 -0.33333333334233695 
647 496 0.1666666666482508 
647 750 -0.6458333335521411 
647 981 -0.5000000000053608 
647 1089 -0.25000000000723466 
648 96 -0.6937500000139403 
648 185 -0.6250000000098759 
648 189 -0.4000000000033892 
648 281 -0.6500000001433544 
648 550 -0.7333333337477548 
648 598 -0.6500000000021453 
648 762 -0.6000000000509935 
648 843 -0.585714285999982 
648 850 -0.3500000003138486 
648 1037 -0.7388888888954497 
649 66 -0.6266666666685314 
649 439 0.33333333330550463 
649 550 -0.6000000000028571 
650 66 -0.6266666666685314 
650 668 -0.41666666667351815 
650 882 -0.33333333334205273 
651 618 0.49999999996157996 
652 528 0.33333333330550463 
653 66 0.03999999995254577 
655 66 0.039999999952545884 
657 66 -0.4600000000046558 
657 898 0.49999999996157996 
658 66 0.03999999995254577 
659 66 -0.38000000001779655 
659 417 -0.15000000011236403 
659 606 0.24999999987545485 
660 66 -0.4400000000024282 
660 584 -0.250000000393076 
661 66 -0.4600000000046558 
661 271 -0.1666666666799932 
662 66 -0.17000000000419857 
662 670 0.7499999999319464 
663 900 0.9999999999267714 
664 66 0.03999999995254566 
665 1052 0.49999999996157996 
666 70 -0.5000000000053606 
666 568 -0.5128205128314467 
666 584 -0.3333333333469426 
668 137 -0.5500000001869216 
668 497 -0.41666666667351837 
668 623 -0.2916666672160928 
668 650 -0.41666666667351815 
670 66 -0.17000000000419857 
670 662 0.7499999999319464 
671 66 -0.4400000000024282 
671 710 0.24999999996658784 
673 244 0.06666666666038623 
674 66 -0.4000000000123256 
674 417 -0.25000000004543566 
674 981 -0.3333333333420525 
675 66 0.03999999995254577 
676 66 0.03999999995254566 
677 66 -0.4600000000046558 
677 552 0.49999999996157996 
678 66 0.03999999995254577 
679 66 0.039999999952545884 
680 67 -0.7166666666686932 
680 607 -0.3000000000100629 
680 816 0.19999999997925055 
680 982 0.19999999997925055 
680 1003 -0.46666666667263024 
681 67 -0.0833333337681168 
681 685 0.24999999996639688 
682 67 -0.4250000006738892 
682 287 -0.266666666714076 
682 290 -0.5500000001872956 
682 512 -0.3714285715853629 
682 568 -0.5307692308697765 
683 67 -0.5000000000114757 
683 833 -0.3333333333420525 
683 902 -0.16666666735404778 
684 317 -1.6896040122560407e-11 
684 386 -0.37500000000749534 
685 67 -0.4583333333676649 
685 76 -0.6250000000027576 
685 303 0.24999999997633604 
685 681 0.24999999996639688 
686 1069 0.9999999999267714 
687 433 -1.6896040122560407e-11 
687 830 -0.2500000000086171 
690 70 0.16666666664825058 
692 69 0.9999999999267714 
693 240 -0.5000000000053613 
693 290 -0.5416666666711372 
693 598 -0.416666666673736 
696 70 0.1666666666482508 
699 70 0.16666666664825058 
700 71 -0.5000000000053608 
700 308 -0.5000000000046978 
700 1060 -0.1666666666799932 
701 185 0.12499999998532463 
703 71 0.16666666664825058 
704 71 0.1666666666482508 
705 425 -0.33333333334205273 
705 463 -0.16666666667792018 
705 1086 -0.41666666667373575 
706 71 0.16666666664825058 
710 72 -7.008393865248763e-12 
710 671 0.24999999996658784 
711 73 -0.46666666667263 
711 289 -0.10000000004096998 
711 877 -0.16666666672964214 
712 73 0.19999999997925055 
713 73 0.19999999997925055 
714 629 -0.1666666666799932 
714 915 -0.3000000000100629 
716 73 0.19999999997925044 
717 74 -0.3000000000100629 
717 1060 -1.6895818077955482e-11 
718 74 -0.46666666667263 
718 321 -0.416666666673736 
718 793 -0.33333333334205273 
719 74 0.19999999997925055 
720 74 -0.46666666667263046 
720 146 -0.5238095238135427 
720 722 0.33333333330550463 
722 720 0.33333333330550463 
723 290 -0.6250000000033311 
723 537 -0.2500000000114524 
723 875 -0.5000000000056275 
723 984 0.24999999997633604 
724 75 0.33333333331549264 
724 550 -0.5666666666719511 
724 864 -0.47916666668921204 
725 76 -0.6250000000033307 
725 240 -0.29166666675495345 
725 476 0.24999999997633615 
725 1081 -0.12500000017987944 
726 76 -0.2500000003293641 
726 201 -6.147748976559342e-12 
728 266 0.33333333330550463 
729 597 -0.12500000000562794 
729 609 -0.3750000002939564 
730 157 -0.416666666673736 
730 935 -0.416666666673736 
730 1016 -0.4166666666735186 
731 76 -0.37500000000749556 
731 250 -0.2500000000086171 
732 563 -0.33333333334233695 
732 945 0.49999999996157996 
733 76 0.1249999999853243 
734 76 0.1249999999853244 
735 76 0.12499999998532463 
737 77 -0.1666666666799932 
737 178 -1.6896040122560407e-11 
738 77 0.33333333330550463 
739 360 0.11111111109800764 
741 78 0.33333333330550463 
743 401 -1.6896040122560407e-11 
743 877 -0.33333333334233695 
744 79 0.14285714284071538 
745 79 0.14285714284071527 
746 79 -0.3571428571510269 
746 115 -0.47058823529964 
748 512 0.14285714284071538 
749 548 0.09999999998832099 
750 101 0.1249999999881557 
750 168 -0.2500000000058349 
750 198 -0.6250000000217528 
750 278 -0.550000000033835 
750 289 -0.38750000075573277 
750 324 -0.3750000000553435 
750 647 -0.6458333335521411 
750 767 -0.47916666668921226 
751 536 -0.33333333334205273 
751 980 -0.5000000000053608 
751 988 -0.3333333333420523 
752 80 -0.7166666666686932 
752 490 -0.5500000002833099 
752 504 0.19999999997925055 
752 830 -0.4500000000807416 
752 833 -0.46666666667263 
753 80 -0.3750000002939564 
753 786 -1.2504175472827228e-10 
754 544 0.14285714284071527 
756 80 -0.4166666666724308 
756 308 -0.33333333333916926 
757 80 -0.4166666666724308 
757 348 -0.2500000000114524 
758 80 -0.625000000020385 
758 864 -0.5625000000948719 
758 886 -0.25000000001145284 
758 956 -0.5000000000056279 
759 81 -0.40109890118142344 
759 119 -0.3968253979186509 
759 191 -0.5107142859220455 
759 244 -0.3428571428870484 
759 318 -0.392857142879502 
759 973 0.14285714284071527 
759 1046 -0.3492063496252875 
760 150 -0.416666667313772 
760 184 -0.4166666666805299 
760 191 -0.5416666670009724 
760 240 -0.666666666669411 
760 315 -0.6388888889043336 
760 824 -0.4166666670745818 
761 81 -0.5427350433657501 
761 94 -0.6376811595185368 
761 191 -0.4333333338531107 
761 234 -0.4791666668126007 
761 260 -0.6333333333366036 
761 415 -0.5888888888961468 
761 915 -0.5333333345769953 
761 989 -0.5833333333618742 
761 1046 -0.38888888894273377 
762 81 -0.6346153846329843 
762 253 0.24999999997633615 
762 648 -0.6000000000509935 
762 1078 -0.416666666673736 
763 81 -0.38461538490143354 
763 551 -0.2857142860788331 
764 81 0.07692307691495304 
765 81 0.07692307691495337 
766 81 -0.3974358975051788 
766 119 -0.3333333333691022 
766 546 -0.29166666669269303 
767 81 -0.5512820512880243 
767 750 -0.47916666668921226 
767 838 -0.1666666666799932 
768 1017 0.33333333330550463 
769 81 -0.42307692308244427 
769 858 -1.6896040122560407e-11 
770 183 -1.6896040122560407e-11 
770 403 -1.6895818077955482e-11 
771 82 0.9999999999267714 
773 83 0.49999999996157996 
774 84 -0.5555555555596878 
774 308 -0.500000000004698 
774 899 -0.3333333333420525 
775 84 -0.33333333366027196 
775 1045 -0.20000000000842344 
776 84 -0.3333333336602715 
776 278 -0.35000000031384837 
777 84 -0.027777778522096508 
777 559 0.24999999997759337 
778 84 0.11111111109800764 
781 471 0.49999999972581843 
781 594 -0.1666666666799932 
782 315 -0.38888888889582707 
782 864 -0.37500000000749534 
783 128 -0.7573099420702223 
783 269 -0.38888888889270357 
783 291 -0.45833333349373384 
783 321 -0.4027777779963102 
783 512 -0.5793650799226855 
783 550 -0.5777777778269484 
783 551 -0.46825396848167933 
783 608 -0.38888888889582685 
783 820 -0.27777777780283275 
784 134 -0.33333333333916926 
784 321 -0.41666666791561036 
784 410 -0.33333333333916904 
784 607 -0.33333333334233695 
784 789 -0.25000000008222956 
784 862 -0.2500000000186573 
785 230 0.49999999996157996 
786 88 -0.5416666666730863 
786 546 -0.41666666667373575 
786 753 -1.2504175472827228e-10 
787 495 0.24999999997633615 
788 88 0.08333333332413406 
789 88 -0.50000000001357 
789 551 -0.30952380966607973 
789 784 -0.25000000008222956 
790 88 0.08333333332413417 
791 88 0.08333333332413406 
792 88 -0.4166666666724308 
792 895 -1.6896040122560407e-11 
793 422 -0.16666666667792018 
793 718 -0.33333333334205273 
793 794 0.33333333330550463 
794 793 0.33333333330550463 
795 89 0.1666666666482508 
796 89 -0.33333333334233695 
796 1104 -0.1666666666779204 
797 475 -0.41666666667351837 
797 495 -0.5000000000056275 
797 631 -0.47115384618462963 
797 956 -0.1250000001798799 
798 90 0.49999999972581843 
798 599 -0.1666666666799932 
803 819 0.19999999997925055 
804 600 0.16666666664825058 
805 191 -0.37500000001276157 
805 548 -0.3000000002832448 
806 198 -0.37500000000749534 
806 492 -0.1666666666779204 
807 94 -0.4347826086982203 
807 284 -7.008615909853688e-12 
808 94 0.043478260831654514 
810 961 0.33333333330550463 
811 94 0.04347826083165396 
812 94 0.0434782608316544 
813 94 -0.45652173913503935 
813 835 -0.16666666667792018 
814 94 -0.5978260871983259 
814 195 -0.6190476190566403 
814 492 -0.5000000000053606 
814 824 -0.29166666730582613 
814 829 -0.16666666671503316 
814 1000 -0.5000000007985728 
815 281 0.1249999999853243 
816 680 0.19999999997925055 
817 94 0.04347826083165418 
818 94 -0.6913043478558856 
818 117 -0.5571428571648331 
818 214 -0.3454545464628884 
818 538 -0.5333333334976005 
818 1015 -0.5142857142931005 
819 94 -0.6260869567889382 
819 451 -0.45000000063921886 
819 803 0.19999999997925055 
819 824 -0.22500000001103837 
819 1000 -0.522222222322906 
820 94 -0.4130434784410306 
820 783 -0.27777777780283275 
821 864 0.1249999999853243 
822 522 -0.1666666666799932 
822 893 -0.1666666666799932 
824 365 -0.5000000000056279 
824 760 -0.4166666670745818 
824 814 -0.29166666730582613 
824 819 -0.22500000001103837 
825 94 -0.45652173913503935 
825 951 0.49999999996157996 
826 94 -0.45652173913503935 
826 934 0.49999999996157996 
827 94 -0.36956521740822823 
827 191 -0.3250000000499951 
827 548 -0.41666666672012065 
828 94 -0.7130434782782444 
828 174 -0.3000000000424672 
828 268 -0.3666666667259635 
828 1037 -0.5333333336490382 
828 1057 -0.4250000009542503 
829 94 -0.47282608705866425 
829 451 -0.37500000001850275 
829 814 -0.16666666671503316 
829 962 -0.5000000000056279 
830 513 -0.4500000000807418 
830 586 -0.41666666667351837 
830 687 -0.2500000000086171 
830 752 -0.4500000000807416 
831 94 -0.45652173913503913 
831 972 -0.37500000000433675 
832 1093 0.49999999996157996 
833 95 -0.5238095238143972 
833 683 -0.3333333333420525 
833 752 -0.46666666667263 
835 162 -0.3333333333420525 
835 394 0.33333333330550463 
835 813 -0.16666666667792018 
836 95 0.14285714284071516 
838 95 -0.35714285715102667 
838 767 -0.1666666666799932 
839 95 0.14285714284071527 
840 95 0.14285714284071527 
841 96 -0.4375000000049982 
841 600 -0.33333333333916926 
842 96 -0.6041666666693846 
842 563 -0.500000000004698 
842 959 -0.46666666667226453 
843 96 -0.6607142858482744 
843 130 -0.38095238096469486 
843 159 -0.4642857144491359 
843 237 -0.5476190477498757 
843 556 -0.5238095238143972 
843 648 -0.585714285999982 
843 1084 -0.21428571431587362 
844 538 0.08333333332413417 
845 96 0.06249999999065303 
846 96 -0.4375000000049982 
846 608 -1.6896040122560407e-11 
847 96 0.06249999999065303 
848 96 -0.37500000015898594 
848 145 -0.25000000032936387 
850 500 -7.008615909853688e-12 
850 648 -0.3500000003138486 
851 551 0.14285714284071527 
852 96 0.06249999999065314 
853 96 0.062499999990653254 
855 96 -0.5729166666716747 
855 490 -0.25000000077257845 
855 590 -0.1666666667280281 
858 96 -0.4375000000049982 
858 769 -1.6896040122560407e-11 
862 96 -0.5729166667256167 
862 551 -0.30952380966607995 
862 784 -0.2500000000186573 
863 97 -1.6895818077955482e-11 
863 191 -0.4500000000046547 
864 97 -0.37500000000433653 
864 233 -0.4791666666892127 
864 724 -0.47916666668921204 
864 758 -0.5625000000948719 
864 782 -0.37500000000749534 
864 821 0.1249999999853243 
864 980 -0.5833333337511386 
864 1071 -0.6125000000757854 
866 600 -0.3333333333423367 
866 631 -0.42307692308244427 
869 99 0.3333333333055045 
872 99 0.33333333330550463 
873 588 0.49999999996157996 
874 102 0.9999999999267714 
875 313 0.24999999998872147 
875 318 -0.6250000000033311 
875 408 0.24999999997633604 
875 723 -0.5000000000056275 
876 104 -0.6071428571461053 
876 119 -0.49206349220239853 
876 120 -0.3571428572502313 
876 166 -0.7571428572454939 
876 976 0.14285714284071538 
876 1000 -0.6349206352046273 
876 1071 -0.5857142858288888 
877 188 -0.5833333333371744 
877 198 -0.5833333333578636 
877 289 -0.1166666666886711 
877 711 -0.16666666672964214 
877 743 -0.33333333334233695 
877 1054 -0.5833333338871678 
878 104 0.24999999997633604 
879 105 0.3333333333055045 
880 105 0.33333333330550463 
881 106 0.24999999997633615 
882 247 0.33333333331549264 
882 541 -0.1666666666799932 
882 650 -0.33333333334205273 
883 106 0.24999999997633615 
885 106 0.24999999997633604 
886 336 -1.6896040122560407e-11 
886 758 -0.25000000001145284 
887 107 0.24999999997633604 
888 107 0.24999999997633615 
889 107 0.24999999997633615 
890 107 0.24999999997633604 
891 600 0.16666666664825058 
892 108 -0.46666666667263 
892 114 -0.1875000000842686 
892 191 -0.37500000001629985 
893 108 -0.46666666667263024 
893 512 -0.5238095238143972 
893 822 -0.1666666666799932 
894 108 0.19999999997925044 
895 792 -1.6896040122560407e-11 
895 1037 -0.38888888889582685 
898 657 0.49999999996157996 
899 109 -0.5238095238143972 
899 774 -0.3333333333420525 
899 960 -0.3333333333420523 
900 663 0.9999999999267714 
901 291 -0.2500000000114524 
901 544 -0.3571428571510269 
902 109 -0.6071428571464845 
902 631 -0.5961538461873572 
902 683 -0.16666666735404778 
902 955 -0.2500000000114524 
903 109 0.14285714284071538 
907 109 0.14285714284071527 
908 109 -0.6071428571464841 
908 235 -0.2500000000086171 
908 299 -0.5500000000047178 
908 422 -0.2500000000114524 
911 131 -0.12500000002750022 
911 234 -0.4166666667066812 
911 244 -0.36666666684808535 
912 113 -0.05000000056114384 
912 191 -0.15000000000417102 
913 113 0.09999999998832132 
915 114 -0.5125000000273832 
915 505 0.19999999997925055 
915 714 -0.3000000000100629 
915 761 -0.5333333345769953 
915 1063 -0.3000000000100631 
916 114 -0.5416666666711376 
916 451 -0.5000000000053608 
916 975 0.33333333330550463 
917 114 -0.3750000000556033 
917 128 -0.535087719308891 
917 597 -0.41666666667373575 
918 115 -0.5784313725743737 
918 191 -0.4916666667126728 
918 1098 -0.1666666666799932 
919 126 -0.3000000000100629 
919 539 -1.6895818077955482e-11 
920 115 -0.6078431372665689 
920 275 -0.3666666667259637 
920 1078 -0.3333333333420525 
921 115 0.029411764638920368 
923 115 0.029411764638920368 
924 115 -0.6372549019622264 
924 234 -0.25000000039993653 
924 1046 -0.3333333333691022 
925 115 0.02941176463892048 
926 115 0.029411764638920812 
927 115 0.02941176463892059 
928 115 0.029411764638920257 
929 1046 0.11111111109800775 
930 495 -0.2500000000114524 
930 556 -0.16666666667792018 
931 115 0.0294117646389207 
932 115 -0.5931372549178031 
932 242 -0.44444444446996867 
932 1019 0.33333333330550463 
933 115 0.029411764638920257 
934 826 0.49999999996157996 
935 115 -0.5073529412232092 
935 195 -0.4107142869712388 
935 564 -4.557789701209458e-10 
935 730 -0.416666666673736 
936 115 0.029411764638920257 
937 210 -7.008615909853688e-12 
937 1014 -1.3026557610373857e-10 
939 115 0.02941176463892048 
940 115 0.0294117646389207 
942 115 -0.4558823529445677 
942 579 -0.35000000031384837 
943 1005 0.49999999972581843 
944 115 0.02941176463892048 
945 732 0.49999999996157996 
946 335 0.33333333330550463 
947 115 -0.5931372549263385 
947 169 -0.38888888919497666 
947 538 -0.5000000000130262 
948 115 0.029411764638920257 
949 231 0.16666666664825058 
950 116 0.24999999997633615 
951 825 0.49999999996157996 
952 116 -0.2500000000114526 
952 584 -0.33333333334233695 
953 116 0.24999999997633604 
954 117 -0.2857142860788331 
954 386 -0.31250000034332714 
955 117 -0.35714285715102667 
955 902 -0.2500000000114524 
956 631 -0.47115384618462963 
956 758 -0.5000000000056279 
956 797 -0.1250000001798799 
956 1081 -0.5000000000056279 
957 117 0.14285714284071527 
958 538 0.0833333333241344 
959 156 0.19999999999175544 
959 413 -0.3000000000069756 
959 842 -0.46666666667226453 
959 1005 -0.3000000000100631 
959 1035 -0.46666666667226453 
960 568 -0.5512820512880245 
960 574 -0.16666666672802855 
960 899 -0.3333333333420523 
961 117 -0.5238095238143972 
961 349 -0.5000000000053608 
961 810 0.33333333330550463 
962 118 -0.6250000000033311 
962 263 -0.5000000000056279 
962 631 -0.6730769230793041 
962 829 -0.5000000000056279 
963 118 -0.5416666666711374 
963 206 -0.3333333333420525 
963 472 -0.416666666673736 
964 118 0.1249999999853243 
965 369 0.08333333198622506 
965 616 -9.347238538737201e-10 
966 118 0.1249999999853244 
967 603 0.33333333330550463 
968 118 0.12499999998532463 
971 242 0.11111111109800775 
972 119 -0.7083333333672701 
972 152 -0.2500000000814977 
972 184 -0.47916666667892627 
972 290 -0.7500000000017479 
972 434 -0.7321428571447752 
972 457 -0.6250000000027576 
972 831 -0.37500000000433675 
972 1075 -0.3750000000553433 
973 759 0.14285714284071527 
974 119 -0.33333333366027174 
974 609 -0.3750000002939564 
975 916 0.33333333330550463 
976 876 0.14285714284071538 
979 318 0.1249999999853244 
980 120 -0.5476190476296052 
980 237 -0.2500000019569275 
980 238 0.1666666666482508 
980 371 -0.20833333335329596 
980 751 -0.5000000000053608 
980 864 -0.5833333337511386 
981 314 -0.1666666666779204 
981 647 -0.5000000000053608 
981 674 -0.3333333333420525 
982 680 0.19999999997925055 
984 723 0.24999999997633604 
985 123 -0.33333333334233695 
985 1037 -0.38888888889270357 
986 123 -0.3333333333423367 
986 1000 -0.38888888889270357 
987 123 0.16666666664825058 
988 751 -0.3333333333420523 
988 1046 -0.5555555555596876 
988 1097 -0.16666666667792018 
989 125 -0.2500000000086171 
989 176 -0.5000000000056279 
989 579 -0.6000000000255521 
989 761 -0.5833333333618742 
991 126 0.19999999997925044 
992 127 0.49999999972581843 
992 575 -0.37500000000749556 
993 128 -0.4473684210573401 
993 1025 -0.33333333333916926 
994 1000 0.11111111109800764 
995 128 0.052631578926648936 
996 128 -0.1447368421094397 
996 998 0.41666666659884133 
997 128 -0.3684210526448357 
997 999 -3.065570020055475e-11 
998 128 -0.36842105264987746 
998 579 -0.516666666675446 
998 996 0.41666666659884133 
999 251 -0.2500000000086171 
999 549 -0.2500000000086171 
999 568 -0.5576923076982454 
999 997 -3.065570020055475e-11 
1000 184 -0.3888888891329634 
1000 246 -0.6666666666960765 
1000 329 0.11111111109800775 
1000 467 0.11111111109800775 
1000 814 -0.5000000007985728 
1000 819 -0.522222222322906 
1000 876 -0.6349206352046273 
1000 986 -0.38888888889270357 
1000 994 0.11111111109800764 
1001 128 -0.3421052631662129 
1001 191 -0.3250000000097648 
1002 128 -0.44736842105734054 
1002 1009 -0.3000000000069758 
1003 128 -0.6140350877216643 
1003 680 -0.46666666667263024 
1003 1018 -0.33333333334205273 
1004 128 0.05263157892664916 
1005 943 0.49999999972581843 
1005 959 -0.3000000000100631 
1006 129 -0.10000000002931175 
1006 131 -0.20000000002001528 
1006 147 -0.3666666667259637 
1006 631 -0.7230769230788292 
1006 1012 0.24999999993888977 
1007 129 -0.35714285715102667 
1007 259 -1.6895818077955482e-11 
1009 248 -0.20000000000842366 
1009 592 -0.10000000003076526 
1009 609 -0.6333333334242912 
1009 620 -0.20000000000842344 
1009 1002 -0.3000000000069758 
1011 129 0.14285714284071527 
1012 129 0.10714285711115923 
1012 1006 0.24999999993888977 
1013 278 -0.4000000000064694 
1013 1034 -0.2500000000114524 
1014 166 -0.5750000001127535 
1014 169 -0.4722222223089654 
1014 204 -0.2500000001593039 
1014 937 -1.3026557610373857e-10 
1015 137 -0.7071428573314991 
1015 281 -0.6071428571817874 
1015 477 -0.5238095238135425 
1015 617 -0.6190476191618144 
1015 818 -0.5142857142931005 
1015 1025 -0.6190476191618142 
1015 1048 -0.2857142860788331 
1016 210 -0.41666666667351837 
1016 446 -0.2500000000086171 
1016 730 -0.4166666666735186 
1016 1074 -0.2500000000086169 
1017 290 -0.5416666666711372 
1017 768 0.33333333330550463 
1017 1046 -0.555555555559688 
1018 515 0.33333333331549286 
1018 1003 -0.33333333334205273 
1018 1075 -0.41666666667373553 
1019 932 0.33333333330550463 
1020 579 0.09999999998832099 
1022 641 0.33333333330550463 
1023 316 0.33333333330550463 
1024 132 0.33333333330550463 
1025 133 -0.500000000004698 
1025 258 -0.5000000000046982 
1025 312 -0.16666666668058827 
1025 631 -0.6794871795322681 
1025 993 -0.33333333333916926 
1025 1015 -0.6190476191618142 
1026 133 0.33333333330550463 
1027 172 -0.16666666672802766 
1027 243 -0.1666666667811898 
1027 579 -0.4166666667027994 
1029 135 0.49999999996157996 
1030 136 0.24999999997633615 
1032 136 0.24999999997633615 
1033 136 0.24999999997633604 
1034 137 -0.5000000000205358 
1034 173 -0.16666666735404756 
1034 193 0.24999999997633615 
1034 1013 -0.2500000000114524 
1035 137 -0.5666666666705102 
1035 434 -0.5238095238143972 
1035 959 -0.46666666667226453 
1036 137 0.09999999998832132 
1037 140 -0.2222222222621686 
1037 318 -0.4097222222478185 
1037 357 -0.38888888889582685 
1037 648 -0.7388888888954497 
1037 828 -0.5333333336490382 
1037 895 -0.38888888889582685 
1037 985 -0.38888888889270357 
1037 1046 -0.4444444456390648 
1037 1047 -0.05555555605211504 
1038 240 0.1666666666482508 
1039 138 0.3333333333055045 
1040 138 0.33333333330550463 
1041 450 0.33333333330550463 
1042 139 0.33333333330550463 
1043 369 -0.33333333334233695 
1043 598 -0.2500000000114524 
1045 140 -0.650000000054179 
1045 278 -0.5500000010044044 
1045 337 -0.3000000000100629 
1045 577 -0.46666666667226453 
1045 775 -0.20000000000842344 
1046 140 -0.4777777780231154 
1046 239 -0.47222222225933885 
1046 759 -0.3492063496252875 
1046 761 -0.38888888894273377 
1046 924 -0.3333333333691022 
1046 929 0.11111111109800775 
1046 988 -0.5555555555596876 
1046 1017 -0.555555555559688 
1046 1037 -0.4444444456390648 
1047 140 -0.10000000026973899 
1047 344 -0.06666666768932528 
1047 1037 -0.05555555605211504 
1048 141 -7.008393865248763e-12 
1048 1015 -0.2857142860788331 
1049 142 0.9999999999267714 
1050 143 -0.1666666666799934 
1050 169 -0.38888888889582685 
1051 143 -0.3333333333420523 
1051 277 -0.10000000004096954 
1051 609 -0.3333333333488442 
1052 143 -0.1666666666799932 
1052 665 0.49999999996157996 
1054 145 -0.5833333337511382 
1054 268 -0.2500000000079481 
1054 271 -0.3333333333556161 
1054 281 -0.6458333333354842 
1054 522 -0.5000000000053608 
1054 877 -0.5833333338871678 
1055 145 0.1249999999853244 
1057 145 -0.5000000000598845 
1057 495 -0.5000000000056277 
1057 828 -0.4250000009542503 
1057 1072 -0.29166666710926736 
1059 146 0.14285714284071527 
1060 700 -0.1666666666799932 
1060 717 -1.6895818077955482e-11 
1061 146 -0.3571428571510269 
1061 353 -1.6895818077955482e-11 
1062 146 -0.3571428571510269 
1062 579 -0.4000000000064692 
1063 146 -0.3571428571510271 
1063 915 -0.3000000000100631 
1064 146 0.14285714284071527 
1065 146 0.14285714284071527 
1067 226 -0.2500000000086171 
1067 324 -0.25000000026779623 
1067 359 -0.3750000000369591 
1067 554 -0.2500000000086169 
1068 147 -0.1666666666799932 
1068 612 -0.1666666666799932 
1069 686 0.9999999999267714 
1071 149 0.14999999997369895 
1071 160 -0.6000000000038344 
1071 198 -0.45000000011375163 
1071 864 -0.6125000000757854 
1071 876 -0.5857142858288888 
1072 150 -0.2500000002877394 
1072 171 0.24999999987545451 
1072 1057 -0.29166666710926736 
1073 150 0.16666666664825058 
1074 151 -1.6896040122560407e-11 
1074 1016 -0.2500000000086169 
1075 152 -4.557789701209458e-10 
1075 972 -0.3750000000553433 
1075 1018 -0.41666666667373553 
1075 1094 -0.2500000000114524 
1076 154 0.24999999997633615 
1077 154 0.24999999997633604 
1078 157 -0.416666666673736 
1078 762 -0.416666666673736 
1078 920 -0.3333333333420525 
1080 157 -0.2500000000114524 
1080 470 0.49999999996157996 
1081 158 -0.41666666667351815 
1081 240 -0.29166666675495323 
1081 725 -0.12500000017987944 
1081 956 -0.5000000000056279 
1082 158 -0.1666666666799932 
1082 563 -0.33333333333916926 
1083 332 0.49999999996157996 
1084 159 -0.16666666670099617 
1084 327 -0.41666666667373575 
1084 843 -0.21428571431587362 
1086 159 -0.5000000000438263 
1086 222 -0.2500000013113459 
1086 242 -0.527777778233196 
1086 705 -0.41666666667373575 
1087 159 0.1666666666482508 
1088 442 0.33333333330550463 
1089 159 -0.25000000039307646 
1089 647 -0.25000000000723466 
1091 160 0.19999999997925055 
1092 160 0.19999999997925044 
1093 161 -0.1666666666799932 
1093 832 0.49999999996157996 
1094 617 -0.33333333334233695 
1094 1075 -0.2500000000114524 
1095 162 -0.1666666666799932 
1095 545 -0.1666666666799932 
1096 550 0.06666666666038634 
1097 246 -0.38888888889582707 
1097 988 -0.16666666667792018 
1098 391 0.49999999972581843 
1098 918 -0.1666666666799932 
1100 163 0.24999999997633604 
1101 164 0.49999999996157996 
1103 166 -0.6750000000065377 
1103 398 -0.250000000883847 
1103 404 -3.065570020055475e-11 
1103 478 -0.12500000001667932 
1104 166 -0.5916666666707646 
1104 477 -0.16666666672802855 
1104 796 -0.1666666666779204 
1105 166 -0.375000000012762 
1105 169 -0.22222222225199406 
1106 166 0.049999999976231946 
1107 166 0.04999999997623206 
1108 166 0.04999999997623217 
1109 166 0.04999999997623217 
1110 166 0.04999999997623206 
1111 166 0.04999999997623217 
1114 166 0.04999999997623217 
1115 167 0.19999999997925055 
1116 167 0.19999999997925055 
1117 167 0.19999999997925044 
