0 0 0.0 
0 1 -0.30000000000697535 
0 2 -0.4677419354848782 
1 0 -0.30000000000697535 
1 1 0.0 
1 451 -0.10000000004492238 
1 1272 -0.40000000146753045 
1 1357 0.049999999956932384 
1 1880 -0.3428571429066132 
2 0 -0.4677419354848782 
2 2 0.0 
2 37 -0.6387096774412124 
2 45 -0.697580645456332 
2 55 -0.7350230416451842 
2 104 -0.6383438644468191 
2 226 -0.620967745675598 
2 228 -0.4896774194721296 
2 241 -0.6881720430521432 
2 243 -0.6370967742570299 
2 244 -0.18548387097265095 
2 263 -0.5053763442576553 
2 511 -0.6580645162481775 
2 561 -0.7443548387254593 
2 661 -0.7204301076792645 
2 718 -0.39032258085947746 
2 859 -0.6881720431583815 
2 896 -0.703225806474145 
2 932 -0.5791788857115594 
2 945 -0.588709677476472 
2 1255 -0.4919354850567643 
2 1703 -0.6048387097644969 
2 1765 -0.4354838709726443 
2 1866 -0.6559139785248236 
2 2045 -0.5913978508018962 
2 2327 -0.7677419354864536 
2 2484 -0.6508538899849061 
2 2596 -0.4569892473361823 
2 2890 -0.4247311828089635 
2 3094 -0.4677419354890229 
2 3340 0.032258064453098756 
2 3624 -0.4516129032290399 
3 3 0.0 
3 4 -0.33333333334233695 
3 5 -0.6666666666709691 
3 6 -0.2500000006833274 
3 7 -0.7833333333470403 
3 8 -0.5900000002478325 
3 9 -0.29166666675495323 
4 3 -0.33333333334233695 
4 4 0.0 
4 723 -0.4333333333365479 
5 3 -0.6666666666709691 
5 5 0.0 
5 265 -0.7337164751227241 
5 298 -0.38888888889582685 
5 679 -0.6349206350148944 
5 701 -0.5416666667395393 
5 888 -0.5079365079613924 
5 891 -0.5079365079454414 
5 930 -0.7083333335304074 
5 2324 -0.5833333333618742 
6 3 -0.2500000006833274 
6 6 0.0 
6 621 0.166666666658163 
6 2463 -0.33333333334205273 
7 3 -0.7833333333470403 
7 7 0.0 
7 32 -0.5302631593062124 
7 56 -0.7056818185182081 
7 227 -0.7135869570362359 
7 282 -0.49821428574329607 
7 337 -0.6291666666753297 
7 432 -0.6767857143275813 
7 465 -0.5318965519308412 
7 529 -0.6732142873480376 
7 739 -0.7000000000201776 
7 748 -0.637500000121386 
7 761 -0.6500000000840458 
7 809 -0.5392857145620411 
7 883 -0.5333333333993429 
7 976 -0.45555555604975506 
7 978 -0.41250000056341807 
7 1123 -0.7166666668799611 
7 1205 -0.7096153850263252 
7 1241 -0.6875000000764455 
7 1289 -0.5625000011566355 
7 1660 -0.4625000000152808 
7 1788 -0.56250000011228 
7 1789 -0.47500000018763 
7 1875 -0.5972222225540649 
7 2219 -0.5125000001936502 
7 2257 -0.5000000000943259 
7 2278 -0.56666666668971 
7 2326 -0.4517857150139619 
7 2374 -0.6375000001043702 
7 2423 -0.6875000000366449 
7 2485 -0.5375000006215449 
7 2545 -0.36250000075723277 
7 2605 -0.5125000000583735 
7 2810 -0.3500000001331063 
7 2824 -0.4750000000273773 
7 2825 -0.4500000000054549 
7 2826 -0.7125000000090904 
7 2827 0.024999999929079753 
7 2828 -0.5750000014060028 
7 2829 -0.47500000002737686 
8 3 -0.5900000002478325 
8 8 0.0 
8 9 -0.4650000001523884 
8 149 -0.6066666666695786 
8 309 -0.7800000000856933 
8 330 -0.7276923077225219 
8 377 -0.7533333333569032 
8 414 -0.7690909097479639 
8 549 -0.5866666666713307 
8 621 -0.4000000000103925 
8 911 -0.6971428571997076 
8 1046 -0.6000000005003396 
8 1181 -0.7800000000467378 
8 1234 -0.6533333334716716 
8 1432 -0.7950000001123294 
8 1445 -0.6700000000085633 
8 1746 -0.5066666666911055 
8 1975 -0.5466666667034772 
8 2552 0.039999999952545884 
8 2955 -0.7550000000455386 
8 3110 -0.4000000000124144 
8 3202 -0.6000000004305481 
8 3369 -0.5250000000242734 
8 3602 -0.4600000000046558 
8 3665 0.03999999995254577 
8 3666 0.03999999995254566 
9 3 -0.29166666675495323 
9 8 -0.4650000001523884 
9 9 0.0 
9 19 -0.6861702127846019 
9 2671 -0.2500000000114526 
10 10 0.0 
10 11 -0.5416666682918798 
10 12 -0.7269503547182448 
10 13 -0.6666666666755807 
10 14 -0.18333333372280536 
10 15 -0.2083333336439126 
10 16 -0.7807017543893746 
11 10 -0.5416666682918798 
11 11 0.0 
11 196 -0.5972222225241928 
11 265 -0.7370689655416833 
11 384 -0.5833333333367086 
11 385 -0.7867647058928384 
11 386 -0.6750000000008916 
11 387 -0.625000000020385 
11 388 0.08333333332413406 
11 389 -0.6666666666691912 
11 390 -0.500000000013026 
11 391 -0.4166666666724308 
11 392 -0.7416666666895511 
12 10 -0.7269503547182448 
12 12 0.0 
12 37 -0.7042553192211234 
12 103 -0.6894630193409463 
12 109 -0.6436170214606594 
12 125 -0.7040618955935543 
12 152 -0.5279255322158725 
12 159 -0.5446808510897587 
12 173 -0.5463078852061274 
12 196 -0.49881796713635485 
12 323 -0.4430538174714962 
12 424 -0.729483283141809 
12 508 -0.4735406438198091 
12 623 -0.6082826751650494 
12 698 -0.444148936175363 
12 737 -0.6042553193093989 
12 859 -0.7269503547854044 
12 954 -0.5678191492479496 
12 1084 -0.6436170213422148 
12 1134 -0.4787234042991497 
12 1140 -0.6446808512559024 
12 1229 -0.6968085106872786 
12 1230 -0.7375886526047157 
12 1231 -0.7792553193685863 
12 1232 -0.4574468085162344 
12 1233 -0.09042553194482217 
12 1234 -0.6843971634645776 
12 1235 -0.7085106384233022 
12 1236 -0.5585106384376903 
12 1237 -0.34042553192612024 
12 1238 -0.8269503549838222 
12 1239 -0.3404255319261207 
12 1240 -0.46453900711272467 
12 1241 -0.455319149109495 
12 1242 -0.5709219868720927 
12 1243 -0.6347517730595129 
12 1244 -0.7180851064023668 
12 1245 0.021276595673142662 
12 1246 0.021276595673142662 
12 1247 -0.45390071006236754 
12 1248 -0.4255319149050063 
12 1249 0.021276595673142995 
12 1250 -0.6607565015550605 
12 1251 -0.6312056738021221 
12 1252 0.021276595673143328 
12 1253 -0.4787234042991497 
12 1254 -0.5045592706448105 
12 1255 -0.6329787234656272 
13 10 -0.6666666666755807 
13 13 0.0 
13 66 -0.6437500001048031 
13 103 -0.48809523990708215 
13 104 -0.5073883162607713 
13 234 -0.7000000000594564 
13 259 -0.516666668941689 
13 310 -0.6833333333674423 
13 366 -0.6333333348273684 
13 418 -0.5583333338708703 
13 473 -0.7333333333456411 
13 507 -0.23333333342410478 
13 839 -0.6000000004075088 
13 851 -0.5833333334455946 
13 908 -0.5388888889796983 
13 1016 -0.5388888890816967 
13 1073 -0.6916666667113036 
13 1155 -0.6500000004947855 
13 1741 -0.5833333336875894 
13 1957 -0.5166666667382716 
13 1998 -0.5833333334796631 
13 2034 -0.8090909091114253 
13 2091 0.03333333327203869 
13 2110 -0.2333333335569976 
13 2236 -0.4166666688279319 
13 2437 -0.7333333333801499 
13 2502 -0.5666666666974227 
13 2503 -0.5833333343142351 
13 2504 -0.0833333333536519 
13 2505 -0.4666666666717072 
13 2506 0.03333333327203836 
14 10 -0.18333333372280536 
14 14 0.0 
14 15 -0.22500000015029475 
14 871 -0.6500000000057371 
14 2841 -0.5857142857284179 
14 3435 0.19999999997925055 
15 10 -0.2083333336439126 
15 14 -0.22500000015029475 
15 15 0.0 
15 169 -0.6750000000243881 
15 1514 -0.6500000000021446 
16 10 -0.7807017543893746 
16 16 0.0 
16 315 -0.7280701755208154 
16 626 -0.6282894737763189 
16 628 -0.6087719298508056 
16 885 -0.6376518219240386 
16 889 -0.6076555027582811 
16 911 -0.7255639098461344 
16 1011 -0.4473684210573403 
16 1178 -0.4157894737131409 
16 1179 -0.6130030963151316 
16 1195 -0.6684210527090353 
16 1903 -0.14473684210943993 
16 2124 -0.6421052631731474 
16 2380 -0.6710526318618208 
16 3217 -0.6973684210543916 
16 3249 -0.5684210529558049 
16 3255 -0.6447368421178861 
16 3720 -0.44736842105734054 
16 3721 0.05263157892664916 
17 17 0.0 
17 18 -0.3000000000069756 
17 19 -0.4787234042991497 
18 17 -0.3000000000069756 
18 18 0.0 
18 100 -0.7166666666682917 
18 2387 0.19999999997925055 
18 2388 0.19999999997925055 
18 2389 0.19999999997925044 
19 9 -0.6861702127846019 
19 17 -0.4787234042991497 
19 19 0.0 
19 35 -0.5815602837134393 
19 165 -0.7356792148616549 
19 223 -0.74734042564334 
19 281 -0.8105053191706066 
19 394 -0.4148936170352364 
19 635 -0.6648936170529871 
19 712 0.021276595673142995 
19 715 -0.8356973996066941 
19 923 -0.7613981763142217 
19 1044 -0.624113475194414 
19 1067 -0.5815602837134397 
19 1091 -0.7042553192854242 
19 1234 -0.7588652482908615 
19 1277 -0.6648936170704862 
19 1308 -0.47872340429915017 
19 1563 -0.5815602837152609 
19 1714 -0.47872340429914995 
19 1724 -0.6347517730595129 
19 1736 0.021276595673142662 
19 1945 -0.4787234042991497 
19 1988 -0.6453900709325033 
19 2294 -0.6453900709325038 
19 2300 -0.8039513677913919 
19 2335 -0.6347517730595129 
19 2406 0.021276595673142995 
19 2529 0.021276595673142773 
19 2572 0.021276595673142773 
19 2754 -0.6347517730595129 
19 2761 -0.7148936170267479 
19 2951 -0.4148936170352364 
19 2981 -0.7294832827149325 
19 3076 -0.6134751773393672 
19 3095 0.021276595673143106 
19 3146 -0.7787234042617062 
19 3438 0.021276595673142884 
19 3523 -0.4787234042991497 
19 3531 0.021276595673142773 
19 3532 0.021276595673142884 
19 3533 -0.5815602837152611 
19 3534 0.021276595673142662 
19 3535 0.021276595673142662 
19 3536 -0.4787234042991497 
19 3537 -0.4787234042991497 
19 3538 -0.6347517730595125 
19 3539 -0.4787234042991497 
20 20 0.0 
20 21 0.49999999996157984 
20 22 -1.6895818077955482e-11 
21 20 0.49999999996157984 
21 21 0.0 
22 20 -1.6895818077955482e-11 
22 22 0.0 
22 889 -0.40909090909697854 
23 23 0.0 
23 24 0.4999999997258183 
24 23 0.4999999997258183 
24 24 0.0 
24 493 -0.3000000000069756 
25 25 0.0 
25 26 -0.16666666672802743 
25 27 -0.5952380952422476 
25 28 -0.545977011576305 
26 25 -0.16666666672802743 
26 26 0.0 
26 794 -0.6354166666688088 
26 1721 -7.008615909853688e-12 
27 25 -0.5952380952422476 
27 27 0.0 
27 115 -0.7598639455962004 
27 165 -0.7213500790382041 
27 237 0.020408163194120088 
27 316 -0.6156462585294884 
27 447 -0.6989795918904169 
27 635 -0.6173469388374682 
27 704 -0.697845805404806 
27 706 -0.5748299320038797 
27 714 -0.7285714286611942 
27 1067 -0.595238095264206 
27 1121 -0.8276643993133699 
27 1150 -0.6462585034129202 
27 1235 -0.8081632656293583 
27 1336 -0.6989795918904174 
27 1367 0.020408163194119866 
27 1397 -0.479591836781496 
27 1463 -0.7309833027017834 
27 1577 -0.7091836735073276 
27 1785 -0.41836734703880896 
27 1786 -0.6530612245313505 
27 1787 -0.27210884355620535 
27 1875 -0.7460317464417585 
27 1880 -0.7448979593725333 
27 2137 -0.6258503401538567 
27 2338 -0.4795918367814962 
27 2369 0.020408163194119755 
27 2714 0.020408163194119755 
27 2800 0.020408163194119866 
27 2867 -0.7448979595843892 
27 2945 -0.7091836735042563 
27 2968 -0.6673469387832291 
27 3092 -0.687755102149282 
27 3104 -0.44897959184436664 
27 3105 -0.6360544217789417 
27 3106 -0.47959183678149575 
27 3107 -0.41836734695259437 
27 3108 -0.6462585034129198 
27 3109 0.020408163194119866 
27 3110 -0.6360544217699089 
27 3111 0.020408163194119866 
27 3112 -0.7525510205314552 
27 3113 0.020408163194119533 
27 3114 -0.46938775510557296 
27 3115 -0.47959183678149575 
27 3116 -0.47959183678149575 
27 3117 -0.7795918367413666 
27 3118 0.020408163194119866 
27 3119 -0.4693877551055734 
28 25 -0.545977011576305 
28 28 0.0 
28 32 -0.5149727777278459 
28 111 -0.6852717713680496 
28 120 -0.5965517242837208 
28 238 -0.4137931034574862 
28 307 -0.6847290645441118 
28 359 -0.7117691156966472 
28 371 -0.5919540231023821 
28 404 -0.5043103468210721 
28 414 -0.6622257064678649 
28 529 -0.582688248847069 
28 532 -0.6276939658218601 
28 552 -0.6620689655694931 
28 593 -0.6198686372839981 
28 623 -0.5665024638899483 
28 640 -0.5775862072479376 
28 687 -0.535919540999634 
28 910 -0.5788177340284959 
28 928 -0.47096188826134977 
28 990 -0.49233716566098806 
28 1441 -0.6191904051175112 
28 1652 -0.6358620690228263 
28 1901 -0.5103448277536202 
28 1918 0.034482758561398485 
28 2178 -0.2758620692537779 
28 2728 -0.4310344829401187 
28 2822 -0.37931034486769155 
28 3485 -0.4137931034574862 
28 3486 -0.46551724138424877 
29 29 0.0 
29 30 -0.3333333334095021 
29 31 -0.4561403514359834 
29 32 -0.5350877193956944 
30 29 -0.3333333334095021 
30 30 0.0 
30 593 -0.6666666680174083 
30 1172 -0.7156862745967878 
30 1808 -0.722222222224121 
30 1809 -0.5833333338871685 
30 1810 -0.3333333333423367 
31 29 -0.4561403514359834 
31 31 0.0 
31 236 -0.751879699502698 
31 508 -0.7017543859929096 
31 851 -0.6754385965023746 
31 884 -0.42105263158175643 
31 954 -0.5756578948017381 
31 1240 -0.48245614038297546 
31 1260 -0.5921052633225101 
31 1426 -0.42105263158175665 
31 1763 -0.5614035087794398 
31 1916 -0.644736842116288 
31 1950 0.05263157892664916 
31 2029 -0.6140350877216636 
31 2102 -0.61578947370194 
31 2545 -0.6947368423855764 
31 3133 0.052631578926648936 
31 3134 0.052631578926648936 
31 3135 -0.44736842105734054 
31 3136 -0.5921052635478361 
32 7 -0.5302631593062124 
32 28 -0.5149727777278459 
32 29 -0.5350877193956944 
32 32 0.0 
32 84 -0.6184210527726768 
32 195 -0.6254385980300323 
32 226 -0.5305602718049616 
32 276 -0.5763157895776594 
32 279 -0.5043859668605082 
32 281 -0.6595394741222624 
32 310 -0.6026315790118324 
32 323 -0.5371517028786972 
32 324 -0.6622807017844232 
32 495 -0.6184210532250785 
32 513 -0.6578947368900303 
32 565 -0.5018796999055462 
32 598 -0.6622807019126746 
32 660 -0.5677387930735496 
32 695 -0.6701754387641459 
32 709 -0.5263157895646993 
32 934 -0.6692982468853133 
32 943 -0.5405701758002901 
32 1427 -0.6282894738496754 
32 1470 -0.5096491228506344 
32 1505 -0.6052631580153212 
32 1576 -0.7076023392372068 
32 1640 -0.5160818714953193 
32 1660 -0.26973684213024685 
32 1739 -0.5631578952695095 
32 1841 -0.3289473686403699 
32 1855 -0.4849624062737974 
32 2106 -0.39473684211825333 
32 2307 -0.17105263159056894 
32 2486 -0.5789473686091244 
32 2631 -0.5745614035326714 
32 2664 -0.7309941520665502 
32 2964 -0.394736842169205 
32 2968 -0.5552631580993048 
32 3796 0.026315789403636103 
33 33 0.0 
33 34 -1.6896040122560407e-11 
33 35 -0.1666666666799932 
34 33 -1.6896040122560407e-11 
34 34 0.0 
34 1813 -0.1666666666779204 
35 19 -0.5815602837134393 
35 33 -0.1666666666799932 
35 35 0.0 
35 236 -0.47619047624035016 
36 36 0.0 
36 37 -0.20000000000489448 
36 38 -0.40625000002979905 
37 2 -0.6387096774412124 
37 12 -0.7042553192211234 
37 36 -0.20000000000489448 
37 37 0.0 
37 76 -0.663636363728898 
37 2987 -0.20000000000489448 
38 36 -0.40625000002979905 
38 38 0.0 
38 42 -0.6041666666693843 
38 241 -0.531250002141701 
38 343 -0.7434210532446521 
38 747 -0.4732142857405983 
38 899 -0.6658653851756897 
38 943 -0.5104166667481982 
38 1194 -0.49553571434680777 
38 1640 -0.586805555626233 
38 2589 -0.41875000001677165 
38 2657 -0.7395833333610828 
38 2698 -0.3664772727482257 
38 2858 -0.5000000000656804 
38 2988 -0.5625000010024599 
38 3423 -0.31250000002818856 
38 3813 0.062499999990653254 
39 39 0.0 
39 40 -0.1666666666799932 
39 41 -0.6309523809534205 
39 42 -0.33333333334205273 
40 39 -0.1666666666799932 
40 40 0.0 
40 736 -0.40000000000338964 
41 39 -0.6309523809534205 
41 41 0.0 
41 118 -0.5906593414201522 
41 255 -0.5238095251121921 
41 313 -0.7214285714926425 
41 361 -0.7440476190894674 
41 460 -0.4642857142905614 
41 883 -0.509920635009036 
41 953 -0.6547619051117697 
41 954 -0.5625000011994012 
41 1070 -0.4642857142905614 
41 1152 -0.6964285714327842 
41 1198 -0.6678571428818336 
41 1288 -0.7035714286041477 
41 1359 -0.5892857154593012 
41 1652 -0.48714285717419825 
41 1662 -0.5357142857335118 
41 1789 -0.6500000005214146 
41 2105 -0.5535714286968354 
41 2116 -0.6250000000698337 
41 2143 0.03571428565731338 
41 2473 -0.6964285714327842 
41 2489 -0.32142857149778514 
41 2490 -0.6428571428692331 
41 2491 -0.17261904766328118 
41 2492 -0.2321428571665347 
41 2493 -0.660714285984833 
41 2494 -0.46428571429056165 
41 2495 0.03571428565731338 
42 38 -0.6041666666693843 
42 39 -0.33333333334205273 
42 42 0.0 
42 928 -0.6140350877216638 
43 43 0.0 
43 44 -0.4166666670017751 
43 45 -0.54166666704647 
43 46 -0.4583333333500508 
43 47 -0.41666666667373575 
44 43 -0.4166666670017751 
44 44 0.0 
44 115 -0.6222222222828084 
44 134 -0.4722222226682873 
44 270 -0.6215277782528805 
44 1437 -0.6111111114152274 
44 1441 -0.659420290058268 
44 1857 -0.527777778359164 
44 1974 -0.38888888889582685 
44 1975 -0.4444444444746054 
45 2 -0.697580645456332 
45 43 -0.54166666704647 
45 45 0.0 
45 186 -0.7575757577239843 
45 399 -0.6979166667449439 
45 408 0.08333333332413417 
45 465 -0.7471264370438322 
45 520 -0.7583333333516415 
45 579 -0.7500000000023337 
45 852 -0.7239583336713304 
45 2205 -0.4166666666724306 
45 2519 0.08333333332413417 
45 2818 -0.5416666666730863 
46 43 -0.4583333333500508 
46 46 0.0 
46 234 -0.41666666864945334 
46 376 -0.6666666671734682 
46 759 -0.4791666667687151 
46 1505 -0.7017543859805415 
46 2603 -0.28333333336021727 
47 43 -0.41666666667373575 
47 47 0.0 
47 98 -0.3809523811407296 
47 1236 -0.5238095238201184 
48 48 0.0 
48 49 -0.6888888888910021 
48 50 -0.6571428572522449 
48 51 -0.666666666747215 
48 52 -0.6571428571455069 
48 53 -0.3000000000100631 
49 48 -0.6888888888910021 
49 49 0.0 
49 113 -0.5833333333773387 
49 371 -0.4722222240110052 
49 372 -0.5555555555596876 
49 373 -0.6388888888919688 
49 374 -0.6666666666866177 
49 375 -0.5959595961155726 
49 376 -0.638888891600073 
49 377 -0.6666666666709693 
50 48 -0.6571428572522449 
50 50 0.0 
50 92 -0.716386554669993 
50 118 -0.527472528221953 
50 403 -0.6214285715391108 
50 428 -0.7662337663536876 
50 529 -0.6785714298258545 
50 1140 -0.5952380966542239 
50 1198 -0.6000000000169405 
50 1278 -0.45238095245397614 
50 2132 -0.3571428571483217 
50 2150 -0.32142857143645887 
50 2952 -0.5952380952411063 
50 3125 0.07142857142142034 
50 3126 -0.5238095238201186 
51 48 -0.666666666747215 
51 51 0.0 
51 289 -0.7904761904862392 
51 407 -0.5666666666719511 
51 518 -0.7238095238753701 
51 631 -0.6166666666974789 
51 1173 -0.7285714287101557 
51 1406 -0.7333333333350358 
51 2224 -0.7000000000045037 
51 2499 -0.6166666666891985 
51 2731 -0.5666666666719513 
51 3270 -0.6500000000111252 
51 3345 -0.6000000000028574 
51 3346 -0.6000000000028574 
51 3347 -0.4333333333384761 
51 3348 -0.6000000000028571 
52 48 -0.6571428571455069 
52 52 0.0 
52 216 -0.6071428571586501 
52 570 -0.723809523955713 
52 2166 -0.6038961039056518 
52 2252 -0.6428571428656 
52 2461 0.14285714284071538 
52 3732 0.14285714284071527 
53 48 -0.3000000000100631 
53 53 0.0 
53 207 -0.4411764705909116 
54 54 0.0 
54 55 0.04761904759222624 
55 2 -0.7350230416451842 
55 54 0.04761904759222624 
55 55 0.0 
55 84 -0.5000000001423328 
55 86 -0.3809523826643195 
55 265 -0.650246305811037 
55 444 -0.7571428571846015 
55 535 -0.619047619260749 
55 1052 -0.6071428572743593 
55 1262 0.047619047592226016 
55 1333 -0.6785714285775806 
55 1371 -0.6428571434134902 
55 1406 -0.752380952382216 
55 1463 -0.6060606060986895 
55 1592 -0.5238095238456786 
55 1738 -0.5238095238218934 
55 1857 -0.39285714410932804 
55 2002 -0.2666666669936415 
55 2124 -0.6523809524482078 
55 2303 -0.4523809523855724 
55 2521 -0.4523809523855724 
55 3121 -0.42857143046101154 
56 7 -0.7056818185182081 
56 56 0.0 
56 57 -0.6636363636846223 
56 58 -0.5757575757611695 
56 59 -0.40909090909697854 
56 60 -0.4090909090969783 
56 61 -0.6060606060955878 
56 62 -0.5844155845389523 
56 63 0.09090909089870935 
56 64 -0.7299465241634975 
56 65 -0.6136363644480871 
56 66 -0.7840909091156998 
57 56 -0.6636363636846223 
57 57 0.0 
57 105 -0.5857142857187507 
57 106 -0.46666666667263 
57 107 -0.46666666667263024 
57 108 -0.46666666667263046 
58 56 -0.5757575757611695 
58 58 0.0 
58 213 -0.6190476190488738 
58 1090 -0.1666666666799932 
59 56 -0.40909090909697854 
59 59 0.0 
59 1851 -1.6896040122560407e-11 
60 56 -0.4090909090969783 
60 60 0.0 
60 871 -0.46666666667170675 
61 56 -0.6060606060955878 
61 61 0.0 
61 284 -0.4391025649619409 
61 287 -0.5265151517021225 
61 380 -0.4166666670326933 
61 418 -0.5833333334007329 
61 570 -0.7166666669893806 
61 736 -0.6250000006128245 
61 972 -0.6074561417726203 
61 1128 -0.702380953136837 
61 1288 -0.5916666675484015 
61 2997 0.08333333332413417 
61 2998 -0.6666666666691912 
62 56 -0.5844155845389523 
62 62 0.0 
62 359 -0.737577639773894 
62 529 -0.6326530619523276 
62 704 -0.559523809603726 
62 1043 -0.5857142858288895 
62 1059 -0.7321428571447757 
62 1289 -0.5142857148883724 
63 56 0.09090909089870935 
63 63 0.0 
64 56 -0.7299465241634975 
64 64 0.0 
64 76 -0.7754010695345239 
64 115 -0.5539215686627319 
64 116 -0.6881338744849193 
64 154 -0.5708556150860435 
64 225 -0.6274509805565487 
64 241 -0.6213235294412862 
64 429 -0.6748366019656642 
64 511 -0.6166666675762809 
64 565 -0.5854341740727211 
64 583 -0.6127450980716536 
64 588 -0.5955882356744173 
64 794 -0.7150735299603539 
64 943 -0.5784313733793671 
64 1281 -0.5294117647268481 
64 1283 -0.5088235319536389 
64 1326 -0.5794117648656054 
64 1417 0.0294117646389207 
64 1427 -0.588235294242645 
64 1473 -0.4117647058906324 
64 1754 -0.19117647059344423 
64 1868 -0.5441176470755273 
64 2230 -0.750000000641585 
64 2490 -0.602941176646413 
64 2589 -0.6588235299751508 
64 2633 -0.5647058823994209 
64 2680 -0.6544117653603916 
64 2682 -0.45588235294456747 
64 2762 -0.6029411765213175 
64 3081 -0.6617647059060003 
64 3092 -0.6235294121595576 
64 3413 -0.7264705883644471 
64 3680 -0.42647058824206674 
64 3794 0.0294117646389207 
65 56 -0.6136363644480871 
65 65 0.0 
65 195 -0.7333333333855963 
65 569 -0.41666666675134256 
65 1859 -0.4166666666805301 
65 3657 -0.33333333334233695 
65 3860 0.1666666666482508 
66 13 -0.6437500001048031 
66 56 -0.7840909091156998 
66 66 0.0 
66 814 -0.6000000000318102 
66 980 -0.43750000050041593 
66 1364 -0.7437500001693338 
66 1370 -0.4062500000029876 
66 1691 -0.3750000000050968 
66 1957 -0.510416667367273 
66 1982 -0.6562500000085456 
66 2207 -0.3125000000180198 
66 2218 -0.7098214287371543 
66 2823 -0.47916666669282915 
66 3008 -0.40625000000298717 
66 3141 -0.6125000001076795 
66 3696 -0.37500000015898616 
66 3877 0.06249999999065292 
67 67 0.0 
67 68 -0.10000000000487619 
67 69 -0.5727272727709909 
67 70 0.19999999997925055 
67 71 -0.4500000000807418 
67 72 -0.6750000000023495 
68 67 -0.10000000000487619 
68 68 0.0 
68 259 -0.4047619049387472 
69 67 -0.5727272727709909 
69 69 0.0 
69 259 -0.5389610391538904 
69 303 -0.7247474749920282 
69 374 -0.5393939394374396 
69 2236 -0.4393939394758879 
69 2386 -0.5876623376878589 
69 2551 -0.5303030303647676 
69 2627 -0.5303030309302632 
69 2782 -0.439393939446592 
69 3088 -0.3636363639394369 
69 3137 0.09090909089870935 
70 67 0.19999999997925055 
70 70 0.0 
71 67 -0.4500000000807418 
71 71 0.0 
71 278 -0.5833333333371746 
71 750 -0.5625000000060412 
71 2690 -0.37500000017433166 
72 67 -0.6750000000023495 
72 72 0.0 
72 703 -0.6750000000027008 
72 1361 -0.22500000026791156 
72 1363 -0.1250000001258178 
72 1364 -0.4500000000178588 
72 1728 -0.5416666666711374 
72 3445 -0.5416666666711376 
72 3905 0.12499999998532463 
73 73 0.0 
73 74 0.12499999998532452 
73 75 -0.3125000001570313 
73 76 -0.7386363636394846 
73 77 -0.5833333333390816 
73 78 -0.2500000028101579 
73 79 -0.500000000036815 
73 80 -0.6018518519605842 
73 81 -0.6125000002331173 
74 73 0.12499999998532452 
74 74 0.0 
75 73 -0.3125000001570313 
75 75 0.0 
75 80 -0.4953703706856909 
75 2073 -0.5833333334019992 
75 2250 -0.2500000011167418 
76 37 -0.663636363728898 
76 64 -0.7754010695345239 
76 73 -0.7386363636394846 
76 76 0.0 
76 1050 -0.6038961041258215 
76 1549 -0.6515151516681705 
76 2104 -0.31818181843198845 
76 2705 0.09090909089870924 
76 2706 -0.4090909090969781 
76 2707 -0.06818181866077344 
76 2708 -0.31818181843198845 
76 2709 -0.40909090909697854 
77 73 -0.5833333333390816 
77 77 0.0 
77 871 -0.8000000000032381 
77 899 -0.7564102564118478 
77 1996 -0.7222222222241217 
77 2047 -0.3333333333423367 
77 2839 -0.41666666672819774 
78 73 -0.2500000028101579 
78 78 0.0 
78 79 -0.5000000000235925 
78 359 -0.6603260870529282 
78 627 -0.6306818187648981 
78 723 -0.7083333333550594 
78 1326 -0.4250000000592431 
78 1469 -0.14583333349472216 
78 2331 -0.18750000056962035 
79 73 -0.500000000036815 
79 78 -0.5000000000235925 
79 79 0.0 
79 187 -0.7573529412780204 
79 560 -0.6250000000033307 
79 952 -0.4732142858334645 
79 1633 -0.5625000010622436 
79 1665 -0.47916666667892627 
79 3092 -0.5750000000069382 
80 73 -0.6018518519605842 
80 75 -0.4953703706856909 
80 80 0.0 
80 89 -0.4629629629677323 
80 265 -0.6992337165649789 
80 583 -0.7083333333764328 
80 704 -0.6203703706442303 
80 733 -0.7574074078588029 
80 966 -0.6759259259342627 
80 1111 -0.7777777778372381 
80 1128 -0.8015873015967907 
80 1235 -0.7005291007625667 
80 1242 -0.6481481484714964 
80 1283 -0.6000000000394106 
80 1427 -0.645833333369231 
80 1469 -0.6111111113093481 
80 1623 -0.7083333333481097 
80 1650 -0.6851851852137381 
80 1791 -0.6111111111153904 
80 2039 -0.7407407407841351 
80 2082 -0.407407407421829 
80 2186 0.037037036982756844 
80 2360 -0.5648148149932768 
80 2815 -0.4444444444473472 
80 3264 -0.657407407455429 
80 3334 0.03703703698275718 
80 3335 -0.46296296296773254 
80 3336 0.037037036982757066 
81 73 -0.6125000002331173 
81 81 0.0 
81 1194 -0.7571428571596925 
81 1662 -0.7000000000589517 
81 2432 -0.6000000000255528 
81 2549 -0.4000000000064692 
81 2575 -0.6500000000028674 
81 2700 -0.46666666668573553 
81 2833 -0.40000000000646896 
81 2839 -0.550000000039119 
81 2988 -0.6250000002953604 
82 82 0.0 
82 83 0.24999999997633615 
82 84 -0.16666666676483777 
82 85 -0.41346153861965673 
82 86 -0.19642857147377857 
83 82 0.24999999997633615 
83 83 0.0 
84 32 -0.6184210527726768 
84 55 -0.5000000001423328 
84 82 -0.16666666676483777 
84 84 0.0 
84 406 -0.562500000125016 
84 453 -0.5833333333513786 
84 1224 -0.2916666666935108 
85 82 -0.41346153861965673 
85 85 0.0 
85 86 -0.2554945069309731 
85 92 -0.7873303167861554 
85 151 -0.4914529922706632 
85 195 -0.5935897436814912 
85 254 -0.554945055111701 
85 458 -0.6923076934500454 
85 511 -0.6461538461890441 
85 558 -0.7220279724234366 
85 565 -0.5769230771940093 
85 644 -0.58076923118787 
85 645 -0.6826923077056994 
85 731 -0.692307692312573 
85 775 -0.5897435897478804 
85 789 -0.7371794873859963 
85 1224 -0.5913461539036693 
85 1654 -0.7371794874030158 
85 1696 -0.6378205132098906 
85 1998 -0.5961538463037694 
85 2002 -0.3307692308287913 
85 2108 -0.4551282051460086 
85 2372 -0.5897435897471746 
85 3121 -0.4642857143082977 
85 3392 0.03846153841039868 
85 3393 -0.4230769230810201 
85 3394 0.03846153841039901 
86 55 -0.3809523826643195 
86 82 -0.19642857147377857 
86 85 -0.2554945069309731 
86 86 0.0 
86 110 -0.5928571430570968 
86 121 -0.598901099303045 
86 195 -0.6761904764811202 
86 239 -0.6547619048853504 
86 254 -0.5119047625834436 
86 1224 -0.4821428572077242 
86 1839 -0.5523809528062991 
86 1857 -0.2976190478146976 
86 2002 0.014285713218209928 
86 2124 -0.4547619048799356 
86 3121 -0.2500000001072271 
87 87 0.0 
87 88 0.4999999997258183 
88 87 0.4999999997258183 
88 88 0.0 
88 700 -0.4333333333365481 
89 80 -0.4629629629677323 
89 89 0.0 
89 90 -0.37500000000433653 
90 89 -0.37500000000433653 
90 90 0.0 
90 219 -0.500000000063602 
90 1199 -0.3750000000074958 
90 1495 -0.7250000000205699 
90 1560 -0.3125000003433276 
90 1616 -0.675000000002701 
90 2380 -0.7250000000065644 
90 2713 -0.6458333335521411 
91 91 0.0 
91 92 -0.6029411765841202 
91 93 -0.6666666666694112 
91 94 -0.33333333334233695 
91 95 -0.2500000006833285 
91 96 -0.2916666667549537 
91 97 -0.08333333338222704 
92 50 -0.716386554669993 
92 85 -0.7873303167861554 
92 91 -0.6029411765841202 
92 92 0.0 
92 96 -0.4779411765044621 
92 510 -0.5336134468906335 
92 835 -0.7450980392185356 
92 874 -0.796380090507159 
92 1144 -0.5784313725537795 
92 1354 -0.6078431372574922 
92 1457 -0.5490196078524361 
92 1536 -0.4607843137846497 
92 1537 0.05882352939801827 
92 1538 -0.745098039265248 
92 1539 -0.44117647059311427 
92 1540 -0.6911764705901688 
92 1541 -0.745098039265248 
92 1542 -0.661764705890256 
93 91 -0.6666666666694112 
93 93 0.0 
93 259 -0.6666666670467234 
93 481 -0.6904761904853096 
93 979 -0.45833333359040007 
93 1339 -0.6228070175585494 
93 2334 -0.5000000000053608 
94 91 -0.33333333334233695 
94 94 0.0 
94 473 -0.3000000000100629 
95 91 -0.2500000006833285 
95 95 0.0 
95 789 -0.38888888897258744 
95 2818 -0.33333333334205273 
96 91 -0.2916666667549537 
96 92 -0.4779411765044621 
96 96 0.0 
96 278 -0.3333333333502251 
96 1450 -0.5681818182830431 
97 91 -0.08333333338222704 
97 97 0.0 
97 789 -0.22222222225199406 
98 47 -0.3809523811407296 
98 98 0.0 
98 99 -0.5079365079557077 
98 100 -0.6488095238909921 
98 101 -0.5714285725436252 
98 102 -0.4285714293566891 
98 103 -0.6190476196552988 
98 104 -0.6877761428199141 
99 98 -0.5079365079557077 
99 99 0.0 
99 161 -0.5777777779111517 
99 321 -0.4166666667994279 
99 322 -0.33333333366027196 
99 323 -0.516339870358175 
99 324 -0.555555555789701 
99 325 -0.742424242661212 
99 326 0.11111111109800775 
99 327 -0.7124183006777036 
100 18 -0.7166666666682917 
100 98 -0.6488095238909921 
100 100 0.0 
100 126 -0.6969696970671253 
100 129 -0.5333333333979791 
100 299 -0.7083333336469646 
100 409 -0.5416666666745584 
100 508 -0.6955128211723971 
100 797 -0.7222222222583297 
100 1047 -0.583333333886503 
100 1048 -0.3083333333571132 
100 1049 -0.37500000029395664 
100 1050 -0.3928571435456436 
101 98 -0.5714285725436252 
101 101 0.0 
101 248 -0.707142857149385 
101 727 -0.6696428572897135 
101 1259 -0.7238095238492255 
101 1267 -0.35714285715102667 
101 1316 -0.5238095238143972 
101 1351 -0.5238095238143974 
102 98 -0.4285714293566891 
102 102 0.0 
102 313 -0.7904761904773843 
102 575 -0.7321428571754098 
102 797 -0.584656084666435 
102 991 -0.4857142862552677 
102 1336 -0.6071428571461048 
102 1412 -0.39285714299621777 
103 12 -0.6894630193409463 
103 13 -0.48809523990708215 
103 98 -0.6190476196552988 
103 103 0.0 
103 187 -0.6806722693692615 
103 259 -0.6190476197066819 
103 370 -0.7255639110219962 
103 413 -0.7321428571575732 
103 529 -0.6292517009537553 
103 617 -0.5728291317025638 
103 637 -0.6666666670794765 
103 908 -0.5476190483439267 
103 932 -0.6558441558625467 
103 953 -0.5952380964164079 
103 999 -0.511904761969399 
103 1180 -0.6904761905435723 
103 1279 -0.7156862757878684 
103 1546 -0.7238095241951821 
103 1853 -0.5714285724149752 
103 2099 -0.5238095238242344 
103 2846 -0.5714285719590055 
103 3192 -0.523809523845562 
104 2 -0.6383438644468191 
104 13 -0.5073883162607713 
104 98 -0.6877761428199141 
104 104 0.0 
104 228 -0.6738144330359512 
104 265 -0.6269107716502222 
104 281 -0.6688144332015533 
104 321 -0.688144330285432 
104 345 -0.646907217317205 
104 365 -0.4278350516414271 
104 374 -0.611683849039049 
104 392 -0.6608247449566189 
104 406 -0.705219072902318 
104 414 -0.6935332709060975 
104 429 -0.6036655212012696 
104 469 -0.4845360824769651 
104 496 -0.7587628866040916 
104 497 -0.6984536085070694 
104 507 -0.3556701035787577 
104 554 -0.679327183995492 
104 561 -0.6505154640907449 
104 615 -0.7512886600844539 
104 646 -0.8045202223842414 
104 682 -0.7250859106870129 
104 684 -0.6056701036232681 
104 718 -0.5381443299101392 
104 797 -0.6426116845908405 
104 814 -0.5835051548457515 
104 839 -0.6335051546734451 
104 908 -0.5549828180551404 
104 928 -0.6261530114762914 
104 938 -0.6637769447577924 
104 945 -0.6056701031159148 
104 955 -0.658505154818662 
104 968 0.010309278349985185 
104 971 -0.7822164949061898 
104 980 -0.6365979381845139 
104 988 -0.6402061855953693 
104 1001 -0.46391752578565093 
104 1016 -0.6323024055388666 
104 1080 -0.5528350519388376 
104 1081 -0.5687285223771941 
104 1098 -0.4329896911649731 
104 1110 -0.7402854878349157 
104 1122 -0.7505154644624188 
104 1140 -0.7659793814976315 
104 1148 -0.6990483743483158 
104 1206 -0.29725085916044636 
104 1285 0.010309278349985518 
104 1312 -0.6778350521030334 
104 1359 -0.7508591065509784 
104 1366 0.010309278349984963 
104 1505 -0.6524688013620492 
104 1507 -0.6329896910838595 
104 1564 -0.48969072166925676 
104 1652 -0.6195876291371034 
104 1710 0.010309278349985296 
104 1715 -0.4175257732897766 
104 1766 -0.6632302407014241 
104 1806 -0.6941580757099142 
104 1850 -0.625429553340862 
104 1874 -0.5783505158863891 
104 1904 -0.47422680419386265 
104 1926 -0.6520618563547746 
104 1929 -0.7611683848984452 
104 1952 -0.6829896907314352 
104 2080 -0.6460481099930608 
104 2093 -0.766323024071794 
104 2102 -0.6278350515777054 
104 2110 -0.509278350795451 
104 2236 -0.5798969072516518 
104 2244 -0.7025036819328254 
104 2291 -0.4742268041313267 
104 2381 -0.6207658332861832 
104 2386 -0.7124447718130089 
104 2488 0.01030927834998474 
104 2504 -0.1984536082888353 
104 2596 -0.5798969078060727 
104 2602 -0.6675257732329714 
104 2642 -0.48453608247696556 
104 2719 -0.5579896911500932 
104 2766 -0.453608247479969 
104 2805 -0.6421207659350099 
104 2841 -0.723122238849202 
104 3089 -0.6099656358277628 
104 3205 -0.48969072166925676 
104 3283 -0.3865979382970044 
104 3402 -0.48969072166925587 
104 3586 0.010309278349984852 
104 3606 -0.4690721649910645 
104 3797 -0.5373711340302516 
104 3803 -0.4896907216692563 
104 3816 -0.6408934708161889 
104 3828 0.010309278349985629 
104 3835 0.010309278349985185 
104 3845 -0.48969072166925676 
104 3882 0.010309278349984963 
104 3900 0.010309278349984963 
105 57 -0.5857142857187507 
105 105 0.0 
105 119 -0.714285714287884 
105 153 -0.142857142914667 
105 212 -0.6696428573219246 
105 939 -0.5079365081930654 
105 1078 -0.7781954887301175 
105 1427 -0.6071428571817872 
106 57 -0.46666666667263 
106 106 0.0 
106 604 -0.46666666667226453 
106 1505 -0.6403508771973903 
107 57 -0.46666666667263024 
107 107 0.0 
107 598 -0.5416666666730863 
107 2018 -0.16666666672802855 
108 57 -0.46666666667263046 
108 108 0.0 
108 778 -0.5595238095531829 
108 1833 -7.008615909853688e-12 
109 12 -0.6436170214606594 
109 109 0.0 
109 110 -0.45000000097537973 
109 111 -0.6737288135668371 
109 112 0.24999999997633604 
110 86 -0.5928571430570968 
110 109 -0.45000000097537973 
110 110 0.0 
110 1021 -0.6125000002274441 
110 1279 -0.5529411769610579 
110 2765 0.19999999997925055 
111 28 -0.6852717713680496 
111 109 -0.6737288135668371 
111 111 0.0 
111 257 -0.7226502311430254 
111 290 -0.605932203599516 
111 299 -0.712994350329824 
111 356 -0.799435028257875 
111 392 -0.738983050881304 
111 439 -0.8326271186500225 
111 534 -0.6970338984143691 
111 614 -0.7644067796831278 
111 637 -0.7469733656796871 
111 925 -0.6991525424745866 
111 934 -0.7395480226268052 
111 979 -0.6991525424700842 
111 1002 -0.4406779661136484 
111 1209 -0.742130750681474 
111 1217 -0.5889830508645306 
111 1219 -0.6242937853296713 
111 1449 -0.7152542375406239 
111 1627 -0.682203389952508 
111 1721 -0.4745762712114401 
111 1874 -0.589830508500639 
111 1931 -0.6073446327998191 
111 1957 -0.6892655368125746 
111 1979 -0.8067796610687716 
111 2083 -0.6412429378648616 
111 2110 -0.5288135594072607 
111 2160 -0.6822033899792643 
111 2236 -0.6398305085362577 
111 2375 -0.6898305085640681 
111 2380 -0.7135593220517 
111 2478 -0.7725988700767172 
111 2496 0.016949152541627877 
111 2726 -0.7161016949656909 
111 2760 -0.47457627118982093 
111 2805 -0.6670702179379511 
111 2899 -0.5649717514751602 
111 2915 -0.6389830508834422 
111 3154 -0.6073446328175323 
111 3156 -0.48305084751050753 
111 3325 -0.48305084751050664 
111 3332 -0.699152542400908 
111 3387 0.016949152541627432 
111 3413 -0.7830508474653417 
111 3456 -0.6892655367990908 
111 3470 0.016949152541627988 
111 3482 -0.48305084751050753 
111 3509 0.01694915254162721 
111 3555 0.016949152541627877 
111 3567 -0.5988700565479252 
111 3610 -0.656779661190223 
111 3671 0.016949152541627432 
111 3710 -0.4830508475105071 
111 3711 0.016949152541627543 
111 3712 -0.4491525423846794 
111 3713 0.016949152541627877 
111 3714 -0.3728813559772597 
111 3715 -0.48305084751050753 
111 3716 0.016949152541627877 
112 109 0.24999999997633604 
112 112 0.0 
113 49 -0.5833333333773387 
113 113 0.0 
113 114 -0.5357142860953299 
113 115 -0.4916666680644046 
113 116 -0.6293103449191089 
114 113 -0.5357142860953299 
114 114 0.0 
114 207 -0.6575630253909255 
114 546 -0.7261904772553796 
114 628 -0.6261904766386537 
114 660 -0.4907407408223621 
114 678 -0.5142857143228772 
114 1053 -0.761904762643081 
114 1122 -0.6071428576075417 
114 1148 -0.4148351648751607 
114 1215 -0.3571428571483217 
114 1216 -0.6428571428716745 
114 1217 -0.46428571444690037 
114 1218 -0.785714285715557 
114 1219 -0.45238095241320675 
115 27 -0.7598639455962004 
115 44 -0.6222222222828084 
115 64 -0.5539215686627319 
115 113 -0.4916666680644046 
115 115 0.0 
115 164 -0.40000000012532944 
115 235 -0.6750000000092866 
115 465 -0.6965517255925553 
115 1094 -0.657142857190014 
115 1388 -0.6000000000028574 
115 1445 -0.5166666667977668 
115 1754 -0.1166666670543346 
115 1799 -0.5833333334686603 
115 1800 -0.7571428572386998 
115 1801 -0.6333333334850966 
115 1802 -0.4000000002726636 
116 64 -0.6881338744849193 
116 113 -0.6293103449191089 
116 116 0.0 
116 143 -0.7241379312257292 
116 144 -0.7435344828220112 
116 201 -0.6982758620727854 
116 206 -0.7711598749995443 
116 345 -0.5603448276036365 
116 448 -0.663793103458377 
116 503 0.034482758561398597 
116 704 -0.699233716765727 
116 757 -0.6758620690667656 
116 1022 -0.7711598747244626 
116 1046 -0.6620689658275019 
116 1266 -0.6477832514316395 
116 1495 -0.763793103643797 
116 1540 -0.39655172416444673 
116 1652 -0.7220689658445281 
116 1725 -0.646551724208762 
116 1766 -0.6781609203107914 
116 2305 -0.7164750958527657 
116 2563 0.03448275856139882 
116 2564 -0.4482758620720526 
116 2565 -0.5387931034643985 
116 2566 -0.46551724138424855 
116 2567 -0.6321839080476122 
116 2568 -0.7471264368149941 
116 2569 -0.6120689656303979 
116 2570 -0.5287356322060754 
116 2571 -0.7482758620770531 
117 117 0.0 
117 118 0.07692307691495315 
118 41 -0.5906593414201522 
118 50 -0.527472528221953 
118 117 0.07692307691495315 
118 118 0.0 
118 173 -0.4932126697387913 
118 529 -0.5981161695848147 
118 882 -0.5604395609835571 
118 1679 -0.5817307692788958 
118 1749 -0.8054298642831272 
118 2020 -0.42307692308244427 
118 2326 -0.516483516501673 
118 2360 -0.4326923077775624 
118 2493 -0.5934065934265536 
118 2788 -0.47435897440100483 
119 105 -0.714285714287884 
119 119 0.0 
119 120 -0.6571428577364764 
119 121 -0.7087912093311695 
119 122 -0.5357142857540023 
119 123 -0.7460317460334618 
119 124 -0.5238095238143972 
119 125 -0.6038961040245296 
120 28 -0.5965517242837208 
120 119 -0.6571428577364764 
120 120 0.0 
120 152 -0.3791666668038256 
120 155 -0.6083333339605619 
120 157 -0.3000000001380121 
120 265 -0.6436781621883758 
120 695 -0.6333333335665841 
120 1181 -0.7333333333530931 
120 1182 -0.4000000002143531 
120 1183 -0.4333333333384761 
120 1184 -0.6000000000028574 
120 1185 -0.6833333333354701 
120 1186 -0.7000000000045032 
120 1187 0.06666666666038634 
120 1188 0.06666666666038634 
121 86 -0.598901099303045 
121 119 -0.7087912093311695 
121 121 0.0 
121 376 -0.6730769231463307 
121 395 -0.4230769230824447 
121 511 -0.6179487181986971 
121 521 -0.6376518222990959 
121 668 -0.5927601812377166 
121 872 -0.6703296704401118 
121 1179 -0.6787330320443095 
121 1377 -0.7032967035206825 
121 1465 -0.8461538461578288 
121 1663 -0.6586538467851821 
121 2138 -0.530769230976444 
122 119 -0.5357142857540023 
122 122 0.0 
122 152 -0.37500000002353384 
122 1825 -0.6666666666709695 
122 2019 -0.33333333334233695 
122 3461 -0.3333333333469426 
122 3583 0.16666666664825058 
123 119 -0.7460317460334618 
123 123 0.0 
123 490 -0.6349206349314449 
123 575 -0.8055555555566569 
123 866 -0.7888888888901553 
123 969 -0.5777777778739015 
123 1899 -0.5555555555596876 
123 2015 0.11111111109800786 
123 2517 -0.6888888888913831 
123 3333 0.11111111109800753 
124 119 -0.5238095238143972 
124 124 0.0 
124 1062 -4.557789701209458e-10 
124 2163 -4.557789701209458e-10 
125 12 -0.7040618955935543 
125 119 -0.6038961040245296 
125 125 0.0 
125 179 -0.6270053482972215 
125 240 -0.2727272727370995 
125 257 -0.6818181818392421 
125 660 -0.606060606559522 
125 1396 -0.6227272728002546 
125 1439 -0.27272727273709974 
125 2998 -0.5681818182878775 
125 3015 -0.31818181843198845 
125 3091 -0.39393939398799316 
126 100 -0.6969696970671253 
126 126 0.0 
126 127 -0.5757575757611695 
126 128 -0.6590909090935941 
126 129 -0.47272727294407435 
126 130 -0.48484848486343535 
126 131 -0.4090909090969783 
126 132 -0.6393939404561515 
126 133 -0.6636363636846223 
126 134 -0.5719696975246802 
126 135 -0.5757575757611697 
126 136 -0.5227272727866161 
127 126 -0.5757575757611695 
127 127 0.0 
127 250 -0.6041666666682541 
127 251 0.3333333333055045 
128 126 -0.6590909090935941 
128 128 0.0 
128 155 -0.6666666666691907 
128 273 -0.41666666667373575 
128 946 -0.5500000000046015 
129 100 -0.5333333333979791 
129 126 -0.47272727294407435 
129 129 0.0 
129 1167 -0.46666666667263 
129 1168 -0.612500000227445 
129 1169 -0.5500000003706853 
130 126 -0.48484848486343535 
130 130 0.0 
130 577 -0.5166666666880508 
130 768 -0.1666666667811898 
131 126 -0.4090909090969783 
131 131 0.0 
131 502 -0.479166666668867 
132 126 -0.6393939404561515 
132 132 0.0 
132 195 -0.5833333335745172 
132 406 -0.7104166676788832 
132 565 -0.6285714291927254 
132 788 -0.5833333333961328 
132 1279 -0.6607843147903996 
132 2230 -0.7235294118808948 
132 2423 -0.5833333334523412 
132 2641 -0.4000000002726636 
132 2694 -0.6000000000028571 
132 3287 -0.723809524033713 
132 3388 -0.5000000000412061 
132 3442 -0.5333333333430992 
132 3878 0.06666666666038634 
132 3879 -0.4333333333384761 
133 126 -0.6636363636846223 
133 133 0.0 
133 1056 -0.3000000000100629 
133 2176 -0.5437500000056439 
133 3056 -0.46666666667263046 
133 3129 -0.3666666667090397 
134 44 -0.4722222226682873 
134 126 -0.5719696975246802 
134 134 0.0 
134 218 -0.7083333333569426 
134 270 -0.5312500004311684 
134 291 -0.5608974360432264 
134 565 -0.5833333333655375 
134 683 -0.5416666667201195 
134 1505 -0.6118421057908927 
134 2098 -0.5773809526358473 
134 2175 -0.6666666668646519 
134 2230 -0.6519607844775326 
134 2633 -0.5333333333899881 
135 126 -0.5757575757611697 
135 135 0.0 
135 999 -0.5000000000053606 
135 2371 -0.5666666666693487 
136 126 -0.5227272727866161 
136 136 0.0 
136 195 -0.45833333344829064 
136 788 -0.3472222223975925 
136 2776 -0.3500000000396346 
137 137 0.0 
137 138 -0.25000000000861666 
137 139 -0.33333333333916926 
138 137 -0.25000000000861666 
138 138 0.0 
138 160 -0.37500000017433077 
138 280 -0.5000000005074092 
138 1551 -0.2500000000114524 
139 137 -0.33333333333916926 
139 139 0.0 
139 178 -0.500000000005361 
139 358 -0.7333333333350556 
139 1175 0.16666666664825036 
139 3473 0.1666666666482508 
139 3588 0.16666666664825058 
140 140 0.0 
140 141 -1.6895818077955482e-11 
140 142 -1.6896040122560407e-11 
141 140 -1.6895818077955482e-11 
141 141 0.0 
141 986 0.49999999996157996 
142 140 -1.6896040122560407e-11 
142 142 0.0 
142 3181 -0.2500000000086171 
143 116 -0.7241379312257292 
143 143 0.0 
143 144 -0.7262931035758131 
143 145 0.03448275856139871 
143 146 -0.5804597701404335 
143 147 -0.49425287368377413 
143 148 -0.44827586207205217 
143 149 -0.614942528755851 
143 150 -0.6793103448354052 
143 151 -0.6264367817869392 
143 152 -0.536637932242044 
143 153 -0.5977011494653723 
143 154 -0.7429467084795698 
143 155 -0.6954022991461835 
143 156 -0.46551724138424855 
143 157 -0.5459770115331781 
143 158 -0.528735632247884 
143 159 -0.5586206896748078 
143 160 -0.6810344827657047 
143 161 -0.7137931034703482 
143 162 0.034482758561398485 
143 163 -0.41379310345439047 
143 164 -0.5114942528796624 
143 165 -0.7984084881283029 
143 166 -0.5775862075090781 
143 167 -0.5804597701404335 
143 168 -0.4310344827633199 
143 169 -0.8560344830594233 
143 170 -0.4310344827633199 
143 171 -0.744827587017814 
144 116 -0.7435344828220112 
144 143 -0.7262931035758131 
144 144 0.0 
144 773 -0.5416666666711372 
144 774 0.1249999999853243 
144 775 -0.4166666667139498 
144 776 0.1249999999853244 
144 777 -0.6250000000033307 
144 778 -0.7678571430117995 
145 143 0.03448275856139871 
145 145 0.0 
146 143 -0.5804597701404335 
146 146 0.0 
146 1279 -0.4901960784841626 
146 1309 -0.416666666684564 
147 143 -0.49425287368377413 
147 147 0.0 
147 508 -0.5641025642171462 
147 989 -0.5000000001304716 
148 143 -0.44827586207205217 
148 148 0.0 
148 1223 -0.3125000000127969 
149 8 -0.6066666666695786 
149 143 -0.614942528755851 
149 149 0.0 
149 2063 -0.33333333334205273 
150 143 -0.6793103448354052 
150 150 0.0 
150 319 -0.6333333334634663 
150 572 -0.44285714286962397 
150 869 -0.6653846153881879 
150 1683 0.19999999997925055 
151 85 -0.4914529922706632 
151 143 -0.6264367817869392 
151 151 0.0 
151 254 -0.45634920790352185 
151 445 -0.5277777778351658 
151 565 -0.5158730176741413 
151 1029 -0.6111111115136492 
151 1279 -0.454248366609981 
151 1799 -0.40277777798630887 
151 1857 -0.41666666738357483 
152 12 -0.5279255322158725 
152 120 -0.3791666668038256 
152 122 -0.37500000002353384 
152 143 -0.536637932242044 
152 152 0.0 
152 179 -0.47794117651239576 
152 508 -0.5560897436175045 
152 559 -0.575000000293711 
152 1657 -0.5833333337511379 
153 105 -0.142857142914667 
153 143 -0.5977011494653723 
153 153 0.0 
153 939 -0.1666666666862815 
154 64 -0.5708556150860435 
154 143 -0.7429467084795698 
154 154 0.0 
154 359 -0.46442687752286504 
154 826 -0.38484848514508574 
154 1400 -0.3701298701588769 
154 1401 -0.3585858586051067 
154 2225 -0.2651515154522943 
154 2498 -0.618181818585295 
154 2736 -0.3681818199472895 
154 2924 -0.31818181822682146 
154 2956 -0.14545454559870374 
155 120 -0.6083333339605619 
155 128 -0.6666666666691907 
155 143 -0.6954022991461835 
155 155 0.0 
155 241 -0.6875000000284013 
155 307 -0.5595238102645241 
155 327 -0.7279411765126143 
155 834 -0.5416666666730863 
155 990 -0.5138888889116751 
155 1235 -0.6750000000289265 
155 1448 -0.7333333333785619 
155 1871 -0.500000000024194 
155 3014 -0.2916666666883758 
156 143 -0.46551724138424855 
156 156 0.0 
156 3056 -0.1666666666799932 
157 120 -0.3000000001380121 
157 143 -0.5459770115331781 
157 157 0.0 
157 687 -0.41666666668467034 
158 143 -0.528735632247884 
158 158 0.0 
158 565 -0.5714285714838834 
158 2242 -0.41666666671049324 
159 12 -0.5446808510897587 
159 143 -0.5586206896748078 
159 159 0.0 
159 254 -0.5500000009611647 
159 502 -0.5395833333593847 
159 532 -0.518750000020809 
160 138 -0.37500000017433077 
160 143 -0.6810344827657047 
160 160 0.0 
160 274 -0.695945945962483 
160 3002 -0.37500000017432966 
161 99 -0.5777777779111517 
161 143 -0.7137931034703482 
161 161 0.0 
161 636 -0.46666666667263 
161 1083 -0.5857142857187503 
161 2048 -0.6181818183399028 
162 143 0.034482758561398485 
162 162 0.0 
163 143 -0.41379310345439047 
163 163 0.0 
163 2831 -0.20000000000842366 
164 115 -0.40000000012532944 
164 143 -0.5114942528796624 
164 164 0.0 
164 179 -0.5637254905659685 
165 19 -0.7356792148616549 
165 27 -0.7213500790382041 
165 143 -0.7984084881283029 
165 165 0.0 
165 572 -0.516483516697541 
165 1362 -0.6730769230793043 
165 1441 -0.4799331123239843 
165 1470 -0.6564102574809503 
165 1654 -0.5608974361687031 
165 1840 -0.3923076923480082 
165 2273 -0.48076923084880585 
165 2440 -0.43269230771782574 
165 2473 -0.5961538461953331 
165 3287 -0.5549450549543813 
166 143 -0.5775862075090781 
166 166 0.0 
166 195 -0.5500000011654083 
166 508 -0.6538461539034677 
166 794 -0.5989583335177102 
166 1705 -0.5208333337154794 
166 1737 -0.4166666666805299 
167 143 -0.5804597701404335 
167 167 0.0 
167 532 -0.5885416666897467 
167 2411 -0.1666666666799932 
168 143 -0.4310344827633199 
168 168 0.0 
168 370 -0.39473684210990667 
169 15 -0.6750000000243881 
169 143 -0.8560344830594233 
169 169 0.0 
169 242 -0.4642857146358881 
169 310 -0.6250000000764526 
169 369 -0.4250000000027516 
169 695 -0.6666666666993377 
169 1078 -0.8210526316894393 
169 1471 -0.5916666666707648 
169 1826 -0.3750000000163001 
169 1827 -0.6714285715461024 
169 1986 -0.4500000000046551 
169 2139 -0.6333333338514686 
169 2209 -0.5666666666737223 
169 2815 -0.42500000000275184 
169 3222 0.04999999997623217 
169 3338 0.04999999997623228 
169 3601 0.049999999976231946 
169 3604 0.04999999997623206 
169 3817 0.04999999997623206 
169 3869 0.04999999997623217 
170 143 -0.4310344827633199 
170 170 0.0 
170 398 -0.4428571428674819 
171 143 -0.744827587017814 
171 171 0.0 
171 196 -0.30555555599762796 
171 957 -0.4000000000388504 
171 1257 -0.30000000000661853 
171 1259 -0.6166666667103087 
171 1368 -0.45000000138005314 
171 1650 -0.5166666666766395 
171 1940 -0.600000000008257 
171 2231 -0.2000000000533413 
171 2988 -0.7750000000013972 
172 172 0.0 
172 173 0.05882352939801827 
173 12 -0.5463078852061274 
173 118 -0.4932126697387913 
173 172 0.05882352939801827 
173 173 0.0 
173 179 -0.6617647060465737 
173 323 -0.3235294141848182 
173 398 -0.6411764708878587 
173 508 -0.5889894422126987 
173 610 -0.5910364155577561 
173 697 -0.5862745101362501 
173 1278 -0.43137254952557313 
173 1296 -0.38235294118140684 
173 1546 -0.7235294120411382 
173 1593 -0.6680672269617463 
173 2204 -0.727941176651921 
173 2225 -0.4509803922665201 
173 2587 -0.49019607845386615 
173 2588 -0.40196078437186067 
174 174 0.0 
174 175 0.19999999999175544 
175 174 0.19999999999175544 
175 175 0.0 
175 473 -0.5000000003443876 
175 797 -0.7444444444530594 
175 1800 -0.6571428571458007 
175 3872 0.19999999997925044 
176 176 0.0 
176 177 0.4999999997258183 
177 176 0.4999999997258183 
177 177 0.0 
177 340 -0.42307692308030154 
178 139 -0.500000000005361 
178 178 0.0 
178 179 -0.5490196078780687 
178 180 -0.49275362324526206 
179 125 -0.6270053482972215 
179 152 -0.47794117651239576 
179 164 -0.5637254905659685 
179 173 -0.6617647060465737 
179 178 -0.5490196078780687 
179 179 0.0 
179 265 -0.587221095633502 
179 323 -0.5588235294383241 
179 462 -0.6823529412174203 
179 497 -0.617647058877945 
179 790 -0.544117647084601 
179 988 -0.5500000000103538 
179 1024 -0.5784313725743735 
179 1136 -0.47058823529964067 
179 1182 -0.5490196079006333 
179 1236 -0.5945378151513467 
179 1437 -0.7303921569760998 
179 1449 -0.6529411764857664 
179 1519 -0.6715686279637267 
179 1610 -0.623529411776401 
179 1640 -0.6715686274849815 
179 1805 -0.6529411764797879 
179 1894 -0.54901960787751 
179 2189 -0.6225490196148873 
179 2242 -0.7426470588744682 
179 2368 0.02941176463892059 
179 2425 -0.5500000003515086 
179 2428 -0.5490196078518077 
179 2584 -0.6176470589011731 
179 2780 -0.7689075630828099 
179 2798 -0.45588235294456814 
179 2899 -0.5343137257833075 
179 3241 -0.6176470588775658 
179 3663 -0.4558823529445677 
179 3728 0.02941176463892048 
180 178 -0.49275362324526206 
180 180 0.0 
180 314 -0.62318840579911 
180 458 -0.5518394661229664 
180 874 -0.7107023413864622 
180 1218 -0.7919254658511767 
180 1230 -0.7028985508571228 
180 1236 -0.647515528223569 
180 1470 -0.7514492754643347 
180 1610 -0.560869565280333 
180 1795 -0.11956521740525883 
180 1796 -0.2789855073555252 
180 1824 -0.7484472051572038 
180 1827 -0.5388198758313849 
180 1940 -0.6826086959729001 
180 2585 -0.30434782611703337 
180 2946 -0.6811594203055331 
180 3112 -0.6793478261109329 
180 3221 -0.7463768116091147 
180 3360 0.04347826083165418 
180 3455 -0.5760869567630982 
180 3607 0.04347826083165418 
180 3703 0.04347826083165418 
180 3826 -0.41304347826496346 
181 181 0.0 
181 182 -0.33333333334233695 
181 183 0.16666666664825058 
181 184 -0.500000000005361 
181 185 -0.5833333333373458 
181 186 -0.6969696970887191 
181 187 -0.6862745098457561 
182 181 -0.33333333334233695 
182 182 0.0 
182 1552 -0.3000000000069756 
183 181 0.16666666664825058 
183 183 0.0 
184 181 -0.500000000005361 
184 184 0.0 
184 1163 -0.5238095238135418 
184 2630 -0.5555555555586058 
185 181 -0.5833333333373458 
185 185 0.0 
185 278 -0.41666666672819774 
185 1450 -0.5681818182187488 
185 1808 -0.638888888891969 
186 45 -0.7575757577239843 
186 181 -0.6969696970887191 
186 186 0.0 
186 268 -0.636363636376144 
186 364 -0.4090909090951411 
186 458 -0.5804195807572818 
186 727 -0.6363636370173607 
186 745 -0.663636363731098 
186 1205 -0.7027972033338552 
186 1227 -0.43181818182081355 
186 1289 -0.6272727279898527 
186 1535 -0.454545454550058 
186 2073 -0.7121212121327463 
186 2313 -0.4545454545500578 
186 2375 -0.6954545456834678 
186 2505 -0.45454545454676687 
186 2867 -0.7435064935867768 
186 2894 -0.5568181826923007 
186 3196 -0.45454545455005824 
186 3219 0.045454545422870085 
186 3544 0.045454545422869974 
186 3584 0.045454545422870196 
186 3825 0.045454545422870085 
187 79 -0.7573529412780204 
187 103 -0.6806722693692615 
187 181 -0.6862745098457561 
187 187 0.0 
187 393 0.05882352939801827 
187 458 -0.6877828054807567 
187 851 -0.5980392160382426 
187 896 -0.5235294117869504 
187 897 -0.5823529412196382 
187 923 -0.7394957983227908 
187 1288 -0.673529412167603 
187 1635 -0.7279411764897965 
187 1788 -0.6823529411853198 
187 1953 -0.6823529412242433 
187 2312 -0.7418300653750571 
187 3303 -0.5784313725537793 
187 3800 -0.6078431372574924 
187 3904 0.05882352939801827 
188 188 0.0 
188 189 -0.3611111113062484 
188 190 -0.2500000000814975 
188 191 -0.16666666672802766 
189 188 -0.3611111113062484 
189 189 0.0 
189 190 -0.6458333333425439 
189 325 -0.7247474749987646 
189 489 -0.6666666666740482 
189 575 -0.7500000000663218 
189 1111 -0.7222222222623218 
189 1174 0.0555555555380991 
189 1244 -0.7777777777807433 
189 1505 -0.7309941520820569 
189 1534 -0.6888888889166767 
189 2116 -0.6388888890821147 
189 2132 -0.4166666666985033 
189 2362 -0.36111111111782623 
189 2393 -0.6666666671692991 
189 2719 -0.5555555559014342 
189 2904 0.05555555553809899 
189 2905 -0.36111111111782623 
189 2906 0.0555555555380991 
190 188 -0.2500000000814975 
190 189 -0.6458333333425439 
190 190 0.0 
190 197 -0.5416666666711372 
190 416 -0.7916666667029402 
190 2568 -0.6458333333456447 
190 2915 -0.6125000002274446 
190 2955 -0.5625000013149426 
190 3163 -0.37500000000749534 
191 188 -0.16666666672802766 
191 191 0.0 
191 524 -0.602564102568524 
191 2256 -0.166666667354048 
192 192 0.0 
192 193 0.33333333331549286 
193 192 0.33333333331549286 
193 193 0.0 
193 656 -0.4166666666735186 
193 792 -0.5952380952398657 
194 194 0.0 
194 195 -0.700000000248755 
194 196 -0.500000000374027 
194 197 -0.5000000000046985 
194 198 -0.666666666669411 
194 199 -0.6666666668986228 
194 200 -0.6666666667004453 
195 32 -0.6254385980300323 
195 65 -0.7333333333855963 
195 85 -0.5935897436814912 
195 86 -0.6761904764811202 
195 132 -0.5833333335745172 
195 136 -0.45833333344829064 
195 166 -0.5500000011654083 
195 194 -0.700000000248755 
195 195 0.0 
195 218 -0.7666666667060733 
195 258 -0.6500000002194621 
195 617 -0.7529411769100043 
195 757 -0.6666666667940218 
195 788 -0.5166666677774725 
195 856 -0.48333333555483193 
195 943 -0.6541666675331501 
195 1230 -0.7416666669829031 
195 1279 -0.5901960785433706 
195 1610 -0.5666666668642841 
195 2145 -0.6166666666721969 
195 2146 -0.5666666666872024 
195 2147 -0.7166666666866526 
195 2148 0.033333333272038135 
195 2149 -0.3166666666853444 
195 2150 -0.4166666666729306 
195 2151 -0.4666666666717072 
195 2152 -0.6333333333855617 
195 2153 -0.5416666666826013 
195 2154 0.03333333327203858 
195 2155 0.03333333327203869 
195 2156 -0.33333333337758075 
196 11 -0.5972222225241928 
196 12 -0.49881796713635485 
196 171 -0.30555555599762796 
196 194 -0.500000000374027 
196 196 0.0 
196 508 -0.557692308595646 
196 623 -0.4722222228613697 
196 869 -0.6239316240798325 
196 1259 -0.42222222228136586 
196 2165 0.11111111109800764 
197 190 -0.5416666666711372 
197 194 -0.5000000000046985 
197 197 0.0 
197 413 -0.583333333336709 
198 194 -0.666666666669411 
198 198 0.0 
198 1531 -0.7450980392590205 
198 1551 -0.33333333333916926 
198 2510 0.16666666664825036 
198 3675 0.16666666664825058 
198 3783 -0.41666666668052965 
199 194 -0.6666666668986228 
199 199 0.0 
199 348 -0.541666666673086 
199 455 -0.4583333333567676 
199 737 -0.6333333336020892 
199 938 -0.7840909094921631 
199 1544 -0.5833333333367088 
199 1743 -0.6666666666691912 
199 2276 0.08333333332413406 
199 2320 -0.583333333336709 
199 2762 -0.6666666668986225 
199 2900 -0.3750000002939564 
199 2945 -0.583333333401999 
200 194 -0.6666666667004453 
200 200 0.0 
200 265 -0.6781609202099426 
200 637 -0.5238095238267513 
200 885 -0.7756410256468178 
200 1077 0.11111111109800753 
200 1825 -0.7777777777791983 
200 1882 -0.5222222222471924 
200 2919 -0.6527777778268067 
200 3843 -0.38888888889582707 
201 116 -0.6982758620727854 
201 201 0.0 
201 202 -0.6071428571461048 
201 203 -0.41666666667373553 
201 204 -0.5833333333911412 
202 201 -0.6071428571461048 
202 202 0.0 
202 532 -0.7477678572407875 
202 610 -0.7619047620230079 
202 766 -0.5982142860432418 
202 2179 0.14285714284071538 
202 2663 0.14285714284071527 
202 2664 -0.45238095259703615 
203 201 -0.41666666667373553 
203 203 0.0 
203 492 -0.5416666666931234 
203 1406 -0.36666666668347636 
204 201 -0.5833333333911412 
204 204 0.0 
204 270 -0.5659722228399817 
204 481 -0.7190476191003072 
204 721 -0.7777777778076291 
204 1467 -0.6904761904801946 
204 1556 -0.3253968254824524 
204 1992 -0.37777777838388205 
204 2592 -0.3333333336602713 
204 3356 -0.555555555559688 
205 205 0.0 
205 206 -0.40909090909697854 
205 207 -0.44117647059311427 
206 116 -0.7711598749995443 
206 205 -0.40909090909697854 
206 206 0.0 
206 303 -0.7525252525316639 
206 575 -0.7007575758506246 
206 693 -0.4090909090969783 
206 1186 -0.4772727273093027 
206 1513 -0.7662337662353278 
206 1514 -0.7181818184325819 
206 1515 -0.06818181866077344 
206 1516 -0.6969696970605457 
206 1517 -0.40909090909697854 
207 53 -0.4411764705909116 
207 114 -0.6575630253909255 
207 205 -0.44117647059311427 
207 207 0.0 
207 320 -0.5882352942501632 
207 370 -0.7801857586220677 
207 484 -0.6871657755648495 
207 508 -0.8284313725778043 
207 660 -0.616557736758581 
207 870 -0.717194570234833 
207 878 -0.6323529411782647 
207 1094 -0.6806722689801783 
207 1374 -0.7029411773704275 
207 1616 -0.7117647059059573 
207 1991 -0.7100840339973198 
207 2245 -0.6323529411921283 
207 2612 -0.49411764740873787 
207 3252 -0.4411764705931145 
208 208 0.0 
208 209 -1.6895818077955482e-11 
208 210 -0.2500000000086171 
209 208 -1.6895818077955482e-11 
209 209 0.0 
209 242 -0.35714285715102667 
210 208 -0.2500000000086171 
210 210 0.0 
210 392 -0.5833333333760851 
210 434 -0.5694444445493156 
210 2269 -0.3750000000053313 
211 211 0.0 
211 212 -0.5416666666711374 
211 213 -0.6190476190497931 
211 214 0.33333333330550463 
212 105 -0.6696428573219246 
212 211 -0.5416666666711374 
212 212 0.0 
212 343 -0.7697368423383324 
212 424 -0.6696428573219246 
212 1004 -0.7678571428895211 
212 1092 0.12499999998532452 
212 2070 -0.37500000000749556 
212 2483 0.1249999999853243 
213 58 -0.6190476190488738 
213 211 -0.6190476190497931 
213 213 0.0 
213 309 -0.7547619048023915 
213 319 -0.7261904762025004 
213 320 -0.6862745110355872 
213 364 -0.40476190476627383 
213 662 -0.6666666666917067 
213 864 -0.6547619047858364 
213 913 -0.5476190476282314 
213 1148 -0.7032967037705904 
213 1165 -0.8278388278482676 
213 1495 -0.7047619050885567 
213 1514 -0.7547619047797571 
213 1644 -0.595238095241978 
213 1685 -0.4047619049387472 
213 1729 -0.4523809523855724 
213 1874 -0.5809523815732291 
213 2244 -0.6190476190754515 
213 2883 -0.7380952387819621 
213 3362 0.04761904759222613 
213 3363 -0.35714285715057215 
214 211 0.33333333330550463 
214 214 0.0 
215 215 0.0 
215 216 -0.678571428573681 
215 217 -0.6730769230786233 
215 218 -0.6666666666691909 
215 219 -0.5000000000056275 
216 52 -0.6071428571586501 
216 215 -0.678571428573681 
216 216 0.0 
216 533 -0.4107142858173207 
216 639 -0.6904761904901402 
216 688 -0.7053571435756623 
216 1122 -0.6928571434829249 
216 1577 -0.642857142885382 
216 1759 0.07142857142142034 
216 2166 -0.685064935170334 
216 2377 -0.5952380952411058 
216 2386 -0.6428571430179035 
216 2690 -0.6428571428716743 
216 3249 -0.521428571800048 
216 3250 0.07142857142142012 
217 215 -0.6730769230786233 
217 217 0.0 
217 619 -0.551282051288025 
217 715 -0.6410256410792665 
217 1344 -0.5576923079652958 
217 1808 -0.6025641026351778 
217 2687 -0.7564102564118478 
217 2733 -0.6730769230793041 
217 2855 -0.7230769230788292 
217 2865 -0.6461538463832452 
217 2937 -0.38461538490143377 
217 2971 -0.34615384633142043 
217 3192 -0.551282051310221 
217 3372 -0.5512820512880241 
218 134 -0.7083333333569426 
218 195 -0.7666666667060733 
218 215 -0.6666666666691909 
218 218 0.0 
218 525 -0.625000000020385 
218 558 -0.6553030306496104 
218 771 -0.6666666666691912 
218 791 -0.7500000000016978 
218 1150 -0.5833333333354087 
218 1177 -0.791666666667928 
218 1834 -0.4166666666724308 
218 2305 -0.7083333335417894 
218 3759 0.08333333332413406 
219 90 -0.500000000063602 
219 215 -0.5000000000056275 
219 219 0.0 
219 2456 -0.2500000013113459 
219 2826 -0.500000000063602 
220 220 0.0 
220 221 -0.5085227281784579 
220 222 -0.5416666666765715 
220 223 -0.5104166667315782 
220 224 0.062499999990653254 
220 225 -0.3229166676917501 
220 226 -0.5141129036581529 
220 227 -0.7228260882120403 
220 228 -0.48750000069799304 
220 229 -0.4375000000049982 
220 230 -0.652777777827585 
220 231 -0.4750000000290071 
220 232 -0.5312500000128748 
220 233 -0.5267857154580993 
220 234 -0.5000000006379262 
220 235 -0.4375000000969176 
220 236 -0.6145833336868609 
221 220 -0.5085227281784579 
221 221 0.0 
221 225 -0.4949494950046929 
221 232 -0.5303030309628844 
221 409 -0.568181818283042 
221 508 -0.8385780886308054 
221 841 -0.49431818209667355 
221 1626 0.09090909089870947 
221 1627 -0.4431818187849148 
221 1628 -0.5757575757611697 
221 1629 0.09090909089870958 
221 1630 -0.5757575757611699 
222 220 -0.5416666666765715 
222 222 0.0 
222 1576 -0.5833333333378639 
222 1724 -0.1666666667280272 
223 19 -0.74734042564334 
223 220 -0.5104166667315782 
223 223 0.0 
223 226 -0.567204301124212 
223 246 -0.6250000000247715 
223 371 -0.3333333333852584 
223 376 -0.6666666671836388 
223 852 -0.6406250006576051 
223 972 -0.6074561416603246 
223 1107 -0.6250000000669567 
223 2128 -0.7500000000016982 
223 2129 -0.34722222241017664 
223 2130 -0.5595238095554758 
224 220 0.062499999990653254 
224 224 0.0 
225 64 -0.6274509805565487 
225 220 -0.3229166676917501 
225 221 -0.4949494950046929 
225 225 0.0 
225 226 -0.5510752688667713 
225 414 -0.5732323232782908 
225 1132 -0.5222222223301283 
225 1789 -0.47777777792745124 
225 2459 -0.3055555556663432 
225 2460 -0.3333333336602715 
226 2 -0.620967745675598 
226 32 -0.5305602718049616 
226 220 -0.5141129036581529 
226 223 -0.567204301124212 
226 225 -0.5510752688667713 
226 226 0.0 
226 228 -0.41322580733191505 
226 262 -0.494623656039487 
226 375 -0.694281524964107 
226 406 -0.7227822581767198 
226 524 -0.7460711333096854 
226 536 -0.5000000005943974 
226 596 -0.669354838905331 
226 598 -0.7204301076807811 
226 759 -0.539314516427313 
226 811 -0.6048387097450398 
226 814 -0.44354838835750643 
226 819 -0.5779569900438846 
226 841 -0.6129032262933114 
226 851 -0.5752688190788784 
226 868 -0.6790322583157167 
226 1021 -0.6834677423821349 
226 1172 -0.7775142321267836 
226 1263 -0.7193548388152176 
226 1283 -0.575268817237681 
226 1387 -0.7373271892247335 
226 1470 -0.5596774194707865 
226 1501 -0.5887096776683642 
226 1507 -0.5629032266054033 
226 1519 -0.6962365592257893 
226 1528 -0.6758064516916078 
226 1545 -0.48387096779444194 
226 1652 -0.6503225807019948 
226 1664 -0.6370967742475442 
226 1687 -0.731671554351192 
226 1757 -0.6720430114734837 
226 1798 -0.635080645239418 
226 1883 -0.5967741935547617 
226 1991 -0.752304147485632 
226 2129 -0.5537634408802785 
226 2174 -0.5860215055089184 
226 2243 -0.48387096779444283 
226 2256 -0.7016129032542211 
226 2284 -0.40322580649691453 
226 2304 -0.6290322582568442 
226 2587 -0.5860215054383466 
226 2593 -0.6263440860532816 
226 2594 -0.5860215054570899 
226 2595 0.016129032257338194 
226 2596 -0.43817204452899805 
226 2597 -0.6263440860532807 
226 2598 -0.7258064516437337 
226 2599 -0.7435483873756643 
226 2600 0.016129032257338416 
226 2601 -0.7768817209360213 
226 2602 -0.6290322593008231 
226 2603 -0.5306451615960519 
226 2604 0.016129032257338527 
226 2605 -0.5822580645334938 
226 2606 -0.6013824885038694 
226 2607 -0.6102150538415931 
226 2608 -0.6088709677635518 
226 2609 0.016129032257338416 
227 7 -0.7135869570362359 
227 220 -0.7228260882120403 
227 227 0.0 
227 368 -0.64130434784276 
227 424 -0.7049689442090072 
227 760 -0.6014492753657463 
227 977 -0.536231884068122 
227 1166 -0.6014492753657461 
227 1192 -0.5579710145005772 
227 1675 0.04347826083165396 
227 1854 -0.6413043478397569 
227 2059 0.04347826083165418 
227 2131 0.04347826083165418 
227 2284 -0.3043478261064796 
227 2570 -0.5579710145005772 
227 2628 -0.3913043478317064 
227 2629 -0.6630434782717618 
227 2630 -0.7681159420441923 
227 2631 -0.5144927536633375 
227 2632 -0.4565217391350389 
227 2633 -0.6043478264101223 
227 2634 -0.8454106280229234 
227 2635 0.0434782608316544 
227 2636 -0.43478260869822005 
228 2 -0.4896774194721296 
228 104 -0.6738144330359512 
228 220 -0.48750000069799304 
228 226 -0.41322580733191505 
228 228 0.0 
228 233 -0.6142857143830633 
228 262 -0.36333333457467654 
228 432 -0.6542857146706369 
228 718 -0.44000000007392837 
228 736 -0.4600000021897761 
228 852 -0.6500000013512552 
228 885 -0.48846153928370173 
228 935 -0.3200000000278669 
228 1027 -0.48500000002992105 
228 1091 -0.38000000024491953 
228 1283 -0.5600000000242131 
228 1470 -0.49333333380571753 
228 1614 -0.372307692405369 
228 1652 -0.5200000021806526 
228 2018 -0.5466666667052722 
228 2064 -0.6066666666695788 
228 2306 -0.42571428598008665 
228 2392 -0.6600000000630077 
228 2606 -0.45142857146047777 
228 2620 -0.3200000000182399 
228 2717 -0.13000000001342915 
229 220 -0.4375000000049982 
229 229 0.0 
229 3084 0.49999999996157996 
230 220 -0.652777777827585 
230 230 0.0 
230 270 -0.677083334086094 
230 481 -0.5507936518827559 
230 902 -0.40972222238533895 
230 905 0.027777777754290245 
230 908 -0.5555555555717793 
230 1214 -0.4166666670761736 
230 2849 0.11111111109800753 
230 3213 -0.3333333336602715 
231 220 -0.4750000000290071 
231 231 0.0 
231 254 -0.4166666674608903 
231 271 -0.0428571430660023 
231 275 -0.1500000000352253 
231 282 -0.07142857185163498 
231 465 -0.5844827586664589 
231 1132 -0.18333333352917558 
231 1614 -0.011538463009783229 
231 2459 -0.2500000005226575 
231 2484 -0.10000000092284189 
232 220 -0.5312500000128748 
232 221 -0.5303030309628844 
232 232 0.0 
232 1441 -0.7463768116381486 
232 1764 -0.500000000005361 
232 2023 -0.6333333333365669 
232 3709 0.1666666666482508 
233 220 -0.5267857154580993 
233 228 -0.6142857143830633 
233 233 0.0 
233 1387 -0.42857143040878953 
233 1582 -0.5238095238143974 
233 2169 -0.5142857145150168 
233 2926 -0.6696428573219251 
233 3150 0.14285714284071516 
234 13 -0.7000000000594564 
234 46 -0.41666666864945334 
234 220 -0.5000000006379262 
234 234 0.0 
234 524 -0.717948717954827 
234 919 -0.6458333333456456 
234 2562 -0.500000000005361 
235 115 -0.6750000000092866 
235 220 -0.4375000000969176 
235 235 0.0 
235 524 -0.6698717949064008 
235 736 -0.38750000021504105 
235 1470 -0.5250000004052646 
235 2688 0.12499999998532452 
235 3235 -0.04166666707279365 
235 3620 0.1249999999853244 
236 31 -0.751879699502698 
236 35 -0.47619047624035016 
236 220 -0.6145833336868609 
236 236 0.0 
236 320 -0.6316526615938391 
236 394 -0.3095238098649178 
236 414 -0.6515151518838942 
236 524 -0.7069597071798772 
236 559 -0.7095238096696022 
236 759 -0.6696428584383272 
236 910 -0.6190476190594214 
236 940 -0.42857142857412134 
236 1236 -0.6785714290813702 
236 1268 -0.7559523813718843 
236 1566 -0.4285714285741209 
236 2044 -0.505952380981928 
236 2175 -0.666666667654791 
236 2503 -0.6285714287991095 
236 2704 -0.42857142857412134 
236 2867 -0.7142857144864052 
236 2951 -0.3095238098649171 
236 3739 0.047619047592226016 
237 27 0.020408163194120088 
237 237 0.0 
238 28 -0.4137931034574862 
238 238 0.0 
238 239 -0.25000000016813395 
239 86 -0.6547619048853504 
239 238 -0.25000000016813395 
239 239 0.0 
239 376 -0.7222222222378385 
239 593 -0.5178571430743588 
239 1235 -0.7309523810031078 
239 1648 -0.591666666933113 
239 1679 -0.5625000000188733 
239 1696 -0.5833333333921993 
239 1960 -0.4166666666724306 
239 2300 -0.6904761904802459 
239 2594 -0.25000000004468026 
239 3163 -0.4166666666724308 
240 125 -0.2727272727370995 
240 240 0.0 
240 241 -0.4166666666706178 
241 2 -0.6881720430521432 
241 38 -0.531250002141701 
241 64 -0.6213235294412862 
241 155 -0.6875000000284013 
241 240 -0.4166666666706178 
241 241 0.0 
241 323 -0.5698529442068634 
241 359 -0.5851449290126589 
241 428 -0.738636364094944 
241 490 -0.7113095238901364 
241 617 -0.6776960797370739 
241 747 -0.5089285735829829 
241 748 -0.5833333334508184 
241 770 -0.6875000000054223 
241 822 -0.45833333333795534 
241 823 -0.5416666666780352 
241 824 -0.5681818182698015 
241 825 -0.4375000015129209 
241 826 -0.5333333333653014 
241 827 -0.45833333333795534 
241 828 -0.6250000001141438 
241 829 -0.5059523810180613 
241 830 -0.7738095238815166 
241 831 -0.812500000060385 
241 832 -0.43750000000250067 
242 169 -0.4642857146358881 
242 209 -0.35714285715102667 
242 242 0.0 
242 470 -0.3571428571510269 
242 877 -0.7207792208040675 
242 1189 -0.3571428571510269 
242 1826 -0.14285714300576946 
242 1827 -0.5000000004156457 
243 2 -0.6370967742570299 
243 243 0.0 
243 244 0.08333333198622528 
243 245 -0.5000000000053608 
243 246 -0.4166666667260368 
243 247 -0.33333333352602357 
243 248 -0.6000000001314412 
244 2 -0.18548387097265095 
244 243 0.08333333198622528 
244 244 0.0 
245 243 -0.5000000000053608 
245 245 0.0 
245 1369 -0.5238095238135423 
245 3383 -0.41666666667351837 
246 223 -0.6250000000247715 
246 243 -0.4166666667260368 
246 246 0.0 
246 530 -0.29166666815119235 
246 1012 -0.5000000000053608 
246 1463 -0.6590909096726256 
246 2746 -0.29166666675495323 
247 243 -0.33333333352602357 
247 247 0.0 
247 1470 -0.5500000000205765 
247 2202 -0.33333333340950166 
248 101 -0.707142857149385 
248 243 -0.6000000001314412 
248 248 0.0 
248 610 -0.7571428571608436 
248 736 -0.5500000000116523 
248 738 -0.5681818183550873 
248 1387 -0.6142857150466663 
248 2260 -0.35000000011300303 
248 2402 0.0999999999883211 
248 2733 -0.6000000000255523 
248 3233 -0.41666666668741414 
249 249 0.0 
249 250 0.06249999999065314 
250 127 -0.6041666666682541 
250 249 0.06249999999065314 
250 250 0.0 
250 276 -0.7375000000012097 
250 491 -0.6041666666693843 
250 799 -0.40625000000298694 
250 1063 -0.706250000027572 
250 1095 -0.6041666666693843 
250 1157 0.06249999999065314 
250 1465 -0.8293269231189386 
250 1722 -0.5729166666716745 
250 2079 0.06249999999065303 
250 2111 -0.6875000000020308 
250 2191 -0.6041666666693839 
250 2192 -0.4375000000049982 
250 2193 0.062499999990653254 
250 2194 0.06249999999065292 
251 127 0.3333333333055045 
251 251 0.0 
252 252 0.0 
252 253 0.1249999999881557 
253 252 0.1249999999881557 
253 253 0.0 
253 312 -0.8009259260061752 
253 529 -0.8239795919813095 
253 832 -0.31250000001279643 
253 1135 -0.37500000000749556 
253 1550 0.12499999998532452 
253 2014 0.1249999999853244 
253 3100 0.12499999998532463 
254 85 -0.554945055111701 
254 86 -0.5119047625834436 
254 151 -0.45634920790352185 
254 159 -0.5500000009611647 
254 231 -0.4166666674608903 
254 254 0.0 
254 255 -0.48809523813966416 
254 256 -0.6349206357698158 
254 257 -0.6893939394504454 
254 258 -0.6488095238639406 
254 259 -0.6071428584420338 
254 260 -0.6130952399201088 
254 261 -0.7142857143524044 
254 262 -0.5119047619468757 
254 263 -0.5238095238870601 
254 264 -0.6309523814534701 
254 265 -0.5550082106580694 
254 266 -0.2023809523864195 
254 267 0.023809523738080984 
254 268 -0.4821428573088127 
254 269 -0.5389610389986967 
254 270 -0.6607142866409652 
254 271 -0.4166666682093505 
254 272 -0.6690476192852999 
254 273 -0.5833333333640127 
254 274 -0.5408622934303948 
254 275 -0.3642857144191949 
254 276 -0.5333333337757695 
254 277 -0.3690476190656571 
254 278 -0.7380952382935297 
254 279 -0.37301587363322564 
254 280 -0.6547619057985128 
254 281 -0.641369047705479 
254 282 -0.433333334558921 
254 283 -0.4571428571855636 
254 284 -0.49267399286137925 
254 285 -0.5500000001262957 
254 286 -0.44047619107434555 
254 287 -0.3647186148040742 
254 288 -0.5119047619255779 
254 289 -0.4404761911800339 
254 290 -0.38690476192054035 
254 291 -0.4065934066465826 
255 41 -0.5238095251121921 
255 254 -0.48809523813966416 
255 255 0.0 
255 313 -0.5666666667407638 
255 480 -0.4166666666973806 
255 502 -0.6979166668458874 
255 529 -0.6198979592184317 
255 602 -0.5654761917476185 
255 881 -0.5000000003235798 
255 882 -0.517857142911718 
255 883 -0.2500000001215814 
255 884 -0.37500000002224754 
255 885 -0.580128205394632 
256 254 -0.6349206357698158 
256 256 0.0 
256 465 -0.6733716475667397 
256 870 -0.5811965822777325 
256 1353 -0.527777778233196 
256 1614 -0.49572649689401715 
256 1750 -0.575757575962381 
256 1751 -0.44444444445711984 
256 1752 -0.6388888889043336 
256 1753 0.11111111109800764 
257 111 -0.7226502311430254 
257 125 -0.6818181818392421 
257 254 -0.6893939394504454 
257 257 0.0 
257 274 -0.6240786242006031 
257 619 -0.5303030309302632 
257 1168 -0.7386363636395838 
257 1704 -0.3636363639394362 
257 1779 0.09090909089870947 
257 1780 -0.31818181843198867 
257 1781 -0.36363636393943644 
257 1782 0.09090909089870958 
258 195 -0.6500000002194621 
258 254 -0.6488095238639406 
258 258 0.0 
258 399 -0.6770833333630892 
258 559 -0.7000000000620712 
258 594 -0.625000000155743 
258 796 -0.562500000023564 
258 798 -0.4583333352104628 
258 856 -0.5416666668757464 
258 1205 -0.5608974363357138 
258 1597 -0.5000000000114757 
258 1943 -0.3750000002939562 
258 1944 0.08333333332413406 
259 13 -0.516666668941689 
259 68 -0.4047619049387472 
259 69 -0.5389610391538904 
259 93 -0.6666666670467234 
259 103 -0.6190476197066819 
259 254 -0.6071428584420338 
259 259 0.0 
259 520 -0.6404761906378214 
259 639 -0.5476190476707798 
259 683 -0.5744047619236323 
259 686 -0.5000000000444422 
259 688 -0.6309523821890388 
259 877 -0.6233766234539007 
259 1016 -0.4682539687798353 
259 1172 -0.6918767517294335 
259 1650 -0.6190476191417518 
259 1858 -0.5695970701660493 
259 2089 -0.3333333333427091 
259 2107 0.047619047592225905 
259 2108 -0.4761904763653495 
259 2109 -0.42857142857412156 
259 2110 -0.34285714316014815 
260 254 -0.6130952399201088 
260 260 0.0 
260 614 -0.6500000000084838 
260 688 -0.6458333338730924 
260 1205 -0.644230769480592 
260 1569 -0.7083333334756095 
260 1739 -0.558333333500419 
260 2245 -0.6250000000385183 
260 2437 -0.6250000000210396 
260 2438 -0.6666666666691912 
260 2439 0.08333333332413406 
260 2440 -0.6666666666684913 
260 2441 -0.29166666668837604 
261 254 -0.7142857143524044 
261 261 0.0 
261 330 -0.5470085470662327 
261 593 -0.6428571438386479 
261 610 -0.6190476193295842 
261 956 -0.5000000014791277 
261 1007 -0.6904761904801946 
261 1372 0.11111111109800775 
261 1705 -0.6458333336286617 
261 2478 -0.6805555559250467 
262 226 -0.494623656039487 
262 228 -0.36333333457467654 
262 254 -0.5119047619468757 
262 262 0.0 
262 289 -0.4285714287568263 
262 554 -0.4144736859091134 
262 938 -0.568181818780849 
262 1900 -0.6250000000908389 
262 2124 -0.4750000028089172 
262 2606 -0.3630952388337223 
262 2673 -0.45833333391519604 
262 2717 -1.9835910691767822e-11 
262 2718 0.08333333332413417 
263 2 -0.5053763442576553 
263 254 -0.5238095238870601 
263 263 0.0 
263 2794 -0.1666666666799932 
264 254 -0.6309523814534701 
264 264 0.0 
264 266 -9.347238538737201e-10 
264 495 -0.41666666672224784 
264 766 -0.5937500006688246 
264 950 -0.3611111111376204 
264 2225 -0.45833333341936155 
264 2795 -0.25000000032936387 
264 2796 -0.4875000000232168 
265 5 -0.7337164751227241 
265 11 -0.7370689655416833 
265 55 -0.650246305811037 
265 80 -0.6992337165649789 
265 104 -0.6269107716502222 
265 120 -0.6436781621883758 
265 179 -0.587221095633502 
265 200 -0.6781609202099426 
265 254 -0.5550082106580694 
265 265 0.0 
265 435 -0.7984084880741666 
265 529 -0.6611541171672275 
265 532 -0.6417025864213226 
265 559 -0.5298850575236818 
265 641 -0.5652709372392741 
265 687 -0.6091954025454944 
265 792 -0.7179802961705866 
265 856 -0.6609195407113713 
265 1079 -0.6637931034616538 
265 1096 -0.6436781611731097 
265 1360 -0.6140583554645502 
265 1490 -0.7137931034689982 
265 1504 -0.5977011494334352 
265 1575 -0.7643678161135545 
265 1703 -0.5711206900779242 
265 2149 -0.3275862069143689 
265 2375 -0.694827586246805 
265 2877 -0.3793103448407089 
265 2878 -0.3448275862183334 
265 2879 -0.32758620691083573 
266 254 -0.2023809523864195 
266 264 -9.347238538737201e-10 
266 266 0.0 
267 254 0.023809523738080984 
267 267 0.0 
268 186 -0.636363636376144 
268 254 -0.4821428573088127 
268 268 0.0 
268 271 -0.3750000000736706 
268 481 -0.6071428572380158 
269 254 -0.5389610389986967 
269 269 0.0 
269 312 -0.7340067340884884 
269 736 -0.5727272734738629 
269 885 -0.5297202798396645 
269 928 -0.5430622009858066 
269 938 -0.5909090911189967 
269 1991 -0.4675324675568948 
269 2574 0.09090909089870935 
269 2623 -0.5757575757611697 
269 3367 -0.2727272727370995 
269 3368 0.09090909089870935 
270 44 -0.6215277782528805 
270 134 -0.5312500004311684 
270 204 -0.5659722228399817 
270 230 -0.677083334086094 
270 254 -0.6607142866409652 
270 270 0.0 
270 644 -0.6312500008291644 
270 669 -0.7395833336153603 
270 675 -0.4375000000049982 
270 909 -0.625000001868594 
270 1238 -0.6437500002810441 
270 1556 -0.5357142857724213 
270 1720 -0.687500000488859 
270 1738 -0.5104166666807497 
270 1862 -0.6750000000747762 
270 2627 -0.5729166666716747 
270 2818 -0.572916666671675 
271 231 -0.0428571430660023 
271 254 -0.4166666682093505 
271 268 -0.3750000000736706 
271 271 0.0 
271 282 -0.3000000007822323 
271 536 -0.4821428576408828 
271 885 -0.4038461539513465 
271 1132 -0.3833333343849692 
271 1463 -0.6655844162560094 
271 1468 -0.3357142860681983 
271 1614 -0.08791208925598548 
271 2441 -0.21428571433974497 
271 2484 -0.2647058824013315 
271 2557 -0.5238095238201186 
271 3417 0.07142857142142 
272 254 -0.6690476192852999 
272 272 0.0 
272 371 -0.2666666667026032 
272 530 -0.16250000001608633 
272 534 -0.35000000002324816 
272 2499 -0.10000000001992393 
273 128 -0.41666666667373575 
273 254 -0.5833333333640127 
273 273 0.0 
273 398 -0.595238095249844 
274 160 -0.695945945962483 
274 254 -0.5408622934303948 
274 257 -0.6240786242006031 
274 274 0.0 
274 279 -0.4369369377234822 
274 281 -0.5287162162401857 
274 290 -0.395270270641074 
274 291 -0.6107068607503909 
274 303 -0.7680180181367751 
274 316 -0.5990990991082212 
274 322 -0.4594594594647139 
274 421 -0.6981981983291217 
274 492 -0.7274774775033162 
274 518 -0.6776061777086535 
274 561 -0.7898648649272006 
274 587 -0.6959459459636403 
274 647 -0.7939189189983336 
274 681 -0.639639639643194 
274 725 -0.5118243244123568 
274 836 -0.7387387387502442 
274 934 -0.7117117125837369 
274 1094 -0.6100386100666628 
274 1099 -0.5585585585919801 
274 1236 -0.7442084943070137 
274 1311 0.027027026957566758 
274 1339 -0.7069701281452967 
274 1344 -0.7094594594703523 
274 1522 -0.5743243243764888 
274 1799 -0.4797297298327683 
274 1912 -0.47297297299009244 
274 2183 -0.6959459459636406 
274 2364 -0.5304054054564111 
274 2371 -0.8459459460770302 
274 2415 -0.6418918919634069 
274 2915 -0.5567567567728697 
274 3139 -0.37837837844509137 
274 3380 -0.7054054056930559 
274 3451 0.027027026957567202 
275 231 -0.1500000000352253 
275 254 -0.3642857144191949 
275 275 0.0 
275 282 -0.2571428572221961 
275 288 -0.38333333336021047 
275 310 -0.6000000002802033 
275 554 -0.4342105274795811 
275 759 -0.5062500004677681 
275 909 -0.5000000011727532 
275 1801 -0.35000000017900756 
275 2484 -0.3382352943240068 
276 32 -0.5763157895776594 
276 250 -0.7375000000012097 
276 254 -0.5333333337757695 
276 276 0.0 
276 863 -0.5916666668269317 
276 2479 -0.5222222222335242 
277 254 -0.3690476190656571 
277 277 0.0 
277 502 -0.39583333335055215 
278 71 -0.5833333333371746 
278 96 -0.3333333333502251 
278 185 -0.41666666672819774 
278 254 -0.7380952382935297 
278 278 0.0 
278 1359 -0.5833333333369268 
278 3793 -0.33333333334233695 
279 32 -0.5043859668605082 
279 254 -0.37301587363322564 
279 274 -0.4369369377234822 
279 279 0.0 
279 286 -0.16666666698725807 
279 289 -0.2936507937364947 
279 614 -0.4777777778018506 
279 725 -0.3333333333505788 
279 1799 -0.23611111114746364 
279 2603 -0.47777777780034425 
280 138 -0.5000000005074092 
280 254 -0.6547619057985128 
280 280 0.0 
280 972 -0.6447368421677697 
280 1309 -0.5833333338871678 
280 2493 -0.6190476190566403 
280 2562 -0.5000000000053608 
281 19 -0.8105053191706066 
281 32 -0.6595394741222624 
281 104 -0.6688144332015533 
281 254 -0.641369047705479 
281 274 -0.5287162162401857 
281 281 0.0 
281 414 -0.6448863640883258 
281 641 -0.6026785718746994 
281 655 -0.665178572515456 
281 1217 -0.43750000003840617 
281 1338 -0.44791666669338026 
281 1485 -0.6388888890727413 
281 1840 -0.5187500000250354 
281 2364 -0.375000000780493 
281 2666 -0.4732142859604007 
281 3714 -0.18750000031229597 
281 3836 0.06249999999065303 
282 7 -0.49821428574329607 
282 231 -0.07142857185163498 
282 254 -0.433333334558921 
282 271 -0.3000000007822323 
282 275 -0.2571428572221961 
282 282 0.0 
282 284 -0.46373626375793586 
282 287 -0.310389610414892 
282 465 -0.5637931043780617 
282 511 -0.495238096529677 
282 554 -0.4601503760273138 
282 588 -0.5875000002785131 
282 662 -0.5214285736349389 
282 809 -0.5285714293283696 
282 883 -0.4222222227244181 
282 885 -0.2626373642817119 
282 928 -0.5345864689265873 
282 948 -0.3000000001168144 
282 972 -0.3744360905723887 
282 978 -0.1464285715292717 
282 1132 -0.37142857210946456 
282 1468 -0.20000000015792052 
282 1501 -0.7190476191106856 
282 1614 -0.20109890126037655 
282 1703 -0.3875000000834339 
282 1801 -0.36904761989082613 
282 1809 -0.6214285714375964 
282 1831 -0.5857142858447708 
282 2048 -0.4649350650889068 
282 2206 -0.3142857145827147 
282 2251 -0.7214285714315851 
282 2306 -0.24285714333769692 
282 2459 -0.45000000010441776 
282 2545 -0.4428571430383963 
282 3182 -0.40000000000990266 
282 3249 -0.6285714286121085 
283 254 -0.4571428571855636 
283 283 0.0 
283 291 -0.5269230770802444 
283 368 -0.32500000005422414 
283 560 -0.1750000019924851 
283 1739 -0.4666666671743551 
284 61 -0.4391025649619409 
284 254 -0.49267399286137925 
284 282 -0.46373626375793586 
284 284 0.0 
284 287 -0.10489510491832021 
284 291 -0.44230769293508976 
284 565 -0.5695970700531439 
284 793 -0.551282051288025 
284 947 -0.20192307694813483 
284 1508 -0.6648351654153251 
284 1664 -0.4358974359270582 
284 1839 -0.4307692315225089 
284 2246 -0.548076923099885 
284 3193 -0.34615384615953015 
285 254 -0.5500000001262957 
285 285 0.0 
285 686 -0.20000000004271246 
285 1279 -0.552941176495191 
285 1962 -0.20000000000489426 
285 2940 -0.4500000002298292 
286 254 -0.44047619107434555 
286 279 -0.16666666698725807 
286 286 0.0 
286 289 -0.25000000027445446 
286 325 -0.6298701301073675 
286 1073 -0.41071428574200564 
286 1279 -0.6092436975032927 
286 2608 -0.1428571440779025 
287 61 -0.5265151517021225 
287 254 -0.3647186148040742 
287 282 -0.310389610414892 
287 284 -0.10489510491832021 
287 287 0.0 
287 554 -0.40430622192739163 
287 885 -0.3356643357526039 
287 893 -0.02272727274527453 
287 947 -0.12500000005587886 
287 1505 -0.6267942583881485 
287 1799 -0.3977272729879504 
287 1839 -0.3696969704187436 
288 254 -0.5119047619255779 
288 275 -0.38333333336021047 
288 288 0.0 
288 687 -0.5000000010841821 
288 928 -0.4078947373177675 
288 2097 -0.5500000000018035 
288 3293 -0.6333333333365667 
289 51 -0.7904761904862392 
289 254 -0.4404761911800339 
289 262 -0.4285714287568263 
289 279 -0.2936507937364947 
289 286 -0.25000000027445446 
289 289 0.0 
289 554 -0.4793233086704487 
289 928 -0.4962406017088852 
289 949 -0.5595238096498683 
289 972 -0.49624060179596796 
289 1472 -0.30357142947722493 
289 1633 -0.5446428583019842 
289 1869 -0.17857142881280086 
289 2608 -0.28571428579281455 
289 2629 -0.6428571428716743 
290 111 -0.605932203599516 
290 254 -0.38690476192054035 
290 274 -0.395270270641074 
290 290 0.0 
290 1991 -0.339285714995331 
291 134 -0.5608974360432264 
291 254 -0.4065934066465826 
291 274 -0.6107068607503909 
291 283 -0.5269230770802444 
291 284 -0.44230769293508976 
291 291 0.0 
291 312 -0.7179487181263808 
291 480 -0.4102564102928137 
291 489 -0.6538461538600435 
291 554 -0.5273279375367363 
291 732 -0.44871794985397506 
291 792 -0.8159340663476444 
291 909 -0.586538461562329 
291 1036 -0.6282051282069288 
291 1254 -0.7032967035042139 
291 1288 -0.6500000013047198 
291 1339 -0.6639676115206203 
291 1610 -0.6076923077046221 
291 1635 -0.6442307692468707 
291 1696 -0.6634615389579461 
291 1839 -0.47820512823718375 
291 2124 -0.5217948718214933 
291 2176 -0.7331730769435634 
291 2485 -0.5432692308749234 
291 2669 -0.6730769230849243 
291 3036 -0.7115384615397686 
291 3777 0.03846153841039923 
292 292 0.0 
292 293 0.19999999997925044 
292 294 0.19999999997925055 
292 295 -0.3000000000100629 
292 296 -0.550000000004718 
292 297 -0.7000000000019211 
293 292 0.19999999997925044 
293 293 0.0 
294 292 0.19999999997925055 
294 294 0.0 
295 292 -0.3000000000100629 
295 295 0.0 
295 2746 -0.2500000000114524 
296 292 -0.550000000004718 
296 296 0.0 
296 1398 -0.5500000000046013 
296 1652 -0.7100000000013607 
296 3481 0.24999999997633604 
297 292 -0.7000000000019211 
297 297 0.0 
297 307 -0.7071428571940286 
297 1078 -0.8210526315809656 
297 1250 -0.6888888901337207 
297 1401 -0.6333333335706144 
297 1856 -0.6833333334388254 
297 2125 -0.6833333334388254 
297 2543 0.09999999998832099 
297 2843 -0.6125000000091967 
297 3396 0.09999999998832121 
298 5 -0.38888888889582685 
298 298 0.0 
298 299 -0.4333333333365479 
299 100 -0.7083333336469646 
299 111 -0.712994350329824 
299 298 -0.4333333333365479 
299 299 0.0 
299 398 -0.6666666672940287 
299 434 -0.3666666672496679 
299 518 -0.5571428571567973 
299 628 -0.5000000000820362 
299 660 -0.581481481685979 
299 725 -0.487500001470486 
299 1250 -0.3777777793601296 
299 1301 -0.46666666671625423 
299 1396 -0.4666666668218782 
299 1513 -0.5809523810178261 
299 2761 -0.6000000002761623 
299 2888 -0.7000000000956836 
300 300 0.0 
300 301 -0.5416666667328314 
300 302 -0.30000000004246696 
300 303 -0.5833333333378641 
301 300 -0.5416666667328314 
301 301 0.0 
301 591 -0.7583333333360314 
301 1194 -0.7571428580034536 
301 1313 -0.550000000014875 
301 1314 0.04999999997623206 
301 1315 -0.4500000000350053 
301 1316 -0.3500000001953478 
301 1317 -0.32500000002665064 
301 1318 -0.25000000002727174 
301 1319 -0.5666666666731621 
301 1320 0.04999999997623228 
301 1321 -0.4000000000049506 
301 1322 0.04999999997623217 
301 1323 -0.40000000017451676 
301 1324 -0.15000000000417124 
301 1325 -0.6166666666689329 
301 1326 -0.6750000001525542 
301 1327 -0.5750000004435332 
301 1328 -0.10000000001470122 
301 1329 -0.46666666675772994 
302 300 -0.30000000004246696 
302 302 0.0 
302 336 -0.5500000000047178 
302 610 -0.7523809523822156 
302 1611 -0.5000000003443876 
302 2462 -0.36666666668347636 
303 69 -0.7247474749920282 
303 206 -0.7525252525316639 
303 274 -0.7680180181367751 
303 300 -0.5833333333378641 
303 303 0.0 
303 565 -0.6666666667032621 
303 577 -0.6833333338434451 
303 629 -0.788888888894296 
303 839 -0.6388888889117235 
303 1441 -0.7125603866812502 
303 1482 -0.7222222222306529 
303 1488 -0.6333333333480362 
303 1687 -0.6313131313771412 
303 1763 -0.5833333333636705 
303 1856 -0.5833333335736783 
303 1962 -0.4166666666695338 
303 2039 -0.6944444445299811 
303 2862 -0.5555555555631055 
303 3807 -0.4166666666695338 
304 304 0.0 
304 305 0.3333333333055045 
304 306 -0.5666666666693496 
304 307 -0.5238095238143974 
305 304 0.3333333333055045 
305 305 0.0 
306 304 -0.5666666666693496 
306 306 0.0 
306 723 -0.8000000000038026 
306 1283 -0.7000000012658638 
306 1400 -0.657142857402012 
306 1784 -0.6500000000028672 
306 2677 -0.5666666666705102 
306 2678 -0.40000000000646896 
306 2679 -0.5666666666705102 
306 2680 -0.6625000000962862 
306 2681 0.09999999998832132 
307 28 -0.6847290645441118 
307 155 -0.5595238102645241 
307 297 -0.7071428571940286 
307 304 -0.5238095238143974 
307 307 0.0 
307 985 -0.5857142858288891 
307 2246 -0.5357142857505146 
307 2698 -0.5779220785128478 
308 308 0.0 
308 309 -0.35000000031384837 
308 310 -0.35000000031384837 
309 8 -0.7800000000856933 
309 213 -0.7547619048023915 
309 308 -0.35000000031384837 
309 309 0.0 
309 727 -0.6750000000136112 
309 839 -0.5500000000888894 
309 1348 -0.4000000000064692 
309 1876 -0.40000000000646896 
309 1877 -0.5666666666705102 
309 1878 -0.2500000000265854 
309 1879 -0.6071428573141018 
310 13 -0.6833333333674423 
310 32 -0.6026315790118324 
310 169 -0.6250000000764526 
310 275 -0.6000000002802033 
310 308 -0.35000000031384837 
310 310 0.0 
310 583 -0.6500000015828318 
310 1505 -0.6552631579577968 
310 1649 -0.45000000009793895 
310 3630 -0.4000000000064694 
310 3631 -0.4000000000064694 
311 311 0.0 
311 312 -0.592592592599283 
311 313 -0.5333333333430994 
311 314 -0.3333333333420525 
312 253 -0.8009259260061752 
312 269 -0.7340067340884884 
312 291 -0.7179487181263808 
312 311 -0.592592592599283 
312 312 0.0 
312 415 -0.46296296296773276 
312 560 -0.5833333335492052 
312 668 -0.7712418301636008 
312 721 -0.8240740740864028 
312 728 -0.4629629629677323 
312 836 -0.7222222222512862 
312 953 -0.685185185529013 
312 1424 -0.46296296296773254 
312 1739 -0.6259259260034027 
312 1810 -0.46296296296409567 
312 1854 -0.5509259259829662 
312 1858 -0.7350427351970641 
312 1893 -0.6259259259368144 
312 1999 -0.4259259259312689 
312 2000 -0.6111111111153904 
312 2001 -0.7154882155912137 
312 2002 -0.6703703704772912 
312 2003 -0.6296296296313706 
312 2004 -0.6944444444490099 
312 2005 -0.4629629629677323 
312 2006 -0.4259259259303938 
312 2007 0.037037036982756955 
312 2008 0.037037036982757066 
313 41 -0.7214285714926425 
313 102 -0.7904761904773843 
313 255 -0.5666666667407638 
313 311 -0.5333333333430994 
313 313 0.0 
313 614 -0.7333333333571943 
313 788 -0.6500000001861577 
313 949 -0.6083333335225123 
313 1272 -0.4333333356315565 
313 1622 -0.6500000000009227 
313 1954 0.06666666666038634 
313 2240 0.06666666666038612 
313 2410 -0.30000000001907745 
313 2680 -0.38333333334875563 
313 2993 -0.36666666674637227 
313 3174 -0.6000000000028574 
314 180 -0.62318840579911 
314 311 -0.3333333333420525 
314 314 0.0 
314 2200 -0.33333333334205273 
315 16 -0.7280701755208154 
315 315 0.0 
315 316 -0.41666666668052965 
315 317 0.16666666664825036 
315 318 -0.5000000020994031 
315 319 -0.6250000005435294 
315 320 -0.6568627451570068 
316 27 -0.6156462585294884 
316 274 -0.5990990991082212 
316 315 -0.41666666668052965 
316 316 0.0 
317 315 0.16666666664825036 
317 317 0.0 
318 315 -0.5000000020994031 
318 318 0.0 
318 1180 -0.666666666795837 
318 1806 -0.5000000015571133 
318 2244 -0.47619047643749735 
318 2500 0.1666666666482508 
318 2875 -0.4166666667732355 
319 150 -0.6333333334634663 
319 213 -0.7261904762025004 
319 315 -0.6250000005435294 
319 319 0.0 
319 877 -0.810606060621814 
319 1659 -0.4583333333567674 
319 2190 -0.750000000010709 
319 2766 -0.25000000016813395 
319 2796 -0.5500000008834287 
319 3089 -0.4166666667268666 
319 3316 -0.37500000029395686 
319 3760 0.08333333332413417 
319 3764 -0.3750000002939564 
320 207 -0.5882352942501632 
320 213 -0.6862745110355872 
320 236 -0.6316526615938391 
320 315 -0.6568627451570068 
320 320 0.0 
320 427 -0.49197861065796067 
320 577 -0.623529411771341 
320 593 -0.6442577031661365 
320 617 -0.617647059482018 
320 756 -0.6221719465260516 
320 821 -0.5784313725537795 
320 976 -0.5163398694357904 
320 1194 -0.6081932781702732 
320 1235 -0.6243697480425761 
320 1679 -0.6029411772893365 
320 1750 -0.5213903747142712 
320 2612 -0.4647058824280821 
320 2894 -0.5073529412104929 
321 99 -0.4166666667994279 
321 104 -0.688144330285432 
321 321 0.0 
321 424 -0.33928571431829946 
321 2337 0.24999999997633604 
322 99 -0.33333333366027196 
322 274 -0.4594594594647139 
322 322 0.0 
323 12 -0.4430538174714962 
323 32 -0.5371517028786972 
323 99 -0.516339870358175 
323 173 -0.3235294141848182 
323 179 -0.5588235294383241 
323 241 -0.5698529442068634 
323 323 0.0 
323 502 -0.6011029415215758 
323 508 -0.5324283560973857 
323 529 -0.5186074431220833 
323 991 -0.509803921603246 
323 1254 -0.23529411932280597 
323 1360 -0.6108597293185967 
323 1640 -0.40686274522051 
323 1953 -0.4941176472227835 
323 2232 -0.582352941212239 
323 2319 -0.44852941178205574 
323 2415 -0.3529411783648453 
324 32 -0.6622807017844232 
324 99 -0.555555555789701 
324 324 0.0 
324 376 -0.6111111114687637 
324 1620 -0.41666666668967167 
324 1752 -0.5000000002675313 
324 3217 -0.5833333333371751 
325 99 -0.742424242661212 
325 189 -0.7247474749987646 
325 286 -0.6298701301073675 
325 325 0.0 
325 524 -0.7651515154946182 
325 529 -0.6006493507398469 
325 559 -0.6530303040965539 
325 881 -0.5272727277944211 
325 883 -0.48232323372806585 
325 972 -0.6710526326951469 
325 1007 -0.7662337663366812 
325 1198 -0.5272727282334113 
325 1315 -0.7077922078789507 
325 1441 -0.712450593345866 
325 1510 -0.586363636402824 
325 1990 -0.7651515151747834 
325 2117 -0.49545454547229806 
325 2650 -0.7318181818278244 
325 2774 -0.7196969697028492 
325 3224 -0.5454545455003843 
325 3353 -0.44090909103631715 
325 3567 -0.43939393942920035 
325 3611 0.04545454542286986 
326 99 0.11111111109800775 
326 326 0.0 
327 99 -0.7124183006777036 
327 155 -0.7279411765126143 
327 327 0.0 
327 608 -0.7117647059059573 
327 869 -0.6493212675140851 
327 951 -0.44852941181532313 
327 1142 -0.5784313725537793 
327 1251 -0.5196078435603142 
327 1416 -0.7117647059059575 
327 1843 -0.8006535947730629 
327 1972 -0.7411764705897688 
327 2703 -0.607843137257492 
327 2805 -0.651260504471515 
327 2855 -0.6823529412242428 
327 2919 -0.7279411765534247 
327 3749 -0.35294117647755163 
327 3885 0.05882352939801805 
327 3899 -0.3529411764775514 
328 328 0.0 
328 329 -0.16666666667792018 
328 330 -0.4230769230824445 
329 328 -0.16666666667792018 
329 329 0.0 
329 655 -0.5238095238198699 
329 657 0.1666666666581631 
330 8 -0.7276923077225219 
330 261 -0.5470085470662327 
330 328 -0.4230769230824445 
330 330 0.0 
330 660 -0.7193732194381077 
330 1152 -0.3942307693131948 
330 1205 -0.6538461540851139 
330 1576 -0.7841880343909859 
330 1749 -0.7285067873535898 
330 1778 -0.7096153846380897 
330 2261 -0.6025641026066912 
330 2589 -0.7346153846424035 
330 2643 -0.7417582418749564 
330 2693 -0.3974358975191332 
331 331 0.0 
331 332 -0.46666666667226453 
331 333 -0.4166666666735186 
331 334 -0.5555555555586054 
332 331 -0.46666666667226453 
332 332 0.0 
332 1195 -0.500000000344389 
332 1196 -0.3000000000100629 
332 1197 -0.3857142857814464 
332 1198 -0.4000000011652496 
333 331 -0.4166666666735186 
333 333 0.0 
333 1397 -0.2500000000086171 
333 1398 -0.550000000004718 
333 1399 -0.41666666667373575 
334 331 -0.5555555555586054 
334 334 0.0 
334 653 -0.5555555557826299 
334 1490 -0.22222222316664242 
334 1492 -0.5606060606270189 
334 2075 -0.5555555555596876 
334 2114 -0.3888888888958266 
334 3024 -0.22222222228181732 
334 3736 -0.11111111141987329 
334 3889 0.11111111109800764 
335 335 0.0 
335 336 -0.41666666667373575 
335 337 -0.1666666667280272 
335 338 -0.4166666666845633 
336 302 -0.5500000000047178 
336 335 -0.41666666667373575 
336 336 0.0 
336 627 -0.6590909090935941 
336 1952 -0.5000000000056277 
337 7 -0.6291666666753297 
337 335 -0.1666666667280272 
337 337 0.0 
337 1041 -0.5555555555586054 
338 335 -0.4166666666845633 
338 338 0.0 
338 465 -0.7557471266130236 
338 1096 -0.5000000026723073 
338 2486 -0.4166666667500414 
338 2965 -0.3333333333423367 
338 3758 0.16666666664825058 
339 339 0.0 
339 340 -0.38461538490143354 
339 341 -0.3125000000127969 
340 177 -0.42307692308030154 
340 339 -0.38461538490143354 
340 340 0.0 
340 363 -0.6730769230793041 
340 392 -0.7564102564730968 
340 750 -0.7355769231043783 
340 797 -0.7521367529354763 
340 908 -0.6858974371366346 
340 1139 0.07692307691495304 
340 1140 -0.6846153851263987 
340 1141 -0.6730769230793046 
340 1142 -0.512820512832155 
340 1143 -0.7179487180212392 
340 1144 -0.5512820513102215 
341 339 -0.3125000000127969 
341 341 0.0 
341 385 -0.21323529515805495 
341 623 -0.37500000087723917 
341 694 -0.5267857143725236 
341 1155 -0.3333333336005979 
341 1771 0.05357142839762541 
341 1778 -0.4125000000154313 
341 2230 -0.3382352944530014 
342 342 0.0 
342 343 -0.7280701755208154 
342 344 -0.6904761904785799 
342 345 -0.41666666762659355 
342 346 -0.41666666668052965 
342 347 -0.33333333334233695 
342 348 -0.41666666668456376 
343 38 -0.7434210532446521 
343 212 -0.7697368423383324 
343 342 -0.7280701755208154 
343 343 0.0 
343 447 -0.5921052632240191 
343 448 -0.6710526315858854 
343 449 0.05263157892664905 
343 450 -0.44736842105734054 
343 451 -0.6947368421327855 
343 452 -0.4473684210573403 
343 453 -0.6644736842178007 
343 454 -0.4473684210573401 
343 455 -0.5087719298416034 
343 456 -0.614035087721664 
343 457 -0.614035087721664 
343 458 -0.7267206479345747 
343 459 -0.6973684210543916 
343 460 -0.44736842105734054 
343 461 -0.778195488789128 
343 462 -0.7210526315945149 
344 342 -0.6904761904785799 
344 344 0.0 
344 764 -0.5357142857505146 
344 1784 -0.607142857146105 
344 1855 -0.6428571436222545 
344 2380 -0.7571428571445404 
344 2844 -0.3571428571510269 
344 3031 -0.5238095238143972 
345 104 -0.646907217317205 
345 116 -0.5603448276036365 
345 342 -0.41666666762659355 
345 345 0.0 
345 1364 -0.47500000045580393 
346 342 -0.41666666668052965 
346 346 0.0 
346 1505 -0.5745614035366042 
346 2096 -1.2995338138921397e-10 
347 342 -0.33333333334233695 
347 347 0.0 
347 3486 -1.6896040122560407e-11 
348 199 -0.541666666673086 
348 342 -0.41666666668456376 
348 348 0.0 
348 427 -0.5757575757599391 
349 349 0.0 
349 350 -0.16666666667792018 
349 351 -0.2500000000086169 
350 349 -0.16666666667792018 
350 350 0.0 
350 2949 -0.3333333333420525 
350 3297 -0.1666666666799932 
351 349 -0.2500000000086169 
351 351 0.0 
351 1217 -0.37500000017433033 
351 1279 -0.6911764705901682 
351 2541 -0.37500000017433033 
352 352 0.0 
352 353 0.33333333331549286 
353 352 0.33333333331549286 
353 353 0.0 
353 2238 -0.2500000000814975 
353 2756 0.1666666665323031 
354 354 0.0 
354 355 0.24999999998872124 
355 354 0.24999999998872124 
355 355 0.0 
355 781 -0.22500000005070753 
355 782 0.04166666593802015 
355 783 0.416666666429091 
356 111 -0.799435028257875 
356 356 0.0 
356 357 0.16666666664825058 
356 358 -0.683333333336122 
356 359 -0.7789855075149781 
356 360 -0.33333333334233695 
356 361 -0.6666666666694112 
357 356 0.16666666664825058 
357 357 0.0 
358 139 -0.7333333333350556 
358 356 -0.683333333336122 
358 358 0.0 
358 617 -0.6647058828340862 
358 856 -0.6833333333730931 
358 1007 -0.7571428571445409 
358 1296 -0.30000000000661853 
358 1692 0.0999999999883211 
358 2537 -0.633333333339785 
358 2582 -0.4000000000064694 
358 2583 0.09999999998832121 
359 28 -0.7117691156966472 
359 62 -0.737577639773894 
359 78 -0.6603260870529282 
359 154 -0.46442687752286504 
359 241 -0.5851449290126589 
359 356 -0.7789855075149781 
359 359 0.0 
359 437 -0.6521739132052136 
359 696 -0.7130434783874939 
359 788 -0.7922705315028584 
359 804 -0.7463768116089087 
359 829 -0.583850931753136 
359 881 -0.6173913046036534 
359 982 -0.648550725618841 
359 1049 -0.456521739136021 
359 1235 -0.6431677025203884 
359 1263 -0.7347826087719547 
359 1462 -0.612318840603165 
359 1469 -0.5760869567471929 
359 1917 -0.7364130440156273 
359 2045 -0.7246376814041104 
359 2225 -0.5271739130673643 
359 2250 -0.6123188406031652 
359 2401 -0.47826086960729475 
359 2410 -0.44565217392099354 
359 2412 -0.8115942029045065 
359 2640 -0.6340579710242127 
359 2699 -0.5144927537621538 
359 2736 -0.5673913044954566 
359 2796 -0.5913043479215976 
359 2832 -0.6130434783808671 
359 2891 -0.45652173913602034 
359 2956 -0.5478260873835945 
359 2983 0.021739130363144232 
359 2989 -0.6086956523236642 
359 3164 -0.43478260870511054 
359 3175 -0.46739130435138265 
359 3176 0.021739130363144565 
359 3177 -0.6449275362418432 
359 3178 -0.4239130434896019 
359 3179 -0.42391304348957437 
359 3180 -0.20652173913533778 
359 3181 -0.6521739131271951 
359 3182 -0.413043478274 
359 3183 0.0217391303631449 
359 3184 0.021739130363144454 
359 3185 0.021739130363144676 
360 356 -0.33333333334233695 
360 360 0.0 
360 2222 -1.6896040122560407e-11 
