0 1 -0.30000000000697535 
0 2 -0.4677419354848782 
1 0 -0.30000000000697535 
1 451 -0.10000000004492282 
1 1272 -0.4000000014675307 
1 1357 0.049999999956932495 
1 1880 -0.3428571429066132 
2 0 -0.4677419354848782 
2 37 -0.6387096774412124 
2 45 -0.6975806454563318 
2 55 -0.7350230416451842 
2 104 -0.6383438644468247 
2 226 -0.6209677456755971 
2 228 -0.48967741947212895 
2 241 -0.6881720430521436 
2 243 -0.6370967742570299 
2 244 -0.18548387097265073 
2 263 -0.5053763442576527 
2 511 -0.6580645162481773 
2 561 -0.7443548387254579 
2 661 -0.7204301076792652 
2 718 -0.3903225808594777 
2 859 -0.6881720431583811 
2 896 -0.7032258064741459 
2 932 -0.5791788857115594 
2 945 -0.588709677476472 
2 1255 -0.49193548505676477 
2 1703 -0.6048387097644969 
2 1765 -0.43548387097264385 
2 1866 -0.6559139785248238 
2 2045 -0.5913978508018949 
2 2327 -0.7677419354864536 
2 2484 -0.6508538899849061 
2 2596 -0.4569892473361823 
2 2890 -0.42473118280896394 
2 3094 -0.4677419354890229 
2 3340 0.032258064453098756 
2 3624 -0.45161290322903946 
3 4 -0.33333333334233695 
3 5 -0.6666666666709693 
3 6 -0.2500000006833274 
3 7 -0.7833333333470462 
3 8 -0.5900000002478321 
3 9 -0.29166666675495323 
4 3 -0.33333333334233695 
4 723 -0.4333333333365479 
5 3 -0.6666666666709693 
5 265 -0.7337164751227245 
5 298 -0.3888888888958266 
5 679 -0.6349206350148937 
5 701 -0.5416666667395396 
5 888 -0.507936507961392 
5 891 -0.5079365079454417 
5 930 -0.7083333335304081 
5 2324 -0.5833333333618742 
6 3 -0.2500000006833274 
6 621 0.166666666658163 
6 2463 -0.33333333334205273 
7 3 -0.7833333333470462 
7 32 -0.5302631593062088 
7 56 -0.7056818185182077 
7 227 -0.7135869570362365 
7 282 -0.4982142857432956 
7 337 -0.6291666666753302 
7 432 -0.6767857143275813 
7 465 -0.5318965519308372 
7 529 -0.673214287348034 
7 739 -0.7000000000201769 
7 748 -0.6375000001213875 
7 761 -0.650000000084046 
7 809 -0.5392857145620418 
7 883 -0.5333333333993426 
7 976 -0.4555555560497546 
7 978 -0.4125000005634183 
7 1123 -0.7166666668799597 
7 1205 -0.7096153850263256 
7 1241 -0.6875000000764453 
7 1289 -0.5625000011566359 
7 1660 -0.46250000001528013 
7 1788 -0.5625000001122795 
7 1789 -0.47500000018763 
7 1875 -0.5972222225540644 
7 2219 -0.5125000001936506 
7 2257 -0.5000000000943261 
7 2278 -0.5666666666897102 
7 2326 -0.4517857150139615 
7 2374 -0.63750000010437 
7 2423 -0.6875000000366449 
7 2485 -0.5375000006215445 
7 2545 -0.36250000075723254 
7 2605 -0.5125000000583739 
7 2810 -0.3500000001331065 
7 2824 -0.47500000002737686 
7 2825 -0.4500000000054549 
7 2826 -0.7125000000090906 
7 2827 0.02499999992907931 
7 2828 -0.5750000014060028 
7 2829 -0.4750000000273773 
8 3 -0.5900000002478321 
8 9 -0.4650000001523882 
8 149 -0.606666666669579 
8 309 -0.7800000000856939 
8 330 -0.7276923077225217 
8 377 -0.753333333356903 
8 414 -0.7690909097479646 
8 549 -0.5866666666713312 
8 621 -0.40000000001039315 
8 911 -0.6971428571997071 
8 1046 -0.6000000005003392 
8 1181 -0.7800000000467373 
8 1234 -0.6533333334716724 
8 1432 -0.7950000001123294 
8 1445 -0.6700000000085635 
8 1746 -0.506666666691105 
8 1975 -0.5466666667034774 
8 2552 0.03999999995254555 
8 2955 -0.7550000000455381 
8 3110 -0.400000000012414 
8 3202 -0.6000000004305481 
8 3369 -0.5250000000242732 
8 3602 -0.4600000000046558 
8 3665 0.03999999995254577 
8 3666 0.039999999952545884 
9 3 -0.29166666675495323 
9 8 -0.4650000001523882 
9 19 -0.686170212784603 
9 2671 -0.2500000000114524 
10 11 -0.5416666682918807 
10 12 -0.7269503547182419 
10 13 -0.6666666666755832 
10 14 -0.18333333372280491 
10 15 -0.20833333364391238 
10 16 -0.7807017543893746 
11 10 -0.5416666682918807 
11 196 -0.5972222225241921 
11 265 -0.7370689655416836 
11 384 -0.5833333333367086 
11 385 -0.7867647058928364 
11 386 -0.6750000000008916 
11 387 -0.6250000000203855 
11 388 0.08333333332413406 
11 389 -0.6666666666691912 
11 390 -0.500000000013026 
11 391 -0.4166666666724308 
11 392 -0.741666666689552 
12 10 -0.7269503547182419 
12 37 -0.7042553192211198 
12 103 -0.6894630193409466 
12 109 -0.6436170214606591 
12 125 -0.7040618955935547 
12 152 -0.5279255322158727 
12 159 -0.5446808510897587 
12 173 -0.5463078852061278 
12 196 -0.4988179671363546 
12 323 -0.4430538174714953 
12 424 -0.7294832831418083 
12 508 -0.47354064381980754 
12 623 -0.6082826751650492 
12 698 -0.4441489361753628 
12 737 -0.6042553193093987 
12 859 -0.7269503547854019 
12 954 -0.5678191492479499 
12 1084 -0.6436170213422145 
12 1134 -0.47872340429914995 
12 1140 -0.6446808512559024 
12 1229 -0.696808510687279 
12 1230 -0.7375886526047157 
12 1231 -0.7792553193685865 
12 1232 -0.457446808516234 
12 1233 -0.09042553194482217 
12 1234 -0.6843971634645736 
12 1235 -0.7085106384233062 
12 1236 -0.5585106384376908 
12 1237 -0.3404255319261207 
12 1238 -0.8269503549838211 
12 1239 -0.34042553192612046 
12 1240 -0.4645390071127249 
12 1241 -0.4553191491094979 
12 1242 -0.5709219868720918 
12 1243 -0.6347517730595122 
12 1244 -0.7180851064023672 
12 1245 0.021276595673142662 
12 1246 0.021276595673142662 
12 1247 -0.45390071006236865 
12 1248 -0.4255319149050063 
12 1249 0.021276595673142995 
12 1250 -0.6607565015550596 
12 1251 -0.6312056738021226 
12 1252 0.021276595673143328 
12 1253 -0.4787234042991497 
12 1254 -0.5045592706448103 
12 1255 -0.6329787234656297 
13 10 -0.6666666666755832 
13 66 -0.6437500001048024 
13 103 -0.48809523990708215 
13 104 -0.5073883162607702 
13 234 -0.7000000000594566 
13 259 -0.516666668941689 
13 310 -0.6833333333674421 
13 366 -0.6333333348273686 
13 418 -0.5583333338708709 
13 473 -0.7333333333456418 
13 507 -0.23333333342410478 
13 839 -0.6000000004075086 
13 851 -0.583333333445595 
13 908 -0.5388888889796994 
13 1016 -0.538888889081697 
13 1073 -0.6916666667113036 
13 1155 -0.6500000004947855 
13 1741 -0.5833333336875897 
13 1957 -0.5166666667382716 
13 1998 -0.5833333334796631 
13 2034 -0.8090909091114258 
13 2091 0.0333333332720388 
13 2110 -0.23333333355699737 
13 2236 -0.4166666688279326 
13 2437 -0.7333333333801497 
13 2502 -0.5666666666974236 
13 2503 -0.5833333343142348 
13 2504 -0.0833333333536519 
13 2505 -0.4666666666717072 
13 2506 0.03333333327203869 
14 10 -0.18333333372280491 
14 15 -0.22500000015029453 
14 871 -0.6500000000057395 
14 2841 -0.5857142857284185 
14 3435 0.19999999997925044 
15 10 -0.20833333364391238 
15 14 -0.22500000015029453 
15 169 -0.6750000000243865 
15 1514 -0.6500000000021433 
16 10 -0.7807017543893746 
16 315 -0.7280701755208161 
16 626 -0.6282894737763192 
16 628 -0.6087719298508059 
16 885 -0.6376518219240359 
16 889 -0.6076555027582813 
16 911 -0.7255639098461366 
16 1011 -0.44736842105734054 
16 1178 -0.4157894737131409 
16 1179 -0.6130030963151314 
16 1195 -0.6684210527090364 
16 1903 -0.1447368421094395 
16 2124 -0.6421052631731481 
16 2380 -0.6710526318618211 
16 3217 -0.6973684210543916 
16 3249 -0.5684210529558054 
16 3255 -0.6447368421178861 
16 3720 -0.44736842105734054 
16 3721 0.05263157892664916 
17 18 -0.3000000000069756 
17 19 -0.4787234042991497 
18 17 -0.3000000000069756 
18 100 -0.7166666666682917 
18 2387 0.19999999997925055 
18 2388 0.19999999997925055 
18 2389 0.19999999997925044 
19 9 -0.686170212784603 
19 17 -0.4787234042991497 
19 35 -0.5815602837134399 
19 165 -0.7356792148616558 
19 223 -0.7473404256433402 
19 281 -0.8105053191706066 
19 394 -0.41489361703523575 
19 635 -0.6648936170529867 
19 712 0.021276595673142884 
19 715 -0.8356973996066934 
19 923 -0.7613981763142217 
19 1044 -0.6241134751944144 
19 1067 -0.5815602837134395 
19 1091 -0.7042553192854237 
19 1234 -0.7588652482908622 
19 1277 -0.664893617070486 
19 1308 -0.4787234042991495 
19 1563 -0.5815602837152614 
19 1714 -0.4787234042991495 
19 1724 -0.6347517730595125 
19 1736 0.021276595673142884 
19 1945 -0.47872340429914995 
19 1988 -0.6453900709325038 
19 2294 -0.645390070932504 
19 2300 -0.8039513677913923 
19 2335 -0.6347517730595122 
19 2406 0.021276595673142773 
19 2529 0.021276595673142884 
19 2572 0.021276595673142662 
19 2754 -0.6347517730595129 
19 2761 -0.7148936170267479 
19 2951 -0.414893617035236 
19 2981 -0.7294832827149325 
19 3076 -0.6134751773393674 
19 3095 0.021276595673142662 
19 3146 -0.7787234042617062 
19 3438 0.021276595673142662 
19 3523 -0.4787234042991495 
19 3531 0.021276595673142662 
19 3532 0.021276595673142995 
19 3533 -0.5815602837152611 
19 3534 0.021276595673142995 
19 3535 0.021276595673143328 
19 3536 -0.4787234042991497 
19 3537 -0.4787234042991497 
19 3538 -0.6347517730595125 
19 3539 -0.4787234042991497 
20 21 0.49999999996157984 
20 22 -1.6895818077955482e-11 
21 20 0.49999999996157984 
22 20 -1.6895818077955482e-11 
22 889 -0.40909090909697854 
23 24 0.4999999997258183 
24 23 0.4999999997258183 
24 493 -0.3000000000069756 
25 26 -0.16666666672802677 
25 27 -0.5952380952422482 
25 28 -0.5459770115763072 
26 25 -0.16666666672802677 
26 794 -0.6354166666688092 
26 1721 -7.008393865248763e-12 
27 25 -0.5952380952422482 
27 115 -0.7598639455962002 
27 165 -0.721350079038213 
27 237 0.020408163194119644 
27 316 -0.615646258529488 
27 447 -0.6989795918904171 
27 635 -0.6173469388374728 
27 704 -0.6978458054048058 
27 706 -0.5748299320038797 
27 714 -0.728571428661194 
27 1067 -0.5952380952642091 
27 1121 -0.827664399313369 
27 1150 -0.64625850341292 
27 1235 -0.8081632656293545 
27 1336 -0.6989795918904171 
27 1367 0.020408163194119977 
27 1397 -0.4795918367814962 
27 1463 -0.7309833027017847 
27 1577 -0.7091836735073278 
27 1785 -0.4183673470388092 
27 1786 -0.6530612245313505 
27 1787 -0.27210884355620535 
27 1875 -0.7460317464417638 
27 1880 -0.7448979593725373 
27 2137 -0.6258503401538569 
27 2338 -0.47959183678149575 
27 2369 0.020408163194119977 
27 2714 0.020408163194119755 
27 2800 0.020408163194119644 
27 2867 -0.7448979595843896 
27 2945 -0.709183673504256 
27 2968 -0.6673469387832298 
27 3092 -0.6877551021492816 
27 3104 -0.4489795918443664 
27 3105 -0.6360544217789417 
27 3106 -0.47959183678149575 
27 3107 -0.41836734695259437 
27 3108 -0.64625850341292 
27 3109 0.020408163194119422 
27 3110 -0.6360544217699069 
27 3111 0.020408163194119533 
27 3112 -0.7525510205314545 
27 3113 0.020408163194119644 
27 3114 -0.46938775510557385 
27 3115 -0.479591836781496 
27 3116 -0.479591836781496 
27 3117 -0.7795918367413674 
27 3118 0.020408163194119533 
27 3119 -0.4693877551055732 
28 25 -0.5459770115763072 
28 32 -0.5149727777278468 
28 111 -0.6852717713680545 
28 120 -0.5965517242837208 
28 238 -0.4137931034574862 
28 307 -0.6847290645441111 
28 359 -0.7117691156966481 
28 371 -0.5919540231023821 
28 404 -0.5043103468210721 
28 414 -0.6622257064678643 
28 529 -0.5826882488470686 
28 532 -0.6276939658218614 
28 552 -0.6620689655694934 
28 593 -0.6198686372839983 
28 623 -0.5665024638899487 
28 640 -0.5775862072479372 
28 687 -0.5359195409996336 
28 910 -0.5788177340284961 
28 928 -0.4709618882613502 
28 990 -0.4923371656609874 
28 1441 -0.6191904051175108 
28 1652 -0.6358620690228269 
28 1901 -0.51034482775362 
28 1918 0.034482758561398597 
28 2178 -0.27586206925377854 
28 2728 -0.4310344829401185 
28 2822 -0.3793103448676911 
28 3485 -0.4137931034574862 
28 3486 -0.46551724138424877 
29 30 -0.3333333334095019 
29 31 -0.45614035143598763 
29 32 -0.5350877193956944 
30 29 -0.3333333334095019 
30 593 -0.6666666680174085 
30 1172 -0.7156862745967874 
30 1808 -0.7222222222241226 
30 1809 -0.5833333338871678 
30 1810 -0.33333333334233695 
31 29 -0.45614035143598763 
31 236 -0.7518796995026951 
31 508 -0.7017543859929094 
31 851 -0.6754385965023739 
31 884 -0.4210526315817571 
31 954 -0.5756578948017388 
31 1240 -0.4824561403829768 
31 1260 -0.5921052633225095 
31 1426 -0.42105263158175665 
31 1763 -0.5614035087794402 
31 1916 -0.6447368421162878 
31 1950 0.052631578926648936 
31 2029 -0.614035087721664 
31 2102 -0.6157894737019403 
31 2545 -0.6947368423855751 
31 3133 0.05263157892664916 
31 3134 0.05263157892664927 
31 3135 -0.44736842105734054 
31 3136 -0.5921052635478365 
32 7 -0.5302631593062088 
32 28 -0.5149727777278468 
32 29 -0.5350877193956944 
32 84 -0.6184210527726766 
32 195 -0.625438598030031 
32 226 -0.5305602718049605 
32 276 -0.5763157895776603 
32 279 -0.5043859668605084 
32 281 -0.6595394741222622 
32 310 -0.6026315790118324 
32 323 -0.5371517028786972 
32 324 -0.6622807017844228 
32 495 -0.6184210532250782 
32 513 -0.6578947368900299 
32 565 -0.5018796999055468 
32 598 -0.6622807019126751 
32 660 -0.5677387930735498 
32 695 -0.6701754387641485 
32 709 -0.526315789564699 
32 934 -0.6692982468853141 
32 943 -0.5405701758002905 
32 1427 -0.6282894738496749 
32 1470 -0.5096491228506346 
32 1505 -0.605263158015322 
32 1576 -0.7076023392372066 
32 1640 -0.5160818714953195 
32 1660 -0.2697368421302073 
32 1739 -0.5631578952695091 
32 1841 -0.32894736864036966 
32 1855 -0.4849624062737976 
32 2106 -0.39473684211825333 
32 2307 -0.17105263159056872 
32 2486 -0.5789473686091244 
32 2631 -0.5745614035326714 
32 2664 -0.7309941520665513 
32 2964 -0.394736842169205 
32 2968 -0.5552631580993053 
32 3796 0.026315789403636436 
33 34 -1.6896040122560407e-11 
33 35 -0.1666666666799932 
34 33 -1.6896040122560407e-11 
34 1813 -0.1666666666779204 
35 19 -0.5815602837134399 
35 33 -0.1666666666799932 
35 236 -0.47619047624035193 
36 37 -0.20000000000489448 
36 38 -0.40625000002979905 
37 2 -0.6387096774412124 
37 12 -0.7042553192211198 
37 36 -0.20000000000489448 
37 76 -0.663636363728898 
37 2987 -0.20000000000489448 
38 36 -0.40625000002979905 
38 42 -0.6041666666693843 
38 241 -0.5312500021417013 
38 343 -0.7434210532446524 
38 747 -0.4732142857405981 
38 899 -0.665865385175689 
38 943 -0.5104166667481984 
38 1194 -0.49553571434680777 
38 1640 -0.586805555626233 
38 2589 -0.4187500000167712 
38 2657 -0.7395833333610824 
38 2698 -0.36647727274822595 
38 2858 -0.5000000000656808 
38 2988 -0.5625000010024603 
38 3423 -0.3125000000281888 
38 3813 0.062499999990653254 
39 40 -0.1666666666799932 
39 41 -0.6309523809534205 
39 42 -0.33333333334205273 
40 39 -0.1666666666799932 
40 736 -0.40000000000338964 
41 39 -0.6309523809534205 
41 118 -0.5906593414201522 
41 255 -0.5238095251121924 
41 313 -0.7214285714926421 
41 361 -0.7440476190894674 
41 460 -0.46428571429056165 
41 883 -0.5099206350090357 
41 953 -0.6547619051117706 
41 954 -0.5625000011994015 
41 1070 -0.46428571429056165 
41 1152 -0.6964285714327845 
41 1198 -0.6678571428818336 
41 1288 -0.7035714286041472 
41 1359 -0.5892857154593019 
41 1652 -0.48714285717419936 
41 1662 -0.5357142857335113 
41 1789 -0.6500000005214148 
41 2105 -0.5535714286968352 
41 2116 -0.6250000000698339 
41 2143 0.03571428565731338 
41 2473 -0.6964285714327847 
41 2489 -0.32142857149778514 
41 2490 -0.6428571428692333 
41 2491 -0.1726190476632814 
41 2492 -0.2321428571665347 
41 2493 -0.6607142859848327 
41 2494 -0.4642857142905614 
41 2495 0.035714285657313494 
42 38 -0.6041666666693843 
42 39 -0.33333333334205273 
42 928 -0.6140350877216638 
43 44 -0.41666666700177535 
43 45 -0.5416666670464689 
43 46 -0.45833333335005055 
43 47 -0.41666666667373575 
44 43 -0.41666666700177535 
44 115 -0.6222222222828084 
44 134 -0.4722222226682877 
44 270 -0.6215277782528807 
44 1437 -0.6111111114152274 
44 1441 -0.6594202900582684 
44 1857 -0.527777778359164 
44 1974 -0.38888888889582707 
44 1975 -0.4444444444746054 
45 2 -0.6975806454563318 
45 43 -0.5416666670464689 
45 186 -0.7575757577239854 
45 399 -0.697916666744943 
45 408 0.08333333332413417 
45 465 -0.7471264370438384 
45 520 -0.7583333333516376 
45 579 -0.7500000000023339 
45 852 -0.7239583336713282 
45 2205 -0.4166666666724308 
45 2519 0.08333333332413406 
45 2818 -0.5416666666730858 
46 43 -0.45833333335005055 
46 234 -0.41666666864945356 
46 376 -0.6666666671734682 
46 759 -0.47916666676871467 
46 1505 -0.7017543859805415 
46 2603 -0.28333333336021704 
47 43 -0.41666666667373575 
47 98 -0.3809523811407296 
47 1236 -0.5238095238201181 
48 49 -0.6888888888910021 
48 50 -0.6571428572522453 
48 51 -0.666666666747215 
48 52 -0.6571428571455069 
48 53 -0.3000000000100631 
49 48 -0.6888888888910021 
49 113 -0.5833333333773387 
49 371 -0.4722222240110052 
49 372 -0.5555555555596876 
49 373 -0.6388888888919688 
49 374 -0.666666666686619 
49 375 -0.5959595961155717 
49 376 -0.638888891600073 
49 377 -0.6666666666709684 
50 48 -0.6571428572522453 
50 92 -0.7163865546699923 
50 118 -0.5274725282219523 
50 403 -0.6214285715391106 
50 428 -0.7662337663536878 
50 529 -0.6785714298258552 
50 1140 -0.5952380966542214 
50 1198 -0.6000000000169399 
50 1278 -0.4523809524539759 
50 2132 -0.35714285714832217 
50 2150 -0.32142857143645864 
50 2952 -0.5952380952411058 
50 3125 0.07142857142142 
50 3126 -0.5238095238201184 
51 48 -0.666666666747215 
51 289 -0.7904761904862401 
51 407 -0.5666666666719511 
51 518 -0.7238095238753701 
51 631 -0.6166666666974787 
51 1173 -0.7285714287101548 
51 1406 -0.733333333335036 
51 2224 -0.7000000000045035 
51 2499 -0.6166666666891985 
51 2731 -0.5666666666719511 
51 3270 -0.650000000011125 
51 3345 -0.6000000000028574 
51 3346 -0.6000000000028571 
51 3347 -0.4333333333384761 
51 3348 -0.6000000000028571 
52 48 -0.6571428571455069 
52 216 -0.6071428571586512 
52 570 -0.7238095239557121 
52 2166 -0.6038961039056503 
52 2252 -0.6428571428656 
52 2461 0.14285714284071527 
52 3732 0.14285714284071527 
53 48 -0.3000000000100631 
53 207 -0.4411764705909116 
54 55 0.04761904759222624 
55 2 -0.7350230416451842 
55 54 0.04761904759222624 
55 84 -0.5000000001423326 
55 86 -0.3809523826643195 
55 265 -0.6502463058110359 
55 444 -0.757142857184602 
55 535 -0.6190476192607484 
55 1052 -0.6071428572743591 
55 1262 0.04761904759222624 
55 1333 -0.6785714285775803 
55 1371 -0.6428571434134902 
55 1406 -0.7523809523822156 
55 1463 -0.6060606060986895 
55 1592 -0.5238095238456788 
55 1738 -0.5238095238218945 
55 1857 -0.39285714410932804 
55 2002 -0.2666666669936395 
55 2124 -0.6523809524482078 
55 2303 -0.4523809523855724 
55 2521 -0.4523809523855724 
55 3121 -0.42857143046101176 
56 7 -0.7056818185182077 
56 57 -0.6636363636846223 
56 58 -0.5757575757611695 
56 59 -0.40909090909697854 
56 60 -0.4090909090969783 
56 61 -0.6060606060955873 
56 62 -0.584415584538952 
56 63 0.09090909089870935 
56 64 -0.729946524163499 
56 65 -0.6136363644480871 
56 66 -0.7840909091156982 
57 56 -0.6636363636846223 
57 105 -0.5857142857187507 
57 106 -0.46666666667263 
57 107 -0.46666666667263024 
57 108 -0.46666666667263046 
58 56 -0.5757575757611695 
58 213 -0.6190476190488736 
58 1090 -0.1666666666799932 
59 56 -0.40909090909697854 
59 1851 -1.6896040122560407e-11 
60 56 -0.4090909090969783 
60 871 -0.46666666667170675 
61 56 -0.6060606060955873 
61 284 -0.43910256496194044 
61 287 -0.5265151517021225 
61 380 -0.4166666670326946 
61 418 -0.5833333334007325 
61 570 -0.7166666669893802 
61 736 -0.6250000006128245 
61 972 -0.6074561417726192 
61 1128 -0.7023809531368368 
61 1288 -0.5916666675484012 
61 2997 0.08333333332413406 
61 2998 -0.6666666666691907 
62 56 -0.584415584538952 
62 359 -0.7375776397738938 
62 529 -0.6326530619523274 
62 704 -0.559523809603726 
62 1043 -0.5857142858288893 
62 1059 -0.7321428571447748 
62 1289 -0.5142857148883728 
63 56 0.09090909089870935 
64 56 -0.729946524163499 
64 76 -0.7754010695345215 
64 115 -0.5539215686627295 
64 116 -0.6881338744849193 
64 154 -0.5708556150860438 
64 225 -0.6274509805565489 
64 241 -0.6213235294412867 
64 429 -0.6748366019656642 
64 511 -0.6166666675762791 
64 565 -0.58543417407272 
64 583 -0.6127450980716536 
64 588 -0.595588235674416 
64 794 -0.7150735299603528 
64 943 -0.5784313733793685 
64 1281 -0.5294117647268486 
64 1283 -0.5088235319536389 
64 1326 -0.5794117648656056 
64 1417 0.02941176463892059 
64 1427 -0.588235294242643 
64 1473 -0.4117647058906322 
64 1754 -0.19117647059344467 
64 1868 -0.5441176470755273 
64 2230 -0.7500000006415852 
64 2490 -0.6029411766464148 
64 2589 -0.658823529975157 
64 2633 -0.5647058823994209 
64 2680 -0.6544117653603925 
64 2682 -0.4558823529445677 
64 2762 -0.6029411765213177 
64 3081 -0.6617647059060001 
64 3092 -0.6235294121595605 
64 3413 -0.7264705883644473 
64 3680 -0.42647058824206696 
64 3794 0.029411764638920257 
65 56 -0.6136363644480871 
65 195 -0.7333333333855956 
65 569 -0.41666666675134256 
65 1859 -0.4166666666805301 
65 3657 -0.3333333333423367 
65 3860 0.16666666664825058 
66 13 -0.6437500001048024 
66 56 -0.7840909091156982 
66 814 -0.6000000000318102 
66 980 -0.4375000005004155 
66 1364 -0.7437500001693338 
66 1370 -0.40625000000298717 
66 1691 -0.3750000000050968 
66 1957 -0.5104166673672732 
66 1982 -0.6562500000085454 
66 2207 -0.3125000000180198 
66 2218 -0.7098214287371549 
66 2823 -0.47916666669282915 
66 3008 -0.40625000000298694 
66 3141 -0.6125000001076797 
66 3696 -0.3750000001589857 
66 3877 0.062499999990653254 
67 68 -0.10000000000487619 
67 69 -0.5727272727709911 
67 70 0.19999999997925055 
67 71 -0.45000000008074137 
67 72 -0.6750000000023495 
68 67 -0.10000000000487619 
68 259 -0.4047619049387474 
69 67 -0.5727272727709911 
69 259 -0.5389610391538908 
69 303 -0.7247474749920304 
69 374 -0.5393939394374394 
69 2236 -0.4393939394758877 
69 2386 -0.5876623376878587 
69 2551 -0.530303030364768 
69 2627 -0.5303030309302634 
69 2782 -0.43939393944659155 
69 3088 -0.3636363639394369 
69 3137 0.09090909089870935 
70 67 0.19999999997925055 
71 67 -0.45000000008074137 
71 278 -0.5833333333371751 
71 750 -0.562500000006041 
71 2690 -0.37500000017433166 
72 67 -0.6750000000023495 
72 703 -0.6750000000027012 
72 1361 -0.22500000026791156 
72 1363 -0.1250000001258178 
72 1364 -0.4500000000178588 
72 1728 -0.5416666666711374 
72 3445 -0.5416666666711376 
72 3905 0.12499999998532463 
73 74 0.12499999998532452 
73 75 -0.3125000001570313 
73 76 -0.7386363636394846 
73 77 -0.5833333333390813 
73 78 -0.2500000028101579 
73 79 -0.500000000036815 
73 80 -0.601851851960582 
73 81 -0.6125000002331182 
74 73 0.12499999998532452 
75 73 -0.3125000001570313 
75 80 -0.4953703706856891 
75 2073 -0.5833333334019992 
75 2250 -0.2500000011167418 
76 37 -0.663636363728898 
76 64 -0.7754010695345215 
76 73 -0.7386363636394846 
76 1050 -0.6038961041258215 
76 1549 -0.651515151668171 
76 2104 -0.31818181843198823 
76 2705 0.09090909089870935 
76 2706 -0.40909090909697854 
76 2707 -0.06818181866077344 
76 2708 -0.31818181843198845 
76 2709 -0.4090909090969783 
77 73 -0.5833333333390813 
77 871 -0.8000000000032381 
77 899 -0.7564102564118478 
77 1996 -0.7222222222241226 
77 2047 -0.3333333333423367 
77 2839 -0.4166666667281973 
78 73 -0.2500000028101579 
78 79 -0.5000000000235918 
78 359 -0.6603260870529284 
78 627 -0.6306818187648979 
78 723 -0.7083333333550592 
78 1326 -0.42500000005924354 
78 1469 -0.1458333334947226 
78 2331 -0.18750000056962057 
79 73 -0.500000000036815 
79 78 -0.5000000000235918 
79 187 -0.7573529412780196 
79 560 -0.6250000000033302 
79 952 -0.4732142858334647 
79 1633 -0.5625000010622438 
79 1665 -0.47916666667892605 
79 3092 -0.5750000000069377 
80 73 -0.601851851960582 
80 75 -0.4953703706856891 
80 89 -0.4629629629677323 
80 265 -0.6992337165649798 
80 583 -0.708333333376435 
80 704 -0.6203703706442318 
80 733 -0.7574074078588038 
80 966 -0.6759259259342625 
80 1111 -0.7777777778372383 
80 1128 -0.8015873015967909 
80 1235 -0.7005291007625671 
80 1242 -0.6481481484714957 
80 1283 -0.600000000039413 
80 1427 -0.6458333333692319 
80 1469 -0.6111111113093486 
80 1623 -0.7083333333481097 
80 1650 -0.6851851852137383 
80 1791 -0.6111111111153902 
80 2039 -0.7407407407841347 
80 2082 -0.40740740742182924 
80 2186 0.037037036982757066 
80 2360 -0.5648148149932766 
80 2815 -0.44444444444734676 
80 3264 -0.6574074074554292 
80 3334 0.037037036982757066 
80 3335 -0.4629629629677323 
80 3336 0.037037036982757066 
81 73 -0.6125000002331182 
81 1194 -0.7571428571596923 
81 1662 -0.7000000000589517 
81 2432 -0.6000000000255521 
81 2549 -0.4000000000064694 
81 2575 -0.650000000002867 
81 2700 -0.46666666668573553 
81 2833 -0.4000000000064694 
81 2839 -0.5500000000391188 
81 2988 -0.6250000002953611 
82 83 0.24999999997633615 
82 84 -0.16666666676483732 
82 85 -0.41346153861965673 
82 86 -0.19642857147377857 
83 82 0.24999999997633615 
84 32 -0.6184210527726766 
84 55 -0.5000000001423326 
84 82 -0.16666666676483732 
84 406 -0.5625000001250142 
84 453 -0.5833333333513773 
84 1224 -0.2916666666935108 
85 82 -0.41346153861965673 
85 86 -0.25549450693097264 
85 92 -0.787330316786155 
85 151 -0.49145299227066364 
85 195 -0.5935897436814919 
85 254 -0.5549450551116997 
85 458 -0.6923076934500458 
85 511 -0.6461538461890428 
85 558 -0.7220279724234366 
85 565 -0.5769230771940097 
85 644 -0.5807692311878703 
85 645 -0.6826923077056997 
85 731 -0.6923076923125733 
85 775 -0.5897435897478807 
85 789 -0.737179487385996 
85 1224 -0.5913461539036695 
85 1654 -0.7371794874030164 
85 1696 -0.6378205132098909 
85 1998 -0.5961538463037728 
85 2002 -0.33076923082879284 
85 2108 -0.4551282051460086 
85 2372 -0.5897435897471743 
85 3121 -0.4642857143082959 
85 3392 0.03846153841039879 
85 3393 -0.42307692308101963 
85 3394 0.03846153841039901 
86 55 -0.3809523826643195 
86 82 -0.19642857147377857 
86 85 -0.25549450693097264 
86 110 -0.592857143057097 
86 121 -0.5989010993030446 
86 195 -0.6761904764811195 
86 239 -0.6547619048853504 
86 254 -0.5119047625834419 
86 1224 -0.482142857207724 
86 1839 -0.5523809528062984 
86 1857 -0.2976190478146974 
86 2002 0.01428571356390429 
86 2124 -0.4547619048799354 
86 3121 -0.2500000003697447 
87 88 0.4999999997258183 
88 87 0.4999999997258183 
88 700 -0.4333333333365481 
89 80 -0.4629629629677323 
89 90 -0.37500000000433653 
90 89 -0.37500000000433653 
90 219 -0.5000000000636016 
90 1199 -0.37500000000749556 
90 1495 -0.7250000000205712 
90 1560 -0.31250000034332737 
90 1616 -0.675000000002701 
90 2380 -0.7250000000065637 
90 2713 -0.6458333335521407 
91 92 -0.6029411765841204 
91 93 -0.6666666666694112 
91 94 -0.33333333334233695 
91 95 -0.2500000006833285 
91 96 -0.2916666667549537 
91 97 -0.08333333338222704 
92 50 -0.7163865546699923 
92 85 -0.787330316786155 
92 91 -0.6029411765841204 
92 96 -0.4779411765044621 
92 510 -0.5336134468906335 
92 835 -0.7450980392185356 
92 874 -0.7963800905071587 
92 1144 -0.5784313725537795 
92 1354 -0.6078431372574924 
92 1457 -0.5490196078524365 
92 1536 -0.4607843137846501 
92 1537 0.05882352939801816 
92 1538 -0.7450980392652486 
92 1539 -0.44117647059311427 
92 1540 -0.6911764705901688 
92 1541 -0.7450980392652484 
92 1542 -0.6617647058902565 
93 91 -0.6666666666694112 
93 259 -0.6666666670467234 
93 481 -0.6904761904853096 
93 979 -0.4583333335904005 
93 1339 -0.6228070175585501 
93 2334 -0.5000000000053608 
94 91 -0.33333333334233695 
94 473 -0.3000000000100629 
95 91 -0.2500000006833285 
95 789 -0.38888888897258744 
95 2818 -0.33333333334205273 
96 91 -0.2916666667549537 
96 92 -0.4779411765044621 
96 278 -0.3333333333502251 
96 1450 -0.5681818182830431 
97 91 -0.08333333338222704 
97 789 -0.22222222225199406 
98 47 -0.3809523811407296 
98 99 -0.5079365079557081 
98 100 -0.6488095238909921 
98 101 -0.571428572543625 
98 102 -0.4285714293566891 
98 103 -0.6190476196552988 
98 104 -0.6877761428199136 
99 98 -0.5079365079557081 
99 161 -0.5777777779111515 
99 321 -0.4166666667994279 
99 322 -0.33333333366027174 
99 323 -0.5163398703581752 
99 324 -0.5555555557897005 
99 325 -0.7424242426612109 
99 326 0.11111111109800775 
99 327 -0.7124183006777063 
100 18 -0.7166666666682917 
100 98 -0.6488095238909921 
100 126 -0.696969697067126 
100 129 -0.5333333333979786 
100 299 -0.7083333336469655 
100 409 -0.541666666674558 
100 508 -0.6955128211723989 
100 797 -0.7222222222583279 
100 1047 -0.5833333338865023 
100 1048 -0.30833333335711344 
100 1049 -0.3750000002939564 
100 1050 -0.39285714354564405 
101 98 -0.571428572543625 
101 248 -0.7071428571493841 
101 727 -0.6696428572897133 
101 1259 -0.7238095238492241 
101 1267 -0.35714285715102667 
101 1316 -0.5238095238143972 
101 1351 -0.5238095238143972 
102 98 -0.4285714293566891 
102 313 -0.7904761904773843 
102 575 -0.7321428571754098 
102 797 -0.584656084666437 
102 991 -0.4857142862552679 
102 1336 -0.6071428571461048 
102 1412 -0.39285714299621777 
103 12 -0.6894630193409466 
103 13 -0.48809523990708215 
103 98 -0.6190476196552988 
103 187 -0.6806722693692615 
103 259 -0.6190476197066817 
103 370 -0.7255639110219962 
103 413 -0.7321428571575737 
103 529 -0.6292517009537546 
103 617 -0.572829131702564 
103 637 -0.6666666670794767 
103 908 -0.5476190483439263 
103 932 -0.6558441558625461 
103 953 -0.5952380964164066 
103 999 -0.5119047619693995 
103 1180 -0.6904761905435735 
103 1279 -0.7156862757878681 
103 1546 -0.7238095241951821 
103 1853 -0.5714285724149746 
103 2099 -0.523809523824234 
103 2846 -0.5714285719590046 
103 3192 -0.5238095238455625 
104 2 -0.6383438644468247 
104 13 -0.5073883162607702 
104 98 -0.6877761428199136 
104 228 -0.6738144330502907 
104 265 -0.6269107716502227 
104 281 -0.6688144332015526 
104 321 -0.6881443302854315 
104 345 -0.6469072173172055 
104 365 -0.42783505164142754 
104 374 -0.6116838490390497 
104 392 -0.6608247449566174 
104 406 -0.7052190729023176 
104 414 -0.6935332709060975 
104 429 -0.6036655212012692 
104 469 -0.48453608247696534 
104 496 -0.7587628866040914 
104 497 -0.6984536085070703 
104 507 -0.3556701035787557 
104 554 -0.679327183995494 
104 561 -0.6505154641552737 
104 615 -0.7512886600844546 
104 646 -0.8045202223842407 
104 682 -0.7250859106870124 
104 684 -0.6056701036232626 
104 718 -0.5381443299056947 
104 797 -0.6426116845908416 
104 814 -0.5835051548457519 
104 839 -0.6335051546734443 
104 908 -0.5549828180551386 
104 928 -0.6261530114762917 
104 938 -0.6637769447577928 
104 945 -0.6056701031509006 
104 955 -0.6585051548186638 
104 968 0.010309278349985296 
104 971 -0.7822164949061903 
104 980 -0.6365979381845142 
104 988 -0.6402061855953689 
104 1001 -0.4639175257856505 
104 1016 -0.6323024055388662 
104 1080 -0.5528350519388385 
104 1081 -0.5687285223771932 
104 1098 -0.4329896911649731 
104 1110 -0.7402854878349148 
104 1122 -0.7505154644624175 
104 1140 -0.7659793814976312 
104 1148 -0.699048374348316 
104 1206 -0.2972508591604466 
104 1285 0.010309278349985629 
104 1312 -0.6778350521030319 
104 1359 -0.7508591065509786 
104 1366 0.010309278349984963 
104 1505 -0.6524688013620501 
104 1507 -0.6329896910838546 
104 1564 -0.48969072166925676 
104 1652 -0.619587629137105 
104 1710 0.010309278349984963 
104 1715 -0.4175257732897768 
104 1766 -0.6632302407014252 
104 1806 -0.6941580757099142 
104 1850 -0.6254295533408611 
104 1874 -0.5783505158863884 
104 1904 -0.47422680419386376 
104 1926 -0.6520618563547782 
104 1929 -0.7611683848984454 
104 1952 -0.6829896907314346 
104 2080 -0.6460481099930611 
104 2093 -0.7663230240717938 
104 2102 -0.6278350515777049 
104 2110 -0.5092783507954515 
104 2236 -0.5798969072516518 
104 2244 -0.7025036819328259 
104 2291 -0.47422680413132623 
104 2381 -0.6207658332861854 
104 2386 -0.7124447718130102 
104 2488 0.010309278349984519 
104 2504 -0.19845360828883596 
104 2596 -0.5798969077622826 
104 2602 -0.6675257732329707 
104 2642 -0.4845360824769651 
104 2719 -0.5579896911500928 
104 2766 -0.453608247479969 
104 2805 -0.642120765935009 
104 2841 -0.7231222388492009 
104 3089 -0.6099656358277636 
104 3205 -0.48969072166925653 
104 3283 -0.3865979382970055 
104 3402 -0.4896907216692563 
104 3586 0.01030927834998474 
104 3606 -0.46907216499106363 
104 3797 -0.537371134030252 
104 3803 -0.4896907216692563 
104 3816 -0.6408934708161884 
104 3828 0.010309278349985185 
104 3835 0.010309278349984963 
104 3845 -0.48969072166925676 
104 3882 0.010309278349985185 
104 3900 0.010309278349984519 
105 57 -0.5857142857187507 
105 119 -0.714285714287884 
105 153 -0.14285714291466678 
105 212 -0.6696428573219246 
105 939 -0.5079365081930662 
105 1078 -0.7781954887301206 
105 1427 -0.6071428571817872 
106 57 -0.46666666667263 
106 604 -0.46666666667226453 
106 1505 -0.6403508771973903 
107 57 -0.46666666667263024 
107 598 -0.5416666666730863 
107 2018 -0.16666666672802855 
108 57 -0.46666666667263046 
108 778 -0.559523809553184 
108 1833 -7.008615909853688e-12 
109 12 -0.6436170214606591 
109 110 -0.45000000097537973 
109 111 -0.6737288135668424 
109 112 0.24999999997633604 
110 86 -0.592857143057097 
110 109 -0.45000000097537973 
110 1021 -0.6125000002274452 
110 1279 -0.5529411769610584 
110 2765 0.19999999997925044 
111 28 -0.6852717713680545 
111 109 -0.6737288135668424 
111 257 -0.722650231143027 
111 290 -0.6059322035995165 
111 299 -0.7129943503298244 
111 356 -0.7994350282578744 
111 392 -0.7389830508812922 
111 439 -0.8326271186500223 
111 534 -0.6970338984143694 
111 614 -0.7644067796831269 
111 637 -0.7469733656796866 
111 925 -0.6991525424745864 
111 934 -0.7395480226268063 
111 979 -0.6991525424700842 
111 1002 -0.44067796611364773 
111 1209 -0.7421307506814734 
111 1217 -0.5889830508645306 
111 1219 -0.6242937853296717 
111 1449 -0.7152542375406243 
111 1627 -0.682203389952508 
111 1721 -0.4745762712114401 
111 1874 -0.5898305085006399 
111 1931 -0.6073446327998191 
111 1957 -0.6892655368125777 
111 1979 -0.8067796610687725 
111 2083 -0.6412429378648614 
111 2110 -0.5288135594072645 
111 2160 -0.6822033899792643 
111 2236 -0.6398305085362548 
111 2375 -0.689830508564069 
111 2380 -0.7135593220517076 
111 2478 -0.7725988700767172 
111 2496 0.016949152541627877 
111 2726 -0.7161016949656906 
111 2760 -0.47457627118982115 
111 2805 -0.6670702179379508 
111 2899 -0.5649717514751602 
111 2915 -0.6389830508834426 
111 3154 -0.6073446328175329 
111 3156 -0.4830508475105071 
111 3325 -0.48305084751050753 
111 3332 -0.6991525424009075 
111 3387 0.016949152541627543 
111 3413 -0.7830508474653417 
111 3456 -0.6892655367990899 
111 3470 0.016949152541627877 
111 3482 -0.48305084751050753 
111 3509 0.016949152541627655 
111 3555 0.016949152541627766 
111 3567 -0.598870056547925 
111 3610 -0.6567796611902241 
111 3671 0.016949152541627766 
111 3710 -0.48305084751050753 
111 3711 0.016949152541627655 
111 3712 -0.44915254238467983 
111 3713 0.016949152541627432 
111 3714 -0.37288135597725924 
111 3715 -0.4830508475105073 
111 3716 0.016949152541627877 
112 109 0.24999999997633604 
113 49 -0.5833333333773387 
113 114 -0.5357142860953299 
113 115 -0.49166666806440507 
113 116 -0.6293103449191018 
114 113 -0.5357142860953299 
114 207 -0.6575630253909257 
114 546 -0.7261904772553807 
114 628 -0.6261904766386548 
114 660 -0.49074074082236185 
114 678 -0.5142857143228772 
114 1053 -0.7619047626430815 
114 1122 -0.6071428576075417 
114 1148 -0.41483516487516003 
114 1215 -0.3571428571483217 
114 1216 -0.6428571428716747 
114 1217 -0.46428571444690037 
114 1218 -0.7857142857155575 
114 1219 -0.45238095241320675 
115 27 -0.7598639455962002 
115 44 -0.6222222222828084 
115 64 -0.5539215686627295 
115 113 -0.49166666806440507 
115 164 -0.40000000012532944 
115 235 -0.6750000000092871 
115 465 -0.6965517255925548 
115 1094 -0.657142857190014 
115 1388 -0.6000000000028574 
115 1445 -0.5166666667977671 
115 1754 -0.11666666705433437 
115 1799 -0.5833333334686608 
115 1800 -0.7571428572386996 
115 1801 -0.6333333334850966 
115 1802 -0.4000000002726636 
116 64 -0.6881338744849193 
116 113 -0.6293103449191018 
116 143 -0.7241379312257288 
116 144 -0.7435344828220118 
116 201 -0.6982758620727856 
116 206 -0.7711598749995445 
116 345 -0.560344827603636 
116 448 -0.663793103458377 
116 503 0.034482758561398485 
116 704 -0.6992337167657281 
116 757 -0.6758620690667647 
116 1022 -0.7711598747244626 
116 1046 -0.6620689658275032 
116 1266 -0.6477832514316388 
116 1495 -0.7637931036437968 
116 1540 -0.39655172416444695 
116 1652 -0.7220689658445287 
116 1725 -0.6465517242087617 
116 1766 -0.6781609203107921 
116 2305 -0.7164750958527657 
116 2563 0.034482758561398597 
116 2564 -0.44827586207205217 
116 2565 -0.5387931034643985 
116 2566 -0.4655172413842481 
116 2567 -0.6321839080476115 
116 2568 -0.7471264368149948 
116 2569 -0.6120689656303986 
116 2570 -0.5287356322060757 
116 2571 -0.7482758620770533 
117 118 0.07692307691495337 
118 41 -0.5906593414201522 
118 50 -0.5274725282219523 
118 117 0.07692307691495337 
118 173 -0.4932126697387911 
118 529 -0.5981161695848147 
118 882 -0.5604395609835571 
118 1679 -0.581730769278896 
118 1749 -0.8054298642831277 
118 2020 -0.42307692308244427 
118 2326 -0.5164835165016735 
118 2360 -0.4326923077775626 
118 2493 -0.5934065934136505 
118 2788 -0.4743589744010046 
119 105 -0.714285714287884 
119 120 -0.6571428577364768 
119 121 -0.7087912093311695 
119 122 -0.5357142857540023 
119 123 -0.7460317460334618 
119 124 -0.5238095238143972 
119 125 -0.6038961040245296 
120 28 -0.5965517242837208 
120 119 -0.6571428577364768 
120 152 -0.37916666680382494 
120 155 -0.6083333339605619 
120 157 -0.3000000001380121 
120 265 -0.6436781621883767 
120 695 -0.6333333335665843 
120 1181 -0.7333333333530931 
120 1182 -0.40000000021435245 
120 1183 -0.4333333333384761 
120 1184 -0.6000000000028574 
120 1185 -0.6833333333354701 
120 1186 -0.7000000000045032 
120 1187 0.06666666666038634 
120 1188 0.06666666666038634 
121 86 -0.5989010993030446 
121 119 -0.7087912093311695 
121 376 -0.6730769231463305 
121 395 -0.4230769230824447 
121 511 -0.6179487181986971 
121 521 -0.6376518222990959 
121 668 -0.5927601812377166 
121 872 -0.6703296704401114 
121 1179 -0.6787330320443097 
121 1377 -0.7032967035206821 
121 1465 -0.8461538461578288 
121 1663 -0.6586538467851824 
121 2138 -0.5307692309764447 
122 119 -0.5357142857540023 
122 152 -0.37500000002353384 
122 1825 -0.6666666666709684 
122 2019 -0.33333333334233695 
122 3461 -0.3333333333469426 
122 3583 0.16666666664825058 
123 119 -0.7460317460334618 
123 490 -0.6349206349314451 
123 575 -0.8055555555566569 
123 866 -0.7888888888901566 
123 969 -0.5777777778739015 
123 1899 -0.5555555555596876 
123 2015 0.11111111109800775 
123 2517 -0.6888888888913833 
123 3333 0.11111111109800764 
124 119 -0.5238095238143972 
124 1062 -4.557789701209458e-10 
124 2163 -4.557789701209458e-10 
125 12 -0.7040618955935547 
125 119 -0.6038961040245296 
125 179 -0.6270053482972238 
125 240 -0.27272727273709974 
125 257 -0.6818181818392421 
125 660 -0.6060606065595222 
125 1396 -0.6227272728002546 
125 1439 -0.27272727273709974 
125 2998 -0.568181818287878 
125 3015 -0.31818181843198845 
125 3091 -0.39393939398799294 
126 100 -0.696969697067126 
126 127 -0.5757575757611695 
126 128 -0.6590909090935941 
126 129 -0.47272727294407435 
126 130 -0.48484848486343535 
126 131 -0.4090909090969783 
126 132 -0.6393939404561517 
126 133 -0.6636363636846225 
126 134 -0.5719696975246795 
126 135 -0.5757575757611697 
126 136 -0.5227272727866163 
127 126 -0.5757575757611695 
127 250 -0.6041666666682552 
127 251 0.33333333330550463 
128 126 -0.6590909090935941 
128 155 -0.6666666666691907 
128 273 -0.41666666667373553 
128 946 -0.5500000000046015 
129 100 -0.5333333333979786 
129 126 -0.47272727294407435 
129 1167 -0.46666666667263 
129 1168 -0.6125000002274443 
129 1169 -0.5500000003706853 
130 126 -0.48484848486343535 
130 577 -0.5166666666880508 
130 768 -0.1666666667811898 
131 126 -0.4090909090969783 
131 502 -0.479166666668867 
132 126 -0.6393939404561517 
132 195 -0.5833333335745174 
132 406 -0.7104166676788823 
132 565 -0.6285714291927251 
132 788 -0.5833333333961312 
132 1279 -0.6607843147903982 
132 2230 -0.7235294118808944 
132 2423 -0.5833333334523405 
132 2641 -0.4000000002726636 
132 2694 -0.6000000000028574 
132 3287 -0.7238095240337126 
132 3388 -0.5000000000412061 
132 3442 -0.5333333333430992 
132 3878 0.06666666666038634 
132 3879 -0.4333333333384761 
133 126 -0.6636363636846225 
133 1056 -0.3000000000100629 
133 2176 -0.5437500000056437 
133 3056 -0.46666666667263 
133 3129 -0.36666666670903947 
134 44 -0.4722222226682877 
134 126 -0.5719696975246795 
134 218 -0.7083333333569435 
134 270 -0.5312500003738059 
134 291 -0.5608974360432253 
134 565 -0.5833333333655373 
134 683 -0.5416666667201198 
134 1505 -0.6118421057908925 
134 2098 -0.5773809526358475 
134 2175 -0.6666666668646524 
134 2230 -0.6519607844775326 
134 2633 -0.5333333333899881 
135 126 -0.5757575757611697 
135 999 -0.5000000000053606 
135 2371 -0.5666666666693487 
136 126 -0.5227272727866163 
136 195 -0.4583333334482902 
136 788 -0.34722222239759337 
136 2776 -0.35000000003963483 
137 138 -0.25000000000861666 
137 139 -0.33333333333916926 
138 137 -0.25000000000861666 
138 160 -0.37500000017432944 
138 280 -0.5000000005074094 
138 1551 -0.2500000000114524 
139 137 -0.33333333333916926 
139 178 -0.500000000005361 
139 358 -0.7333333333350558 
139 1175 0.16666666664825058 
139 3473 0.1666666666482508 
139 3588 0.16666666664825058 
140 141 -1.6895818077955482e-11 
140 142 -1.6896040122560407e-11 
141 140 -1.6895818077955482e-11 
141 986 0.49999999996157996 
142 140 -1.6896040122560407e-11 
142 3181 -0.2500000000086171 
143 116 -0.7241379312257288 
143 144 -0.7262931035758131 
143 145 0.03448275856139871 
143 146 -0.5804597701404335 
143 147 -0.49425287368377413 
143 148 -0.44827586207205217 
143 149 -0.614942528755851 
143 150 -0.6793103448354052 
143 151 -0.626436781786939 
143 152 -0.5366379322420445 
143 153 -0.5977011494653723 
143 154 -0.7429467084795687 
143 155 -0.6954022991461839 
143 156 -0.46551724138424855 
143 157 -0.5459770115331781 
143 158 -0.528735632247884 
143 159 -0.5586206896748109 
143 160 -0.6810344827657047 
143 161 -0.7137931034703482 
143 162 0.034482758561398485 
143 163 -0.41379310345439047 
143 164 -0.5114942528796624 
143 165 -0.7984084881283022 
143 166 -0.5775862075090781 
143 167 -0.5804597701404335 
143 168 -0.4310344827633199 
143 169 -0.8560344830594273 
143 170 -0.4310344827633199 
143 171 -0.744827587017814 
144 116 -0.7435344828220118 
144 143 -0.7262931035758131 
144 773 -0.5416666666711372 
144 774 0.1249999999853243 
144 775 -0.4166666667139498 
144 776 0.1249999999853244 
144 777 -0.6250000000033307 
144 778 -0.7678571430117995 
145 143 0.03448275856139871 
146 143 -0.5804597701404335 
146 1279 -0.4901960784841628 
146 1309 -0.416666666684564 
147 143 -0.49425287368377413 
147 508 -0.5641025642171478 
147 989 -0.5000000001304716 
148 143 -0.44827586207205217 
148 1223 -0.3125000000127969 
149 8 -0.606666666669579 
149 143 -0.614942528755851 
149 2063 -0.33333333334205273 
150 143 -0.6793103448354052 
150 319 -0.6333333334634665 
150 572 -0.44285714286962374 
150 869 -0.665384615388185 
150 1683 0.19999999997925044 
151 85 -0.49145299227066364 
151 143 -0.626436781786939 
151 254 -0.4563492079902849 
151 445 -0.5277777778351656 
151 565 -0.5158730176741413 
151 1029 -0.6111111115136496 
151 1279 -0.45424836660998147 
151 1799 -0.40277777798630865 
151 1857 -0.4166666673835744 
152 12 -0.5279255322158727 
152 120 -0.37916666680382494 
152 122 -0.37500000002353384 
152 143 -0.5366379322420445 
152 179 -0.47794117651239665 
152 508 -0.5560897436175065 
152 559 -0.5750000002937099 
152 1657 -0.5833333337511384 
153 105 -0.14285714291466678 
153 143 -0.5977011494653723 
153 939 -0.1666666666862815 
154 64 -0.5708556150860438 
154 143 -0.7429467084795687 
154 359 -0.46442687752286527 
154 826 -0.38484848514508574 
154 1400 -0.37012987015887666 
154 1401 -0.3585858586051067 
154 2225 -0.26515151545229454 
154 2498 -0.6181818185852959 
154 2736 -0.3681818199472897 
154 2924 -0.31818181822682146 
154 2956 -0.14545454559870374 
155 120 -0.6083333339605619 
155 128 -0.6666666666691907 
155 143 -0.6954022991461839 
155 241 -0.6875000000284015 
155 307 -0.5595238102645235 
155 327 -0.7279411765126138 
155 834 -0.5416666666730863 
155 990 -0.5138888889116751 
155 1235 -0.675000000028926 
155 1448 -0.7333333333785619 
155 1871 -0.500000000024194 
155 3014 -0.2916666666883758 
156 143 -0.46551724138424855 
156 3056 -0.1666666666799932 
157 120 -0.3000000001380121 
157 143 -0.5459770115331781 
157 687 -0.41666666668467034 
158 143 -0.528735632247884 
158 565 -0.5714285714838834 
158 2242 -0.41666666671049324 
159 12 -0.5446808510897587 
159 143 -0.5586206896748109 
159 254 -0.5500000009611647 
159 502 -0.539583333359386 
159 532 -0.5187500000208074 
160 138 -0.37500000017432944 
160 143 -0.6810344827657047 
160 274 -0.6959459459624795 
160 3002 -0.3750000001743299 
161 99 -0.5777777779111515 
161 143 -0.7137931034703482 
161 636 -0.46666666667263 
161 1083 -0.5857142857187503 
161 2048 -0.6181818183399028 
162 143 0.034482758561398485 
163 143 -0.41379310345439047 
163 2831 -0.20000000000842366 
164 115 -0.40000000012532944 
164 143 -0.5114942528796624 
164 179 -0.5637254905659717 
165 19 -0.7356792148616558 
165 27 -0.721350079038213 
165 143 -0.7984084881283022 
165 572 -0.5164835166975408 
165 1362 -0.6730769230793041 
165 1441 -0.4799331123239847 
165 1470 -0.656410257480952 
165 1654 -0.5608974361687027 
165 1840 -0.392307692348008 
165 2273 -0.48076923084880674 
165 2440 -0.43269230771782596 
165 2473 -0.5961538461953331 
165 3287 -0.5549450549543808 
166 143 -0.5775862075090781 
166 195 -0.5500000011654096 
166 508 -0.6538461539034675 
166 794 -0.5989583335177107 
166 1705 -0.5208333337154798 
166 1737 -0.41666666668052965 
167 143 -0.5804597701404335 
167 532 -0.5885416666897467 
167 2411 -0.1666666666799932 
168 143 -0.4310344827633199 
168 370 -0.39473684210990645 
169 15 -0.6750000000243865 
169 143 -0.8560344830594273 
169 242 -0.4642857146358881 
169 310 -0.6250000000764531 
169 369 -0.4250000000027512 
169 695 -0.6666666666993379 
169 1078 -0.8210526316894387 
169 1471 -0.5916666666707648 
169 1826 -0.37500000001629963 
169 1827 -0.6714285715461026 
169 1986 -0.45000000000465445 
169 2139 -0.6333333338514691 
169 2209 -0.5666666666737221 
169 2815 -0.4250000000027514 
169 3222 0.04999999997623206 
169 3338 0.04999999997623217 
169 3601 0.04999999997623217 
169 3604 0.04999999997623206 
169 3817 0.04999999997623217 
169 3869 0.04999999997623217 
170 143 -0.4310344827633199 
170 398 -0.4428571428674819 
171 143 -0.744827587017814 
171 196 -0.3055555559976282 
171 957 -0.4000000000388506 
171 1257 -0.30000000000661853 
171 1259 -0.6166666667103091 
171 1368 -0.4500000013800529 
171 1650 -0.5166666666766402 
171 1940 -0.6000000000082568 
171 2231 -0.2000000000533413 
171 2988 -0.7750000000013975 
172 173 0.05882352939801827 
173 12 -0.5463078852061278 
173 118 -0.4932126697387911 
173 172 0.05882352939801827 
173 179 -0.6617647060465719 
173 323 -0.3235294141848186 
173 398 -0.6411764708878609 
173 508 -0.5889894422127064 
173 610 -0.5910364155577563 
173 697 -0.5862745101362501 
173 1278 -0.4313725495255767 
173 1296 -0.38235294118140684 
173 1546 -0.7235294120411389 
173 1593 -0.6680672269617465 
173 2204 -0.7279411766519206 
173 2225 -0.4509803922665201 
173 2587 -0.4901960784538659 
173 2588 -0.4019607843718609 
174 175 0.19999999999175544 
175 174 0.19999999999175544 
175 473 -0.5000000003443876 
175 797 -0.7444444444530594 
175 1800 -0.6571428571458007 
175 3872 0.19999999997925044 
176 177 0.4999999997258183 
177 176 0.4999999997258183 
177 340 -0.42307692308030154 
178 139 -0.500000000005361 
178 179 -0.5490196078780689 
178 180 -0.49275362324526206 
179 125 -0.6270053482972238 
179 152 -0.47794117651239665 
179 164 -0.5637254905659717 
179 173 -0.6617647060465719 
179 178 -0.5490196078780689 
179 265 -0.5872210956335013 
179 323 -0.5588235294383253 
179 462 -0.6823529412174196 
179 497 -0.617647058877945 
179 790 -0.5441176470846012 
179 988 -0.5500000000103531 
179 1024 -0.5784313725743742 
179 1136 -0.47058823529964067 
179 1182 -0.5490196079006371 
179 1236 -0.5945378151513456 
179 1437 -0.7303921569760996 
179 1449 -0.6529411764857684 
179 1519 -0.6715686279637265 
179 1610 -0.623529411776401 
179 1640 -0.6715686274849846 
179 1805 -0.6529411764797877 
179 1894 -0.5490196078775103 
179 2189 -0.6225490196148873 
179 2242 -0.7426470588744685 
179 2368 0.029411764638920257 
179 2425 -0.550000000351508 
179 2428 -0.5490196078518077 
179 2584 -0.6176470589011729 
179 2780 -0.7689075630828104 
179 2798 -0.4558823529445677 
179 2899 -0.5343137257833057 
179 3241 -0.6176470588775662 
179 3663 -0.4558823529445677 
179 3728 0.029411764638920257 
180 178 -0.49275362324526206 
180 314 -0.62318840579911 
180 458 -0.551839466122964 
180 874 -0.7107023413864635 
180 1218 -0.7919254658511767 
180 1230 -0.7028985508571219 
180 1236 -0.6475155282235687 
180 1470 -0.7514492754643356 
180 1610 -0.5608695652803335 
180 1795 -0.1195652174052586 
180 1796 -0.2789855073555252 
180 1824 -0.7484472051572033 
180 1827 -0.5388198758313854 
180 1940 -0.6826086959729001 
180 2585 -0.30434782611703337 
180 2946 -0.6811594203055336 
180 3112 -0.679347826110932 
180 3221 -0.7463768116091156 
180 3360 0.04347826083165418 
180 3455 -0.5760869567630986 
180 3607 0.043478260831654514 
180 3703 0.04347826083165418 
180 3826 -0.4130434782649637 
181 182 -0.33333333334233695 
181 183 0.16666666664825058 
181 184 -0.500000000005361 
181 185 -0.5833333333373458 
181 186 -0.6969696970887191 
181 187 -0.6862745098457557 
182 181 -0.33333333334233695 
182 1552 -0.3000000000069756 
183 181 0.16666666664825058 
184 181 -0.500000000005361 
184 1163 -0.5238095238135427 
184 2630 -0.5555555555586054 
185 181 -0.5833333333373458 
185 278 -0.41666666672819774 
185 1450 -0.5681818182187488 
185 1808 -0.638888888891969 
186 45 -0.7575757577239854 
186 181 -0.6969696970887191 
186 268 -0.6363636363761445 
186 364 -0.409090909095142 
186 458 -0.5804195807572818 
186 727 -0.6363636370173609 
186 745 -0.663636363731098 
186 1205 -0.7027972033338563 
186 1227 -0.4318181818208138 
186 1289 -0.6272727279898522 
186 1535 -0.454545454550058 
186 2073 -0.7121212121327463 
186 2313 -0.454545454550058 
186 2375 -0.6954545456834687 
186 2505 -0.45454545454676687 
186 2867 -0.7435064935867748 
186 2894 -0.5568181826923007 
186 3196 -0.45454545455005757 
186 3219 0.045454545422870085 
186 3544 0.045454545422870085 
186 3584 0.04545454542287031 
186 3825 0.045454545422870085 
187 79 -0.7573529412780196 
187 103 -0.6806722693692615 
187 181 -0.6862745098457557 
187 393 0.05882352939801827 
187 458 -0.6877828054807562 
187 851 -0.5980392160382433 
187 896 -0.52352941178695 
187 897 -0.5823529412196384 
187 923 -0.7394957983227919 
187 1288 -0.673529412167603 
187 1635 -0.7279411764897963 
187 1788 -0.6823529411853198 
187 1953 -0.6823529412242437 
187 2312 -0.7418300653750574 
187 3303 -0.5784313725537795 
187 3800 -0.607843137257492 
187 3904 0.05882352939801816 
188 189 -0.36111111130624796 
188 190 -0.2500000000814975 
188 191 -0.16666666672802766 
189 188 -0.36111111130624796 
189 190 -0.6458333333425441 
189 325 -0.7247474749987646 
189 489 -0.666666666674048 
189 575 -0.7500000000663201 
189 1111 -0.7222222222623209 
189 1174 0.05555555553809888 
189 1244 -0.7777777777807433 
189 1505 -0.7309941520820575 
189 1534 -0.6888888889166762 
189 2116 -0.6388888890821147 
189 2132 -0.4166666666985033 
189 2362 -0.3611111111178258 
189 2393 -0.6666666671692989 
189 2719 -0.5555555559014349 
189 2904 0.05555555553809921 
189 2905 -0.361111111117826 
189 2906 0.0555555555380991 
190 188 -0.2500000000814975 
190 189 -0.6458333333425441 
190 197 -0.5416666666711374 
190 416 -0.7916666667029371 
190 2568 -0.645833333345645 
190 2915 -0.6125000002274446 
190 2955 -0.5625000013149437 
190 3163 -0.37500000000749534 
191 188 -0.16666666672802766 
191 524 -0.602564102568524 
191 2256 -0.16666666735404778 
192 193 0.33333333331549286 
193 192 0.33333333331549286 
193 656 -0.4166666666735186 
193 792 -0.5952380952398657 
194 195 -0.7000000002487563 
194 196 -0.5000000003740266 
194 197 -0.5000000000046985 
194 198 -0.666666666669411 
194 199 -0.6666666668986228 
194 200 -0.6666666667004453 
195 32 -0.625438598030031 
195 65 -0.7333333333855956 
195 85 -0.5935897436814919 
195 86 -0.6761904764811195 
195 132 -0.5833333335745174 
195 136 -0.4583333334482902 
195 166 -0.5500000011654096 
195 194 -0.7000000002487563 
195 218 -0.7666666667060735 
195 258 -0.6500000002194624 
195 617 -0.7529411769100045 
195 757 -0.6666666667940218 
195 788 -0.5166666677774723 
195 856 -0.48333333555483216 
195 943 -0.6541666675331506 
195 1230 -0.741666666982904 
195 1279 -0.5901960785433702 
195 1610 -0.5666666668642844 
195 2145 -0.6166666666721965 
195 2146 -0.5666666666872024 
195 2147 -0.7166666666866526 
195 2148 0.0333333332720388 
195 2149 -0.3166666666853446 
195 2150 -0.41666666667293084 
195 2151 -0.4666666666717072 
195 2152 -0.6333333333855595 
195 2153 -0.5416666666826013 
195 2154 0.03333333327203858 
195 2155 0.03333333327203869 
195 2156 -0.333333333377581 
196 11 -0.5972222225241921 
196 12 -0.4988179671363546 
196 171 -0.3055555559976282 
196 194 -0.5000000003740266 
196 508 -0.5576923085956511 
196 623 -0.4722222228613706 
196 869 -0.6239316240798312 
196 1259 -0.42222222228136586 
196 2165 0.11111111109800764 
197 190 -0.5416666666711374 
197 194 -0.5000000000046985 
197 413 -0.583333333336709 
198 194 -0.666666666669411 
198 1531 -0.7450980392590205 
198 1551 -0.33333333333916926 
198 2510 0.16666666664825058 
198 3675 0.1666666666482508 
198 3783 -0.4166666666805299 
199 194 -0.6666666668986228 
199 348 -0.5416666666730865 
199 455 -0.4583333333567674 
199 737 -0.6333333336020885 
199 938 -0.7840909094921638 
199 1544 -0.5833333333367083 
199 1743 -0.6666666666691912 
199 2276 0.08333333332413417 
199 2320 -0.5833333333367088 
199 2762 -0.6666666668986225 
199 2900 -0.3750000002939564 
199 2945 -0.5833333334019992 
200 194 -0.6666666667004453 
200 265 -0.6781609202099437 
200 637 -0.5238095238267513 
200 885 -0.7756410256468176 
200 1077 0.11111111109800753 
200 1825 -0.7777777777791983 
200 1882 -0.5222222222471924 
200 2919 -0.6527777778268067 
200 3843 -0.38888888889582707 
201 116 -0.6982758620727856 
201 202 -0.6071428571461048 
201 203 -0.41666666667373553 
201 204 -0.5833333333911415 
202 201 -0.6071428571461048 
202 532 -0.747767857240788 
202 610 -0.7619047620230084 
202 766 -0.598214286043242 
202 2179 0.14285714284071527 
202 2663 0.14285714284071527 
202 2664 -0.4523809525970366 
203 201 -0.41666666667373553 
203 492 -0.5416666666931236 
203 1406 -0.36666666668347636 
204 201 -0.5833333333911415 
204 270 -0.5659722228399819 
204 481 -0.7190476191003068 
204 721 -0.7777777778076309 
204 1467 -0.6904761904801946 
204 1556 -0.3253968254824531 
204 1992 -0.3777777783838818 
204 2592 -0.33333333366027174 
204 3356 -0.555555555559688 
205 206 -0.40909090909697854 
205 207 -0.44117647059311427 
206 116 -0.7711598749995445 
206 205 -0.40909090909697854 
206 303 -0.7525252525316635 
206 575 -0.7007575758506246 
206 693 -0.4090909090969781 
206 1186 -0.47727272730930315 
206 1513 -0.7662337662353276 
206 1514 -0.7181818184325826 
206 1515 -0.06818181866077322 
206 1516 -0.6969696970605457 
206 1517 -0.40909090909697854 
207 53 -0.4411764705909116 
207 114 -0.6575630253909257 
207 205 -0.44117647059311427 
207 320 -0.5882352942501625 
207 370 -0.7801857586220693 
207 484 -0.6871657755648499 
207 508 -0.8284313725778047 
207 660 -0.6165577367585806 
207 870 -0.7171945702348328 
207 878 -0.6323529411782647 
207 1094 -0.6806722689801787 
207 1374 -0.7029411773704279 
207 1616 -0.7117647059059575 
207 1991 -0.7100840339973198 
207 2245 -0.6323529411921287 
207 2612 -0.49411764740873787 
207 3252 -0.4411764705931145 
208 209 -1.6895818077955482e-11 
208 210 -0.2500000000086171 
209 208 -1.6895818077955482e-11 
209 242 -0.35714285715102667 
210 208 -0.2500000000086171 
210 392 -0.5833333333760853 
210 434 -0.569444444549317 
210 2269 -0.3750000000053313 
211 212 -0.5416666666711374 
211 213 -0.6190476190497931 
211 214 0.33333333330550463 
212 105 -0.6696428573219246 
212 211 -0.5416666666711374 
212 343 -0.7697368423383326 
212 424 -0.6696428573219253 
212 1004 -0.7678571428895209 
212 1092 0.1249999999853243 
212 2070 -0.37500000000749556 
212 2483 0.12499999998532463 
213 58 -0.6190476190488736 
213 211 -0.6190476190497931 
213 309 -0.754761904802391 
213 319 -0.7261904762025004 
213 320 -0.686274511035587 
213 364 -0.40476190476627405 
213 662 -0.6666666666917067 
213 864 -0.654761904785836 
213 913 -0.5476190476282319 
213 1148 -0.7032967037705902 
213 1165 -0.8278388278482673 
213 1495 -0.704761905088557 
213 1514 -0.7547619047797547 
213 1644 -0.5952380952419778 
213 1685 -0.4047619049387472 
213 1729 -0.45238095238557285 
213 1874 -0.5809523815732294 
213 2244 -0.6190476190754515 
213 2883 -0.7380952387819615 
213 3362 0.047619047592226016 
213 3363 -0.3571428571505719 
214 211 0.33333333330550463 
215 216 -0.6785714285736812 
215 217 -0.6730769230786233 
215 218 -0.6666666666691909 
215 219 -0.5000000000056275 
216 52 -0.6071428571586512 
216 215 -0.6785714285736812 
216 533 -0.4107142858173207 
216 639 -0.69047619049014 
216 688 -0.7053571435756627 
216 1122 -0.6928571434829252 
216 1577 -0.642857142885382 
216 1759 0.07142857142142034 
216 2166 -0.685064935158004 
216 2377 -0.5952380952411063 
216 2386 -0.6428571430179038 
216 2690 -0.6428571428716743 
216 3249 -0.5214285718000473 
216 3250 0.07142857142142012 
217 215 -0.6730769230786233 
217 619 -0.551282051288025 
217 715 -0.6410256410792665 
217 1344 -0.5576923079652958 
217 1808 -0.6025641026351767 
217 2687 -0.756410256411848 
217 2733 -0.6730769230793041 
217 2855 -0.7230769230788294 
217 2865 -0.6461538463832448 
217 2937 -0.38461538490143377 
217 2971 -0.3461538463314202 
217 3192 -0.5512820513102201 
217 3372 -0.5512820512880245 
218 134 -0.7083333333569435 
218 195 -0.7666666667060735 
218 215 -0.6666666666691909 
218 525 -0.6250000000203852 
218 558 -0.6553030306496108 
218 771 -0.6666666666691907 
218 791 -0.7500000000016978 
218 1150 -0.5833333333354087 
218 1177 -0.791666666667928 
218 1834 -0.4166666666724306 
218 2305 -0.7083333335417894 
218 3759 0.0833333333241344 
219 90 -0.5000000000636016 
219 215 -0.5000000000056275 
219 2456 -0.2500000013113457 
219 2826 -0.500000000063602 
220 221 -0.5085227281784579 
220 222 -0.5416666666765715 
220 223 -0.5104166667315777 
220 224 0.062499999990653254 
220 225 -0.3229166676917494 
220 226 -0.5141129036581531 
220 227 -0.7228260882120399 
220 228 -0.48750000069799326 
220 229 -0.4375000000049982 
220 230 -0.6527777778275854 
220 231 -0.4750000000290071 
220 232 -0.5312500000128748 
220 233 -0.5267857154580993 
220 234 -0.5000000006379259 
220 235 -0.4375000000969178 
220 236 -0.6145833336868609 
221 220 -0.5085227281784579 
221 225 -0.4949494950046929 
221 232 -0.5303030309628851 
221 409 -0.568181818283042 
221 508 -0.8385780886308039 
221 841 -0.4943181820966738 
221 1626 0.09090909089870935 
221 1627 -0.4431818187849148 
221 1628 -0.5757575757611697 
221 1629 0.09090909089870924 
221 1630 -0.5757575757611699 
222 220 -0.5416666666765715 
222 1576 -0.5833333333378639 
222 1724 -0.1666666667280272 
223 19 -0.7473404256433402 
223 220 -0.5104166667315777 
223 226 -0.5672043011242116 
223 246 -0.6250000000247713 
223 371 -0.33333333338525817 
223 376 -0.6666666671836374 
223 852 -0.640625000657606 
223 972 -0.6074561416603244 
223 1107 -0.6250000000669569 
223 2128 -0.7500000000016984 
223 2129 -0.3472222224101764 
223 2130 -0.5595238095554758 
224 220 0.062499999990653254 
225 64 -0.6274509805565489 
225 220 -0.3229166676917494 
225 221 -0.4949494950046929 
225 226 -0.5510752688667719 
225 414 -0.5732323232782899 
225 1132 -0.5222222223301285 
225 1789 -0.477777777927451 
225 2459 -0.3055555556663432 
225 2460 -0.3333333336602715 
226 2 -0.6209677456755971 
226 32 -0.5305602718049605 
226 220 -0.5141129036581531 
226 223 -0.5672043011242116 
226 225 -0.5510752688667719 
226 228 -0.4132258073319164 
226 262 -0.49462365603948877 
226 375 -0.6942815249641077 
226 406 -0.72278225817672 
226 524 -0.7460711333096837 
226 536 -0.5000000005943974 
226 596 -0.6693548389053312 
226 598 -0.7204301076807813 
226 759 -0.5393145164273125 
226 811 -0.6048387097450398 
226 814 -0.44354838835750643 
226 819 -0.5779569900438828 
226 841 -0.612903226293307 
226 851 -0.5752688190788802 
226 868 -0.6790322583157162 
226 1021 -0.683467742382136 
226 1172 -0.7775142321267827 
226 1263 -0.7193548388152176 
226 1283 -0.5752688172376814 
226 1387 -0.7373271892247304 
226 1470 -0.5596774194707872 
226 1501 -0.5887096776683627 
226 1507 -0.5629032266054033 
226 1519 -0.6962365592257893 
226 1528 -0.6758064516916074 
226 1545 -0.48387096779444194 
226 1652 -0.6503225807019946 
226 1664 -0.6370967742475453 
226 1687 -0.7316715543511929 
226 1757 -0.672043011473485 
226 1798 -0.6350806452394182 
226 1883 -0.5967741935547624 
226 1991 -0.7523041474856322 
226 2129 -0.5537634408802785 
226 2174 -0.5860215055089188 
226 2243 -0.48387096779444194 
226 2256 -0.7016129032542211 
226 2284 -0.4032258064969141 
226 2304 -0.6290322582568435 
226 2587 -0.5860215054383473 
226 2593 -0.6263440860532805 
226 2594 -0.5860215054570896 
226 2595 0.016129032257338083 
226 2596 -0.4381720445289976 
226 2597 -0.6263440860532807 
226 2598 -0.7258064516437337 
226 2599 -0.7435483873756645 
226 2600 0.016129032257337972 
226 2601 -0.7768817209360215 
226 2602 -0.6290322593008233 
226 2603 -0.5306451615960515 
226 2604 0.016129032257338194 
226 2605 -0.5822580645334938 
226 2606 -0.6013824885038694 
226 2607 -0.6102150538415929 
226 2608 -0.6088709677635515 
226 2609 0.016129032257338416 
227 7 -0.7135869570362365 
227 220 -0.7228260882120399 
227 368 -0.6413043478427594 
227 424 -0.7049689442090075 
227 760 -0.6014492753657463 
227 977 -0.5362318840681217 
227 1166 -0.6014492753657465 
227 1192 -0.5579710145005774 
227 1675 0.043478260831654514 
227 1854 -0.6413043478397569 
227 2059 0.0434782608316544 
227 2131 0.04347826083165418 
227 2284 -0.30434782610648003 
227 2570 -0.557971014500577 
227 2628 -0.391304347831706 
227 2629 -0.6630434782717618 
227 2630 -0.7681159420441912 
227 2631 -0.5144927536633381 
227 2632 -0.45652173913503935 
227 2633 -0.6043478264101225 
227 2634 -0.8454106280229232 
227 2635 0.04347826083165418 
227 2636 -0.4347826086982203 
228 2 -0.48967741947212895 
228 104 -0.6738144330502907 
228 220 -0.48750000069799326 
228 226 -0.4132258073319164 
228 233 -0.6142857143830629 
228 262 -0.3633333345746763 
228 432 -0.6542857146706367 
228 718 -0.44000000007392837 
228 736 -0.4600000021897761 
228 852 -0.6500000013512546 
228 885 -0.4884615392837022 
228 935 -0.3200000000278669 
228 1027 -0.4850000000299213 
228 1091 -0.38000000024491976 
228 1283 -0.5600000000242134 
228 1470 -0.4933333338057173 
228 1614 -0.372307692405369 
228 1652 -0.520000002180653 
228 2018 -0.546666666705272 
228 2064 -0.6066666666695788 
228 2306 -0.425714285980086 
228 2392 -0.660000000063008 
228 2606 -0.45142857146047755 
228 2620 -0.32000000001823947 
228 2717 -0.13000000001342937 
229 220 -0.4375000000049982 
229 3084 0.49999999996157996 
230 220 -0.6527777778275854 
230 270 -0.6770833340860936 
230 481 -0.5507936518827556 
230 902 -0.4097222223853392 
230 905 0.027777777754290356 
230 908 -0.555555555571779 
230 1214 -0.41666666707617384 
230 2849 0.11111111109800775 
230 3213 -0.33333333366027174 
231 220 -0.4750000000290071 
231 254 -0.4166666674608912 
231 271 -0.0428571430660023 
231 275 -0.15000000003522507 
231 282 -0.07142857185163454 
231 465 -0.5844827586664589 
231 1132 -0.18333333352917558 
231 1614 -0.011538463009783229 
231 2459 -0.2500000005226575 
231 2484 -0.10000000092284234 
232 220 -0.5312500000128748 
232 221 -0.5303030309628851 
232 1441 -0.7463768116381486 
232 1764 -0.500000000005361 
232 2023 -0.6333333333365667 
232 3709 0.16666666664825058 
233 220 -0.5267857154580993 
233 228 -0.6142857143830629 
233 1387 -0.4285714304087893 
233 1582 -0.5238095238143972 
233 2169 -0.514285714515017 
233 2926 -0.6696428573219244 
233 3150 0.14285714284071527 
234 13 -0.7000000000594566 
234 46 -0.41666666864945356 
234 220 -0.5000000006379259 
234 524 -0.717948717954825 
234 919 -0.645833333345645 
234 2562 -0.5000000000053608 
235 115 -0.6750000000092871 
235 220 -0.4375000000969178 
235 524 -0.6698717949063979 
235 736 -0.38750000021504083 
235 1470 -0.525000000405266 
235 2688 0.1249999999853243 
235 3235 -0.04166666707279343 
235 3620 0.12499999998532463 
236 31 -0.7518796995026951 
236 35 -0.47619047624035193 
236 220 -0.6145833336868609 
236 320 -0.63165266159384 
236 394 -0.3095238098649171 
236 414 -0.6515151518838938 
236 524 -0.7069597071798794 
236 559 -0.7095238096696004 
236 759 -0.6696428584383263 
236 910 -0.6190476190594223 
236 940 -0.4285714285741211 
236 1236 -0.6785714290813709 
236 1268 -0.7559523813718843 
236 1566 -0.4285714285741211 
236 2044 -0.505952380981928 
236 2175 -0.6666666676547917 
236 2503 -0.6285714287991095 
236 2704 -0.42857142857412134 
236 2867 -0.7142857144864041 
236 2951 -0.3095238098649187 
236 3739 0.04761904759222624 
237 27 0.020408163194119644 
238 28 -0.4137931034574862 
238 239 -0.2500000001681342 
239 86 -0.6547619048853504 
239 238 -0.2500000001681342 
239 376 -0.7222222222378378 
239 593 -0.5178571430743593 
239 1235 -0.7309523810031069 
239 1648 -0.5916666669331128 
239 1679 -0.5625000000188733 
239 1696 -0.5833333333921986 
239 1960 -0.4166666666724308 
239 2300 -0.6904761904802459 
239 2594 -0.2500000000446805 
239 3163 -0.4166666666724308 
240 125 -0.27272727273709974 
240 241 -0.416666666670618 
241 2 -0.6881720430521436 
241 38 -0.5312500021417013 
241 64 -0.6213235294412867 
241 155 -0.6875000000284015 
241 240 -0.416666666670618 
241 323 -0.5698529442068632 
241 359 -0.585144929012658 
241 428 -0.7386363640949445 
241 490 -0.7113095238901366 
241 617 -0.6776960797370739 
241 747 -0.5089285735829825 
241 748 -0.5833333334508184 
241 770 -0.6875000000054219 
241 822 -0.45833333333795534 
241 823 -0.541666666678035 
241 824 -0.5681818182698022 
241 825 -0.43750000151292134 
241 826 -0.533333333365301 
241 827 -0.45833333333795534 
241 828 -0.6250000001141438 
241 829 -0.5059523810180611 
241 830 -0.7738095238815168 
241 831 -0.8125000000603853 
241 832 -0.43750000000250067 
242 169 -0.4642857146358881 
242 209 -0.35714285715102667 
242 470 -0.3571428571510269 
242 877 -0.7207792208040709 
242 1189 -0.35714285715102667 
242 1826 -0.14285714300576968 
242 1827 -0.500000000415646 
243 2 -0.6370967742570299 
243 244 0.08333333198622528 
243 245 -0.5000000000053608 
243 246 -0.4166666667260368 
243 247 -0.33333333352602357 
243 248 -0.6000000001314416 
244 2 -0.18548387097265073 
244 243 0.08333333198622528 
245 243 -0.5000000000053608 
245 1369 -0.5238095238135425 
245 3383 -0.41666666667351837 
246 223 -0.6250000000247713 
246 243 -0.4166666667260368 
246 530 -0.29166666815119235 
246 1012 -0.5000000000053608 
246 1463 -0.6590909096726254 
246 2746 -0.29166666675495323 
247 243 -0.33333333352602357 
247 1470 -0.5500000000205758 
247 2202 -0.33333333340950166 
248 101 -0.7071428571493841 
248 243 -0.6000000001314416 
248 610 -0.7571428571608447 
248 736 -0.5500000000116518 
248 738 -0.5681818183550869 
248 1387 -0.6142857150466656 
248 2260 -0.35000000011300303 
248 2402 0.09999999998832099 
248 2733 -0.6000000000255523 
248 3233 -0.4166666666874146 
249 250 0.06249999999065314 
250 127 -0.6041666666682552 
250 249 0.06249999999065314 
250 276 -0.7375000000012097 
250 491 -0.6041666666693843 
250 799 -0.4062500000029874 
250 1063 -0.7062500000275727 
250 1095 -0.6041666666693843 
250 1157 0.06249999999065303 
250 1465 -0.8293269231189395 
250 1722 -0.5729166666716745 
250 2079 0.062499999990653254 
250 2111 -0.6875000000020306 
250 2191 -0.6041666666693841 
250 2192 -0.437500000004998 
250 2193 0.06249999999065292 
250 2194 0.062499999990653254 
251 127 0.33333333330550463 
252 253 0.1249999999881557 
253 252 0.1249999999881557 
253 312 -0.8009259260061745 
253 529 -0.8239795919813093 
253 832 -0.31250000001279643 
253 1135 -0.37500000000749534 
253 1550 0.1249999999853243 
253 2014 0.1249999999853244 
253 3100 0.12499999998532463 
254 85 -0.5549450551116997 
254 86 -0.5119047625834419 
254 151 -0.4563492079902849 
254 159 -0.5500000009611647 
254 231 -0.4166666674608912 
254 255 -0.4880952381396635 
254 256 -0.6349206357698154 
254 257 -0.6893939394504458 
254 258 -0.6488095238639404 
254 259 -0.6071428584420362 
254 260 -0.6130952399201088 
254 261 -0.7142857143524042 
254 262 -0.5119047619468757 
254 263 -0.5238095238870601 
254 264 -0.6309523814534703 
254 265 -0.5550082106580683 
254 266 -0.2023809523864195 
254 267 0.023809523738080984 
254 268 -0.4821428573088127 
254 269 -0.5389610389986967 
254 270 -0.660714286640967 
254 271 -0.4166666682093507 
254 272 -0.6690476192852999 
254 273 -0.5833333333640127 
254 274 -0.5408622934303944 
254 275 -0.3642857144191951 
254 276 -0.5333333337757695 
254 277 -0.3690476190656571 
254 278 -0.7380952382935297 
254 279 -0.3730158736332281 
254 280 -0.654761905798513 
254 281 -0.6413690477054779 
254 282 -0.4333333345589194 
254 283 -0.4571428571855636 
254 284 -0.4926739928613806 
254 285 -0.5500000001262957 
254 286 -0.44047619107434555 
254 287 -0.3647186148040733 
254 288 -0.5119047619255777 
254 289 -0.44047619118003367 
254 290 -0.38690476192054035 
254 291 -0.40659340664658306 
255 41 -0.5238095251121924 
255 254 -0.4880952381396635 
255 313 -0.5666666667407645 
255 480 -0.4166666666973806 
255 502 -0.697916666845892 
255 529 -0.619897959218431 
255 602 -0.5654761917476172 
255 881 -0.5000000003235798 
255 882 -0.5178571429117182 
255 883 -0.2500000001215812 
255 884 -0.37500000002224754 
255 885 -0.580128205394632 
256 254 -0.6349206357698154 
256 465 -0.6733716475667397 
256 870 -0.5811965822777321 
256 1353 -0.5277777782331972 
256 1614 -0.4957264968940165 
256 1750 -0.5757575759623814 
256 1751 -0.4444444444571194 
256 1752 -0.6388888889043338 
256 1753 0.11111111109800764 
257 111 -0.722650231143027 
257 125 -0.6818181818392421 
257 254 -0.6893939394504458 
257 274 -0.6240786242006069 
257 619 -0.5303030309302637 
257 1168 -0.7386363636395838 
257 1704 -0.36363636393943666 
257 1779 0.09090909089870935 
257 1780 -0.31818181843198823 
257 1781 -0.36363636393943644 
257 1782 0.09090909089870935 
258 195 -0.6500000002194624 
258 254 -0.6488095238639404 
258 399 -0.6770833333630899 
258 559 -0.7000000000620714 
258 594 -0.6250000001557425 
258 796 -0.562500000023564 
258 798 -0.45833333521046304 
258 856 -0.5416666668757475 
258 1205 -0.5608974363357133 
258 1597 -0.5000000000114757 
258 1943 -0.37500000029395664 
258 1944 0.0833333333241344 
259 13 -0.516666668941689 
259 68 -0.4047619049387474 
259 69 -0.5389610391538908 
259 93 -0.6666666670467234 
259 103 -0.6190476197066817 
259 254 -0.6071428584420362 
259 520 -0.6404761906378218 
259 639 -0.5476190476707801 
259 683 -0.5744047619236321 
259 686 -0.5000000000444422 
259 688 -0.630952382189039 
259 877 -0.6233766234539013 
259 1016 -0.468253968434275 
259 1172 -0.6918767517294337 
259 1650 -0.619047619141752 
259 1858 -0.5695970701660493 
259 2089 -0.33333333334270887 
259 2107 0.047619047592226016 
259 2108 -0.4761904763653493 
259 2109 -0.4285714285741209 
259 2110 -0.34285714316014815 
260 254 -0.6130952399201088 
260 614 -0.6500000000084838 
260 688 -0.6458333338730924 
260 1205 -0.6442307694805918 
260 1569 -0.7083333334756095 
260 1739 -0.5583333335004192 
260 2245 -0.6250000000385183 
260 2437 -0.6250000000210396 
260 2438 -0.6666666666691912 
260 2439 0.08333333332413406 
260 2440 -0.6666666666684913 
260 2441 -0.29166666668837604 
261 254 -0.7142857143524042 
261 330 -0.5470085470662325 
261 593 -0.6428571438386477 
261 610 -0.6190476193295842 
261 956 -0.5000000014791279 
261 1007 -0.6904761904801946 
261 1372 0.11111111109800764 
261 1705 -0.6458333336286601 
261 2478 -0.6805555559250467 
262 226 -0.49462365603948877 
262 228 -0.3633333345746763 
262 254 -0.5119047619468757 
262 289 -0.4285714287568263 
262 554 -0.4144736859091134 
262 938 -0.568181818780849 
262 1900 -0.6250000000908389 
262 2124 -0.47500000280891674 
262 2606 -0.3630952388337225 
262 2673 -0.45833333391519604 
262 2717 -1.9835910691767822e-11 
262 2718 0.0833333333241344 
263 2 -0.5053763442576527 
263 254 -0.5238095238870601 
263 2794 -0.1666666666799932 
264 254 -0.6309523814534703 
264 266 -9.347238538737201e-10 
264 495 -0.41666666672224784 
264 766 -0.5937500006688246 
264 950 -0.36111111113762107 
264 2225 -0.45833333341936133 
264 2795 -0.25000000032936387 
264 2796 -0.4875000000232168 
265 5 -0.7337164751227245 
265 11 -0.7370689655416836 
265 55 -0.6502463058110359 
265 80 -0.6992337165649798 
265 104 -0.6269107716502227 
265 120 -0.6436781621883767 
265 179 -0.5872210956335013 
265 200 -0.6781609202099437 
265 254 -0.5550082106580683 
265 435 -0.798408488074166 
265 529 -0.6611541171672235 
265 532 -0.6417025864213224 
265 559 -0.5298850575236815 
265 641 -0.5652709372392721 
265 687 -0.6091954025454953 
265 792 -0.7179802961705863 
265 856 -0.6609195407113715 
265 1079 -0.6637931034616544 
265 1096 -0.6436781611731097 
265 1360 -0.6140583554645502 
265 1490 -0.7137931034689977 
265 1504 -0.5977011494334354 
265 1575 -0.7643678161135554 
265 1703 -0.5711206900779235 
265 2149 -0.3275862069143691 
265 2375 -0.6948275862468054 
265 2877 -0.37931034484070936 
265 2878 -0.34482758621833387 
265 2879 -0.3275862069108364 
266 254 -0.2023809523864195 
266 264 -9.347238538737201e-10 
267 254 0.023809523738080984 
268 186 -0.6363636363761445 
268 254 -0.4821428573088127 
268 271 -0.3750000000736706 
268 481 -0.6071428572380164 
269 254 -0.5389610389986967 
269 312 -0.7340067340884875 
269 736 -0.5727272734738631 
269 885 -0.5297202798396645 
269 928 -0.5430622009858066 
269 938 -0.5909090911189958 
269 1991 -0.46753246755689526 
269 2574 0.09090909089870935 
269 2623 -0.5757575757611697 
269 3367 -0.2727272727370995 
269 3368 0.09090909089870935 
270 44 -0.6215277782528807 
270 134 -0.5312500003738059 
270 204 -0.5659722228399819 
270 230 -0.6770833340860936 
270 254 -0.660714286640967 
270 644 -0.6312500008291653 
270 669 -0.7395833336153605 
270 675 -0.4375000000049982 
270 909 -0.625000001868594 
270 1238 -0.6437500002810435 
270 1556 -0.5357142857724215 
270 1720 -0.687500000488859 
270 1738 -0.5104166666807495 
270 1862 -0.6750000000747762 
270 2627 -0.572916666671675 
270 2818 -0.5729166666716747 
271 231 -0.0428571430660023 
271 254 -0.4166666682093507 
271 268 -0.3750000000736706 
271 282 -0.3000000007822323 
271 536 -0.4821428576408826 
271 885 -0.40384615395134604 
271 1132 -0.3833333343849692 
271 1463 -0.6655844162560105 
271 1468 -0.33571428606819786 
271 1614 -0.08791208925598526 
271 2441 -0.2142857143397452 
271 2484 -0.2647058824013315 
271 2557 -0.5238095238201184 
271 3417 0.07142857142142012 
272 254 -0.6690476192852999 
272 371 -0.2666666667026032 
272 530 -0.16250000001608633 
272 534 -0.35000000002324816 
272 2499 -0.10000000001992393 
273 128 -0.41666666667373553 
273 254 -0.5833333333640127 
273 398 -0.5952380952498455 
274 160 -0.6959459459624795 
274 254 -0.5408622934303944 
274 257 -0.6240786242006069 
274 279 -0.4369369377234835 
274 281 -0.5287162162401875 
274 290 -0.3952702706410749 
274 291 -0.6107068607503914 
274 303 -0.768018018136776 
274 316 -0.5990990991082228 
274 322 -0.459459459464715 
274 421 -0.6981981983291217 
274 492 -0.7274774775033153 
274 518 -0.6776061777086553 
274 561 -0.7898648649271993 
274 587 -0.6959459459636397 
274 647 -0.7939189189983336 
274 681 -0.6396396396431938 
274 725 -0.5118243244123568 
274 836 -0.7387387387502451 
274 934 -0.7117117125837353 
274 1094 -0.6100386100666635 
274 1099 -0.5585585585919801 
274 1236 -0.7442084943070149 
274 1311 0.027027026957566758 
274 1339 -0.7069701281452985 
274 1344 -0.7094594594703518 
274 1522 -0.5743243243764868 
274 1799 -0.4797297298327692 
274 1912 -0.47297297299009244 
274 2183 -0.6959459459636408 
274 2364 -0.5304054054564109 
274 2371 -0.8459459460770336 
274 2415 -0.6418918919634067 
274 2915 -0.5567567567728706 
274 3139 -0.37837837844509137 
274 3380 -0.7054054056930559 
274 3451 0.027027026957566425 
275 231 -0.15000000003522507 
275 254 -0.3642857144191951 
275 282 -0.2571428572221961 
275 288 -0.38333333336021047 
275 310 -0.6000000002802033 
275 554 -0.43421052747958155 
275 759 -0.5062500004677684 
275 909 -0.5000000011727532 
275 1801 -0.35000000017900756 
275 2484 -0.33823529432400656 
276 32 -0.5763157895776603 
276 250 -0.7375000000012097 
276 254 -0.5333333337757695 
276 863 -0.5916666668269308 
276 2479 -0.5222222222335242 
277 254 -0.3690476190656571 
277 502 -0.3958333333505524 
278 71 -0.5833333333371751 
278 96 -0.3333333333502251 
278 185 -0.41666666672819774 
278 254 -0.7380952382935297 
278 1359 -0.5833333333369268 
278 3793 -0.33333333334233695 
279 32 -0.5043859668605084 
279 254 -0.3730158736332281 
279 274 -0.4369369377234835 
279 286 -0.16666666698725763 
279 289 -0.29365079373649494 
279 614 -0.47777777780185104 
279 725 -0.3333333333505788 
279 1799 -0.2361111111474632 
279 2603 -0.47777777780034403 
280 138 -0.5000000005074094 
280 254 -0.654761905798513 
280 972 -0.6447368421677697 
280 1309 -0.5833333338871687 
280 2493 -0.6190476190566403 
280 2562 -0.5000000000053608 
281 19 -0.8105053191706066 
281 32 -0.6595394741222622 
281 104 -0.6688144332015526 
281 254 -0.6413690477054779 
281 274 -0.5287162162401875 
281 414 -0.6448863640883256 
281 641 -0.6026785718746988 
281 655 -0.6651785725154553 
281 1217 -0.4375000000384057 
281 1338 -0.4479166666933805 
281 1485 -0.6388888890727418 
281 1840 -0.5187500000250356 
281 2364 -0.3750000007804932 
281 2666 -0.47321428596040116 
281 3714 -0.18750000031229663 
281 3836 0.062499999990653254 
282 7 -0.4982142857432956 
282 231 -0.07142857185163454 
282 254 -0.4333333345589194 
282 271 -0.3000000007822323 
282 275 -0.2571428572221961 
282 284 -0.46373626375793586 
282 287 -0.3103896104148922 
282 465 -0.5637931052468543 
282 511 -0.49523809652967654 
282 554 -0.46015037602731423 
282 588 -0.5875000002785136 
282 662 -0.5214285736349389 
282 809 -0.5285714286896979 
282 883 -0.4222222227189274 
282 885 -0.26263736428171147 
282 928 -0.5345864689265871 
282 948 -0.3000000001168144 
282 972 -0.3744360905723889 
282 978 -0.1464285717158822 
282 1132 -0.37142857210946434 
282 1468 -0.20000000015792052 
282 1501 -0.7190476191106849 
282 1614 -0.20109890126037633 
282 1703 -0.38750000008343277 
282 1801 -0.3690476198908259 
282 1809 -0.6214285714375962 
282 1831 -0.585714285844771 
282 2048 -0.4649350650889068 
282 2206 -0.3142857145827145 
282 2251 -0.7214285714315851 
282 2306 -0.2428571433376967 
282 2459 -0.450000000104418 
282 2545 -0.4428571429755319 
282 3182 -0.4000000000099031 
282 3249 -0.6285714286121087 
283 254 -0.4571428571855636 
283 291 -0.5269230770802442 
283 368 -0.32500000005422414 
283 560 -0.1750000019924851 
283 1739 -0.4666666671743551 
284 61 -0.43910256496194044 
284 254 -0.4926739928613806 
284 282 -0.46373626375793586 
284 287 -0.10489510491832021 
284 291 -0.4423076929350913 
284 565 -0.5695970700531445 
284 793 -0.551282051288025 
284 947 -0.20192307694813527 
284 1508 -0.664835165415326 
284 1664 -0.435897435927058 
284 1839 -0.4307692315225089 
284 2246 -0.5480769230998852 
284 3193 -0.3461538461595304 
285 254 -0.5500000001262957 
285 686 -0.20000000004271246 
285 1279 -0.5529411764951906 
285 1962 -0.20000000000489426 
285 2940 -0.4500000002298292 
286 254 -0.44047619107434555 
286 279 -0.16666666698725763 
286 289 -0.25000000027445424 
286 325 -0.6298701301073675 
286 1073 -0.41071428574200564 
286 1279 -0.6092436975032924 
286 2608 -0.1428571440779025 
287 61 -0.5265151517021225 
287 254 -0.3647186148040733 
287 282 -0.3103896104148922 
287 284 -0.10489510491832021 
287 554 -0.40430622192739163 
287 885 -0.33566433575260346 
287 893 -0.022727272745274973 
287 947 -0.12500000005587886 
287 1505 -0.6267942583881494 
287 1799 -0.39772727298795063 
287 1839 -0.36969697041874383 
288 254 -0.5119047619255777 
288 275 -0.38333333336021047 
288 687 -0.5000000010841821 
288 928 -0.40789473731776726 
288 2097 -0.5500000000018037 
288 3293 -0.6333333333365663 
289 51 -0.7904761904862401 
289 254 -0.44047619118003367 
289 262 -0.4285714287568263 
289 279 -0.29365079373649494 
289 286 -0.25000000027445424 
289 554 -0.47932330867044826 
289 928 -0.4962406017088852 
289 949 -0.5595238096498683 
289 972 -0.4962406017959686 
289 1472 -0.30357142947722426 
289 1633 -0.5446428583019842 
289 1869 -0.17857142881280152 
289 2608 -0.2857142857928143 
289 2629 -0.6428571428716745 
290 111 -0.6059322035995165 
290 254 -0.38690476192054035 
290 274 -0.3952702706410749 
290 1991 -0.339285714995331 
291 134 -0.5608974360432253 
291 254 -0.40659340664658306 
291 274 -0.6107068607503914 
291 283 -0.5269230770802442 
291 284 -0.4423076929350913 
291 312 -0.7179487181263811 
291 480 -0.41025641029281434 
291 489 -0.6538461538600437 
291 554 -0.5273279375367352 
291 732 -0.44871794985397484 
291 792 -0.8159340663476449 
291 909 -0.586538461562329 
291 1036 -0.628205128206929 
291 1254 -0.7032967035042113 
291 1288 -0.6500000013047194 
291 1339 -0.6639676115206217 
291 1610 -0.6076923077046217 
291 1635 -0.6442307692468705 
291 1696 -0.6634615389579435 
291 1839 -0.4782051282371842 
291 2124 -0.5217948718214924 
291 2176 -0.7331730769435623 
291 2485 -0.5432692308749236 
291 2669 -0.6730769230849245 
291 3036 -0.7115384615397686 
291 3777 0.03846153841039901 
292 293 0.19999999997925044 
292 294 0.19999999997925055 
292 295 -0.3000000000100629 
292 296 -0.550000000004718 
292 297 -0.7000000000019211 
293 292 0.19999999997925044 
294 292 0.19999999997925055 
295 292 -0.3000000000100629 
295 2746 -0.2500000000114524 
296 292 -0.550000000004718 
296 1398 -0.5500000000046013 
296 1652 -0.7100000000013607 
296 3481 0.24999999997633604 
297 292 -0.7000000000019211 
297 307 -0.707142857194029 
297 1078 -0.8210526315809656 
297 1250 -0.6888888901337207 
297 1401 -0.6333333335706153 
297 1856 -0.6833333334388252 
297 2125 -0.6833333334388252 
297 2543 0.09999999998832099 
297 2843 -0.6125000000091967 
297 3396 0.09999999998832132 
298 5 -0.3888888888958266 
298 299 -0.4333333333365479 
299 100 -0.7083333336469655 
299 111 -0.7129943503298244 
299 298 -0.4333333333365479 
299 398 -0.66666666729403 
299 434 -0.36666666724966834 
299 518 -0.5571428571567973 
299 628 -0.5000000000820362 
299 660 -0.5814814816859792 
299 725 -0.4875000014704862 
299 1250 -0.37777777936012913 
299 1301 -0.4666666667162538 
299 1396 -0.46666666682187796 
299 1513 -0.5809523810178261 
299 2761 -0.6000000002761623 
299 2888 -0.7000000000956839 
300 301 -0.5416666667328303 
300 302 -0.30000000004246696 
300 303 -0.5833333333378641 
301 300 -0.5416666667328303 
301 591 -0.7583333333360318 
301 1194 -0.7571428580034536 
301 1313 -0.550000000014875 
301 1314 0.049999999976231946 
301 1315 -0.4500000000350053 
301 1316 -0.3500000001953474 
301 1317 -0.32500000002665086 
301 1318 -0.2500000000272715 
301 1319 -0.5666666666731621 
301 1320 0.04999999997623228 
301 1321 -0.4000000000049502 
301 1322 0.049999999976231946 
301 1323 -0.4000000001745172 
301 1324 -0.15000000000417124 
301 1325 -0.6166666666689329 
301 1326 -0.6750000001525529 
301 1327 -0.5750000004435329 
301 1328 -0.10000000001470122 
301 1329 -0.4666666667577293 
302 300 -0.30000000004246696 
302 336 -0.5500000000047183 
302 610 -0.7523809523822156 
302 1611 -0.5000000003443883 
302 2462 -0.3666666666834766 
303 69 -0.7247474749920304 
303 206 -0.7525252525316635 
303 274 -0.768018018136776 
303 300 -0.5833333333378641 
303 565 -0.6666666667032621 
303 577 -0.6833333338434455 
303 629 -0.788888888894296 
303 839 -0.6388888889117237 
303 1441 -0.71256038668125 
303 1482 -0.7222222222306536 
303 1488 -0.6333333333480367 
303 1687 -0.6313131313771416 
303 1763 -0.583333333363671 
303 1856 -0.5833333335736786 
303 1962 -0.4166666666695338 
303 2039 -0.6944444445299809 
303 2862 -0.5555555555631055 
303 3807 -0.41666666666953356 
304 305 0.3333333333055045 
304 306 -0.5666666666693496 
304 307 -0.5238095238143974 
305 304 0.3333333333055045 
306 304 -0.5666666666693496 
306 723 -0.8000000000038026 
306 1283 -0.700000001265864 
306 1400 -0.657142857402012 
306 1784 -0.6500000000028674 
306 2677 -0.5666666666705105 
306 2678 -0.4000000000064692 
306 2679 -0.5666666666705105 
306 2680 -0.6625000000962855 
306 2681 0.09999999998832132 
307 28 -0.6847290645441111 
307 155 -0.5595238102645235 
307 297 -0.707142857194029 
307 304 -0.5238095238143974 
307 985 -0.5857142858288891 
307 2246 -0.5357142857505142 
307 2698 -0.5779220785128483 
308 309 -0.35000000031384815 
308 310 -0.35000000031384837 
309 8 -0.7800000000856939 
309 213 -0.754761904802391 
309 308 -0.35000000031384815 
309 727 -0.6750000000136109 
309 839 -0.5500000000888896 
309 1348 -0.4000000000064694 
309 1876 -0.40000000000646896 
309 1877 -0.5666666666705102 
309 1878 -0.2500000000265852 
309 1879 -0.6071428573141018 
310 13 -0.6833333333674421 
310 32 -0.6026315790118324 
310 169 -0.6250000000764531 
310 275 -0.6000000002802033 
310 308 -0.35000000031384837 
310 583 -0.650000001582832 
310 1505 -0.6552631579577979 
310 1649 -0.4500000000979385 
310 3630 -0.4000000000064694 
310 3631 -0.4000000000064692 
311 312 -0.592592592599283 
311 313 -0.5333333333430992 
311 314 -0.3333333333420525 
312 253 -0.8009259260061745 
312 269 -0.7340067340884875 
312 291 -0.7179487181263811 
312 311 -0.592592592599283 
312 415 -0.4629629629677323 
312 560 -0.583333333549207 
312 668 -0.7712418301635997 
312 721 -0.824074074086403 
312 728 -0.46296296296773254 
312 836 -0.722222222251286 
312 953 -0.6851851855290123 
312 1424 -0.4629629629677323 
312 1739 -0.6259259260034031 
312 1810 -0.46296296296409567 
312 1854 -0.5509259259829662 
312 1858 -0.735042735197065 
312 1893 -0.6259259259368142 
312 1999 -0.4259259259312689 
312 2000 -0.6111111111153906 
312 2001 -0.715488215591213 
312 2002 -0.6703703704772921 
312 2003 -0.6296296296313706 
312 2004 -0.6944444444490103 
312 2005 -0.4629629629677323 
312 2006 -0.425925925930394 
312 2007 0.037037036982756955 
312 2008 0.037037036982757066 
313 41 -0.7214285714926421 
313 102 -0.7904761904773843 
313 255 -0.5666666667407645 
313 311 -0.5333333333430992 
313 614 -0.7333333333571947 
313 788 -0.6500000001861559 
313 949 -0.6083333335225127 
313 1272 -0.43333333563155607 
313 1622 -0.650000000000923 
313 1954 0.06666666666038656 
313 2240 0.06666666666038634 
313 2410 -0.30000000001907745 
313 2680 -0.3833333333487554 
313 2993 -0.36666666674637227 
313 3174 -0.6000000000028571 
314 180 -0.62318840579911 
314 311 -0.3333333333420525 
314 2200 -0.33333333334205273 
315 16 -0.7280701755208161 
315 316 -0.41666666668052965 
315 317 0.16666666664825036 
315 318 -0.5000000020994029 
315 319 -0.6250000005435297 
315 320 -0.6568627451570068 
316 27 -0.615646258529488 
316 274 -0.5990990991082228 
316 315 -0.41666666668052965 
317 315 0.16666666664825036 
318 315 -0.5000000020994029 
318 1180 -0.666666666795837 
318 1806 -0.5000000015571131 
318 2244 -0.4761904764374969 
318 2500 0.1666666666482508 
318 2875 -0.4166666667732357 
319 150 -0.6333333334634665 
319 213 -0.7261904762025004 
319 315 -0.6250000005435297 
319 877 -0.8106060606218068 
319 1659 -0.4583333333567674 
319 2190 -0.7500000000107094 
319 2766 -0.25000000016813484 
319 2796 -0.5500000008834289 
319 3089 -0.4166666667268668 
319 3316 -0.3750000002939564 
319 3760 0.08333333332413406 
319 3764 -0.3750000002939564 
320 207 -0.5882352942501625 
320 213 -0.686274511035587 
320 236 -0.63165266159384 
320 315 -0.6568627451570068 
320 427 -0.49197861065796045 
320 577 -0.623529411771341 
320 593 -0.6442577031661372 
320 617 -0.6176470594820178 
320 756 -0.6221719465260516 
320 821 -0.5784313725537795 
320 976 -0.5163398694357899 
320 1194 -0.6081932781702737 
320 1235 -0.6243697480425774 
320 1679 -0.6029411772893374 
320 1750 -0.5213903747142714 
320 2612 -0.4647058829543307 
320 2894 -0.5073529412104933 
321 99 -0.4166666667994279 
321 104 -0.6881443302854315 
321 424 -0.33928571431829946 
321 2337 0.24999999997633604 
322 99 -0.33333333366027174 
322 274 -0.459459459464715 
323 12 -0.4430538174714953 
323 32 -0.5371517028786972 
323 99 -0.5163398703581752 
323 173 -0.3235294141848186 
323 179 -0.5588235294383253 
323 241 -0.5698529442068632 
323 502 -0.601102941521577 
323 508 -0.5324283560973935 
323 529 -0.5186074431220831 
323 991 -0.5098039216032462 
323 1254 -0.23529411932280553 
323 1360 -0.6108597293185969 
323 1640 -0.40686274522051 
323 1953 -0.49411764722278373 
323 2232 -0.5823529412122395 
323 2319 -0.44852941178205596 
323 2415 -0.3529411783648453 
324 32 -0.6622807017844228 
324 99 -0.5555555557897005 
324 376 -0.6111111114687648 
324 1620 -0.416666666689671 
324 1752 -0.5000000002675316 
324 3217 -0.5833333333371751 
325 99 -0.7424242426612109 
325 189 -0.7247474749987646 
325 286 -0.6298701301073675 
325 524 -0.7651515154946193 
325 529 -0.6006493507398469 
325 559 -0.653030304096553 
325 881 -0.5272727277944216 
325 883 -0.4823232337280654 
325 972 -0.671052632695146 
325 1007 -0.7662337663366812 
325 1198 -0.5272727282334109 
325 1315 -0.7077922078789509 
325 1441 -0.7124505933458662 
325 1510 -0.5863636364028237 
325 1990 -0.7651515151747845 
325 2117 -0.49545454547229806 
325 2650 -0.731818181827824 
325 2774 -0.7196969697028495 
325 3224 -0.5454545455003841 
325 3353 -0.44090909103631715 
325 3567 -0.43939393942920013 
325 3611 0.045454545422870085 
326 99 0.11111111109800775 
327 99 -0.7124183006777063 
327 155 -0.7279411765126138 
327 608 -0.7117647059059573 
327 869 -0.6493212675140838 
327 951 -0.4485294118153227 
327 1142 -0.5784313725537795 
327 1251 -0.5196078435603149 
327 1416 -0.7117647059059578 
327 1843 -0.8006535947730637 
327 1972 -0.7411764705897688 
327 2703 -0.6078431372574924 
327 2805 -0.6512605044715154 
327 2855 -0.6823529412242433 
327 2919 -0.7279411765534247 
327 3749 -0.35294117647755185 
327 3885 0.05882352939801827 
327 3899 -0.35294117647755163 
328 329 -0.16666666667792018 
328 330 -0.4230769230824445 
329 328 -0.16666666667792018 
329 655 -0.5238095238198699 
329 657 0.1666666666581631 
330 8 -0.7276923077225217 
330 261 -0.5470085470662325 
330 328 -0.4230769230824445 
330 660 -0.7193732194381122 
330 1152 -0.39423076931319456 
330 1205 -0.6538461540851139 
330 1576 -0.7841880343909862 
330 1749 -0.7285067873535898 
330 1778 -0.7096153846380864 
330 2261 -0.602564102606691 
330 2589 -0.7346153846424033 
330 2643 -0.7417582418749564 
330 2693 -0.397435897519133 
331 332 -0.46666666667226453 
331 333 -0.4166666666735186 
331 334 -0.5555555555586054 
332 331 -0.46666666667226453 
332 1195 -0.500000000344389 
332 1196 -0.3000000000100629 
332 1197 -0.3857142857814464 
332 1198 -0.40000000116525003 
333 331 -0.4166666666735186 
333 1397 -0.2500000000086171 
333 1398 -0.550000000004718 
333 1399 -0.41666666667373575 
334 331 -0.5555555555586054 
334 653 -0.5555555557826306 
334 1490 -0.22222222316664197 
334 1492 -0.5606060606270191 
334 2075 -0.5555555555596878 
334 2114 -0.38888888889582685 
334 3024 -0.22222222228181732 
334 3736 -0.11111111141987329 
334 3889 0.11111111109800764 
335 336 -0.41666666667373575 
335 337 -0.1666666667280272 
335 338 -0.4166666666845633 
336 302 -0.5500000000047183 
336 335 -0.41666666667373575 
336 627 -0.6590909090935941 
336 1952 -0.5000000000056277 
337 7 -0.6291666666753302 
337 335 -0.1666666667280272 
337 1041 -0.5555555555586054 
338 335 -0.4166666666845633 
338 465 -0.7557471266130247 
338 1096 -0.5000000026723073 
338 2486 -0.4166666667500414 
338 2965 -0.3333333333423367 
338 3758 0.16666666664825058 
339 340 -0.38461538490143354 
339 341 -0.3125000000127969 
340 177 -0.42307692308030154 
340 339 -0.38461538490143354 
340 363 -0.6730769230793046 
340 392 -0.7564102564730968 
340 750 -0.7355769231043783 
340 797 -0.7521367529354765 
340 908 -0.6858974371366349 
340 1139 0.07692307691495337 
340 1140 -0.684615385126399 
340 1141 -0.6730769230793046 
340 1142 -0.512820512832155 
340 1143 -0.7179487180212392 
340 1144 -0.5512820513102215 
341 339 -0.3125000000127969 
341 385 -0.2132352951580554 
341 623 -0.37500000087723917 
341 694 -0.5267857143725236 
341 1155 -0.3333333336005979 
341 1771 0.05357142839762541 
341 1778 -0.4125000000154313 
341 2230 -0.33823529445300116 
342 343 -0.7280701755208154 
342 344 -0.6904761904785799 
342 345 -0.41666666762659355 
342 346 -0.41666666668052965 
342 347 -0.33333333334233695 
342 348 -0.41666666668456376 
343 38 -0.7434210532446524 
343 212 -0.7697368423383326 
343 342 -0.7280701755208154 
343 447 -0.5921052632240191 
343 448 -0.6710526315858854 
343 449 0.05263157892664905 
343 450 -0.44736842105734054 
343 451 -0.6947368421327855 
343 452 -0.4473684210573403 
343 453 -0.6644736842178007 
343 454 -0.4473684210573401 
343 455 -0.5087719298416034 
343 456 -0.614035087721664 
343 457 -0.614035087721664 
343 458 -0.7267206479345749 
343 459 -0.6973684210543916 
343 460 -0.44736842105734054 
343 461 -0.778195488789128 
343 462 -0.7210526315945149 
344 342 -0.6904761904785799 
344 764 -0.5357142857505146 
344 1784 -0.607142857146105 
344 1855 -0.6428571436222545 
344 2380 -0.7571428571445404 
344 2844 -0.3571428571510269 
344 3031 -0.5238095238143972 
345 104 -0.6469072173172055 
345 116 -0.560344827603636 
345 342 -0.41666666762659355 
345 1364 -0.47500000045580415 
346 342 -0.41666666668052965 
346 1505 -0.5745614035366042 
346 2096 -1.2995338138921397e-10 
347 342 -0.33333333334233695 
347 3486 -1.6896040122560407e-11 
348 199 -0.5416666666730865 
348 342 -0.41666666668456376 
348 427 -0.5757575757599391 
349 350 -0.16666666667792018 
349 351 -0.2500000000086169 
350 349 -0.16666666667792018 
350 2949 -0.3333333333420525 
350 3297 -0.1666666666799932 
351 349 -0.2500000000086169 
351 1217 -0.37500000017433033 
351 1279 -0.6911764705901682 
351 2541 -0.37500000017433033 
352 353 0.33333333331549286 
353 352 0.33333333331549286 
353 2238 -0.2500000000814977 
353 2756 0.1666666665323031 
354 355 0.24999999998872124 
355 354 0.24999999998872124 
355 781 -0.22500000005070797 
355 782 0.04166666593802015 
355 783 0.416666666429091 
356 111 -0.7994350282578744 
356 357 0.16666666664825058 
356 358 -0.6833333333361229 
356 359 -0.7789855075149776 
356 360 -0.33333333334233695 
356 361 -0.6666666666694112 
357 356 0.16666666664825058 
358 139 -0.7333333333350558 
358 356 -0.6833333333361229 
358 617 -0.6647058828340857 
358 856 -0.6833333333730938 
358 1007 -0.7571428571445407 
358 1296 -0.3000000000066183 
358 1692 0.09999999998832099 
358 2537 -0.6333333333397846 
358 2582 -0.4000000000064694 
358 2583 0.09999999998832132 
359 28 -0.7117691156966481 
359 62 -0.7375776397738938 
359 78 -0.6603260870529284 
359 154 -0.46442687752286527 
359 241 -0.585144929012658 
359 356 -0.7789855075149776 
359 437 -0.652173913205214 
359 696 -0.7130434783874939 
359 788 -0.7922705315028591 
359 804 -0.7463768116089091 
359 829 -0.583850931753136 
359 881 -0.6173913046036528 
359 982 -0.6485507256188405 
359 1049 -0.45652173913602034 
359 1235 -0.6431677025203895 
359 1263 -0.7347826087719542 
359 1462 -0.612318840603165 
359 1469 -0.5760869567471922 
359 1917 -0.7364130440156269 
359 2045 -0.7246376814041113 
359 2225 -0.5271739130673643 
359 2250 -0.6123188406031648 
359 2401 -0.4782608696072952 
359 2410 -0.4456521739209929 
359 2412 -0.8115942029045078 
359 2640 -0.6340579710242125 
359 2699 -0.5144927537621538 
359 2736 -0.5673913044954579 
359 2796 -0.5913043479215976 
359 2832 -0.6130434783808671 
359 2891 -0.456521739136021 
359 2956 -0.5478260873835941 
359 2983 0.0217391303631449 
359 2989 -0.6086956523236648 
359 3164 -0.43478260870511054 
359 3175 -0.4673913043513829 
359 3176 0.021739130363144454 
359 3177 -0.644927536241843 
359 3178 -0.4239130434896019 
359 3179 -0.4239130434895748 
359 3180 -0.20652173913533778 
359 3181 -0.6521739131271953 
359 3182 -0.413043478274 
359 3183 0.021739130363144787 
359 3184 0.021739130363144454 
359 3185 0.021739130363144676 
360 356 -0.33333333334233695 
360 2222 -1.6896040122560407e-11 
361 41 -0.7440476190894674 
361 356 -0.6666666666694112 
361 1121 -0.6666666666689574 
361 1236 -0.6547619047870876 
361 3629 -0.3333333333423367 
361 3731 0.16666666664825058 
362 363 0.24999999997633604 
363 340 -0.6730769230793046 
363 362 0.24999999997633604 
363 2320 -0.4166666666735186 
363 3348 -0.41666666667351815 
364 186 -0.409090909095142 
364 213 -0.40476190476627405 
365 104 -0.42783505164142754 
365 366 -0.20833333337106819 
366 13 -0.6333333348273686 
366 365 -0.20833333337106819 
366 561 -0.733333333445741 
366 630 -0.4583333333676647 
366 843 -0.7587209306453095 
366 1223 -0.7083333333389759 
366 1656 -0.7500000000023337 
366 2318 -0.5416666666730863 
366 2570 -0.5000000000130258 
366 3146 -0.6333333334257998 
366 3628 -0.37500000029395686 
366 3851 0.0833333333241344 
367 368 0.24999999997633604 
368 227 -0.6413043478427594 
368 283 -0.32500000005422414 
368 367 0.24999999997633604 
368 885 -0.5384615384986973 
369 169 -0.4250000000027512 
369 370 -0.42105263158175665 
370 103 -0.7255639110219962 
370 168 -0.39473684210990645 
370 207 -0.7801857586220693 
370 369 -0.42105263158175665 
370 677 -0.5877192983100556 
370 1110 -0.7530364372927547 
370 1268 -0.7697368421215098 
370 1280 -0.6447368421178861 
370 1307 -0.8322368422027435 
370 1418 -0.44736842105734054 
370 1691 -0.3947368421386823 
370 1760 -0.5877192982499264 
370 1761 -0.7473684210540208 
370 1762 -0.6140350877216645 
370 1763 -0.53508771936795 
370 1764 -0.56140350877944 
370 1765 -0.3684210526585461 
370 1766 -0.6754385965624827 
370 1767 0.05263157892664916 
371 28 -0.5919540231023821 
371 49 -0.4722222240110052 
371 223 -0.33333333338525817 
371 272 -0.2666666667026032 
371 375 -0.4772727278521991 
371 530 -0.2916666667074048 
371 531 -0.29166666668837626 
371 532 -0.6562500000506994 
371 533 -0.5000000000260452 
371 534 -0.35416666670364716 
371 535 -0.5892857147207455 
371 536 -0.33333333373881513 
372 49 -0.5555555555596876 
372 653 -0.6250000000010931 
372 1007 -0.5238095238135418 
373 49 -0.6388888888919688 
373 1356 -0.5833333333371749 
373 2830 0.24999999997633615 
373 2892 0.24999999997633604 
374 49 -0.666666666686619 
374 69 -0.5393939394374394 
374 104 -0.6116838490390497 
374 508 -0.7512820513242653 
374 533 -0.48333333336359274 
374 687 -0.5916666668887283 
374 871 -0.6500000006217328 
374 902 -0.6458333337570792 
374 919 -0.7125000004978768 
374 1421 -0.6969696969815384 
374 1741 -0.5541666672998158 
374 2230 -0.7235294117813613 
374 2481 -0.350000000254153 
374 2713 -0.766666666668077 
374 2805 -0.5142857157409568 
375 49 -0.5959595961155717 
375 226 -0.6942815249641077 
375 371 -0.4772727278521991 
375 591 -0.7424242424260594 
375 1224 -0.7215909091000046 
375 1470 -0.6393939394235102 
375 1858 -0.7167832175449569 
375 2121 -0.40909090909697854 
375 2204 -0.564393939785381 
375 2559 -0.5727272728998645 
375 2921 -0.06818181866077322 
376 46 -0.6666666671734682 
376 49 -0.638888891600073 
376 121 -0.6730769231463305 
376 223 -0.6666666671836374 
376 239 -0.7222222222378378 
376 324 -0.6111111114687648 
376 425 -0.5833333338258395 
376 430 -0.3333333333500592 
376 660 -0.5462962963285882 
376 795 -0.5555555561149323 
376 875 -0.6626984127269064 
376 1022 -0.7525252527346991 
376 1148 -0.6132478632640055 
376 2040 -0.6805555556153327 
376 2916 -0.5000000000452574 
376 3215 -0.1111111111211931 
376 3314 -0.5000000000248941 
376 3799 0.0555555555380991 
377 8 -0.753333333356903 
377 49 -0.6666666666709684 
377 605 -0.08333333350771888 
377 607 -0.4444444445644069 
377 2071 -0.5000000008291536 
377 2371 -0.5000000002850711 
378 379 -0.7583333333373181 
378 380 -0.46666666667226475 
378 381 -0.6888888888910021 
378 382 -0.3000000000100629 
378 383 -0.46666666667263046 
379 378 -0.7583333333373181 
379 386 -0.7166666666899952 
379 552 -0.6958333334244724 
379 1181 -0.7333333335152408 
379 1194 -0.8660714286724658 
379 1533 -0.45833333333795534 
379 1541 -0.7083333333816391 
379 1757 -0.6458333357069943 
379 1798 -0.6875000000667573 
379 1838 0.04166666662356744 
379 1900 -0.7500000000138041 
379 2024 0.04166666662356722 
379 2067 0.04166666662356755 
379 2068 0.04166666662356744 
379 2069 0.04166666662356755 
379 2070 -0.45833333333457005 
379 2071 -0.770833333347885 
379 2072 0.041666666623566995 
379 2073 -0.8125000000192162 
379 2074 -0.43750000000250067 
379 2075 -0.6250000000010942 
379 2076 -0.8605769230792364 
379 2077 0.04166666662356722 
